2708 128
1 0.070825875 -0.15775427 0.467202 0.31944025 -0.002759187 -0.3772057 -0.065056026 0.05580415 0.049967088 0.13144606 0.042796127 0.010855284 -0.08379384 -0.31806347 -0.085615315 0.14130782 -0.17013241 0.15376332 -0.075290106 -0.070857175 -0.033083342 0.020672927 -0.021167068 -0.024728432 -0.10019734 0.14368041 -0.10329972 0.40779236 -0.187363 -0.17881964 -0.24193485 -0.18696146 -0.07204649 0.062333837 -0.11049808 -0.18899079 0.05700677 -0.22082621 0.09726201 -0.006369584 -0.34862727 0.09608836 -0.4434864 0.032776784 0.014219333 0.19708347 -0.14871319 -0.01639568 -0.06133778 -0.09478983 0.13689633 0.027164252 0.050670803 0.22387338 0.20254414 0.1297463 0.26729608 0.059479974 -0.015924128 0.37000313 -0.33077726 -0.046947412 0.15705608 -0.150705 0.2324168 -0.089048035 0.054704573 0.088664904 0.24078201 -0.16770068 -0.15053006 -0.14961393 -0.26332858 -0.16532643 0.2935478 -0.49604732 0.062335905 0.3061913 -0.09310792 0.30444193 -0.21082589 -0.12837592 0.21231619 -0.03317776 0.4000963 0.39915752 0.21797521 -0.0042166146 0.3483476 -0.096136846 0.19150855 -0.23237525 0.16346489 0.15344451 0.32776082 -0.089264415 -0.034924477 -0.2274784 -0.067133434 0.12135635 -0.18458372 -0.09993423 -0.1261184 0.13331315 -0.13035154 -0.26783657 -0.11916097 0.2275866 0.22083998 -0.34910598 0.0012589605 -0.2713973 0.064630926 -0.024353381 -0.0022550193 0.11016233 0.040855058 -0.09037079 0.0020709482 -0.11707787 -0.084699556 -0.15780267 -0.016922789 0.3118962 -0.41884953 0.08765077 -0.22395183 0.12653804
634 0.0014552304 0.019081537 0.35624632 -0.024672173 0.093314 -0.23489252 0.1535111 0.11517314 0.06056284 0.39539286 -0.066762224 -0.09861486 0.13217333 -0.12151382 -0.027875887 -0.04773273 -0.06915387 0.2503709 -0.4085744 -0.06948204 -0.28994772 -0.015988259 0.040566627 -0.0861458 0.0821191 0.28038672 -0.37820926 0.50399566 -0.15680848 0.052277964 -0.39523458 0.014455447 0.1153602 -0.0004910899 -0.19866769 -0.025233377 0.3292489 -0.41017607 0.03826838 0.038367156 -0.2534862 -0.009240312 -0.36645076 -0.3056516 0.098508276 0.15696166 0.056336112 -0.14484552 -0.007660403 -0.21131548 0.11824771 -0.025734212 0.008983659 0.37531647 0.07344911 0.045661736 0.54627836 -0.018200783 -0.2592366 0.058652937 0.0070871245 -0.29602385 0.29641968 -0.16377619 0.26591802 -0.2596978 -0.1058596 -0.0043452117 0.2729315 -0.26472396 -0.16045976 -0.25766137 -0.09801431 -0.4334898 0.20051454 -0.32632777 -0.07260245 0.25250345 0.061620194 0.24612729 -0.34567526 -0.0034022578 0.31589735 0.22267541 0.17558615 0.44054565 0.24822143 -0.23238283 0.2237351 -0.17900614 0.073525324 -0.1309947 0.18269432 0.25760245 -0.06878527 -0.23594888 -0.042929955 -0.1125387 -0.24878532 0.0847658 -0.21666731 -0.019829592 -0.15181386 0.25087845 0.1604292 -0.33118448 -0.08607804 0.16435729 0.1484323 -0.2521633 0.13332936 -0.35103548 0.013712752 0.24605633 -0.06746593 0.26205215 0.105429254 -0.034639943 0.063421905 -0.060703035 -0.39770523 0.013328598 0.027596824 0.25753465 -0.2973304 -0.048162665 0.025619585 0.09248164
70 0.07922811 -0.33123362 0.0636434 0.2596461 0.20318629 -0.15959513 -0.028343745 0.04441972 0.11809547 0.042736642 -0.06362726 0.25476697 -0.08710044 0.055529993 0.10532718 -0.08358284 -0.18927757 0.11732862 -0.021395424 0.15742002 0.24365334 -0.037593033 0.029294075 -0.039904084 -0.33985257 0.2929653 -0.15166633 0.2774923 -0.26683295 -0.101223506 -0.11703608 0.04021908 -0.1220018 -0.13333273 -0.12735315 0.116796665 0.41249567 0.045157593 0.16419809 -0.021894107 -0.13051471 -0.016617717 -0.10172283 0.0021306537 0.07302644 0.18862048 0.13313572 -0.30774805 0.049233016 -0.2225583 0.4430083 -0.1275024 0.44352907 0.042963784 -0.1093269 -0.07507243 0.39363414 0.048357658 -0.47777712 0.1096498 0.107687876 -0.011452335 0.25239366 -0.10771412 0.20684937 0.19702724 -0.08957401 0.0797656 -0.0026828893 -0.5482934 0.06645828 -0.28626835 -0.17176451 -0.19754338 0.3276721 -0.084070764 -0.14104564 0.19626975 -0.41030526 0.18313438 -0.03827019 -0.23518132 0.24804914 0.39045113 -0.042085115 0.39061978 0.22369252 0.23141834 0.38000813 -0.13964248 -0.06334673 -0.060324766 -0.28704694 -0.08843158 0.4633965 0.18097228 -0.23021457 -0.18747857 0.18071479 -0.15743084 -0.18515006 0.13597615 -0.05605662 0.20441918 0.030280974 0.047711123 0.074551806 -0.20698713 0.5890899 -0.42708334 0.07426129 -0.0008099123 -0.36167395 -0.06642594 -0.25973967 0.34524575 0.12573507 -0.017849127 0.2980882 0.18179053 -0.007599305 -0.021712737 0.4646694 0.27176893 -0.30171332 -0.19133952 -0.09152368 -0.047374144
308 0.044859357 -0.09851781 0.2791463 -0.021822294 -0.16338395 -0.05265645 -0.36649668 -0.12735021 0.4368643 0.3275774 -0.11354822 -0.19081861 0.2525447 -0.5056828 0.32527584 0.039245427 -0.24999492 -0.06335319 -0.05809198 0.34953958 0.058469635 0.19817118 -0.27716553 0.07857974 -0.37710115 0.3468877 -0.21335357 0.09768483 -0.08878321 -0.019939262 -0.036210284 -0.14010985 -0.2967245 0.2955964 0.04303615 -0.040260334 0.108755104 -0.2831533 -0.028339768 0.28392467 -0.24425486 -0.21956675 -0.14661697 -0.041124057 -0.20364161 0.2515949 0.432852 0.0005353373 -0.38885802 0.23164563 -0.005896497 -0.12053729 0.40382168 0.10798496 -0.13674125 -0.11262703 0.3662435 0.021607514 -0.16821547 0.1380702 -0.094302826 0.49375132 0.190163 -0.1385718 0.05994938 0.030093392 0.20736283 -0.27374753 0.15755478 -0.22371349 0.11446901 -0.02417222 -0.13363416 -0.1097932 0.25482354 -0.6169087 -0.21920672 0.17437673 0.083435625 0.3404072 -0.1251384 -0.32836467 0.26183397 0.13956903 -0.08535952 -0.13689838 0.22230476 -0.29501706 0.0021892115 -0.005343519 -0.0928758 -0.13239442 0.22680892 0.19521631 0.12448764 0.14053501 -0.018252684 -0.31816348 0.026107576 -0.00035095267 -0.096621536 -0.21036978 0.042386003 0.066134974 -0.009719601 -0.018011227 -0.1371988 0.1889788 0.5642068 -0.17232315 -0.19742973 -0.33180657 0.31639203 -0.3504455 -0.3757941 0.10036282 -0.10476546 0.16086689 0.09754129 0.06645179 0.122741915 0.058764935 -0.29494107 0.17078717 -0.48034924 0.017369643 -0.13061096 0.05272459
1360 0.20538105 -0.124595314 0.13078555 0.042916834 -0.04133121 -0.15768427 -0.43946826 -0.19993073 -0.16260546 0.15753943 0.05112569 0.0740337 0.18481886 -0.18665335 0.48594168 -0.021861507 -0.13123968 -0.167427 -0.09246206 0.43892035 -0.2460013 0.12639754 -0.038085356 -0.010673088 -0.36402053 0.11111998 0.034642432 0.08462486 0.092819005 -0.12837371 0.05013492 -0.21596487 -0.12603143 0.13388304 -0.18242125 0.3181071 0.25159648 -0.42688274 -0.25609192 -0.2154529 -0.2921008 0.18477567 -0.38677347 0.1272239 -0.082764745 -0.08218459 -0.017249059 -0.014897953 0.055564493 0.14156172 0.13835105 -0.41352454 0.13153352 -0.011713493 -0.23354004 -0.37956893 -0.108597964 -0.31576875 -0.12435116 0.31092244 -0.27845466 0.20254537 -0.06110745 -0.1307646 -0.17232832 0.101577215 -0.026678052 -0.05931401 0.006246319 -0.4718702 -0.3446042 -0.4063588 -0.28557655 -0.26429704 0.19780545 0.35880837 -0.093638666 -0.09030259 0.03232845 0.11005962 -0.13064599 -0.37360886 0.044899657 0.12040588 0.054077767 0.07984385 0.07355468 -0.17564136 0.64357024 -0.0966248 -0.24486211 0.09698224 -0.1224993 0.54437333 0.3400431 -0.03404855 0.084428824 -0.15695903 0.27189413 -0.06866631 0.030449526 -0.16960643 -0.28248945 0.04311177 0.0608533 -0.024427641 0.2668636 -0.3502769 0.025232257 -0.51251996 -0.016214872 -0.055600375 0.15282406 -0.11390675 -0.03447587 -0.22543213 0.17701975 0.22659433 0.2289324 0.13101503 -0.27439192 -0.23445794 -0.12858486 0.042850472 -0.5416554 -0.121600665 0.23677272 0.026773304
1703 0.22375296 -0.16820502 0.38208136 -0.16365594 0.24911872 -0.36005032 0.15740766 0.040285606 0.15182287 -0.014550578 -0.057662304 -0.110799275 0.085226335 -0.26539913 0.088126294 -0.18870226 0.14762975 0.13639325 -0.42982507 -0.09436583 -0.15068883 -0.29902387 0.13754536 -0.104314625 -0.2120139 0.33120427 0.21575108 0.20723134 -0.21443057 -0.5790441 0.084891826 -0.0449282 -0.1770847 -0.058913168 0.083010696 -0.024246257 0.06454821 -0.03179558 -0.17965452 0.06072448 -0.15163817 0.17305851 -0.2819133 0.07105715 0.02477143 0.21898954 0.15251498 -0.12732926 0.1449553 -0.21627714 0.2500302 -0.15835533 -0.079284005 0.15782025 0.30920708 -0.04403726 0.4814402 -0.10600189 0.028609354 0.29726756 0.015764827 0.17961113 0.17008878 -0.2555557 0.42101714 -0.21478958 -0.039212264 -0.3416886 0.19253366 -0.351842 -0.18361078 -0.06901233 -0.3042384 -0.2867043 -0.010806442 -0.30076954 0.23316517 0.36658165 0.1237296 0.16973817 -0.2281801 0.01796192 0.19639961 0.22105941 0.26692283 0.16264707 0.07642257 0.22739899 0.016405856 -0.16421798 0.052284013 0.08961773 0.087727234 -0.1116603 0.09338992 -0.47434646 -0.33151183 -0.29291573 0.059617456 -0.17100357 -0.08225155 -0.14548805 -0.1427583 0.28487253 -0.14714998 -0.2803134 -0.08826663 -0.031063847 0.4986002 -0.61492467 0.07593813 -0.22302113 0.07515232 0.30014685 -0.051967565 0.070585616 0.14766435 -0.34073234 0.36286548 0.33041263 -0.14873363 0.15395233 -0.041155126 0.18182242 -0.48902512 0.06920436 -0.21343666 0.13558342
23 0.23240517 -0.07795633 0.28246623 -0.20623226 0.14368802 -0.20746176 -0.111225314 -0.044750486 -0.022888243 -0.13533354 -0.08709407 -0.22456841 0.25266543 -0.46262848 0.089772716 -0.087469265 -0.043806307 0.18791215 -0.24628296 0.1424969 -0.022693422 -0.26952037 0.108711354 -0.31566405 -0.45738837 0.5395904 0.10074403 0.33861232 -0.2465696 -0.2808402 -0.09620498 -0.07994178 0.05358193 0.3467957 -0.21490641 0.1175364 -0.052881263 0.05480141 0.022810567 -0.23969667 -0.14420818 0.048204903 -0.2174703 0.03940449 -0.0051318007 0.19773112 0.0034288808 -0.17135437 -0.13185811 -0.29343343 0.00051488675 0.12436643 0.2218688 0.19792527 0.2667895 0.0053871404 0.3239516 0.05819984 -0.07140965 0.15645038 -0.088893056 -0.19551112 0.40979338 -0.27057642 0.592332 -0.0631148 -0.1437364 -0.23845735 0.17780747 -0.091882505 -0.19708897 -0.31094885 -0.3302827 -0.22966304 0.112730846 -0.20212047 -0.00012899085 0.07315777 -0.11106233 0.2318435 -0.38656768 0.07442516 0.16105226 0.45566344 0.65214115 0.3396225 0.027662268 -0.024516337 -0.15794393 -0.18991351 0.25869974 -0.20391792 -0.008556912 -0.15741311 0.11213246 -0.2717421 -0.11851379 -0.20343426 0.09105896 -0.2315237 0.093891956 -0.049087133 -0.035348017 0.287494 0.108593225 -0.118389666 -0.35038808 -0.11111745 0.31868863 -0.5834999 -0.22300014 -0.28669295 0.044946764 0.13515282 -0.1765525 0.12500389 0.26874858 -0.41933283 0.39232916 0.19922161 -0.23112541 0.0036392023 -0.11372766 0.20283926 -0.23928349 -0.10446182 -0.16481976 0.15063773
1705 0.14451863 -0.54296887 0.3373232 -0.20355268 0.033083532 -0.15237278 -0.1698718 -0.051319126 -0.1469267 -0.10326207 -0.07418754 -0.14350784 0.12500106 -0.5358626 -0.20681123 0.1440467 -0.108409174 0.08623406 -0.50690615 0.114936285 -0.020032583 -0.26600194 -0.18985945 -0.71074307 -0.3803031 0.35718113 0.11123979 0.05235921 -0.060627174 -0.1867204 -0.23366828 0.036913723 0.010323641 0.3052378 -0.037382312 0.13918972 -0.04045119 0.032152515 0.2064726 -0.08974803 -0.3103717 -0.08265128 -0.12961738 0.05569221 0.17065945 -0.0636878 0.040847264 -0.36237836 0.011810133 -0.119919926 0.113034695 0.2259652 0.20582528 0.17196669 0.13705249 0.11039509 0.37514758 0.009741657 -0.2068949 0.17699137 -0.036723662 0.026866449 0.43991798 -0.17158383 0.5634239 -0.006790465 -0.011908923 -0.028196134 0.047322426 -0.35900348 -0.0065498357 -0.2734643 -0.15819089 -0.43213087 -0.023982732 -0.15363511 -0.0498233 0.36266744 -0.24179627 0.09800161 -0.2807572 -0.012346842 0.1694762 0.20388879 0.42239845 0.4279508 0.20461471 0.16533844 0.102399476 -0.061425045 0.016785912 -0.2516783 0.014776026 0.24416967 0.114328906 -0.34131762 -0.131791 -0.38543814 0.13193594 -0.42034608 0.026348542 -0.19160432 0.03334076 0.25114176 0.2551735 -0.42614573 0.030602127 -0.18580556 0.14765541 -0.2616978 -0.02120499 -0.22881411 -0.22724524 0.06644124 -0.043263316 0.26814073 0.1787873 -0.2388901 0.27291045 0.18026668 0.14332458 0.068393566 -0.135204 0.08828864 -0.13602573 -0.30022606 -0.3798893 0.27164996
110 0.16815637 -0.038749136 0.18070956 -0.12490796 -0.034467697 0.26492265 -0.28504732 -0.20996474 0.60136706 0.23460189 -0.36325058 0.027379835 0.38052222 -0.44792178 0.3042068 0.13462964 -0.2761536 0.055081896 -0.18548882 0.30977333 0.20221235 0.036469072 -0.16462694 -0.04919759 -0.41410393 0.22291888 -0.33829087 0.1664586 -0.28916854 -0.16132112 0.005059599 -0.32349378 -0.2696218 0.029052638 -0.14371203 0.109230064 -0.0446226 -0.2014116 -0.028964603 0.15782608 -0.32997775 -0.34310246 -0.06655619 -0.30333582 -0.0881384 0.09128623 0.27286193 -0.32513303 -0.008650781 0.37214604 -0.042999655 0.085229956 0.067454614 -0.13885048 -0.17419691 0.019284729 0.22466922 0.09853892 -0.50016886 0.13092399 0.07866995 0.34676358 0.045949347 -0.3273677 -0.107211225 -0.073649965 0.2904354 0.06652189 0.080079034 -0.06725447 -0.30845353 -0.23434588 -0.35463217 -0.340048 0.4416604 -0.48850524 -0.10247868 0.21290137 0.19972354 0.3406726 0.04961227 -0.18039137 0.04054762 0.12290562 -0.002358218 -0.34107012 -0.049602356 -0.41142476 0.08387802 -0.03299717 -0.2734733 -0.2831599 -0.12168976 0.18158656 0.4339304 -0.067077436 -0.0105946725 -0.29651147 -0.036962666 -0.07708024 -0.35630247 -0.063174516 -0.109899536 0.15649858 -0.21054754 -0.19252707 0.022781465 0.1563808 0.43862718 -0.16634403 -0.14424175 -0.12258817 0.18043129 -0.108990066 -0.22561924 0.06430208 -0.31489918 0.09458091 -0.01891221 -0.09352928 -0.06618915 -0.13753308 -0.39190105 0.30864573 -0.57992494 -0.11923564 -0.23287727 0.050092086
1988 0.18197015 -0.06329238 0.4435626 0.17147742 0.28296325 -0.13154653 -0.045523528 -0.014694117 0.14501312 0.0322741 -0.29251206 -0.18972182 0.13186672 -0.072435394 0.2851706 0.26168817 -0.349338 0.12910719 -0.36041328 0.0694147 -0.112450354 -0.09189505 -0.083477505 -0.22948457 -0.33930838 0.19113106 -0.24408498 0.124412 0.05660399 -0.28746915 -0.055522684 0.09531807 -0.10641023 0.09295484 -0.34430453 0.09065841 0.5603472 -0.005485792 0.5256432 -0.08891089 -0.56740624 0.03947851 -0.02068456 0.309846 0.24566798 0.25158405 -0.23592827 0.015528984 -0.18957192 -0.003725131 0.11394126 0.0035278553 -0.0072497767 0.33136806 -0.40697804 0.08026127 0.69581634 -0.12324551 -0.17509255 0.15384392 -0.059599854 -0.23603658 0.4692244 -0.20053582 0.036975242 0.08759593 0.30878988 -0.33021894 0.03428311 -0.42789692 -0.14961082 -0.24203974 0.19558984 -0.22547373 0.065867014 0.15228987 -0.06549694 0.41801003 -0.1806328 -0.06749661 -0.20424956 0.15003742 -0.35687184 0.19784531 0.0030864202 0.20006265 0.15781528 0.1690075 0.1828 -0.097763255 -0.26997402 -0.049374666 -0.13393544 0.24001984 0.16757527 -0.14201765 -0.12886022 -0.46159065 0.43210015 -0.11976487 -0.20358792 -0.05534726 -0.007838274 0.21738985 -0.08602203 -0.42085624 -0.00052333396 -0.17920187 0.2720514 -0.46180102 0.39883402 -0.05946242 0.024986753 -0.046007447 -0.15993798 -0.04329107 0.04062494 -0.31641036 0.39897957 0.29709223 0.0827741 -0.29699862 0.08335042 0.4512529 -0.26456535 -0.21796139 -0.034146126 -0.0855922
605 0.05742198 0.04404918 -0.041931123 0.09494877 0.102437906 -0.11509361 0.14988784 -0.03245853 0.18114899 -0.26140893 0.06711273 0.08617703 -0.13037074 -0.08341411 0.098110095 0.07335093 -0.0027595772 0.07426232 -0.0897665 0.39056203 0.23073523 0.20203476 -0.10250784 -0.14875261 -0.19177595 0.32002637 -0.25269893 0.44128686 -0.384507 -0.14961798 -0.03935269 -0.064405315 -0.24461317 -0.24750066 -0.34518805 -0.016900372 0.6974668 0.02653215 0.03205349 -0.12586817 -0.049543414 -0.056921136 0.045410622 0.07493103 0.20577909 0.10251881 -0.045525867 -0.12079045 0.024914753 -0.0316292 0.4395393 -0.16992898 0.21350498 0.09216844 0.17388923 0.051466886 0.3921872 0.35956156 -0.6139722 0.27571964 0.04661924 -0.119214915 0.24215674 -0.05192003 0.05535338 -0.09102738 -0.051852852 0.032393105 0.24388875 -0.440807 0.02001041 -0.28490227 -0.13647835 -0.21150422 0.029836407 -0.07094741 -0.28738037 0.0026401805 -0.6027886 0.10614884 -0.07299358 -0.13979724 0.49509415 0.28452462 0.03464391 0.2503411 0.2641246 0.3040289 0.5167783 -0.024317257 -0.12063248 -0.01902097 -0.29353496 -0.12660144 0.15340175 0.22482508 -0.13824554 -0.29843608 0.3702312 -0.16743557 -0.3021859 0.2010062 0.071842305 0.10344243 -0.06797697 0.1150064 0.158115 -0.53922975 0.5834964 -0.40437236 0.38047692 -0.1727438 -0.016039852 0.002725867 -0.26835337 0.23810382 0.25941062 -0.18799329 0.24648894 -0.01487639 -0.09777788 0.22869697 0.17565726 0.1820892 -0.28130585 -0.2025928 -0.37010577 0.16620602
1916 -0.013407167 -0.124316245 0.061145633 0.14933151 -0.15423578 -0.21101837 -0.038278837 -0.09913284 0.041764446 -0.059063848 0.2627171 0.06515483 -0.24356797 -0.14834125 0.043483354 -0.09797214 -0.18447085 0.2542771 -0.15073907 0.25047857 0.4193622 -0.028307933 -0.17143935 -0.15497786 -0.2437344 0.5103678 -0.3463558 0.58264124 -0.37081826 -0.11924162 -0.10627534 -0.21591876 0.06198681 -0.2906388 -0.14719354 -0.07493196 0.5623848 0.07761099 0.17980067 -0.032644995 0.042173952 0.04077692 -0.09481867 -0.025400868 0.30659106 -0.17142649 0.36969113 -0.1930177 0.14203317 -0.09891801 0.26919705 -0.31486723 0.1815524 0.029565692 0.2137484 0.24744315 0.42225075 0.14784847 -0.44824615 0.19522761 0.039318122 -0.20776488 0.35383952 -0.2488061 0.078893326 0.13654734 -0.07395151 0.0342652 0.38448146 -0.48952556 0.14373803 -0.092915796 -0.0987887 -0.033149544 0.117628306 -0.29566777 -0.29017892 0.28461444 -0.36741552 0.113629326 -0.066302806 -0.115058914 0.36394435 0.35407957 0.18044572 0.07373805 0.16031851 0.29308534 0.41485888 0.22246844 -0.12881185 0.03731687 -0.5044802 -0.054453004 0.5939096 0.14439738 -0.48065853 -0.30657002 0.20059077 -0.08422191 -0.0913114 0.18478245 -0.12911656 -0.06475058 -0.0388934 0.001330726 0.053270068 -0.40924275 0.4049072 -0.34541896 0.31043077 -0.22797062 -0.09547907 -0.14119378 -0.3553464 0.39123484 0.114087485 0.14186011 0.09622397 -0.054470982 -0.16826774 -0.25665283 0.2607516 0.18516509 -0.29303178 -0.27810097 -0.23287377 0.02381703
992 0.13207336 -0.023621857 0.22040007 0.036748007 0.014582563 -0.14918116 -0.34529197 -0.130853 0.42159635 0.35488206 -0.40185997 -0.05291962 0.37244838 -0.5808838 0.5332687 -0.105505675 -0.20296036 -0.09812757 -0.057591602 0.2632093 0.11764451 0.18125352 -0.03927122 0.34003454 -0.24860884 0.31473917 -0.596859 0.1260733 -0.07877466 0.042773936 -0.10985341 -0.09316357 -0.4291151 0.33326107 0.1655777 0.20636831 -0.12984116 -0.30791292 0.033798765 0.30789554 -0.14696012 -0.12231939 -0.14538173 -0.13296433 -0.16401923 0.22898535 0.3425109 -0.04748347 -0.31673905 0.26320055 0.07920882 -0.1640253 0.25488102 0.21658514 0.049135856 -0.24092591 0.44438913 0.11630512 0.058312062 0.30648604 -0.19741316 0.59063596 0.31016183 -0.106584355 0.3485054 -0.21104068 0.23019633 -0.36419296 0.08823143 -0.10380833 -0.03323691 -0.11617531 -0.05430909 -0.2575046 0.25330532 -0.5857055 -0.29775625 0.100535035 -0.06070638 0.30343866 -0.05026934 -0.46140176 0.2477735 0.110558525 -0.09426251 -0.14413118 0.2920346 -0.22731268 0.22406946 0.07751181 -0.10050954 -0.0834837 0.19151251 0.15365022 0.11824694 0.12928168 -0.08357764 -0.20116472 -0.12517521 -0.14649698 -0.039681476 -0.18342982 0.087498024 -0.031931598 -0.0348358 0.044309262 -0.036841664 -0.056723543 0.7551391 -0.18820626 -0.2431249 -0.43736327 0.22892058 -0.14462444 -0.45087188 0.14416909 0.0284757 0.07030535 -0.05551944 -0.11029052 0.24574833 0.019842153 -0.31162614 0.23774448 -0.3090058 -0.064034484 0.0004184686 0.30899128
182 0.25421208 -0.12601341 0.023596052 0.03462351 -0.14110698 -0.012233113 -0.17464967 -0.25886983 -0.093572736 -0.23724541 0.04106104 -0.31327614 0.47334227 -0.23831952 0.35750848 -0.07783977 -0.4656243 -0.12217127 -0.030737372 0.1527708 -0.70564747 -0.13461824 -0.2916148 -0.1677703 -0.4104114 0.046195336 -0.03219807 0.19812205 0.27489713 -0.13980074 0.050031733 0.08510627 -0.2819401 0.3670899 -0.40567005 0.27552968 0.26393908 -0.36413172 -0.3208815 -0.061165255 0.14759512 -0.018256241 -0.3221857 0.010927835 -0.14174317 -0.1561133 -0.10387569 0.07428442 -0.003477905 0.22831601 0.2760473 -0.25587228 0.23464592 -0.0017771047 -0.10625379 -0.22864908 0.07603824 -0.2686852 -0.44849128 0.47373438 0.070774004 0.16867593 0.062766775 -0.3208998 0.39085382 0.13865112 0.025909133 -0.06633235 -0.34709835 -0.7565781 -0.06753495 -0.19123377 -0.109597325 -0.2756722 0.17733793 0.04283055 0.017118221 -0.10568696 0.102536134 0.31776962 0.14015913 -0.4183496 -0.022902897 0.27518463 0.2470553 -0.057346784 0.3503162 -0.06733625 0.60147274 -0.45162833 0.07878477 0.06888564 -0.06251569 0.38056523 0.37262332 0.15901294 -0.12234294 -0.014515708 0.3368207 0.27853632 -0.05791513 -0.15852743 -0.10551931 0.12097983 0.010769036 -0.07371855 0.30042025 -0.4212836 0.18452416 -0.49193934 0.07129554 -0.053005707 0.28032005 -0.054905687 0.12950994 -0.17080833 0.22635941 0.37011778 0.24474779 -0.1208335 0.012609124 -0.20971344 0.0515252 0.13549379 -0.08196766 0.18954338 -0.14933889 -0.18875821
384 0.19833899 -0.12583993 0.35561392 -0.17448662 0.0629181 -0.021191359 -0.07033299 0.0016823242 0.005485111 0.009209958 -0.25158784 0.06606446 0.3563438 -0.6225501 -0.025334848 -0.09014725 0.15155779 0.069937766 -0.3197302 0.25823385 0.11217578 -0.17644376 0.11006519 -0.54805976 -0.5663475 0.6319509 -0.02702871 0.1611176 -0.14907894 -0.52980375 -0.10291608 0.11812972 -0.09303327 0.32919952 -0.20089364 0.23877163 0.3340048 -0.07725862 0.16054305 -0.013698357 -0.37421966 0.0843578 -0.14397635 0.16234456 0.03885621 -0.13084173 0.17726068 -0.44027227 -0.09173384 -0.15591733 0.0958383 0.13365094 -0.047643796 0.21766043 0.12126829 0.13359202 0.43703616 -0.27094066 -0.19166277 0.20439945 -0.04421561 -0.09272395 0.4015622 0.037142854 0.4795994 -0.05793104 0.018747214 0.0920263 0.3194328 -0.19971777 -0.24619862 -0.34876192 -0.2077599 -0.41005802 0.15700424 -0.17334472 0.107603125 0.39743128 -0.216828 0.121743925 -0.27245474 -0.011653773 0.35220283 0.20506544 0.2245284 0.3352837 0.15479125 -0.07563076 -0.17641848 -0.24288157 0.09953109 -0.119416095 0.18287286 0.20433375 0.24420345 -0.38744968 -0.40015262 -0.23639545 0.2888161 -0.38969812 -0.040229965 -0.10696364 -0.00505449 0.056194488 0.28547758 -0.32824233 -0.06390368 -0.21506228 0.1877121 -0.18558554 0.144514 -0.1269254 -0.36956778 -0.024573082 0.17313397 0.25451416 0.24043751 -0.44349173 0.25772247 0.21088575 -0.030756623 -0.043766968 -0.064714596 0.1684573 -0.25854263 0.018111618 -0.24094453 0.15724742
1774 -0.010289578 0.13515486 0.024898913 0.13694635 0.03583302 0.2728368 -0.17622653 -0.09938018 0.43677106 0.2596334 0.03386899 -0.049544025 0.17281598 -0.23324387 0.31292355 0.3088351 -0.30765092 -0.48044133 -0.26196522 -0.039789077 0.13005932 0.17121574 0.10604241 -0.06505614 -0.5049664 0.26074073 -0.26753724 0.011051315 -0.22417356 -0.15863079 0.08023459 -0.42449194 -0.27482483 0.2847322 0.14559215 0.43562096 0.28089288 -0.07022747 -0.013314037 0.08340379 -0.23372118 -0.3491525 -0.24994138 -0.14909035 -0.21425986 0.21027872 -0.20571356 -0.27871314 -0.22015277 0.19443361 -0.09069455 -0.026585892 0.26234785 -0.08047437 -0.1852781 0.040056694 0.39266515 -0.027150817 -0.23169187 -0.25581366 -0.06926667 0.5538719 0.12101588 0.1835345 0.17355001 -0.014209278 0.25537357 -0.025614753 0.23548892 -0.46308416 -0.03365802 0.07496709 -0.31783873 -0.14464122 0.41675824 -0.59712625 -0.10985219 -0.04986313 -0.143529 0.35249686 -0.002925625 -0.2927289 -0.07358797 0.36942604 -0.04741186 -0.04218607 -0.0750944 -0.043922044 0.2451638 -0.14527877 0.036180258 -0.21985078 -0.13723709 0.23467055 0.42463294 -0.20897412 0.046272453 -0.3595501 -0.068760656 0.1762987 -0.08957526 -0.016820978 -0.20086141 0.035356797 -0.15437452 0.003529228 -0.049283657 0.3176193 0.26215762 -0.2560947 -0.10714497 -0.23115198 0.32167867 -0.3612712 -0.21892886 0.12429817 0.05148052 0.2591817 0.0069747935 -0.00038232704 -0.0024759641 0.053517338 -0.5376302 0.20563795 -0.5253142 -0.36231786 -0.14745983 -0.12514842
40 0.27071497 -0.17812659 0.11244907 -0.4146909 0.31418288 -0.22462441 0.008123153 -0.1031087 0.15369132 -0.06902773 -0.10166974 -0.2400504 0.26071545 -0.5142749 -0.06433348 -0.20466305 -0.06835453 0.113659084 -0.12646028 0.09106201 0.16834489 -0.38441655 0.07012696 -0.32262942 -0.5562276 0.54543406 0.15503387 0.15659599 -0.06732191 -0.17476767 -0.056535263 -0.055687238 0.09972051 0.16587463 -0.084284194 0.16340247 -0.02919214 0.17650214 -0.05402979 -0.15923072 -0.06105079 -0.057302278 -0.17526308 0.09266858 0.1671305 0.20013219 -0.03980332 -0.06344611 -0.26529062 -0.3272693 -0.05349821 0.065928966 0.1494779 0.1426345 0.46303096 0.0874609 0.39002484 0.06475734 -0.10909173 0.20359837 -0.042809386 -0.13662378 0.29807845 -0.21646214 0.40596423 -0.207763 -0.11551907 -0.30990475 0.20424834 -0.19829537 -0.11399919 -0.27110776 -0.34594572 -0.2879673 0.026116325 -0.2647434 -0.16410673 0.26442724 -0.07976358 0.43287843 -0.33056748 -0.0060922657 0.29195726 0.45683086 0.64399034 0.2907909 0.053223345 -0.14930463 -0.10623028 -0.16783397 0.14276123 -0.28619248 -0.0018984787 -0.009197801 0.14203241 -0.31528136 -0.18773542 -0.16818425 0.28074518 -0.2934982 -0.14666772 -0.0530639 0.006254421 0.26658562 0.0601825 -0.2337047 -0.31830043 -0.16702466 0.4874687 -0.38900733 -0.23799457 -0.26381296 -0.16556336 0.32469407 0.09597331 0.2905721 0.4650997 -0.24633288 0.43483973 0.06489394 -0.2022275 -0.10509234 0.045699 0.27676904 -0.20795576 -0.1866042 -0.13146019 0.11831865
1702 0.09946329 -0.028505143 0.40816557 0.4908098 0.21083136 -0.34227476 0.08778336 0.030295802 -0.21854757 0.15905258 0.20465948 0.0389754 -0.18414323 -0.35713306 0.14156997 0.07776294 -0.33621675 0.19812614 -0.078302026 0.057620402 0.07762339 0.109270275 -0.1120537 -0.39428338 -0.24948545 -0.040067993 -0.22587685 0.4464043 0.042074744 -0.38027754 -0.07068839 -0.38896075 -0.07906577 0.23946008 -0.2749442 0.1283564 0.40841922 0.20281088 0.21393798 0.4446944 -0.3114385 -0.1908628 -0.04851735 -0.36650229 -0.07142534 -0.16580208 -0.44792756 0.17143975 -0.05131903 0.22106925 -0.3596997 -0.13932876 -0.042784404 0.012224095 -0.007755957 -0.010325466 -0.106908165 -0.26805064 -0.01906863 0.28289354 0.20016623 -0.20932096 0.18958144 -0.22204442 0.41053933 0.125524 0.09455371 -0.28633106 -0.17382528 -0.5419268 -0.58753073 -0.22206576 -0.11887219 -0.27383786 0.5380171 -0.19939713 0.07480034 0.364977 0.14379402 0.48942035 -0.058096725 0.15239136 -0.005450101 0.060624164 -0.15950707 0.46734902 0.12811376 0.07061466 0.290242 0.013243724 -0.20716457 -0.15741278 -0.049125258 -0.08500453 -0.170219 -0.52197635 -0.040820897 -0.06694797 0.0660984 0.0064860596 -0.45566967 0.32497817 -0.42710036 0.21473995 -0.18421225 -0.51075006 0.07033584 0.31376144 0.42659593 -0.25471315 0.72538185 -0.0015310331 -0.011902443 -0.091117114 -0.18485057 -0.11230751 -0.3529796 0.09893591 0.3259061 -0.032937184 -0.08879804 -0.047770727 -0.1123268 0.4859827 -0.31353614 -0.28742647 -0.057526372 -0.17472944
2047 0.22871079 0.21501091 0.2050396 0.069865756 -0.009980376 0.2531762 -0.25208795 -0.13766257 0.30538523 0.06345412 -0.21585056 0.19890709 0.17898063 -0.49228612 0.24196541 0.15191217 -0.26823288 0.08993514 -0.110736854 0.14788975 0.019003455 0.12945367 -0.073295556 -0.28678206 -0.26695827 0.16077106 -0.28308004 0.33116254 -0.3842945 -0.022746474 0.13817798 -0.47609404 -0.07190993 0.025450509 -0.040740576 0.2628463 -0.02737 -0.19296925 0.059939813 -0.00069835654 -0.39753994 -0.42388356 -0.39897648 -0.08595144 0.22305225 0.055080507 0.037812807 -0.05055136 0.21297398 0.3217336 -0.025482714 0.11456177 0.23446661 -0.11994291 -0.21721 -0.007070434 0.18063746 0.024053164 -0.45172194 0.3366834 0.17320038 -0.013487039 0.14578028 -0.33505204 0.23290777 0.08195055 0.21547061 -0.01847173 0.07068271 -0.40524885 -0.2741281 -0.1047846 -0.47306058 -0.19303398 0.3458143 -0.4133876 0.004561274 -0.15279469 -0.15483437 0.37826514 -0.033539847 -0.31404194 -0.06350092 0.46296296 -0.15894152 -0.29356128 0.011430804 -0.1480206 -0.15779994 -0.21289918 -0.24091147 -0.18537214 -0.08202314 0.15584362 0.26181993 0.0780216 0.29208434 -0.36803514 0.003906497 0.081258625 -0.6467711 0.12339429 -0.07571438 0.31530356 -0.53231204 -0.33384442 0.04684026 0.4546931 0.31764027 -0.20305166 0.025880339 -0.01072307 0.15937896 -0.19838008 -0.1802229 0.08298972 -0.1697089 0.25929186 -0.06653055 0.094374634 -0.109733164 -0.3040234 -0.44259953 0.21669723 -0.32741547 -0.044815317 -0.051169395 0.11524405
1704 0.43237734 -0.16985296 -0.22963671 -0.34577248 0.23057097 -0.48299468 -0.12749064 -0.22147809 0.2713868 -0.11247371 0.03764841 -0.21006523 0.063605726 -0.46364015 0.31164998 -0.084465794 -0.06864478 -0.033299457 -0.27869132 0.20534515 0.09566908 -0.19811547 -0.0018537653 -0.34412754 -0.44989315 0.7056204 0.23706986 0.42188752 -0.0021587454 -0.2803641 -0.22595511 -0.27089262 -0.14733614 0.18073276 -0.20166418 -0.21211788 -0.057733864 0.48490423 0.042327374 -0.2106856 -0.00088475767 0.14106432 -0.19731548 0.08178636 0.13842908 0.4378994 -0.16441241 -0.12078977 -0.1409384 -0.24008283 -0.22690159 0.07329762 0.22051722 0.10578131 0.06268672 0.24647054 0.19314224 0.29646772 -0.18880858 -0.054563362 0.07988198 0.0076097534 0.35916433 -0.54922 0.58809274 -0.23767015 -0.34972048 -0.5407879 0.34332025 -0.11587061 -0.6034672 -0.12566894 -0.44470513 -0.3454461 0.40304315 -0.36005232 -0.078764185 0.46133178 -0.13815936 0.42410263 -0.30611628 0.07224285 0.2817433 0.4915381 0.83569545 0.29925632 -0.18136692 -0.25060505 0.038715817 -0.03658683 0.20300944 -0.19808652 0.15201503 -0.13859834 -0.04640109 -0.023937274 -0.061786257 -0.058980208 -0.09010315 -0.33787474 -0.2198046 -0.05460579 -0.058271065 0.39759794 0.1832033 -0.23538151 -0.3186551 -0.4267226 0.18682228 -0.28923544 -0.4049079 -0.3321132 -0.019094562 0.22236739 -0.073440164 0.0943376 0.36360037 -0.43072143 0.31746086 0.20300004 -0.45644882 -0.18349573 0.054306433 0.34164676 -0.11973257 -0.18109168 0.051854715 -0.045359608
1685 0.17433573 -0.112599194 0.0002508506 0.10415531 -0.018037755 -0.06403931 -0.013532114 -0.32736745 -0.124738105 -0.12512484 0.005164263 0.17801969 0.09377447 -0.22022772 0.18597746 -0.15918447 -0.13185543 0.046438534 -0.13529675 -0.009235392 -0.15006484 0.22161168 -0.10390387 -0.15485595 -0.35886136 0.09342197 0.040552717 0.47275984 -0.09059372 0.020033624 -0.09249308 -0.08119655 0.113494046 0.2182302 -0.22680806 0.18064119 -0.09076477 -0.2297954 -0.18059495 -0.09021892 0.066764444 0.092201695 -0.5274651 0.1646441 0.16917714 0.0033492555 -0.072487496 -0.29931322 -0.31014347 0.3757301 0.03728378 -0.31651637 0.34313676 -0.0061560343 -0.27545732 -0.042284425 0.011146861 -0.3262098 -0.20965162 0.5462637 -0.27026996 0.15575647 0.24065341 -0.22819476 -0.30402115 0.1227884 -0.19851036 -0.0122582335 -0.06237684 -0.45279154 -0.3791195 -0.053944264 -0.10274564 -0.25869498 0.20306017 0.18420321 -0.24222642 0.14764418 0.13130969 -0.044034023 0.14156012 -0.006336624 0.10462688 0.13063987 0.104663275 -0.17364961 0.34727904 -0.21920449 0.30901143 0.028805193 -0.17179757 0.34044483 -0.14581703 0.30605245 0.24042441 0.04576285 0.11939274 -0.26101202 0.048280448 -0.119105436 -0.18493406 -0.10752696 -0.21385181 0.026792664 0.055428877 -0.09127263 -0.1197359 -0.51427364 0.09839539 -0.20708412 -0.081003755 -0.36829922 0.32371533 -0.047519386 -0.016156897 -0.77655095 0.19582531 0.15875083 -0.05913394 0.08291563 -0.082479045 -0.24181752 -0.07653423 0.43352774 -0.49280262 -0.2864844 0.26478088 -0.14033088
103 0.18319754 0.02160965 0.357802 -0.15858829 -0.23171331 -0.042981133 -0.31361064 -0.290709 0.68967885 0.22676986 -0.15034154 -0.018415751 0.030571446 -0.48507404 0.32496652 0.13239454 -0.09324845 0.13047078 -0.12017719 0.16757251 0.041207727 0.046861995 -0.003955156 -0.15810762 -0.3699016 0.27228892 -0.4413311 0.20364897 -0.40623134 -0.23206736 0.00310869 -0.30215254 -0.21767454 0.02614692 0.07182814 0.092108235 0.062341534 -0.33170637 -0.09493141 0.14646442 -0.22565007 -0.43888554 -0.23238097 -0.27780056 -0.10884998 0.035241462 0.12800798 -0.25633886 -0.16009983 0.40173617 -0.16151549 -0.02688549 0.16494258 -0.09705383 -0.30431142 0.074329846 0.23788287 0.028876267 -0.5514573 0.20236884 0.05332259 0.29805905 0.37916917 -0.37796655 -0.08527087 0.074369885 0.49259713 0.05636494 0.16466017 -0.09265486 -0.15032206 -0.14296804 -0.50172704 -0.4461855 0.48976514 -0.65333664 -0.2192108 -0.015340991 0.04918888 0.4213085 0.014333545 -0.2506511 -0.14360121 0.26405522 -0.13653651 -0.12845406 -0.17007086 -0.3275314 0.024045454 -0.0061882203 -0.20610164 -0.14208113 -0.033181667 0.080913015 0.12859558 -0.16562633 -0.026308902 -0.3428412 0.06934669 -0.063309856 -0.36866215 0.051416717 -0.05453449 0.0783853 -0.34112233 -0.092577994 -0.12564664 0.2448057 0.439604 -0.24665955 -0.0870853 -0.21430916 0.316143 -0.29639393 -0.3382048 0.16454047 -0.044300023 0.11409275 0.04275877 -0.15718387 0.10464637 -0.15341733 -0.30564666 0.12355909 -0.4704682 -0.17083152 -0.21382995 0.1174907
1014 -0.16575617 0.07361888 0.31215855 -0.1541712 -0.010238497 -0.3203559 -0.16456825 -0.18439418 -0.2282585 -0.06273921 -0.061424475 -0.39881688 0.08939965 -0.20367904 0.4719548 -0.31945896 -0.06541132 -0.16571592 -0.11718959 0.17335722 -0.0706113 -0.08987147 -0.34985697 -0.24976726 -0.7240386 0.41005394 -0.07844666 -0.02001165 0.1392697 0.29807863 0.100186 0.004775213 -0.05421636 0.2875642 -0.02690194 -0.007207009 0.17668815 -0.11479407 0.071420856 -0.05861391 -0.035851598 -0.06700245 -0.08237022 -0.109558426 -0.049859107 -0.38687935 -0.41515383 -0.23584312 0.023381641 0.06666368 0.5538681 -0.12428329 0.19638725 0.40680614 -0.122201316 -0.29087037 0.46448177 -0.11140267 -0.13333279 0.46647465 0.07578759 0.3083896 0.021284537 -0.14791456 -0.08682003 0.3880414 0.0073245135 0.096416816 -0.15074533 -0.8936204 -0.09859087 0.03779028 -0.5299971 -0.39358875 0.05832903 -0.22206132 -0.47655883 -0.24401368 -0.0753343 0.47304678 0.036122207 -0.42073286 0.23600972 0.3574613 -0.13491324 -0.094820715 -0.15594928 0.009205703 0.78588015 -0.37700528 0.30036795 0.15864187 -0.003204262 0.17180379 -0.047035974 0.0059309355 -0.18277496 -0.46971154 0.042093605 0.12645705 0.033300757 -0.3486367 -0.24130273 0.037790548 0.19350943 -0.13809155 0.18832248 0.043226235 0.2700739 -0.31010714 0.20375013 0.039778117 -0.0667819 -0.37172645 -0.010795186 0.050348386 -0.28537586 0.15755765 0.32084197 0.040267322 0.21590489 0.20013191 0.06657599 0.58125806 -0.23666169 -0.22648983 0.17405212 0.28060976
307 0.21202712 -0.28740543 -0.0646897 0.49599603 -0.11356637 0.21422797 -0.33974954 -0.4241295 0.30024394 -0.09506907 0.10362857 0.2539102 0.28115568 -0.044021793 0.3649615 0.124913946 -0.046496492 -0.42796263 0.06699595 0.50009626 -0.12051516 0.056820832 -0.57173824 0.041423447 -0.47463432 0.23281273 -0.21717624 0.08603436 -0.16348664 0.03613419 -0.03281315 -0.23908989 -0.07119141 -0.015673844 0.15646678 0.22658953 0.35540226 -0.29687238 0.15216632 -0.14841104 -0.43697008 -0.1807548 -0.26601207 -0.21270293 0.3324382 -0.29904273 0.026435673 -0.30540052 0.26297197 0.1901423 -0.03368937 -0.036593042 0.38201806 0.14615254 -0.48576996 -0.14523847 0.4000236 -0.052782916 0.27200195 0.2748636 0.34721825 0.42120486 0.22818848 0.114493154 0.32980824 0.007459883 -0.5190735 0.008288927 0.2847661 -0.3102003 -0.3227239 -0.05148902 -0.12997694 -0.13976784 0.23020937 -0.1024511 0.3447552 0.10714252 -0.057967342 0.66322947 -0.009224661 -0.39569494 0.15494737 0.2572437 0.28915215 -0.32785374 0.14767227 -0.15110393 0.15257673 -0.14313652 0.014057735 -0.38219407 0.06002678 0.030912131 -0.22196876 0.03136567 -0.031830754 -0.38424477 0.14011794 0.49928454 -0.2474269 -0.16896392 0.06116561 -0.005391433 0.18469562 -0.3812888 -0.17805555 0.21326636 0.4818282 0.20170948 0.20262599 -0.4879973 0.5954987 -0.1231463 -0.23981902 0.18998085 0.23208617 0.24593747 -0.012260539 0.32643184 0.19494833 0.11941395 -0.15922199 0.28743455 -0.44243613 -0.07640011 -0.04358405 0.06774351
747 0.17764305 -0.039026298 0.35113767 0.27143413 0.29979655 -0.1024512 -0.14079493 -0.061222773 0.26618394 0.327852 -0.14940353 0.028538529 -0.17297216 -0.21654218 -0.14184827 0.17405239 -0.016264455 0.120290354 -0.32738686 0.35084158 -0.085654885 -0.0055572265 0.27137923 0.04497492 -0.43531543 0.32540804 -0.34540975 0.12867573 0.06911064 -0.03901275 0.2912413 0.14279246 0.03750248 0.26816756 -0.11438363 0.17904662 0.65192115 0.34349844 -0.07448003 -0.02298702 0.06564274 0.117739014 -0.37503186 -0.13347436 0.01858618 0.17195529 0.1948119 -0.3377255 0.2507992 -0.009491429 0.07837804 0.025385732 0.36072734 0.39299116 -0.03250859 -0.040714495 0.3125352 -0.015046442 -0.09550136 0.27255207 -0.21202175 -0.35687262 0.49705666 -0.19921716 0.19658056 -0.1751075 0.32757175 0.035838265 0.26479992 -0.4196238 -0.2498065 -0.29898295 0.008881728 -0.3889842 -0.076275714 0.055765066 0.084661715 0.32085148 0.04831606 -0.12856105 -0.051291194 -0.09466273 0.052417688 0.17290458 0.4565577 0.4152017 0.303472 0.03996612 0.0467727 0.10145525 -0.07238685 -0.20870326 -0.051490903 -0.38269585 0.31436986 -0.0440205 -0.015309682 -0.22490062 0.29995364 0.14918444 -0.21061543 0.18287045 0.112888284 0.14654316 -0.19858426 -0.14002757 -0.078564525 -0.21587792 0.3510229 -0.19909164 -0.020319536 -0.22578269 -0.09758161 0.043577824 -0.24910223 0.10402633 0.009425649 0.1179528 0.17270774 0.28251544 0.24804902 -0.37785932 0.16953254 0.23508397 -0.257332 -0.3258335 -0.21131103 -0.016081283
598 0.33901057 -0.24252747 0.08908945 0.1801586 0.108121045 -0.24612303 -0.1403912 0.05934074 0.4617306 -0.07873509 0.045170005 0.07032065 -0.36384934 -0.0020182705 0.38027775 0.096878566 -0.27388328 0.10923155 0.002888812 0.40584418 0.37187517 -0.013631906 -0.06024719 -0.41521224 -0.17849365 0.045314867 -0.27532706 0.5702229 -0.006174394 0.20661479 0.09892658 -0.25836417 0.059558336 -0.047911044 -0.06186941 -0.25782087 0.40926313 0.02506188 0.4824976 -0.21714005 0.36519396 0.16966692 -0.39487496 -0.18379277 0.6970908 -0.1896396 -0.016480766 -0.35830057 -0.06889439 -0.31940794 0.06297242 -0.3349103 0.27395934 0.39969823 0.4686081 -0.10963131 0.36392602 0.11361727 -0.18997021 0.21650732 0.23135945 -0.106606565 0.3077967 0.018080547 -0.23207131 -0.25030816 0.3585889 -0.0023498493 -0.17864984 -0.46147668 0.07372045 -0.20181967 -0.090883315 0.04612752 0.24970917 -0.27581996 -0.25583312 0.15305921 -0.15688841 0.262775 0.13523039 -0.16292886 0.15307978 0.3403442 0.40351292 0.2224483 0.2967094 -0.13853514 0.36436966 -0.13745008 -0.17808981 -0.124196835 -0.08743862 0.108199984 0.44313115 0.23544338 -0.34052995 -0.03489739 0.37622374 -0.31723517 0.016143695 -0.027067538 -0.49240935 0.27163184 -0.10892168 0.14991434 -0.03105684 -0.48508164 0.33837587 -0.49503106 0.25752497 -0.04112142 -0.26743966 -0.14927612 -0.12482461 0.071577005 0.28783715 -0.18480581 -0.052100312 0.17969492 -0.023659213 0.191366 -0.35160854 0.039258838 -0.3827731 0.03987578 -0.31020328 0.22677535
488 0.29676238 0.077365115 -0.06994624 -0.2067962 0.14675784 0.10808024 -0.30225152 -0.20759648 0.39087263 0.34442255 0.2864554 0.02860959 0.2747649 -0.28222972 0.1290573 0.18922459 -0.1455129 -0.4180327 -0.17632654 0.18561359 -0.027744109 0.15525714 -0.42993262 0.17108801 -0.5158089 0.22005686 -0.3904822 0.06060006 -0.19292648 -0.20615041 0.08748926 -0.36940184 -0.5534192 0.47545904 0.10312366 -0.10239535 0.17641142 -0.050592113 -0.094348714 -0.0022583352 -0.32416922 -0.1270626 -0.33111802 0.07004004 -0.01591857 0.33706686 0.11984243 -0.45599625 -0.26764402 0.34325963 0.050149623 -0.3191022 0.2901427 -0.009673571 -0.04505637 -0.2889525 0.40421557 -0.046764083 0.17439064 0.2672206 -0.07297595 0.42858365 -0.10797366 0.061285906 -0.024275087 -0.082801044 0.1285821 -0.034435317 0.20060664 -0.47866687 0.09413339 -0.1847138 -0.30969003 -0.096042834 0.3097006 -0.3142151 -0.55868745 0.22169712 -0.14766142 0.5609327 -0.21433507 -0.105794914 0.10049213 0.2913588 0.16733631 -0.06555202 0.35585093 -0.004973464 0.19721495 -0.18047374 -0.16583414 -0.043026444 0.2944682 0.22437651 0.10466426 0.050942205 -0.26593414 -0.34731862 0.23553985 0.21763797 -0.06624426 0.0029046135 -0.12712188 -0.2221969 0.088495746 -0.00766344 0.02177457 0.19988653 0.5495726 -0.11886393 0.006197994 -0.23544589 0.44353607 -0.24520099 -0.18532455 0.043500874 -0.13433787 0.40200457 0.3683188 -0.41731334 0.24956952 0.049821243 -0.46874183 0.1968682 -0.08312302 -0.30635542 0.08496073 0.002633908
1296 0.3484444 -0.1394861 0.69985074 0.13975415 0.33154538 0.013534822 0.10803658 0.15549953 0.17804168 0.04334705 -0.21368155 0.04360992 -0.17546442 -0.17357561 0.6962389 0.23574257 -0.4228096 0.16540976 -0.17707503 0.22491719 0.18003514 -0.5436397 -0.20758739 -0.07673638 -0.27606416 0.23069665 -0.15611193 0.028731393 0.21956065 -0.28797433 0.014937495 -0.20680426 -0.20829588 0.43658236 -0.46247452 -0.01690585 0.40584418 0.2732102 0.4805754 -0.024746165 -0.5476749 0.032891575 -0.17250937 0.31782833 -0.018999312 0.31381914 -0.06598219 0.14870988 -0.33969608 0.027609095 -0.095798 0.15697314 -0.057198092 0.23228115 -0.3785695 0.3373416 0.23681334 -0.09422834 -0.21205027 0.17166318 -0.05610901 -0.39190987 0.57578725 0.074244544 0.3573398 0.116276704 0.26255402 -0.19648223 0.0974828 -0.41135302 -0.0213731 -0.24053285 0.03737148 -0.58033174 0.1305956 -0.054169174 -0.024356658 0.27007288 -0.15021311 -0.011536253 -0.25972858 -0.14027996 -0.25340033 0.14722134 -0.31808302 0.19276766 -0.04257221 0.29535672 0.39843318 0.13110238 -0.23238076 0.055701178 0.21168424 0.3986887 0.26878566 0.059969712 -0.064496316 -0.37329394 0.40914023 0.034497846 -0.09979846 0.07423149 -0.26056045 0.129749 0.0934062 -0.32478476 0.1653558 -0.22849399 0.42718634 -0.3920828 0.5720749 -0.23281603 0.0032313585 0.4497287 0.010409933 -0.04379556 0.14142993 -0.18081863 0.32311276 0.34232143 0.013349456 -0.06907264 -0.08762614 0.48473263 -0.25406498 -0.17785278 -0.28551587 -0.17576861
928 0.3215878 -0.04991963 0.38803348 0.31515256 0.08831927 -0.3343093 -0.16048877 -0.0015420113 0.25056693 0.4941365 0.10211116 -0.31608152 0.13159934 0.1127032 -0.015687654 0.07582192 -0.29227218 -0.13681836 -0.08308713 -0.052975338 -0.1135665 0.115759216 -0.0031689527 0.062171474 -0.12256103 0.03394638 -0.07733566 0.47635028 -0.31479532 -0.35310915 -0.059330065 0.07924294 -0.6594508 0.23767956 0.1604499 0.12008745 0.42838758 -0.7063613 -0.38740396 0.14078334 -0.3117003 -0.1990408 -0.46149006 -0.09671819 -0.029568138 0.03232866 0.02351763 0.010421207 0.11561062 -0.15889134 0.072906815 -0.14659052 0.22972305 0.09526808 -0.25203678 -0.03311517 0.3135872 0.29479006 0.043743514 0.48640233 0.25973502 -0.033889458 0.33312005 -0.34417903 0.44594622 -0.13869211 0.013817535 0.55776995 0.30024496 -0.19076341 0.11581191 -0.2478925 -0.063484184 -0.05033702 0.3655245 -0.6972237 -0.29514912 0.09509058 -0.037025854 0.15634082 -0.30674624 -0.044076484 0.30641025 0.5373532 0.302429 -0.0003202582 -0.15788521 -0.28522843 0.1298438 0.040383972 0.14435698 0.11553458 -0.16056138 0.08772969 0.43607184 0.019181872 -0.027143896 -0.05939601 -0.40219748 -0.15389779 -0.107537575 -0.47472885 -0.28515774 0.21763016 -0.0040173656 -0.40873682 -0.42428336 -0.13183971 0.051276814 0.27523217 0.35319477 -0.43767986 0.12283809 -0.16985318 0.09691748 -0.018532904 0.10817045 -0.37143698 -0.16969316 -0.21742645 0.055259638 -0.13421378 -0.09660413 0.03598184 -0.23221025 -0.09509736 -0.24754983 -0.18592076
1915 0.25198248 -0.32732576 -0.15423542 -0.15337977 -0.016611626 -0.053690758 -0.36244375 -0.2090695 0.4381323 -0.32042044 0.13413958 -0.3736532 -0.18170929 0.0037116648 0.1405017 0.27949706 -0.17329812 0.36553326 -0.055860676 0.29025 0.22624199 0.35154694 -0.11040073 -0.27798644 -0.2588442 0.30407736 -0.16940923 0.45497367 -0.12569532 -0.046625677 -0.17994398 -0.009480133 -0.011129237 -0.40102986 -0.021665473 0.26359445 0.49845764 0.2953098 0.033422068 -0.10696824 -0.15559173 -0.3534235 -0.08919083 0.00819436 0.22146353 0.24877079 0.04575699 -0.19034645 0.21116683 -0.55097675 0.1897937 -0.33386397 0.36114317 0.30123115 -0.087435976 0.019967087 0.27032828 -0.06906724 -0.62329495 0.3338559 -0.098313704 -0.32347557 0.3726758 0.047009736 0.080849975 0.10349865 -0.24555112 0.22866195 0.196015 -0.5823318 0.042285606 -0.36560676 -0.08408257 -0.1586699 0.55602705 -0.22693032 -0.49137783 0.034794323 -0.15185632 0.29507637 0.30111158 -0.027234152 0.63271636 0.0085204905 0.3036117 0.33403695 -0.13134332 0.17095338 0.06407325 0.28733954 -0.26584357 0.28226125 -0.12940657 -0.19466017 0.5401143 -0.13597727 -0.24709505 -0.122395664 -0.078314155 -0.018075518 -0.14414403 0.2654231 -0.19748285 0.011024357 0.12294834 0.15060897 0.18142998 -0.29263252 0.5522519 -0.4212913 0.5363813 0.027936948 -0.03988921 -0.02428587 -0.12608914 0.033113662 0.10558859 0.22668414 -0.10972479 0.1679146 -0.11830096 -0.09729981 0.021892868 0.3491642 -0.5670425 0.12482512 -0.28279564 0.41665936
1625 -0.018762654 -0.60849464 0.1740177 0.2580776 -0.24129735 0.35000774 -0.17928973 -0.177414 0.36615536 0.31147948 0.04273363 -0.020069167 0.43088198 -0.28339276 0.63745373 0.04439985 -0.17812647 -0.047862347 0.16285712 0.29987237 -0.11379336 0.0919862 -0.25326616 -0.08380002 -0.60363257 0.14985545 -0.35240555 0.33687574 -0.09491765 -0.1327329 -0.23245493 -0.18011323 -0.2869813 0.052205022 -0.024517637 -0.069820814 0.23276125 -0.046058364 0.16006331 0.16379453 -0.48789117 -0.34364164 0.014926393 -0.20772746 -0.021645054 0.09940145 0.16013294 -0.30530572 -0.04525666 0.14469051 0.0687065 -0.19302312 0.42596644 0.13637088 -0.2168993 -0.027876213 0.032602444 -0.36892518 -0.11106273 0.5447403 -0.011099199 0.2664564 0.27110708 -0.28675222 0.12512398 -0.34900945 -0.2579131 -0.21508908 0.17150994 -0.15349215 -0.15230554 -0.1645419 -0.38411 -0.24233054 0.35557663 -0.46428946 0.083133996 -0.16649543 -0.06575494 0.23537406 -0.09878696 -0.11977137 0.17248258 0.28986362 0.034069065 -0.24496883 -0.008694151 -0.1784734 0.02931389 0.067104064 -0.28354174 -0.6418328 0.01766331 0.04855253 0.020999618 -0.14375211 0.09835713 -0.35923105 -0.17662948 0.12944643 -0.020325415 -0.15345444 -0.05132393 -0.0072462647 -0.07438444 0.020595886 -0.4437827 0.053557932 0.6305639 0.20054181 0.00094442803 -0.19951187 0.52724665 -0.08952327 -0.040581398 0.2566389 0.21541674 0.035127617 0.23662144 -0.12758729 0.19812736 -0.06599966 -0.24921972 0.13692775 -0.21607132 -0.0826971 -0.07850586 0.2466689
203 0.04701131 -0.3318138 0.24829155 0.29385173 -0.2565707 -0.10426206 -0.03672124 0.3479604 0.06359033 0.3366141 -0.24056728 -0.051198587 -0.18743403 -0.1986293 0.08636547 0.20857352 -0.41381156 0.20671219 -0.39488468 -0.2561381 -0.14561602 0.02507673 -0.11901071 -0.251305 0.05698902 -0.24865699 -0.189094 0.47994283 -0.2048664 0.04485492 0.12798378 -0.3123334 0.1855391 0.07703525 -0.19838668 -0.15888445 0.3025566 -0.29621133 -0.5978577 -0.01193386 0.02173447 0.120195165 -0.39489773 0.17373446 -0.5847971 0.19080798 -0.20467071 -0.43815225 0.090379186 -0.25271446 0.13649884 0.027587721 -0.15752453 0.15160322 -0.1811456 -0.19589938 0.19398728 0.09044186 -0.0020933866 0.28330663 -0.36271888 0.28651616 0.27347523 0.15368813 0.09217051 -0.025243202 -0.103600085 -0.10192365 0.12367951 -0.20018809 -0.27476147 -0.13343641 -0.3010953 -0.09632396 0.28687534 -0.50777996 0.10625454 -0.058593094 -0.4194211 0.22542562 0.0062295683 0.10467764 0.42282522 0.12717001 -0.02532859 0.14503482 0.37408602 0.0450269 0.12119652 -0.009520002 -0.14636907 -0.53045154 -0.08598629 0.051167898 0.19241287 -0.13713387 0.014276817 -0.15762472 0.05522911 -0.15678836 -0.06285256 0.34577802 -0.28047407 0.5451771 0.050012 -0.50892895 -0.16665481 0.4013357 0.1798649 0.0676615 0.2066239 -0.7033426 -0.03853019 0.23290443 -0.12203302 0.041138384 0.26970732 -0.13736695 -0.07952533 -0.21691754 -0.33181354 -0.19126248 -0.1340011 0.46416557 -0.34598914 0.17029133 -0.18937089 0.030043451
111 0.27352405 -0.16607824 -0.17246671 0.15878859 -0.20568122 0.16521801 -0.30265024 -0.06445125 0.16336648 -0.015492697 -0.03395857 0.3894366 -0.024470069 -0.15464592 0.56032425 0.09110079 0.17764303 -0.19429113 0.18404953 0.12361829 0.3184314 0.09326892 -0.23037574 0.06277294 -0.37914315 0.15584494 -0.6070314 0.44605893 -0.19886181 -0.15335776 0.306585 -0.44322714 -0.22461843 0.40817386 -0.0020686274 0.1974383 0.1965886 0.16846894 -0.24471354 0.20817807 -0.40136674 0.18447337 0.17831534 -0.078583725 -0.1747363 0.08306892 -0.20655559 -0.18412787 -0.6441392 0.031572197 0.46467814 0.027079094 0.38872355 -0.027981697 0.013493389 -0.4674045 -0.14447004 -0.36204287 -0.44593138 0.16711606 0.22046569 -0.0073974594 -0.37834665 -0.09343048 0.07497151 -0.07170937 -0.043738026 -0.06626114 -0.040199626 -0.42147744 -0.17243941 -8.957953e-05 -0.27106342 -0.03669329 0.45130116 -0.33488655 -0.094280034 0.27235004 -0.0514725 0.2519096 -0.04203171 -0.025118796 -0.045883507 0.2239556 0.13741794 0.23267944 0.029424183 0.22465996 0.010442391 -0.004844303 -0.28149047 -0.13518308 -0.14498356 0.070259005 -0.0019053699 -0.061693907 0.27869898 -0.28078136 0.094320856 0.2333445 -0.27898508 -0.56319904 0.14598717 0.0803227 -0.29201669 -0.16403414 -0.19677328 0.53103787 0.57182187 -0.0023290257 0.3344011 -0.5101242 0.038331605 0.079646625 0.2631991 0.40430412 -0.026423298 -0.018220766 -0.06679758 0.048353255 0.25757155 -0.26899076 -0.3807859 0.4436466 -0.55702907 -0.34727827 0.37385982 -0.38244587
96 0.5656389 -0.6143964 0.0042458056 0.26507664 0.0034501886 -0.2193431 0.6552212 -0.45138636 0.3832239 0.27076545 0.061002757 -0.07223115 0.055160563 -0.045989007 0.6806105 0.25317854 -0.021531694 -0.11899571 -0.11731943 0.3225313 0.043214295 0.023170652 -0.6143452 0.09037682 -0.4395468 0.21042533 0.53545725 0.15046737 0.14277372 -0.35075963 -0.08632272 -0.20121565 0.30159357 0.21634772 0.13520928 0.18619269 -0.20988533 -0.18549983 0.19752984 -0.28634992 0.20589118 0.45361772 -0.43657538 -0.22619313 0.03236385 -0.30784082 -0.12711787 0.024377989 -0.0053411494 -0.37873805 -0.30642045 0.40277323 0.44414896 0.24318722 -0.27328074 -0.016704034 -0.04208836 0.15620652 -0.20466548 -0.043612093 -0.13736512 -0.38876116 -0.028142782 -0.02468088 0.085151166 -0.1667543 -0.40158787 0.07475761 -0.17698592 -0.1301966 -0.12198793 -0.56313854 -0.35950673 0.002424115 -0.15316595 0.051181193 -0.32414976 -0.14613049 -0.3622098 0.4162833 0.18629326 -0.37052715 0.56945354 0.6877324 0.29053953 -0.09225814 0.45628634 -0.26818207 0.20357952 -0.36006728 0.032374177 -0.19850451 -0.2767405 0.0898499 0.17987822 -0.044237148 -0.25699252 -0.10193815 0.034884006 -0.39468086 -0.18872344 -0.23079917 0.07218567 -0.07872942 -0.46906674 -0.18740413 0.031963445 0.028988617 0.105106145 -0.22745545 0.24482311 -0.5420082 0.17860752 -0.50935507 0.01838872 -0.28709096 0.025422102 0.17209558 -0.48215723 -0.12524635 -0.23051278 0.14829789 -0.07340505 0.05933274 -0.42936045 -0.17318797 0.4225332 -0.50856614
14 0.09802381 -0.0025697595 0.45974806 0.578498 0.17687234 -0.2785676 -0.034054 -0.037948683 -0.3176823 -0.017702892 0.28466222 -0.10711746 0.0578908 -0.2808712 0.27828872 0.2954551 -0.40688434 0.1826172 0.0070171067 -0.06694043 0.10676726 0.313761 -0.01884734 -0.14076896 -0.36247092 0.0814812 -0.3822936 0.4425393 -0.04655775 -0.17147478 0.023858009 -0.44611493 0.048578106 0.49868143 0.049594842 0.07775705 0.4497244 0.310338 0.11104227 0.29691458 -0.43579993 -0.27789006 0.15071994 -0.06851364 0.021533147 -0.10630981 -0.38993695 -0.06729038 -0.10886398 0.040606584 -0.07474249 0.038002983 -0.2018449 0.11061083 0.14126363 -0.20468098 -0.13982381 -0.47764176 0.06513729 0.36015287 0.11887677 -0.49700147 0.0087941615 -0.039572623 0.51678234 0.015061293 0.026191195 -0.5046114 -0.18699804 -0.4546619 -0.41630438 -0.39338586 -0.19373551 -0.14829694 0.35340583 -0.2964317 0.09784531 0.20594817 -0.12835169 0.41517177 -0.020289969 0.08133837 -0.17374861 0.36887538 -0.23848464 0.22239642 0.2738347 0.009596288 0.3650741 0.061870787 -0.09887859 -0.29859328 -0.10390061 0.1304752 -0.15664977 -0.2956106 -0.05780646 -0.20781298 0.14410225 0.25001454 -0.4466818 0.28205407 -0.4498705 0.24943444 -0.2152997 -0.5839373 0.13722776 0.18752353 0.2870531 -0.08187847 0.5705845 -0.07927484 0.16606961 -0.09652644 -0.35986546 -0.32442036 -0.26623678 0.053361278 0.16025352 -0.07553682 -0.19134867 0.07264715 -0.11845808 0.4390249 -0.32483816 -0.20723337 -0.10751301 -0.035003822
1638 0.38969344 -0.27629605 0.25358456 0.2922107 -0.005814225 -0.68524444 -0.057471965 -0.45425212 -0.091074705 0.17966798 0.07293202 0.49420118 -0.03436432 -0.47070503 -0.022553157 -0.01604067 -0.28413677 0.21234244 -0.55768716 -0.15058523 0.4352986 0.017051822 -0.0012749003 -0.48400402 0.43877906 0.31877676 0.13108422 0.48809963 0.17062709 -0.012810528 0.19861276 0.00086495903 -0.0076544266 0.19550139 0.17641833 0.0400455 0.06963579 -0.15683948 0.03692107 -0.17816573 -0.41634637 0.34100863 0.113771364 -0.2853364 0.1038586 0.13092019 -0.3683262 0.26852748 0.19353408 -0.047264412 0.13271302 -0.30526674 0.3876259 -0.228162 -0.20335758 -0.19588882 0.13459809 -0.030766217 -0.039751556 0.23731436 -0.36208737 0.3295922 0.22928673 -0.2265762 0.19658513 -0.12122035 -0.31175193 -0.09898693 0.09725377 -0.47656396 -0.39587083 -0.23129438 -0.24354988 -0.5303244 0.14874198 -0.63907087 0.032369465 0.17111705 -0.04668002 0.17963704 0.32789513 -0.01242827 0.42994955 0.5090346 -0.31175718 0.011490997 0.5683521 0.2254366 0.1256269 0.08228488 -0.24559982 0.2109011 -0.14914085 -0.036390837 0.35193318 -0.15326369 0.15957019 -0.028534483 0.30862933 -0.112759545 -0.03353331 -0.23870654 -0.3389933 -0.29247308 -0.15686919 -0.06848202 -0.34342152 0.09998974 0.010067758 0.27803355 0.25511825 -0.7312399 0.23109262 0.40585724 -0.25902325 0.090130836 0.032980844 0.17258115 -0.03909361 -0.38727555 -0.34344023 0.056644727 0.0044997884 0.45576555 -0.096094765 0.31402645 -0.13084264 -0.1618542
141 0.2004116 0.3808312 0.017302567 0.16950677 0.015028144 0.010609016 0.40125483 -0.32826367 0.3536956 0.041056238 0.043328706 -0.1741258 -0.011441187 -0.6823664 0.28392136 0.35753998 -0.26767746 -0.28719226 -0.19933617 -0.029265799 -0.0038337861 0.01608495 0.22124158 -0.26675576 -0.6419994 -0.17431426 -0.32004562 -0.055556383 -0.155317 -0.17339334 0.078145854 -0.5076749 -0.38481256 -0.081634186 -0.17251514 0.54502344 0.38819692 -0.12520617 0.0223089 0.27241808 -0.5349383 -0.33713645 -0.21263738 -0.20680626 0.22448441 -0.027522093 0.060347203 -0.27443776 -0.08419192 0.3286908 -0.06287687 0.17929499 0.238884 0.1538253 -0.35035497 0.15400703 0.60961777 0.16912624 -0.25370815 -0.43334624 -0.07637865 0.32528192 0.20676737 0.08725408 0.0065126494 -0.25676313 0.24086252 0.12827143 -0.0652079 -0.5853262 -0.048551753 0.020216802 -0.5193995 -0.19150639 0.104777664 -0.31507245 -0.16108897 -0.050244648 0.07699634 0.6822012 0.0014628927 -0.19432573 -0.040501896 0.6300118 0.11208257 0.12416818 -0.093122184 0.069251254 0.24432647 0.059932727 -0.11363883 -0.55343413 -0.2719397 0.040928185 0.45209062 0.003550863 -0.20881733 -0.3941924 0.12442281 0.22362448 -0.23144825 0.12603272 -0.11536872 0.14840214 0.15210363 -0.1510104 0.22100832 0.40225706 -0.0667223 -0.14548297 -0.02550607 -0.41777915 0.12061663 -0.28553495 -0.011150403 -0.13391651 0.21256565 0.14533238 0.0026964059 0.06867659 -0.06206875 -0.31443554 -0.43531194 -0.12857667 0.0046538613 -0.35689163 -0.041352503 -0.20739281
1485 0.09945737 -0.30216813 -0.06199373 0.00045204104 -0.059946436 -0.26758346 -0.1395797 0.047188524 -0.20283405 -0.011882645 -0.14283061 -0.008691813 0.19419207 -0.16940911 0.25387442 0.067176424 -0.4366416 -0.088603705 0.18984142 -0.3431751 -0.20590317 -0.04684392 -0.5036104 -0.15275909 0.21155432 -0.04228029 -0.18238296 -0.22236685 0.017621735 0.09296535 0.22268388 -0.7001844 0.43342862 -0.23448403 -0.39603588 1.051665 0.21681316 0.09360722 -0.28235474 -0.32985097 0.06018845 0.19751717 -0.3332449 -0.1709687 -0.17730881 -0.09748794 -0.17356086 -0.35473344 -0.05233993 -0.22924349 0.08613911 0.13984598 0.30200183 0.28995666 -0.58867997 0.17616412 0.11381797 -0.14127906 -0.21700387 0.4712594 0.015180176 0.12399481 0.37533945 0.031453684 -0.2156025 0.24913302 0.41153926 -0.12022125 0.25412336 -0.5244599 -0.22937284 -0.19414273 -0.46275404 -0.081866324 -0.14825012 0.21287648 0.11400947 0.40865946 0.14783488 0.471114 -0.42696512 -0.19228707 0.052345973 -0.27912486 0.19885159 -0.07346249 0.65358204 -0.37922606 -0.028669018 0.073231116 -0.16920862 0.46880543 0.110618114 -0.32479516 0.70780224 -0.12601049 -0.33084744 -0.35233203 -0.5518392 -0.0637591 -0.373336 -0.36802432 -0.5467475 0.02307679 0.076543145 0.15004195 0.27547258 0.19317538 0.27520627 -0.3217689 0.068848334 -0.26033205 0.1122024 0.108304225 0.020038746 -0.30491394 0.14419997 -0.07065488 0.22327264 -0.1681619 -0.1926589 -0.06791783 -0.3625014 -0.391125 -0.09093195 0.14423618 0.34790835 -0.11795101
18 0.1261057 -0.27416122 0.61928916 -0.12851274 0.08913141 -0.40469694 -0.19303577 0.06514451 0.1307431 0.24302211 -0.20606582 0.28428313 0.12863168 -0.05859878 -0.38127548 0.009598232 0.112028375 -0.0022762646 -0.37357754 0.36686143 0.039722048 0.3590326 -0.07003108 -0.15725201 -0.08982504 0.17154229 0.06420616 0.545319 -0.1507142 0.039414216 -0.25919822 0.11782903 -0.7886833 0.5558779 0.40337154 -0.023467652 0.26538023 -0.5127055 -0.098367274 0.03601575 -0.34698418 0.04526797 -0.15878014 -0.15382649 0.15922101 -0.056899786 -0.066064626 0.31896928 0.031716567 -0.24565305 0.23737884 0.07198545 0.1882255 -0.04331315 -0.3415618 0.3937054 0.30923122 -0.04681644 -0.30904225 0.3530018 0.208448 0.103797756 0.45632422 -0.16645727 0.49163997 -0.5168578 0.05195715 0.10536104 0.2436502 -0.31039873 -0.12294104 -0.25397357 -0.24833618 -0.563757 -0.1255493 -0.8769125 -0.20385858 0.078914605 -0.05837002 0.4629332 -0.09772719 0.04516987 0.46810672 0.3771613 0.27456844 0.021134779 0.19126101 -0.2984235 0.1443383 0.00132424 -0.103813685 0.08178588 -0.11104433 0.06749906 0.44524717 -0.24808471 -0.031366576 -0.23662645 -0.10503795 -0.2722116 0.1550212 -0.26648128 -0.17497326 -0.043425944 -0.123298675 0.19339441 -0.13077007 -0.084253766 0.26938817 0.20201135 -0.03178308 -0.40503177 0.41198272 0.14030038 0.2381983 -0.11066635 0.016854495 -0.2861766 -0.28465533 -0.33184788 -0.067346275 -0.17527756 0.046501122 -0.19474284 -0.41752976 0.054896887 0.11901495 -0.28544
310 0.23604263 -0.22394253 0.44517297 -0.1544203 0.21201503 0.09717628 -0.10034242 0.26705304 0.09288856 0.021271918 -0.19953737 -0.012806718 0.19534472 -0.65769076 0.04705558 -0.033172242 0.11428904 0.22662345 -0.30513635 0.1815479 -0.021285478 -0.061029922 -0.048497677 -0.50846726 -0.41467398 0.41282973 0.07800415 -0.14416437 -0.047209572 -0.7817823 -0.08208031 0.017624559 -0.14108793 0.39362946 -0.107967325 0.18462479 0.17258443 -0.0033684885 0.39241806 0.18019801 -0.33004123 0.23372434 -0.4605268 0.07371598 0.082506716 -0.1313079 0.114545844 -0.34907928 -0.16816838 -0.13141696 0.054398816 0.22146471 -0.06879311 0.20864616 0.253522 0.073834434 0.503836 -0.06316353 -0.35911494 0.38286567 0.24518347 -0.06217245 0.42409873 0.06515399 0.46476784 -0.06052296 0.1345526 0.15866318 0.35207242 -0.41944122 -0.15225628 -0.6450753 -0.2683345 -0.3929704 0.28429577 -0.024605038 -0.05576609 0.42872012 0.04415297 0.17390788 -0.2656927 0.012517447 0.15101302 -0.0052649183 0.2834351 0.35130447 0.085483514 0.2713528 0.054813355 -0.26885653 -0.11904319 -0.26148877 0.22947541 0.33485663 -0.09866366 -0.5664916 -0.24615887 -0.29064107 0.18343477 -0.12517968 0.15123287 -0.14103642 -0.14241154 -0.023053419 0.32397258 -0.58421373 -0.08944656 -0.30946398 0.2974985 -0.24748178 -0.0034550778 -0.2438561 -0.17771979 -0.01921531 0.0702996 0.292996 0.29538026 -0.6442632 0.32712224 0.30758077 -0.24503691 -0.04665136 0.042087927 0.20267002 -0.12136846 -0.031759433 -0.30252075 0.14566335
1868 -0.12383043 -0.4404483 0.24796496 0.1480618 0.09232602 -0.41795656 -0.032660022 -0.051677972 -0.3255901 0.3833651 0.03756878 -0.4250943 -0.10841926 -0.50071377 -0.13345866 0.27955332 0.2229292 0.11455115 -0.09909087 -0.37834632 0.024314223 0.11235784 -0.17302227 -0.22646488 0.07398482 0.14949033 -0.4465081 0.5636682 -0.11618093 0.08220095 -0.13875431 -0.30406666 0.236151 0.04581518 0.21262181 0.18019222 0.38998142 -0.081283264 0.10640685 0.28774822 -0.30003834 0.33982208 -0.49373728 -0.16136685 -0.3170403 0.39469257 -0.16389197 0.04766161 0.067611836 -0.14584951 0.053130966 -0.1082143 -0.24514487 0.38309824 -0.1654005 0.051266707 0.26099622 -0.27172175 0.03976918 0.37272358 0.14538833 0.0030984934 -0.31448442 -0.07752792 0.24448399 -0.06608576 0.040907923 0.098059304 0.13764717 -0.16680866 -0.44752547 -0.29198375 -0.12264131 -0.10094987 0.3838423 -0.35103562 0.055005126 0.055619273 0.06301087 0.13769042 0.08516225 0.116791636 -0.020305935 0.14161617 -0.27611256 0.21885775 0.34958088 -0.1296976 0.43128976 -0.10174696 -0.1699074 -0.13939598 0.030504834 0.12383494 0.12235762 -0.22563012 0.02036227 -0.13604079 0.15787923 -0.18301374 -0.43058112 0.27415878 -0.4780731 0.08163076 0.035016917 -0.3850508 0.23985657 0.48865592 0.2913303 -0.2901183 0.3365448 -0.33802205 0.30154452 0.24417283 0.006776985 0.057652473 0.34878096 0.23282856 0.07181612 -0.015030559 -0.21437202 0.09011755 -0.04756294 0.33696154 -0.5017825 0.013467334 -0.38140276 -0.13996793
1074 0.41868094 -0.21951307 0.058852278 0.095501915 -0.1870337 -0.37330765 0.16605537 0.29274204 0.38961434 -0.08241747 -0.005891446 -0.06345552 0.14806582 0.19132292 0.100083545 0.19443627 0.07597862 0.19496031 0.039551698 0.061744593 0.16948625 0.019478435 -0.5735825 -0.43311775 -0.26506415 -0.15085429 -0.31245726 0.03193791 -0.022534832 -0.24163426 0.107485056 -0.5926322 -0.20198417 0.19290814 0.04790789 0.10640578 0.13849601 0.18524635 -0.21078174 0.09015567 0.13323586 0.22208354 -0.09399147 0.04585915 -0.03058291 -0.13406593 0.18268616 -0.11307713 -0.12704608 0.50513804 0.51919353 -0.6780539 0.1673372 -0.1034976 -0.3994572 0.020340083 0.075229265 -0.6416077 -0.050191965 0.24669264 -0.04565965 -0.2918024 0.12895311 -0.37282428 -0.44633928 -0.33939224 -0.056364417 -0.09291798 0.027913725 -0.30367807 -0.3661574 0.19970454 -0.087794125 0.03890153 0.3928016 -0.33699363 -0.058609836 0.10826048 -0.018571839 -0.25193152 -0.3484466 -0.75842625 0.09733609 0.06459829 0.18286714 0.2892621 0.37405384 -0.009182552 0.6351212 0.051919322 -0.21722263 0.05820706 -0.07488771 0.23739369 0.42962828 -0.11254847 0.3981942 -0.011324174 -0.087268 0.20574978 -0.54848987 -0.18593635 -0.09236998 0.0579052 0.18488367 -0.037364632 0.1650366 0.6503285 0.6363137 -0.12735575 0.1228961 -0.2553527 0.20555818 0.1223855 0.030377675 0.11600059 -0.054969992 -0.16544467 -0.14192857 -0.03229718 -0.45180908 0.07790247 -0.032350495 0.059040368 -0.4081392 -0.18450807 0.12755719 -0.12457912
1466 0.18506216 -0.075212255 0.17089629 -0.09334189 -0.063463666 0.010337721 -0.11191378 -0.18471172 0.0027279207 0.18017504 0.09304107 -0.0017116386 -0.16125493 -0.43993893 0.47576743 -0.11002513 -0.3352642 -0.32498395 -0.2244879 0.11865067 -0.19073273 0.03591347 -0.08171716 -0.0717469 -0.21250382 -0.12711115 0.13642114 -0.15231484 0.02687026 0.07263412 0.06892914 -0.11340251 -0.36185724 0.4376929 -0.18582149 0.4576599 0.25037944 -0.15194052 -0.24297728 -0.036839366 0.05800257 0.085734315 -0.5110334 0.15683 0.17811781 -0.025201494 -0.013837755 -0.2270617 -0.044565402 -0.09552613 0.1253943 -0.31116632 -0.020152124 0.43134123 -0.14623752 -0.16443919 -0.0486293 -0.5047053 -0.31029126 0.44011638 -0.122734666 0.19960995 -0.10901229 0.0734037 0.110642575 0.14482498 -0.30905828 -0.29972276 -0.24866751 -0.48258528 -0.04769903 -0.006758521 -0.3263765 -0.38884044 0.5105364 0.03352225 -0.1889935 0.004488857 0.032059822 0.45402196 -0.43305877 -0.6266451 -0.049857106 -0.15061618 0.32929733 -0.20125964 0.26246125 -0.1581997 0.39635265 -0.28072453 0.14007333 0.12731278 -0.106953785 0.2307513 0.24027973 0.27494735 0.15767623 -0.35447007 0.25426307 -0.17458628 -0.24895376 -0.16441244 -0.16851431 0.2204328 0.23567072 -0.071705304 0.039319232 -0.44649628 0.10789372 -0.46402976 0.24592227 0.09165773 0.064924 -0.082904786 -0.30924127 0.065897666 0.28447178 0.14145271 0.36338985 0.039512966 0.07339553 -0.33591506 0.42402667 0.30972278 -0.3741226 -0.11488281 -0.047001366 -0.21603847
140 -0.092162006 -0.40773454 0.5264275 0.55831945 -0.15172537 0.07659307 -0.32188228 -0.12892735 0.59315324 0.17368038 -0.09064092 -0.03788752 0.1848246 -0.18696198 0.50149566 0.054918632 -0.04909695 -0.18762645 0.20304166 0.1878561 -0.31226277 0.27599448 -0.04165655 -0.19745189 -0.50552404 0.13998768 -0.38508487 0.38301942 -0.42730096 -0.1536737 -0.12743989 -0.3993605 0.0957828 0.14398386 0.14642794 0.11146881 0.13052413 -0.37623903 0.030894717 0.091078795 -0.4179275 -0.34263265 -0.33640382 -0.10731568 0.11195788 0.05368743 0.10676308 -0.33993906 -0.004071425 -0.18107644 -0.2155725 -0.23365344 0.4238733 0.09088118 -0.1686122 0.25297868 0.04542168 -0.07328962 -0.100165695 0.31894484 0.30358398 0.38312238 0.44918567 -0.31971306 -0.1752777 -0.14894025 -0.49126342 -0.1558686 0.038090073 -0.44309297 -0.12481965 -0.14602363 -0.18950024 -0.17515482 0.1732348 -0.84988344 -0.009227026 0.17860824 0.02648104 0.099409774 -0.1882729 -0.14364055 0.062791586 0.43823066 0.09321294 -0.038597323 -0.14220709 -0.06930885 0.24427126 -0.28268498 -0.03973712 -0.568132 0.0649803 0.15897018 0.16467124 -0.11277067 0.121903814 -0.44005403 0.12388806 0.07217051 -0.24374805 -0.12564255 0.23335181 -0.10125894 -0.07014774 0.12675965 -0.2730274 0.23968092 0.50067806 -0.04773429 0.2787029 -0.31412375 0.6656114 -0.30202916 -0.036692888 0.067858815 0.32975 -0.07784316 0.055095557 0.1167094 0.11432923 -0.07291804 -0.17778797 0.124761865 -0.13107938 -0.31041172 -0.085017994 0.065414034
89 -0.052185204 -0.27535513 -0.060518995 0.25784358 0.09376338 0.13239323 -0.028703552 0.028995646 -0.10265824 0.28606674 -0.20663184 -0.48288348 -0.21559069 -0.20579964 0.2024767 -0.081019215 -0.23324178 -0.30838078 0.03525373 -0.18370155 0.48513904 0.23258992 -0.24443296 -0.4461307 -0.0719776 0.14917086 -0.30888218 0.25331375 -0.059176497 -0.4355112 0.17019886 -0.14902522 -0.2089214 0.21372709 0.42823818 0.027659237 -0.34138587 -0.10980273 -0.553977 -0.002222951 -0.26761726 0.011234482 0.050832983 -0.27765372 0.31646925 0.2130586 0.039838452 -0.50730586 -0.14581856 0.21343423 0.054873865 0.25536126 0.18247618 -0.023242982 -0.3087494 -0.19964683 0.60605896 0.233181 -0.4236044 0.21491756 -0.39839706 0.1383171 0.40927833 -0.14667967 0.29025385 -0.35111275 0.39909682 -0.24500208 0.10439278 -0.03576307 -0.0013253392 -0.15064731 -0.74260426 0.15727116 -0.3857371 0.15369304 -0.18193358 -0.5449673 0.12437219 0.4314011 -0.06442122 -0.47933054 0.48369095 0.17077078 0.34305802 0.22195773 0.2175308 -0.28328 0.084673546 -0.48213133 -0.73200494 0.15176278 0.10160979 0.02801703 0.01317957 0.35684043 -0.27234995 -0.11437348 -0.2665655 -0.2823265 -0.1444806 -0.17502548 -0.17205244 0.14026617 0.16625617 -0.31869996 0.008531522 0.0775327 -0.011615998 -0.14799318 0.44414887 -0.16241166 0.24008533 -0.21750808 -0.25980863 0.0004206131 0.33425486 0.42431012 -0.27005577 -0.004363603 -0.11594747 -0.85419947 -0.17498657 0.32912448 -0.5020621 -0.3497361 -0.23989645 -0.15343222
703 0.24748822 -0.2800455 -0.18374576 0.44195062 0.10437825 -0.54966927 -0.43101177 -0.18725197 -0.16553554 -0.09547958 -0.36319616 0.24985538 0.45650154 -0.3379753 -0.049163476 0.1825421 -0.087877885 -0.07057582 -0.42520702 4.5551933e-05 0.3923234 0.15728095 -0.1897426 -0.38226187 0.5850585 0.16192655 -0.2869367 0.27026093 -0.0021021597 0.05321072 -0.096634075 0.22238341 -0.06245396 0.18287429 -0.020032793 0.39558342 0.101174265 0.06393289 0.28098008 0.21996374 -0.33040962 0.54931766 -0.25414217 -0.11577788 0.061467208 0.08353414 -0.33803537 0.048576973 0.06392811 -0.24215358 0.16302092 -0.51678276 0.52437246 -0.170049 0.024339402 0.029787999 0.13560642 -0.19404043 -0.46829608 0.29401264 -0.3864976 -0.12863044 0.5153509 -0.22275878 0.25337103 -0.035252955 -0.22509153 -0.07908839 0.40388194 -0.26238066 -0.4840151 -0.1499763 -0.52968264 -0.25340992 0.10221592 -0.7641132 0.040313378 0.055703845 -0.111126885 0.32060635 0.31914783 0.03290109 0.63396615 0.6653255 -0.2083245 -0.10612009 0.29977524 0.31171572 0.35880283 0.08696711 -0.03110495 0.18063106 0.17008887 -0.031834908 0.28254968 -0.3027145 0.10647201 -0.2287384 0.14947842 -0.060271434 0.038304735 -0.06613716 -0.24912521 0.24337588 0.037978444 0.1589517 -0.3909276 -0.12934412 -0.16570935 -0.04773042 0.3708657 -0.368788 0.2989794 0.37259355 -0.30421802 -0.40950423 -0.3041669 0.1430734 0.0070865676 -0.37016153 -0.10804217 -0.24445589 -0.035265163 0.27513602 -0.20343207 0.23148693 -0.03496679 -0.24729475
489 0.1920571 0.1713057 0.11768096 0.43908033 -0.20356932 0.08076668 0.12936029 -0.12679641 0.13560177 -0.01846338 0.045579955 0.017678062 -0.15514368 -0.18358268 0.19894797 0.21082327 0.14140174 -0.26514745 -0.34054312 0.19374308 0.009944098 0.20751923 -0.32597005 -0.23079634 -0.84106785 0.02196005 0.007389834 -0.23486312 0.055185325 -0.3523951 0.10289436 -0.24614583 0.005853261 0.10568632 0.04737795 0.26156306 -0.029963436 -0.15762877 -0.064267576 -0.11836781 -0.823891 -0.19265613 -0.30895963 -0.05527233 0.60544163 -0.20056036 0.006262444 -0.22824477 -0.15809427 -0.2492474 -0.07332881 -0.07223539 0.63402987 0.30277282 -0.08388749 0.07433444 0.52773154 -0.14101613 -0.22773434 0.025142819 0.11548284 0.22761194 0.23616663 0.13512784 -0.13085337 -0.04025042 -0.03744001 0.22774257 0.047153566 -0.48327327 -0.54730123 -0.041568864 -0.5075023 -0.12825175 0.31848106 0.087788336 -0.07444028 -0.08124062 -0.23792844 0.6443053 -0.04043567 -0.4941081 0.120562315 0.30760252 0.34754178 -0.6842506 0.32951474 0.2637363 -0.016256427 -0.114239246 0.2904035 -0.6458935 -0.24864224 0.13171683 0.20072685 0.334672 -0.38707602 -0.1395806 -0.2612132 0.21816197 -0.021466482 0.011055379 -0.28787774 0.4812198 -0.06577746 -0.08944888 -0.01409339 0.30751923 0.020982489 0.011637871 0.08179039 -0.5247975 0.510235 -0.092887744 0.19148985 0.08383101 0.2617403 0.09917014 -0.02282542 0.32769838 -0.15633662 0.25161293 -0.08498546 -0.052447412 -0.12547256 0.2040673 -0.017816858 0.27128226
1105 0.37769997 -0.41689804 0.14358242 0.12882927 0.124837264 -0.19249377 -0.20606275 -0.048095625 0.35132998 0.13178137 0.052950732 0.02742355 -0.3993689 -0.211204 0.33014736 -0.15810035 -0.2165422 0.024383675 0.13631806 0.42963368 0.27850878 0.011538995 -0.23115891 -0.61130196 -0.25894982 -0.13236202 -0.20186922 0.46064466 0.31268263 0.41743985 0.2013349 -0.1813249 0.050613828 -0.25707436 -0.12665795 -0.16334938 0.31680423 -0.065164015 0.5972855 -0.32755286 0.3984177 0.17386612 -0.41275567 -0.44255775 0.36581305 -0.20571133 -0.13660593 -0.17608507 -0.47215086 -0.28891033 -0.1749814 -0.27411196 0.12436233 0.47741094 0.3302038 -0.14508037 0.29415134 -0.21443117 -0.25659373 0.26755893 0.064502895 -0.2382916 0.03514157 0.03098257 -0.5235388 -0.15355468 0.49465445 -0.12641634 -0.18632951 -0.41621315 0.14562969 -0.41502625 -0.14853479 0.24151605 0.29396084 -0.15403461 -0.14905329 0.2011258 -0.09292209 0.40051275 -0.09795633 -0.28301167 0.35833678 0.47312087 0.47348824 0.24005751 0.07451201 -0.028708328 0.12269073 0.19611263 -0.045087747 -0.01756381 0.0023533835 0.31726807 0.25518808 0.15637714 -0.49693906 0.13870914 0.3130725 -0.07106 -0.12595539 -0.26564685 -0.5784984 0.28612465 0.037305642 0.17384842 -0.017964885 -0.21537875 0.29941422 -0.70107126 0.14787328 -0.22724164 -0.33599043 -0.10835003 -0.019449797 -0.30988568 0.25241715 -0.49434766 -0.080829054 0.081823 0.011276992 0.083054125 -0.5303727 -0.044568505 -0.1944706 0.09783123 -0.24291365 0.2973107
19 -0.2139054 -0.38014328 0.71088284 0.5972793 0.11437875 -0.2724228 -0.15931928 -0.07282324 0.56710184 0.14479014 0.0020568795 -0.032876924 0.1899891 -0.29536423 0.56029135 0.1458723 -0.20346957 -0.01633097 0.24068189 0.28228936 -0.29555434 0.12200555 -0.08696392 -0.12664238 -0.32058045 0.2284342 -0.3334438 0.46376455 -0.55684525 -0.25303355 -0.28744632 -0.05980193 0.06433457 0.15260437 0.011708217 0.046009883 0.27280864 -0.1701029 -0.17462811 -0.0740868 -0.34596628 -0.49808416 -0.34068945 -0.40374514 -0.100718945 -0.24250576 -0.027059253 -0.22209166 0.2142152 -0.16232799 -0.29521596 -0.17929979 0.30690882 0.067730114 -0.3286618 0.21207967 -0.10617305 -0.102460206 -0.06096089 0.05512603 0.15369284 0.28245762 0.47817248 -0.1489683 -0.2191749 -0.4745421 -0.3805096 -0.094842695 0.0177567 -0.26334792 0.044572826 -0.09115503 -0.4261463 -0.31312236 0.2795713 -0.8555005 0.0145291835 0.13866496 0.18833496 0.11332995 -0.23979594 0.090718664 0.17818943 0.4323017 0.18701585 0.06192785 -0.14500114 0.030150041 0.14032573 -0.028290689 -0.071680136 -0.64677006 -0.015564968 0.32171673 0.14202936 -0.014397049 0.046320647 -0.46408054 -0.107604675 0.014317955 -0.3348113 -0.3007361 -0.0052409177 -0.2974975 -0.009041201 0.030083641 -0.3566785 0.46199653 0.49680433 0.05968828 0.25903887 0.009635681 0.346117 -0.019843757 0.00028110124 -0.16861425 0.25246787 -0.0994876 0.13860388 -0.099597394 0.061726484 -0.05532355 -0.17980617 0.07440313 -0.29153824 -0.17294392 -0.45220342 -0.039236728
42 0.22195454 -0.42491606 -0.25645867 -0.04705751 0.013769194 -0.19348627 -0.27243477 -0.10056351 0.5305128 -0.1472903 0.14708625 -0.08157755 -0.29426408 -0.019157741 0.32738182 0.1686337 -0.34560463 0.05417107 -0.030422822 0.3110228 0.35963196 0.25911382 -0.21980754 -0.2571648 -0.3120507 0.2439303 -0.39247996 0.5273202 0.10250621 0.008615128 -0.15024024 -0.033828534 -0.18155462 -0.38550377 -0.25948358 0.044746783 0.5051115 0.216474 0.11749176 -0.24898121 0.031074425 -0.09165127 -0.21669108 -0.14512031 0.33152786 0.074479274 0.21036969 -0.5770908 0.088513516 -0.35543144 -0.028621934 -0.4125833 0.26139736 0.28249 0.1658646 0.013891623 0.31009275 0.0947708 -0.4217486 0.10806512 0.17826578 -0.4976863 0.3232122 0.12995997 -0.13672452 0.093732245 0.2173403 0.07960593 -0.15123297 -0.65910774 0.014806002 -0.413166 -0.23918399 -0.35368735 0.4946278 -0.4520975 0.03094094 -0.099720344 -0.33179998 0.25123328 -0.040048525 0.24941674 0.6454392 0.36235443 0.41420674 0.09768786 0.027362246 -0.024017014 0.2084008 0.013732095 -0.22333202 0.35019824 0.08378009 -0.16225265 0.43401936 -0.033367164 -0.32158452 -0.13346954 0.2910191 -0.14086042 0.015454397 0.2815604 -0.28553632 0.082007565 -0.2531404 -0.17438072 0.27915874 -0.23959696 0.4098295 -0.32128727 0.14981215 0.05972842 -0.33727923 -0.099451736 -0.35354212 0.08342632 0.19459145 -0.034467075 -0.2091507 -0.1183026 -0.12769616 0.0871325 -0.06995424 0.255573 -0.50186336 -0.25993854 -0.2844104 0.23867217
1922 0.3171434 -0.06777106 0.080603376 0.42156917 0.0013847833 -0.3008831 0.22487707 0.26007557 -0.03310734 -0.17035232 -0.13141233 -0.1523698 0.11456797 -0.22540858 -0.014824403 0.37532145 0.041323815 0.20539558 -0.05670592 0.44641942 0.41160578 0.070298344 0.052221283 0.060842402 -0.5452471 0.2514069 -0.1417825 -0.06994855 -0.5605129 -0.31486782 -0.30917603 -0.014828765 -0.2833055 -0.3533091 -0.55634993 0.008471342 0.31814715 -0.11946084 -0.06877613 -0.5405469 0.15110074 0.24141823 0.23411787 -0.050476026 0.28704944 0.11143912 0.01263692 -0.3310463 0.14473893 0.012466729 0.267011 -0.06615821 0.05248308 -0.16606563 -0.11070376 0.03435529 0.2502243 0.014729716 -0.574199 0.12331896 -0.02124909 -0.22811663 -0.13982727 0.078821436 0.4608888 -0.024560956 -0.1589794 -0.2744435 0.19936818 -0.53786534 0.1859836 -0.18571256 -0.046246637 -0.22395869 -0.034065645 -0.030525917 -0.46496728 -0.24140808 0.035968408 0.23575072 0.2790754 0.014095193 0.5953044 0.43687764 -0.058143195 -0.13125214 0.47573438 0.12828544 0.5639124 0.2951639 -0.35265037 -0.21868059 -0.5439588 -0.06078961 0.24146383 0.33456445 -0.3061079 -0.36145568 -0.13616972 0.21456665 -0.5756024 0.028874755 0.17478555 0.06799599 -0.12772332 0.0957361 -0.21393016 -0.26216328 0.6221924 -0.7958962 0.43055013 -0.26360437 -0.26385036 -0.28991914 -0.36743796 0.34994933 0.116711766 -0.19778106 0.41440547 0.28510293 0.005280661 0.31405106 0.16352634 0.13506074 -0.058472782 0.123845115 -0.28262326 0.12183845
445 0.254527 0.3226485 0.07296598 0.25589144 -0.3169517 0.21807337 0.35369062 -0.37332523 0.10845076 -0.10519125 0.012675907 0.14789297 -0.1052961 -0.09034836 0.50076896 0.3115101 0.086447224 -0.36036038 -0.46446085 0.016834272 0.14599714 0.425557 -0.2503159 -0.26612148 -0.8398784 0.039418586 0.005800595 -0.030207872 0.2742435 -0.50312907 0.030995402 -0.1977934 -0.228878 0.20457835 -0.12871417 0.58497816 0.03985144 -0.12906168 -0.14912768 0.08841723 -0.7359688 -0.15115319 -0.17432198 -0.2876293 0.4961578 0.10537467 0.2983598 -0.23685634 -0.15621749 -0.19895393 -0.121303 -0.031958148 0.5976418 0.36191604 -0.26046038 0.18229875 0.6509 -0.2589259 -0.3349979 0.14500862 -0.051580682 0.3795552 0.28804657 0.19228537 0.105555244 -0.31307608 -0.18746845 0.2437756 -0.19285023 -0.4474236 -0.32911912 -0.016093723 -0.56450593 -0.10447645 0.2812863 0.010128423 -0.116520144 0.022532811 -0.26164418 0.6617637 0.009063815 -0.46749926 0.37735242 0.51820636 0.29936975 -0.79574376 0.16037871 0.0075967484 0.24179853 -0.08179762 0.2927367 -0.69379395 -0.3959075 0.24714898 0.27090544 0.22758904 -0.40763634 -0.23002513 -0.26879513 0.11623823 0.06320345 0.03530666 -0.3104221 0.4603114 -0.07618168 -0.059666593 0.17016338 0.26961848 -0.16250551 0.052409675 0.30734566 -0.556104 0.36374912 0.05453837 0.16602498 -0.10735554 0.48552623 0.14985543 -0.1756588 0.41541865 -0.16305386 0.034015507 -0.18513304 -0.22866182 0.040203046 0.18105413 0.04324323 0.21124838
237 0.23254636 0.061802138 0.28057548 0.11444041 -0.070490874 0.41850403 -0.1916922 -0.31442243 0.36521143 -0.022451643 -0.09101005 -0.0005729768 0.35539478 -0.27029157 0.30735153 0.20620207 -0.19365169 -0.18548575 -0.10383578 0.2551565 0.26690584 0.02628085 -0.32959804 -0.5083496 -0.2931872 -0.055981323 -0.15160103 0.24518874 -0.31971335 0.072296694 0.048882816 -0.45895433 -0.100862175 -0.05223422 -0.27385083 0.23215745 -0.011562599 0.01098124 0.014709601 0.03776012 -0.4542963 -0.3751496 -0.294561 -0.20564137 0.12041565 0.16413206 0.048152726 -0.20974071 -0.13617058 0.056400478 -0.11755736 -0.050482165 0.040616084 0.2175517 -0.22654812 -0.26320738 0.0040681316 -0.045643374 -0.19247407 0.58823276 -0.17968646 0.0036717153 0.075017095 -0.5707099 0.25717714 0.10891928 0.17125253 0.18519714 0.44516066 -0.27531323 -0.024048539 -0.09443858 -0.276911 -0.45967138 0.41630924 -0.24534948 -0.027474524 0.10055107 -0.04270787 0.5242524 0.06100104 -0.24823411 -0.055679806 0.28989673 0.0032852693 -0.32320282 -0.07930411 -0.08724162 0.07525285 -0.13425897 -0.34739637 -0.2880841 -0.2169871 0.2277571 0.15839665 -0.12148985 0.14928338 -0.50416857 0.0012668016 -0.0707647 -0.4854321 -0.07648979 0.088555746 0.31246954 -0.5811227 -0.24835257 0.15028508 0.27627146 0.30868876 -0.1284583 -0.16653575 -0.29370824 0.33027336 0.22758079 -0.3873483 0.08473019 -0.10155967 0.38405836 0.07594745 -0.10554783 0.021059029 -0.09414259 -0.28294092 0.02009041 -0.35616323 -0.38500392 -0.22983891 0.03341383
104 0.20116831 -0.21582034 0.038207747 0.6507857 -0.15835865 0.27117267 -0.1989511 -0.4575738 0.1152401 0.09216554 -0.22720043 0.105182596 0.43044898 0.019699192 0.55248874 0.14991824 -0.10014317 -0.106129386 0.15750101 0.47908068 0.123076014 -0.17383155 -0.29906374 -0.14653657 -0.52750397 0.12714495 -0.17062436 0.24453387 -0.062396403 -0.19106017 -0.058653366 -0.28975365 -0.1948164 0.11308464 0.3282703 0.51934916 0.091440186 -0.35080537 -0.05174624 -0.31773797 -0.5903586 -0.39396846 -0.46876177 -0.09760314 0.14780243 -0.11449112 -0.003204118 -0.030076016 0.057248205 0.19366695 -0.13820441 -0.21066843 0.28317332 0.28307855 -0.028033463 -0.066033944 0.29180685 -0.006495168 0.04030938 0.3255555 0.62381977 0.19917104 0.25679344 -0.06807481 0.053516883 -0.19014741 -0.21764423 -0.23448162 0.37610215 -0.44002488 -0.042617436 -0.12127337 0.14605561 -0.33812654 0.03861626 -0.4462756 -0.11042649 0.21806727 0.015929662 0.29801106 0.011872194 -0.2564674 0.27544415 0.1690838 0.15350792 -0.46547997 0.13610299 0.07698544 0.15736882 -0.13146994 0.084480986 -0.32432425 0.13879067 0.08626623 -0.12112051 0.2602489 -0.061008487 -0.63215 0.052046623 0.2573959 -0.19797733 -0.057808388 -0.08203361 0.08499651 0.17773294 0.0674563 -0.25886685 0.5426453 0.47909826 -0.042843606 -0.030045697 -0.4957148 0.6694668 -0.34418648 0.055642076 0.39821863 0.24211267 0.15558738 0.046881627 -0.12344664 -0.013185089 0.07226468 -0.07016484 0.35910228 -0.25325355 -0.09325768 -0.08449142 0.1898064
393 0.286444 -0.41637737 0.2507829 0.057511386 0.28159845 -0.08320372 -0.13120502 0.19473131 -0.0831955 0.14196974 -0.07468116 0.019248983 -0.33635822 -0.012085821 -0.10500994 0.34036523 -0.15969351 -0.18737689 -0.24050924 0.10854968 -0.097571276 -0.25400162 -0.003519959 -0.36624762 -0.35596302 0.001538775 -0.3447491 0.31868857 -0.34975398 -0.6225756 -0.135732 0.10182861 -0.08495534 0.25112796 -0.100294285 0.19524196 0.46963397 0.25746363 -0.045769956 -0.29895192 -0.21987124 0.029093836 -0.218809 -0.06461419 -0.17465778 0.24401204 -0.2771689 -0.2975651 0.07228409 -0.010895466 0.028009282 0.13269426 0.47375724 0.33604065 0.44881266 0.14872578 0.4959682 0.11890986 -0.26983297 0.20866966 -0.13470513 -0.038896784 0.37744126 -0.34897992 0.1458389 -0.0010977411 0.14175715 -0.2924127 0.32524854 -0.3318436 -0.38925898 -0.111477725 -0.083376475 -0.27171066 0.39417797 -0.050783407 -0.2263456 0.34137532 -0.30533618 -0.11460993 -0.019141851 -0.25897896 0.08743435 0.07814033 0.09459524 0.15798047 0.4496548 -0.13995337 -0.021294048 -0.058478795 -0.39386383 0.041377038 0.1030988 -0.33915505 0.035780977 -0.11097292 -0.2570886 -0.27658075 0.07276189 0.43390736 -0.13646302 -0.17302805 0.21051244 0.03272752 -0.20407164 0.111275695 0.21655464 -0.09281319 -0.013065889 -0.21301004 -0.037722487 -0.1386497 -0.29710093 -0.08426384 -0.082267985 -0.0034766851 -0.04016151 0.18131927 0.07601028 0.598427 0.07853981 -0.035326526 0.1266829 -0.181986 -0.3682525 -0.3713523 0.06954745 -0.043884564
162 0.29135442 -0.05417117 0.30554625 0.15145181 -0.0382638 0.4083205 -0.00768068 -0.13496387 0.32638764 -0.14375553 -0.22053352 0.25892064 -0.36928302 -0.11542925 -0.2429243 -0.08660593 -0.06476157 0.035388388 0.010673303 -0.041436557 0.09690451 0.09438201 -0.17329144 -0.17867331 -0.28187916 -0.035366848 0.22805282 0.22487362 0.25747833 -0.0618464 0.11376701 0.24154787 -0.13359402 -0.10194186 -0.04441275 0.4813252 0.49114996 0.31798047 -0.2137219 0.022464467 -0.07113208 0.16851938 -0.19532797 0.014297865 0.19192567 0.24011365 0.03809455 -0.20551583 0.09487096 0.11411308 0.3486528 0.23678252 0.2619755 0.18873022 -0.03525778 0.083278805 0.47201595 0.11023623 -0.0083131315 0.3189313 -0.12152186 -0.0261223 0.28552306 -0.112383105 0.32080016 -0.024919739 0.28958565 -0.2312869 0.37588173 -0.3364598 -0.31026337 -0.27921236 -0.32257512 -0.3564158 0.17969444 0.016663393 -0.31075796 0.3164602 -0.27832043 -0.40341586 -0.009146626 0.010200786 0.035367556 0.27996057 -0.02518283 0.5928991 0.29535732 0.14268555 0.16820802 0.021346197 -0.08072788 -0.41556916 -0.011066603 0.20465067 0.18723963 0.22599839 -0.0963632 -0.15230852 0.28076118 -0.024977878 -0.15068272 -0.18026732 0.1301211 0.34580222 -0.35245726 0.06374429 0.010760657 -0.15705498 0.3393654 -0.4467465 -0.17746186 -0.20043235 -0.21664679 -0.01846852 -0.3009792 0.013162204 0.12854968 -0.11081752 0.33252716 0.21953684 -0.17884703 -0.22202344 -0.06239695 0.39550397 -0.38112858 -0.22593983 -0.08876608 -0.2669327
2487 0.2259957 -0.35357925 -0.25743333 0.07630447 -0.106677644 -0.25026014 0.10392086 -0.6077147 -0.28189442 -0.1659439 -0.0794616 0.17291363 -0.34065536 0.4169151 0.45397127 -0.33589923 -0.10590918 0.47603777 -0.2613001 0.4080083 -0.1416522 0.1868437 0.032112487 -0.18682086 -0.4450813 0.10368464 0.23416087 0.52907604 -0.0487032 -0.01940103 -0.08449106 -0.2686563 0.2000289 0.15833035 -0.070089 0.24508831 -0.010525666 0.12212828 -0.4907908 -0.08454596 0.030930065 -0.3361788 -0.8014301 0.11411142 0.3016458 0.049654882 -0.23156363 0.03342587 -0.26989663 0.19258188 -0.016571164 -0.15546742 0.1417213 -0.37008792 -0.2014132 -0.22664055 0.46268782 -0.6487247 -0.070231274 0.15976182 -0.11773164 0.22624564 0.030482119 -0.18169896 -0.37145117 0.28396896 -0.14893493 -0.14338686 0.51069504 -0.27922073 -0.45605606 -0.21698958 -0.07726838 -0.12736578 -0.004621486 0.030816907 -0.2666237 0.13553832 0.1320952 0.0915433 0.1273753 0.050488368 0.16438344 0.46992004 -0.21229823 -0.31587496 0.60894215 -0.4789775 0.44796222 0.0047979853 -0.36883834 0.25149712 -0.109650925 0.5727727 0.2969839 0.12896228 0.1293451 -0.4185278 0.03528596 0.012857379 -0.35219315 -0.35085535 -0.30036846 0.13798042 0.33704886 -0.22300167 -0.032644123 -0.3680179 0.08851544 -0.29922175 -0.018835051 -0.45504093 0.4977821 0.06110018 -0.23044193 -0.55185294 0.106104575 0.021303453 -0.20381458 0.00992298 -0.045692097 -0.39161912 0.08610565 0.17513219 -0.21075676 -0.19538163 0.11170602 0.23199655
566 0.33215052 0.00018313111 -0.027958615 -0.05461626 0.010119869 -0.1443782 0.114204176 -0.13226222 0.036374863 -0.10504356 0.36322927 0.33139718 -0.2044608 -0.05495686 0.7160793 0.30709952 -0.40680146 -0.25531885 0.076818824 0.37914416 0.1338835 0.12851568 -0.6407761 -0.30972213 -0.5177145 0.024512514 -0.4435959 0.48074085 -0.23980406 0.117285 0.24713424 -0.4451304 0.25473237 0.22545145 0.09676159 0.190939 -0.03973595 -0.17220542 0.053377967 0.48370174 0.07809985 0.25810733 -0.17425096 -0.4312389 0.033999935 0.15063858 -0.09746382 -0.14006019 -0.025487678 0.58024067 -0.12165751 -0.10223484 0.3306804 -0.027982036 -0.08106138 -0.07197561 -0.06177851 -0.3428387 -0.7661464 0.37617412 -0.0038487006 -0.13794711 -0.20335928 0.16828549 0.1182415 -0.47556633 -0.45754763 0.027200889 0.34519815 -0.5364513 0.0706512 -0.13519368 0.29820278 -0.32353693 -0.030411206 -0.0594236 -0.33242756 -0.088157214 -0.3839322 0.37069595 -0.08189862 -0.034201734 -0.25319228 0.25392938 0.1467872 -0.34169167 0.23260354 -0.27309075 0.32389495 0.09010658 -0.06400651 -0.004362584 0.05934171 0.04563621 0.5876222 -0.28215244 -0.22233792 -0.2649521 0.50893533 -0.28716856 0.28052977 -0.42538095 -0.1935434 0.070760585 -0.25741625 -0.56681484 -0.155192 0.23612365 0.6084457 -0.3589596 0.027458232 0.096535854 -0.074744396 0.11750422 -0.48634022 0.10671116 -0.33126086 -0.0062453724 -0.026264073 0.22850434 0.012784958 -0.04794117 -0.37494186 0.23515563 -0.3519174 0.32576668 0.3453006 0.056931395
282 0.1198989 -0.1557628 0.04125784 -0.0138300955 -0.20142943 0.081836864 -0.17858046 -0.0069096084 0.5546283 0.08083152 -0.14925814 -0.006850824 -0.010630259 -0.3967226 0.007989881 0.14519762 -0.09864666 -0.023299955 -0.22196057 0.24593888 0.5610161 -0.14135204 0.65748304 -0.041746903 -0.23560008 0.45251462 -0.40302143 0.06958367 -0.22552554 -0.06987234 0.614536 0.018542934 -0.06863559 0.23630062 0.03837587 0.0664106 0.6784464 0.12932709 -0.23049314 -0.25751758 0.15224819 0.13915893 -0.42605656 -0.23323122 0.14104572 -0.00023400642 -0.23951642 -0.16331264 0.07739199 -0.1371911 -0.19712058 -0.034551386 0.5445616 0.41279823 -0.40795434 0.035849422 0.68003106 -0.096314736 -0.104732685 0.37472996 -0.14290814 0.03129328 0.4225933 -0.07328817 0.22152506 0.009421787 0.21115914 -0.032899074 0.12990443 -0.1868642 0.20278159 -0.2610693 0.034301553 -0.261034 -0.16140553 0.09264068 -0.048739534 0.05394474 -0.046647437 -0.08865469 -0.26852325 -0.25165883 0.15500952 0.18100283 0.42040452 0.4417765 0.37908313 -0.14474371 0.43971682 -0.1316167 -0.07951524 -0.30327782 0.14468926 -0.34457782 0.27489805 -0.36436588 -0.19918014 -0.17459425 0.31112248 0.22256444 -0.2922283 0.08023981 0.18084513 0.060050193 -0.38015416 -0.3233844 -0.019068653 -0.00075093075 0.31206653 0.19711712 -0.014567545 -0.08742796 0.023427244 0.2395012 0.1668371 -0.3229909 -0.47517622 0.2644314 0.26883015 0.48069632 -0.17390102 -0.49034432 0.4520446 0.018342424 -0.22031093 -0.1668375 -0.27512607 0.18392229
1168 0.4698723 0.034162007 0.37876102 0.10654028 0.26309937 -0.20277664 -0.3718253 0.17970504 0.24467598 -0.015726399 0.0769077 -0.35778487 0.34347063 -0.23652762 0.0022172043 -0.01414723 -0.43616 0.015758067 0.058673065 0.40530145 0.15813746 -0.096526474 -0.13400824 -0.023707807 -0.41879728 -0.071476914 -0.30905423 0.4816705 -0.24462345 -0.27925292 -0.2703326 0.2100635 -0.09128918 0.19732656 0.0061674835 0.43430406 0.28432602 0.04533024 -0.20902298 0.312579 -0.15522337 -0.04269868 -0.36621216 -0.06647197 0.28635162 0.0839633 -0.57502705 -0.12585345 0.03754163 0.41490254 0.40781963 -0.67018896 0.19785547 0.020685492 -0.35623184 0.006660392 0.16635676 -0.08694002 -0.021052415 0.23386757 -0.16980223 -0.2105565 0.10787067 -0.08537885 -0.04315303 -0.22968765 -0.2296988 0.13671882 0.3288542 -0.054684374 -0.011719926 0.38986233 -0.5950033 -0.11023761 0.013878874 -0.73142517 -0.26179665 0.056619354 0.17310962 -0.34682885 -0.35133058 -0.1386536 0.25234726 0.4308291 -0.17095135 0.20602638 0.30236694 -0.4000296 -0.09633419 -0.27902594 -0.057072945 -0.15409006 -0.18747081 0.2155346 0.08323419 -0.07880782 -0.21996407 0.108137 0.07667496 0.08057336 0.10068699 -0.4537733 -0.12585852 0.10924489 -0.34086087 -0.33767694 0.2094019 0.10798011 0.63283694 0.3190972 0.18169667 -0.79372096 0.091211595 -0.16079263 -0.08185887 0.28651786 0.2194539 0.29351848 -0.03188337 -0.15273494 -0.57368344 0.19462384 -0.4582221 -0.25957668 -0.4383598 0.015692862 -0.18097702 0.35058847
317 0.36137223 -0.47226235 -0.14945133 -0.20439087 -0.4880985 -0.7703091 0.07469407 0.22387959 0.10287814 -0.19795212 -0.3047723 -0.14482918 -0.06759974 0.009907515 -0.104487814 0.10486634 -0.38303894 0.44193602 -0.044741184 0.2089193 0.06471279 0.25194967 -0.30850044 -0.37780392 -0.11572562 0.27622592 -0.42371222 0.34789133 -0.107206196 -0.273939 0.20744249 -0.5678511 -0.061406508 0.6464788 0.14726606 0.3161602 0.4612118 -0.2932749 -0.3085934 -0.29129845 -0.22500077 0.26333037 0.16516888 -0.113296695 -0.20288774 -0.02860152 0.16233285 -0.19103207 0.20442188 0.5621592 0.43741193 -0.6500933 0.09734333 0.37578958 -0.35854062 -0.20706725 0.11593129 -0.45460165 0.1037966 0.18426664 0.06846035 -0.16404507 0.11884459 -0.13095972 -0.12366577 -0.29268038 -0.077141866 0.1674408 -0.16662267 -0.15588634 -0.5606947 0.23268606 -0.218685 0.3166996 0.1863941 -0.19991727 -0.020686138 0.186108 0.14596152 -0.21104157 -0.2741017 -0.5718582 0.08163402 0.19824195 0.26505736 0.16169919 0.255323 0.085391656 0.3346163 0.19293176 -0.06361854 -0.026229 0.07925797 0.36715627 0.24508652 -0.16391562 0.25177762 -0.04110129 -0.32241333 0.17190754 -0.3621076 -0.19203976 0.009481823 0.1860015 -0.07260388 -0.01678816 -0.06154147 0.54505163 0.97888124 -0.3793677 0.42934257 -0.19421616 0.14663313 0.021324946 0.028212497 -0.05843591 0.046126418 -0.22982948 -0.22411186 -0.22607593 -0.2211488 0.12716183 -0.034653638 0.040439606 -0.17477918 -0.48611692 -0.08377564 -0.05456836
1864 -0.0554303 0.06978568 0.61622804 -0.20004892 -0.0058917506 -0.061508596 0.10373996 0.3035802 -0.35260534 0.46099326 -0.0014056502 0.34863782 -0.14758307 0.27603212 0.23583081 0.30757532 -0.15683614 -0.2017953 -0.12966424 -0.12746428 -0.2123899 0.14601699 -0.009395055 -0.24828266 0.14112675 -0.024191186 -0.10860414 0.705204 -0.30056238 0.028045945 0.25950253 -0.33509883 0.32939276 0.040673703 -0.6710888 0.034156334 0.3689138 0.015970595 0.08784141 -0.007281371 -8.731788e-05 0.1070404 0.05574686 -0.14295387 0.35590136 0.12216478 -0.07223257 0.025044853 -0.092989855 -0.16087614 0.24856997 -0.24235366 -0.025066227 -0.0059664836 0.19392484 0.2536347 0.35349753 0.0893645 0.0044861273 0.30852464 -0.09602986 -0.21932489 0.24533121 0.051337108 0.12484283 0.14680699 0.054949425 -0.08444651 0.0043976596 -0.4303889 -0.21770267 -0.9066677 -0.20595923 -0.6620742 0.14228413 -0.018940235 -0.17524818 0.16143142 0.3705741 0.3837454 -0.31094053 0.11455866 0.5067269 0.39671707 0.47237188 0.3781804 0.08317492 -0.5248391 0.2729326 -0.23400085 0.2095525 -0.10435847 -0.035750575 0.4734866 -0.13319162 -0.229195 0.25351158 -0.27174985 -0.16650708 -0.12497534 0.0281065 0.18755084 -0.5269163 0.053668816 -0.044620853 -0.20405062 -0.19731985 0.54605156 -0.0565986 -0.69120663 0.089515746 -0.48211804 0.41614214 0.23860666 0.21852204 0.2711587 -0.34737012 -0.018666431 0.21605176 -0.003687575 0.12357767 -0.038773503 0.25588787 0.52454436 -0.19373855 0.33724976 -0.30255464 -0.1923366
25 -0.046270214 -0.5127909 0.39261863 -0.30021143 0.1911916 -0.3463887 -0.13695338 0.05916944 -0.10361371 0.35430992 -0.4811398 0.55034196 0.32834756 -0.49082372 -0.14914194 -0.1820066 -0.07898598 0.036671262 -0.3050725 0.44332358 0.0686755 0.42478678 -0.12617105 -0.22731449 0.008491272 0.45678517 -0.03016844 0.54741466 -0.06378762 0.0014488117 -0.21864992 0.04214256 -0.65394765 0.41120204 0.3918955 -0.07447804 0.3707826 -0.28052348 0.14112663 0.06420727 -0.5366552 -0.076656535 0.13988884 -0.30388495 0.22093484 0.07784466 -0.16842455 -0.2733055 -0.09734842 -0.17290227 0.48790747 0.14376667 0.18652312 0.052360665 -0.23901317 0.10877202 0.36389756 0.013429916 -0.5561359 0.25031927 -0.064347155 -0.26405528 0.4900956 0.09709516 0.5713763 -0.3170303 -0.19299789 -0.09078723 0.30653667 -0.36941433 -0.32052162 -0.1182273 -0.19664633 -0.611356 -0.022661345 -0.730854 0.05153925 0.14336851 -0.004914613 0.4824005 -0.017680207 0.21318187 0.46685457 0.31096494 0.039142977 0.04020048 0.25244343 -0.2197663 0.079607554 0.22030732 -0.32985005 0.41020665 -0.21043634 0.10879636 0.3225375 -0.10888436 0.08543068 -0.25741848 0.10369344 -0.17093503 0.10438957 -0.42655686 -0.123611614 0.18954891 -0.023274636 0.084403016 -0.24222083 0.0026703416 -0.05896951 0.117889166 -0.27833307 -0.39540544 0.60290736 0.20588651 0.104412235 -0.2955206 0.15254726 -0.54120547 0.11525507 -0.29418802 -0.2606031 -0.04668628 0.5463994 -0.5942662 -0.33140132 0.17668073 0.024624368 -0.26375413
606 0.241051 -0.42842183 0.056686062 0.079909064 -0.13342482 0.052459598 0.021890873 -0.15334266 -0.06329434 0.0059400066 -0.28478482 -0.041945633 -0.34559095 -0.17608318 0.22074741 0.2607051 0.16946535 -0.18567993 -0.2693873 0.13761713 0.40993634 -0.048990227 -0.047658075 -0.1591817 -0.0069500064 0.4426729 -0.1732698 0.27552667 -0.51471883 -0.1576544 -0.007121383 0.048390888 -0.10320523 0.018765563 0.28870875 0.11390286 0.26883903 0.23010366 0.22048672 -0.103382275 -0.05749882 0.06745286 -0.15200225 -0.05685019 0.24886245 -0.2787434 0.21087277 -0.30937168 0.18813543 -0.15186676 0.56306 -0.5005638 0.2718141 -0.134608 0.03351859 0.42132053 0.2853503 0.20468146 -0.41274327 -0.042868853 -0.018313352 -0.2671405 0.26748648 -0.18631169 0.06417138 -0.063768856 0.21089114 -0.07914279 0.047337152 -0.1471502 0.26453233 -0.39743465 -0.014528516 -0.2631139 0.50616777 -0.06243458 -0.32686114 -0.08000211 -0.1650443 0.2897323 -0.01551737 0.09312745 0.030519769 0.40652847 0.06393007 0.59744513 0.62251294 0.02711368 0.14581335 0.15003201 -0.29159972 0.08437229 -0.4135578 -0.013198199 0.33520976 0.24331334 0.09208393 -0.25344202 0.20830838 0.080520675 -0.00560289 0.16543958 -0.08666196 0.3926024 -0.05187966 0.03462034 -0.29545537 -0.5484755 0.6235707 -0.21435393 0.08175736 -0.04796084 -0.12367424 0.06048842 0.08953488 0.08386175 0.04829723 -0.097257964 0.36582434 -0.039997682 -0.027121624 -0.13639997 -0.041329235 0.19601019 -0.26701152 0.021787675 0.14089994 -0.04027779
2466 0.31957936 0.24223694 0.24374677 0.41013682 -0.07183219 0.008752712 0.38473445 -0.15053152 0.2939991 -0.38270348 -0.07166945 0.073933244 -0.16571231 -0.32961583 0.43362853 0.20371702 0.021841787 -0.23833673 -0.42933303 -0.0025483945 0.17019795 0.492934 -0.046171732 -0.109084375 -0.81497157 -0.18325801 -0.021262173 -0.16814071 0.18093064 -0.58589727 0.20335765 -0.3920996 -0.1623586 -0.008126328 -0.2883495 0.5500017 -0.020130025 -0.024127007 -0.13811393 0.12165874 -0.57795584 -0.22119495 -0.23935495 -0.36933628 0.5178802 0.010614554 0.15032278 -0.31444204 -0.24304697 -0.047445197 -0.07556451 0.2179506 0.5417876 0.43802378 -0.21819346 0.31716755 0.744204 -0.27798206 -0.24153489 -0.14234889 -0.02956296 0.3676904 0.23254602 -0.10401047 0.010735174 -0.15228625 0.00011544782 0.20053482 -0.28044528 -0.37998894 -0.08993265 -0.123908035 -0.63219357 -0.116553605 0.20585176 -0.024987614 -0.107270375 0.02945099 -0.21803385 0.71750945 0.24062955 -0.44121638 0.40985548 0.47113606 0.23813444 -0.7027466 0.13266876 -0.11877009 0.53055334 -0.07684962 0.12130627 -0.777326 -0.45210764 0.17649928 0.12089841 0.25095007 -0.28386885 -0.08249366 -0.12915201 0.025841292 -0.004884151 -0.0036751986 -0.40421328 0.56849796 0.056583144 -0.1754881 -0.009461729 0.39931345 -0.1741339 0.015038685 0.34636104 -0.48378697 0.37251404 -0.030226815 0.14308254 -0.14070845 0.6158129 0.1276119 -0.31569454 0.06610739 -0.29023957 -0.14223434 -0.3874806 -0.4069421 0.13124369 0.10444503 0.013907216 0.018458612
583 0.4008104 0.47515443 0.09794162 0.27890864 -0.0885334 -0.13473098 0.22616427 -0.43762723 0.12211075 -0.3242896 0.02549637 -0.17046134 -0.2671582 -0.6960742 0.1772163 0.5137255 -0.30292445 -0.2260247 -0.13016011 -0.14156865 -0.032193802 0.23993598 0.18598479 -0.20005772 -0.7376208 -0.32233822 -0.23434687 0.0156134 0.0013618738 -0.40406805 0.4008392 -0.16998503 -0.2778499 0.03870358 -0.2793987 0.42872614 0.41960308 -0.25852454 0.17973642 0.258104 -0.45975715 -0.22328372 -0.2956532 -0.27558994 0.36248815 0.11212452 0.21382913 -0.022385133 -0.070682734 0.289512 0.17722416 0.12922686 0.33824182 0.02702314 -0.3245184 0.018077428 0.7723829 0.18288587 -0.22885346 -0.24712199 -0.17024648 0.48337832 0.18227851 0.1204984 0.09468139 -0.3061947 0.20690869 0.04073445 -0.1450331 -0.32787386 0.037910078 0.23944518 -0.5106168 -0.3125958 0.18039386 -0.11594176 -0.20198114 0.09410473 -0.042548433 0.7736317 -0.12640956 -0.012534124 0.13866659 0.4766726 -0.09863793 0.094190255 -0.1652264 -0.24439156 0.28521898 0.04727861 -0.21402006 -0.7004551 -0.038743485 -0.041090097 0.40430224 -0.018089721 -0.3627932 -0.23685546 0.23204273 0.06487745 -0.14646445 -0.11521931 -0.2689144 0.31773937 0.14885935 -0.10578868 0.28223473 0.25844583 -0.003370054 -0.13468058 0.2399415 -0.29574877 0.17839661 -0.21997514 0.05878213 -0.37943527 0.28833628 0.03614959 -0.012377626 0.19154587 -0.08447472 -0.2812008 -0.285461 -0.42519888 -0.14883643 -0.2722234 -0.025914421 -0.09986543
1311 0.10291792 -0.21958883 0.06500757 0.59192306 0.23347813 -0.16038418 0.10437932 0.002801954 -0.22927251 0.07406175 -0.2698875 -0.020810856 0.015672106 -0.43774903 0.19686152 0.18954954 -0.47800377 -0.3452839 0.13221605 -0.023859188 0.058915704 0.38009587 -0.16815464 -0.39043352 -0.11161902 -0.00896809 0.068212636 0.3855988 -0.122704744 -0.40932098 0.22076291 -0.18955697 -0.3945394 0.06771891 0.5012955 -0.011149084 -0.07542498 -0.48345298 -0.28813905 0.24104267 -0.27132982 0.24769366 0.017922958 -0.116289675 0.26102823 0.22008042 0.07840858 -0.017535394 -0.45049798 0.01533325 0.11317762 0.37912565 0.48932898 0.55126923 -0.12567015 0.2753347 0.6723351 -0.0029834597 -0.39134234 0.03025264 -0.024728289 -0.13777569 0.11901445 -0.34141076 0.19165839 -0.34590474 0.116631344 -0.24195021 0.013340424 -0.11231808 -0.1108599 -0.005695689 -0.6309387 -0.07510011 -0.3031023 -0.19859596 -0.16106443 -0.57231176 -0.07954172 0.22802734 -0.4797225 -0.4467197 0.6238877 0.08473456 0.2813712 0.44377077 0.29971045 -0.1652679 -0.041815843 -0.28202853 -0.558647 0.106394626 0.40930724 0.3027753 0.0056922175 0.23141548 -0.06459776 -0.30897492 -0.33019823 -0.021297183 -0.09940098 -0.08026461 -0.13605772 0.11406782 0.20250948 0.016913973 -0.020401753 -0.23931594 -0.10596184 -0.26234418 0.19603762 -0.28465584 0.028338945 -0.13712919 -0.41337648 0.44666725 0.27734327 0.609814 0.0014463593 -0.3895229 -0.29882145 -0.5611117 -0.15683769 0.26982293 -0.45002887 -0.11997649 -0.15048335 -0.037258573
