2708 128
1 0.24337304 0.10575599 0.32016376 0.11087227 -0.057859045 -0.3136515 0.19894844 0.017606009 -0.068030134 0.11470125 0.14299735 0.0025841736 -0.2795443 0.01014183 -0.011415346 0.12629808 0.3713706 0.13100392 -0.09967972 0.03390176 0.19467324 0.31473333 0.058003377 -0.15795688 -0.009789812 -0.025771588 -0.13541986 0.24673885 -0.35305992 -0.021451011 -0.19114657 -0.029130567 0.24023096 0.0751338 -0.26590422 0.048273496 0.13687779 -0.020902423 -0.16865046 -0.05366237 -0.02287116 0.3103271 0.010483213 -0.009722359 -0.021038817 -0.104637094 -0.3047124 -0.17378525 -0.2553034 0.0363687 0.005367091 0.21323177 0.09650315 0.2531427 0.09454669 -0.0650037 0.4418051 0.3158389 -0.24477358 0.038658585 -0.098673046 0.071068205 0.051080845 -0.34902003 0.06831281 0.19215867 0.09977747 0.14212057 -0.07759494 -0.28195053 -0.12429627 -0.30317205 -0.35485962 -0.27810407 -0.015887262 -0.12296515 -0.07199433 0.044736315 -0.018102977 0.42404747 0.10587946 -0.09974876 0.020352408 0.34594855 0.13078223 -0.15873252 0.09811488 0.015914515 -0.04589628 -0.03246707 0.16978969 -0.12983681 -0.0791121 -0.0005500446 0.11125746 0.12075709 -0.389545 -0.37621754 -0.090041764 -0.07491215 0.057665426 0.23320527 0.043155022 -0.08850032 0.1306412 -0.11871108 -0.138862 0.32859093 -0.08443827 0.14357196 0.2463107 -0.14716864 0.034560345 0.10824784 0.04868011 0.038077418 0.17797372 0.30872175 0.15824138 0.18285789 0.08629931 0.0865171 -0.081383385 0.12211167 -0.026983079 -0.007719271 0.077694274 0.34693077
634 0.14168128 0.24471882 0.31913826 0.15036944 0.05936612 -0.12331803 0.21581203 0.12845924 -0.06720124 -0.06459983 0.041565217 -0.074038625 -0.35545012 -0.096713595 0.095244415 0.2651853 0.2947642 0.15549883 -0.3173407 0.18977033 0.1931402 0.07506508 0.11083879 -0.34279922 -0.12593022 0.12076247 -0.09976971 0.31293398 -0.28314564 -0.08896034 -0.2467875 0.0036086899 0.1768432 0.1576478 0.0075666443 0.0362297 0.29853016 -0.15463075 -0.24837562 0.010053614 -0.14252615 0.1715938 0.055113584 -0.17629237 -0.0843864 0.061155662 -0.4390935 -0.123552635 -0.3953116 -0.2922735 0.075944945 0.25512564 0.21630342 0.2584499 -0.109303765 -0.22152868 0.50062853 0.27344656 -0.28540668 0.07045518 -0.26104036 0.13736746 -0.0700133 -0.4792634 0.2848063 0.024858706 0.17876823 0.21114478 -0.020454261 -0.10770164 0.017277839 -0.22959803 -0.1834642 -0.11670264 0.13517527 -0.3513604 -0.20776327 0.0887424 -0.1649366 0.35489225 0.16448782 0.0357367 0.03456889 0.14384289 0.15725394 -0.044214588 0.14935319 0.009199298 -0.18495788 0.15768032 0.04343549 -0.02103284 -0.2200848 -0.0034275618 0.21753883 0.3117525 -0.22174288 -0.42722642 -0.14803933 -0.3704924 -0.092380844 0.0181255 -0.13520288 -0.037648767 0.34300798 0.15079582 0.047157288 0.35065395 -0.03474092 0.31172314 0.23576237 0.016747784 -0.0795053 -0.11490483 -0.1803433 -0.006759063 0.042055264 0.12149788 -0.18980922 0.1846223 0.02363344 0.10870325 0.19405766 -0.063438565 -0.24378727 0.28568637 0.116967715 0.27596042
308 -0.16817118 -0.33591878 0.04236839 -0.13189556 -0.18229957 -0.36240062 -0.10190155 0.21226627 -0.09235109 0.24878077 0.081998214 -0.10500594 -0.06607037 0.19590399 0.07066165 -0.015862087 0.05556476 0.27614105 -0.13251413 0.39663956 0.17434525 0.13191529 0.1584041 -0.1793364 -0.28422943 -0.08962405 -0.19123882 0.4983934 -0.18123277 -0.54924846 -0.18215284 -0.14239562 0.09673917 0.22079082 -0.14266744 0.080903016 -0.10346068 0.19197057 0.14828631 0.22420748 0.210124 0.2169211 0.13587421 -0.05797692 0.043106526 0.22246681 -0.2924577 -0.18937546 0.01330806 0.074326284 0.25129184 0.35671008 0.43021318 0.276368 0.1558336 0.263129 0.07005236 -0.11930152 -0.08008726 -0.27941766 -0.17682227 -0.36845827 0.0694159 0.121696495 0.100951135 0.25619155 0.09414569 -0.20189391 -0.06028449 -0.12407382 0.13270162 -0.27437386 -0.16865057 -0.028694335 0.4361877 -0.338771 -0.12269729 -0.06772516 -0.14520434 0.50307053 -0.21717355 0.002558072 0.37930885 0.48972103 0.18473196 0.12145467 0.025237113 -0.22170942 0.21794038 0.34282118 -0.24637246 0.12565891 -0.3047342 0.33363795 0.37011087 0.25970498 -0.28172877 -0.38111088 -0.13422233 -0.16320466 -0.3677412 0.32519096 -0.019701414 0.17331581 0.10849523 0.14083825 0.027915904 -0.26417512 -0.045162115 -0.12912184 0.38248044 0.2706979 -0.077372335 -0.13535775 0.19309947 -0.53055716 -0.061531138 0.3438461 0.17934273 0.23723283 0.28260612 -0.15747064 -0.32002273 0.17052048 -0.14962445 -0.10882363 0.15153868 -0.05470626
1871 -0.0032222667 0.0078235725 0.36530557 -0.019381098 -0.06688687 -0.30154806 0.30065125 0.24157025 0.2324473 -0.04335022 0.17338549 0.12156089 0.014263381 -0.26736188 -0.0358213 0.30927095 0.18404832 0.39583504 -0.20021085 0.12253729 0.24994633 0.15839784 0.26197368 -0.37830716 -0.28609532 0.21648346 -0.1723108 0.3527052 -0.1556395 -0.09412816 -0.37517086 0.24942061 0.0487382 0.19543238 0.093685485 0.02276246 0.118345834 -0.02479161 -0.27094594 -0.11587424 -0.17031044 -0.015100286 0.08020244 -0.10371379 -0.3059646 0.022109704 -0.41730425 0.15696186 -0.37454176 -0.37450242 0.22801231 0.053435866 0.26351416 0.03916061 0.24930167 -0.27942386 0.34088334 0.27855146 -0.27953744 0.023997316 -0.36405617 0.13186802 0.31481344 -0.17708588 0.31399116 0.24275696 0.27479923 0.117835484 -0.14217569 -0.20292248 0.07254934 -0.40582597 -0.40918 0.024924943 -0.25502193 -0.3736263 -0.00080409885 -0.22485809 -0.039445575 0.3719637 0.031280916 0.12308776 0.14687079 0.24816415 0.14490041 0.040234923 -0.03500317 -0.029604888 0.15113564 0.24714085 0.4070758 0.213814 -0.03310229 -0.06269471 0.42422044 0.06905917 -0.15670387 -0.24706598 0.080836 -0.20144121 -0.20334455 -0.14168881 -0.09388454 -0.14946783 0.20314144 -0.14299464 -0.051522527 0.3805354 0.2536282 -0.05530992 0.20103961 -0.11422498 -0.13346167 0.068382666 0.32350886 0.27979302 0.26621455 0.27863806 0.13862596 0.073875934 -0.17471461 0.3760162 0.21274772 -0.22043318 0.18039088 -0.19993143 0.14502081 0.014421122
1703 -0.31036305 0.12922117 0.31739825 0.26050365 0.26926297 -0.35742372 0.27319866 0.26312253 -0.06189641 0.16150396 0.3675606 0.029573597 -0.2776487 -0.36179373 0.32625785 0.2593088 0.26385868 0.12504752 -0.22816531 -0.07827455 0.3047034 0.1258612 0.19963045 -0.15022129 0.11120041 -0.1288235 0.14694269 0.16504501 0.11439424 0.16770227 -0.28544566 -0.14735302 0.065410584 -0.09247891 -0.08601351 -0.026469905 0.117392085 -0.13154247 -0.08238152 -0.37066317 0.15915592 0.18707699 -0.38520658 0.0044103013 0.24945371 -0.07165241 -0.30029604 -0.3492533 0.12362328 0.12802373 -0.006068745 0.30623958 0.123721346 0.19612914 0.082773134 -0.03506533 0.44270733 0.16454366 -0.24357088 -0.09651787 -0.25335988 0.14611015 0.17327398 0.042200163 0.2867934 -0.06796054 -0.18634716 0.067973085 0.023899125 -0.1035064 0.13058731 -0.10915457 -0.18039888 -0.298029 0.11404519 -0.20979875 0.16421513 0.14795087 -0.36852825 0.49035823 0.17831893 -0.18832058 0.0047844807 0.45275152 0.08438714 0.060031336 0.035512604 -0.1848045 0.044315197 0.25859308 -0.15070142 -0.12147981 -0.2555843 -0.40406105 0.21915177 0.14080095 -0.43064156 -0.16805333 -0.19165604 -0.1891907 0.029829798 0.4510808 0.15829499 0.21728402 0.47845933 -0.075743385 -0.2150133 0.290235 0.1641221 -0.058313012 0.36188865 0.08220244 0.14942296 -0.23174457 -0.088081464 -0.057364237 0.15606245 0.037398975 -0.02755872 0.18000136 -0.19028771 0.07918311 -0.022193242 -0.031927798 -0.021326527 0.07860625 -0.15983543 -0.0053625316
1360 -0.023455082 -0.64919484 0.011085082 -0.0027430162 0.013820191 0.040484916 -0.12283813 0.23480213 -0.24764307 0.5225828 -0.04734229 -0.21684659 -0.24472237 0.26239762 0.058463365 0.27896413 -0.05056744 0.045870867 -0.58223623 0.12861545 -0.04663828 -0.171375 0.08191782 -0.30413076 0.22434436 -0.03371872 0.033620972 0.007950722 -0.35655743 0.012719965 0.11164468 0.23122896 0.031657927 0.12770532 0.39325365 -0.14167528 0.29356804 -0.06668794 -0.051740248 0.21551882 -0.3063826 -0.09230733 0.2085514 -0.2518135 0.15263404 0.08499145 -0.4266628 -0.7404879 -0.18149757 -0.096915215 0.38757563 0.34394184 0.12356633 -0.015035201 0.11839853 -0.07246536 0.6314898 0.007402925 -0.09050282 0.08005396 -0.0072527947 -0.1897278 0.41429648 0.07826158 0.12350019 0.094420016 0.13344003 -0.06575058 -0.12148777 -0.38707542 -0.041091025 -0.1745896 -0.27142417 0.3223596 0.00024662312 -0.17610218 -0.071531184 0.17664386 -0.24666096 -0.14250332 -0.31843823 -0.4656568 0.100114904 -0.24175021 0.41557014 0.2209816 0.034533206 0.15113716 -0.33305526 0.36250952 -0.068723366 0.1270602 -0.20146868 -0.16830862 0.12735213 -0.02548292 -0.12948339 -0.166466 -0.47620103 0.060250312 0.28055456 0.07041905 -0.12523817 0.12667497 -0.08242802 -0.185832 -0.3385613 0.2196617 0.09770002 -0.15371375 0.13941197 -0.15449448 0.21064585 0.08670674 -0.12543292 -0.08391434 -0.15449533 0.07625129 -0.07775423 -0.0897231 0.079554684 -0.5212402 -0.06967024 0.26597166 -0.019968666 -0.101887815 -0.15568332 0.38834044
203 -0.007716381 -0.05768979 0.35851014 0.33140877 0.23780696 -0.15800151 0.35471588 0.20943005 0.23878996 -0.11288469 0.19159698 0.15772851 0.090589054 0.10161165 -0.22875218 0.2028691 0.25233185 0.4273974 -0.014533995 0.3138434 0.26415828 0.24994852 0.042627893 -0.4708949 -0.30243093 0.31454617 -0.13256145 0.12574582 0.051371668 0.24649265 -0.11617875 0.14312358 -0.09984384 0.19484952 -0.06500574 0.23899114 0.35665116 -0.02215987 -0.028161185 -0.18003309 -0.32514745 0.18583748 0.27511746 -0.4524901 -0.14096433 -0.15026689 -0.17606664 -0.15039006 -0.33197358 -0.46404192 0.121008486 -0.12660328 0.46149647 0.23384203 0.16906756 -0.33890834 0.315346 -0.0003954726 -0.33225587 -0.21122772 -0.23188505 -0.24414206 0.22566389 -0.10489311 0.02460358 0.21757086 0.10811102 0.1195456 -0.12495002 0.18361293 0.025753813 -0.15164334 -0.32934016 -0.22423466 0.07935868 0.0008145339 -0.21224996 -0.085613646 0.31203806 0.36488783 -0.07332361 -0.1847774 0.19003539 0.29195604 -0.012365171 0.07369479 0.2138703 -0.19206715 0.014222473 0.48416278 0.20776069 -0.02177764 -0.23131359 -0.3301277 0.543857 -0.19635245 -0.47567758 -0.2527231 -0.080139235 -0.20719813 -0.40806118 -0.105755016 -0.037324365 -0.025887895 0.15601313 0.09988434 -0.10584382 0.24790698 0.10733911 -0.0066843415 -0.14169754 0.043552537 -0.021022964 -0.050440364 0.2607933 0.020308731 0.10188301 0.24944852 0.17902654 -0.1730414 -0.057771508 0.34018692 0.06271129 0.13380145 -0.2775495 -0.27785185 0.21049008 0.45387182
1625 -0.10880653 0.10298009 0.43147296 0.2523638 -0.26537472 -0.17963715 0.09774935 0.230705 -0.09153506 -0.4173999 0.17571078 0.26380107 0.2695565 0.13052289 0.37714553 0.3908609 -0.0030015951 0.056572895 -0.64444476 0.22349657 0.29369473 -0.15490733 -0.14481094 -0.14896862 -0.07428969 0.13900368 -0.1232363 0.30141786 0.24788475 -0.14093013 -0.10779834 0.09125603 -0.0061948122 0.12790158 -0.0048565273 -0.11550076 0.08617694 0.48432526 -0.310556 0.25289074 -0.025796307 0.40301538 0.16185167 -0.29580584 0.17343387 0.28850207 -0.39189732 -0.15779251 -0.07438925 -0.076579794 -0.124015376 0.21618824 0.30642486 0.021197753 0.0752194 0.12519467 0.47930205 0.06336338 0.018630343 -0.3278331 -0.047056753 -0.4724203 0.20911688 0.0300792 0.41859764 0.19682233 -0.13214035 -0.21237102 -0.17582913 -0.13970718 -0.12473694 -0.22843231 -0.31437498 -0.007125827 0.141509 -0.5462826 -0.35137048 -0.022938002 -0.064735256 0.14401901 -0.19122632 -0.5537047 0.14141093 0.48840022 0.3002956 0.22191261 0.06572384 -0.2637564 0.3575717 0.11309221 -0.25764215 0.31908247 0.029218553 0.2576933 0.24991493 0.26282504 -0.12583819 -0.2484767 -0.2517582 -0.16859786 -0.4238927 0.094598934 0.029412482 0.00237866 0.12854955 -0.20438296 0.028288065 -0.066933386 -0.28056234 -0.10095407 0.40069896 0.22797552 -0.071005054 0.005734585 0.5694613 -0.23888762 0.15371059 -0.15358767 0.017383743 0.32897717 -0.071127586 -0.17960688 -0.37388873 0.14155424 -0.122485295 -0.24148224 0.21513507 0.05865878
1704 -0.17267194 0.028567886 0.3048097 0.1890831 0.13395001 -0.31854066 0.37434876 0.048160404 0.02757915 0.23333107 0.5378939 -0.12263983 -0.03852417 -0.2761622 0.1763087 0.28172636 0.2333149 0.1228526 -0.22873172 0.1371082 0.21121918 -0.03879783 0.49704427 0.03045112 -0.13145292 0.036706418 0.19917572 0.20102613 0.06723199 -0.23297636 -0.2932011 0.032222085 -0.01214298 0.13762283 -0.034676764 -0.1469541 0.15034173 -0.24330248 0.2520655 -0.33263925 0.10537736 0.1508267 -0.399363 -0.02020357 0.07386981 -0.11210912 -0.35265186 -0.2719343 0.12224149 0.29101095 0.17289607 0.42794198 0.24457608 0.10020512 0.028610244 0.015048459 0.5883576 0.36491 0.08142013 -0.019050319 -0.21264702 0.026466403 0.10721393 -0.07447748 0.3566202 0.13429745 0.035677925 -0.15451045 0.02135185 -0.016715491 0.13508217 -0.05255307 -0.05723844 -0.52020675 0.24097806 -0.120228045 0.075666316 0.4488728 -0.3309768 0.68293566 0.15268597 -0.38124108 0.2776824 0.49116367 0.28691316 -0.5099108 0.50889844 -0.14378771 -0.027916603 0.2766133 -0.12308505 -0.3514451 -0.25893044 -0.43450332 -0.08485913 -0.119202614 -0.3921131 -0.46773952 -0.3660202 -0.01939112 -0.46659926 0.34354058 -0.26721412 0.06548885 0.26357755 -0.51738006 -0.35561055 0.2720589 0.1597156 -0.24761532 0.35905883 -0.18935233 0.14784785 -0.46819457 -0.0028639187 -0.0899204 0.1510571 -0.13538378 0.1501521 0.14353621 -0.3844737 -0.21230525 0.0069657466 -0.5007508 0.23242019 0.07255309 0.037484296 -0.24687985
1171 -0.046352655 -0.071742564 -0.28377366 0.30692726 0.33359337 -0.043016937 0.26397637 0.045673497 -0.30230558 0.04053212 -0.059051413 -0.122143656 -0.11739335 0.13175642 0.1063309 0.49613655 0.23261021 0.1825809 -0.07334341 0.3510139 -0.08261369 -0.061329726 -0.051102296 -0.19679953 -0.23875375 -0.22734942 -0.031656098 0.04088498 -0.11793866 0.23059437 0.026897522 -0.028680524 -0.11878342 0.17850348 -0.21517697 -0.21824363 0.46154588 -0.042752236 -0.056853883 0.16343205 -0.23020892 0.10411184 -0.03841187 -0.13297096 -0.14232402 0.0036318968 -0.37750652 -0.045742746 -0.19139403 0.062280126 0.27006927 0.028335724 0.30529413 0.21286659 -0.19700146 0.10661982 0.44166514 -0.1996749 -0.4236598 0.17564835 -0.50820386 -0.013196732 0.17709762 -0.23742115 0.17960162 -0.01750372 0.1292032 -0.38792992 0.14042912 -0.12763795 -0.09716026 0.051291786 -0.27470642 0.1849684 -0.16293557 -0.23556063 -0.17076819 -0.2254016 -0.2896186 0.3741154 -0.2570378 -0.31188452 0.41332546 -0.14909607 0.36291978 0.35866353 0.35056454 0.08111606 -0.15294583 0.15419945 0.3458378 0.10171643 -0.30994865 -0.25489116 0.12451336 0.4121108 -0.20872445 -0.29040426 0.07300964 0.1130538 -0.046709854 -0.11168935 -0.24343638 -0.0020474216 0.1026519 -0.113009565 0.037601102 0.23433223 -0.11705537 0.2099228 0.15774292 -0.11732749 0.14813808 0.36555043 0.022599202 -0.23344158 0.012730824 0.37377965 0.14790164 0.19809401 -0.16281465 -0.21890093 0.06452747 -0.066624686 0.082994305 -0.26428717 0.09571555 0.19745407
992 -0.18281074 -0.22354613 0.1473975 -0.037826177 -0.24982354 -0.29397303 -0.09830366 0.08682979 -0.08577423 0.21174558 0.18054703 -0.11525986 -0.09312408 0.19407977 0.10273558 0.043635968 0.07513437 0.3193923 -0.22982106 0.27578914 0.10640367 0.08751311 0.18943794 -0.27494907 -0.20319133 -0.040990908 -0.39235494 0.5372189 -0.002087877 -0.51534146 0.09462441 -0.33282614 0.03711148 0.29004574 -0.016252235 -0.04281097 -0.01802269 0.094656885 0.12536371 0.2253702 0.148954 0.27647397 0.09343023 0.17026967 0.026604163 0.29268023 -0.45165113 -0.29890224 -0.028265262 0.06451769 0.21623562 0.3818918 0.48388836 0.16923323 0.12607904 0.112225346 0.02090003 0.15724358 0.0014943067 -0.2989206 -0.044184186 -0.4583611 0.033621136 0.19198468 0.17068261 0.11904307 0.25165606 -0.2990404 -0.06625637 -0.26593134 0.4450379 -0.21557511 -0.2920686 -0.097067654 0.39501664 -0.31281698 -0.13695851 0.07824236 -0.10495561 0.6981004 -0.13965225 -0.011251721 0.26918155 0.4073501 0.15771273 0.20237003 0.17828275 -0.23789944 0.13059063 0.16709056 -0.148851 0.046928875 -0.39210674 0.22332318 0.19703853 0.40495884 -0.17271928 -0.19910304 0.04265602 -0.12631454 -0.29649132 0.15414299 0.12370418 0.046069436 0.1663212 0.11451961 0.1916456 -0.32629514 0.083290726 -0.29553947 0.32797492 0.44938135 -0.16533548 -0.095225655 -0.06409986 -0.5127702 0.12474923 0.14358929 0.117653154 0.16522415 0.31825656 -0.33593944 -0.2647973 0.36660036 -0.06812706 -0.2519717 0.24721943 -0.010726599
110 -0.15495259 -0.09999101 0.22422187 0.1299733 0.058128823 -0.27207652 -0.28152454 0.11888899 -0.08858095 -0.18452626 0.13892773 -0.2518736 0.39146847 0.23256636 -0.026331136 0.18585823 0.116999276 0.27883536 -0.20057069 0.1821516 0.28625244 -0.03322326 0.2116098 -0.17699139 -0.099224076 -0.04271682 -0.19826695 0.29607454 0.35474744 -0.17009445 -0.049003802 0.3039232 0.3212341 0.15225826 0.19575278 0.05003303 -0.06738993 0.58326405 -0.04105303 0.21157613 0.08783518 0.25334945 0.18001342 -0.07481812 0.09740954 -0.07180274 -0.22642483 -0.4925764 0.00808959 -0.03959273 -0.09954979 -0.028780147 0.28425545 0.19729339 0.49622875 -0.051350083 0.362186 0.02695184 0.00814881 -0.27467057 -0.16683309 -0.08283323 0.034307167 0.1265777 0.4367423 0.18272229 -0.116798244 -0.46311063 0.01608781 -0.24335887 0.025269711 -0.16645443 -0.37758568 -0.032466047 0.20338482 -0.4191839 0.038906816 -0.05715883 0.02406945 0.56920815 -0.19372144 -0.31978267 0.13963233 0.25388286 0.28325665 -0.0700325 0.33830985 -0.070119224 0.15879253 0.3896275 -0.3745351 0.57849216 -0.28390536 0.006206189 0.0870821 0.17097624 -0.037144415 -0.26072025 -0.02947484 -0.088747606 -0.51337665 0.30341458 -0.41324353 0.26039565 -0.17175694 0.05551924 0.09297802 -0.042821847 -0.5889705 -0.08979665 0.38651222 0.33990788 0.3089907 0.27844426 0.10556109 -0.37301898 0.08374624 -0.070679866 0.2909378 0.05974096 0.28930753 -0.17483643 -0.23954009 0.07133297 -0.2754757 -0.09788771 0.3808523 -0.10267842
1359 0.011949846 -0.24719721 -0.33828747 0.2578636 0.34178576 -0.19502953 0.20042036 0.36812404 -0.2322992 0.18421826 -0.078253716 -0.27289727 0.08974216 -0.039362647 -0.007571045 0.16266339 0.17365803 0.28609627 -0.3319865 0.3167472 0.034582555 -0.12913647 -0.114289485 0.054368846 -0.22725193 -0.21135667 -0.28187156 0.18983825 -0.035212558 0.091057114 0.13966976 0.30221838 -0.15064411 0.23050861 -0.15518427 -0.30830434 0.36072594 -0.24081993 -0.027961496 0.5322761 -0.3176507 0.040919263 0.32058725 0.04795356 -0.071534805 -0.08481165 -0.724081 -0.3530399 -0.0731848 -0.026198981 -0.23813213 0.07908418 0.49035066 0.44954762 0.075540535 0.10159728 0.4828622 0.005224554 -0.29919595 0.20202555 -0.116537265 0.10138767 0.32445765 -0.21381366 -0.048398376 -0.112363756 0.18885048 -0.17283674 -0.050969325 -0.30196294 0.057649266 0.17861068 -0.29013315 0.024884157 -0.28831396 -0.5825876 -0.22654329 -0.12137744 -0.24248731 0.06287884 -0.31801483 -0.22012153 0.2607406 -0.22994834 0.3641922 0.34788144 0.19603664 0.2441972 -0.06263387 0.31440938 -0.04854403 0.018588435 -0.4327661 -0.29074258 0.10323476 0.18525344 -0.18849668 -0.15069625 0.037357472 0.16616218 0.09172505 0.24595802 -0.3121157 -0.16142333 0.08458037 -0.0895865 -0.13551487 0.22676013 -0.07533147 0.40632948 -0.17293848 0.097642295 -0.048049536 0.25912696 0.19736652 -0.37551248 -0.03289134 0.28080463 0.1746094 0.3541584 -0.46493813 -0.32586938 0.086350314 0.14678565 0.12591425 -0.3067455 0.20910384 0.15262519
366 0.04310219 0.074762754 -0.31557435 -0.12120979 0.53941745 0.021309707 0.23647873 0.070903376 -0.013965653 0.07177967 -0.021317478 -0.07606387 -0.32756323 -0.0956107 0.2927414 0.2647802 -0.014516643 0.3049551 -0.36777997 -0.057262763 -0.037699018 -0.26273113 -0.26265493 -0.13475887 -0.25219122 -0.41600305 -0.1651108 0.3626693 -0.045410514 -0.15646973 -0.02500658 -0.07202686 0.2335855 0.39240494 -0.21710533 0.23304567 0.37292972 0.031143604 0.05606239 -0.1336429 -0.628373 -0.07426235 0.4682791 -0.050241433 -0.058369603 -0.39973465 -0.2825014 -0.3168573 0.3504172 -0.057562638 0.18216234 -0.021937406 0.31526226 0.42136744 -0.09607899 -0.033882603 0.47026643 -0.03847804 -0.5428602 0.103426844 -0.25889957 0.18032345 0.060739167 -0.04746871 0.21634951 -0.05251945 0.25773603 -0.08210089 0.09285076 0.08006425 0.0072637866 -0.10265481 -0.38968262 0.13773656 -0.16527118 -0.23547097 0.1279898 -0.40206614 -0.06201258 0.58808607 -0.15605679 -0.2266942 0.2424204 0.21615389 0.68510056 0.3724561 0.11532919 0.06375934 -0.045225307 0.047032468 -0.0072125853 -0.16995156 0.18370025 0.0031781245 -0.23160298 0.25500593 -0.38225234 -0.3833938 0.09467417 0.13002576 0.032834888 0.05859604 -0.22082737 0.06526801 0.23783857 -0.0028220424 0.008007057 -0.016762974 0.0617658 0.10437798 0.18857084 0.006654189 0.3706133 0.10506239 0.08962784 0.041246947 -0.19513036 0.24752109 0.51410836 -0.19847454 0.14585389 -0.009255888 0.05067064 0.24767 0.35934028 0.11874959 0.085434236 0.23845741
1705 -0.458029 -0.04875391 0.482458 0.24814707 0.16192399 -0.30846047 0.4947879 0.084379226 -0.20732905 0.19767557 0.51574475 -0.059139345 -0.20076247 -0.087242305 0.29878086 0.1729671 -0.1601048 -0.22138318 -0.13379127 0.057301637 0.19787587 -0.16968952 0.08465483 -0.06412227 0.13706724 0.07547696 -0.019312903 0.011781292 0.15728714 -0.41973454 -0.61868364 -0.19322968 0.0014877986 -0.37297532 -0.026502954 0.13547999 0.5557284 -0.33046734 0.08848231 -0.31618324 -0.06751832 0.32604358 -0.5720888 -0.120216586 0.32141247 -0.0068389312 -0.3940527 -0.41080016 -0.20350353 -0.09735667 -0.0073521663 0.3874204 -0.13554706 0.16196398 -0.34476084 -0.04885683 0.72998047 0.051454313 -0.10494072 -0.0074407365 0.017998338 0.23921715 -0.07745019 0.20388956 0.08798405 0.24137378 -0.05160054 -0.03000389 0.07984454 0.20561145 0.23542516 -0.1438321 -0.71187174 -0.39559987 -0.06316017 -0.20426452 -0.16766559 0.1132093 -0.09311882 0.3068322 -0.11644222 -0.039933927 0.25946152 -0.06656053 0.10286807 -0.0022080778 0.27331927 -0.16627736 0.04720121 0.28164586 -0.28855905 0.20999803 0.037035637 -0.31262654 0.23588942 0.27593732 -0.54009223 -0.28313643 0.14189832 -0.19087534 0.018001517 0.38513848 0.08161973 0.19972931 0.39260375 0.13999496 -0.25511518 0.29898658 -0.049885143 -0.23113242 0.49282825 0.0011779275 0.23329754 -0.15529656 0.047948398 0.22806345 0.3386896 -0.085575506 0.062049706 0.29791507 0.07464691 0.19575545 0.08051187 -0.23915271 0.18492475 0.07328611 -0.21691857 0.16282304
182 0.09364544 -0.2471529 -0.08475544 -0.09403328 0.058561414 -0.062335692 -0.2597224 0.10442515 -0.5363273 0.45896164 0.038049202 -0.61124754 -0.21866614 0.26083046 -0.12100153 0.17664522 -0.20164238 0.029792527 -0.67386055 0.12720884 -0.19355054 0.053953435 -0.06337204 -0.22216944 0.05998732 -0.13097338 0.032071628 0.2710049 0.11669544 0.052535374 -0.11305459 0.28374547 0.17334215 -0.2657241 0.28329337 -0.02046183 0.09154707 -0.15279986 -0.0046175867 0.14239417 -0.16857591 -0.0971381 0.08907681 -0.24895027 -0.017089594 0.1463448 -0.19788559 -0.5856147 -0.014368861 -0.38568246 0.21992926 0.33400252 0.23984785 0.30455464 -0.13962218 0.0125268465 0.3821141 0.10414898 -0.2099943 -0.048069898 -0.19006734 -0.06869845 0.4557835 0.094482586 0.19749656 0.08651869 0.35890767 -0.23267823 -0.086693175 -0.5277416 -0.0749394 -0.278059 -0.51450944 0.18884662 -0.09213055 -0.23011109 -0.33444828 0.48545155 -0.16301897 -0.026554616 -0.36730024 -0.3726149 -0.0066030812 0.11694517 0.1820701 0.25072148 0.25852078 0.30719697 -0.085461184 0.2911491 0.051712085 0.005528624 -0.081692815 -0.28038207 0.012382379 -0.32684997 -0.2802306 -0.08949263 -0.37055886 -0.0640958 0.26442677 0.013537417 -0.41115323 0.09901399 -0.04964449 -0.028778946 -0.266582 0.08335543 0.09024101 -0.4040297 -0.13209413 -0.23412967 0.1858612 -0.1517381 -0.10235149 0.17768571 -0.2804421 0.12376009 -0.38991788 -0.037148617 -0.034085955 -0.7484937 -0.033718012 0.36409542 -0.107780084 -0.1375582 -0.19996591 0.33601025
89 -0.06437318 0.1356463 0.20572914 -0.2785784 0.12627938 0.06851986 -0.016583605 0.006517006 -0.16693369 0.24823244 0.056967147 -0.5529778 0.16090031 0.0101274485 0.11422979 0.6652243 -0.22733432 -0.13049512 0.031950008 0.12178499 0.062223457 0.074959874 -0.18643129 -0.19220613 0.012785198 -0.14606407 -0.14106584 0.65816206 -0.301604 -0.27231035 -0.06354901 -0.09226516 -0.19858691 0.48036352 -0.178109 0.45400542 -0.01871809 0.12222696 0.022227656 0.07871662 -0.054118626 0.31821722 0.1807096 -0.2821099 0.060436796 0.12708099 -0.04233197 -0.39628035 -0.1240913 -0.12807468 -0.053933877 -0.14371058 0.08852262 -0.18115939 0.27244106 -0.26414508 0.15015551 0.26686293 -0.42240965 -0.32948896 0.15544736 0.42167115 0.35368437 -0.13388492 0.13503508 0.01309243 0.030612811 -0.16912974 -0.064544715 -0.090050615 -0.19525976 0.03276087 -0.25405186 -0.19256401 -0.09336843 -0.644627 -0.22750191 -0.035896078 -0.20186098 0.4492938 -0.09757999 -0.17984913 0.08458479 -0.3487698 0.6041565 0.11969462 0.48088497 -0.06847257 -0.23431508 0.17144527 0.07294996 -0.17736451 -0.27826747 0.16091385 0.5016357 -0.34933382 -0.15834852 -0.44959575 0.08013395 -0.27396908 -0.14094904 0.2633918 -0.5010449 -0.38284808 -0.24108392 0.012951684 -0.43535963 0.3054705 0.032868233 -0.16173087 -0.21872233 0.0781409 0.22770344 0.24492289 -0.09547017 -0.14642553 0.30438069 -0.1187704 0.29510197 -0.14641632 0.2609622 -0.4071821 -0.08625701 0.16076076 0.02362547 -0.13440058 0.024397867 0.61128944
307 -0.29305583 0.32659337 0.329506 -0.0074443533 -0.35709414 -0.4164036 0.3785039 0.11066344 -0.031414688 0.08053118 0.0057064965 0.02340359 0.34250584 0.27691033 0.4234049 -0.023562284 -0.18096891 0.43669873 -0.28632492 0.20507175 0.24817395 0.021520128 0.030615116 0.008049741 -0.037955 0.17034215 0.076456 0.19625881 0.103737995 -0.26186317 -0.13267273 0.32854322 0.012944146 -0.040711723 0.18960959 -0.083722465 0.37531742 0.12879154 0.08272175 0.2521975 -0.13803266 0.42896718 0.0940129 0.07738585 0.2869957 0.32597363 -0.5994705 0.042359356 0.17381868 -0.09564235 0.073555864 0.23346716 0.16198438 0.012331395 0.3000312 0.49915245 0.15514591 0.22686064 0.18103042 -0.030180683 0.38094765 -0.6332987 0.08777007 0.021415161 0.37780777 -0.030210443 -0.30087554 -0.11859944 -0.05418403 -0.22603427 -0.30971298 -0.3836946 -0.57718635 -0.2835425 -0.09381226 -0.3844394 -0.33503592 0.1212252 -0.07395883 -0.010800726 -0.1604098 -0.34066406 0.26405188 0.31520405 0.25224584 0.38025993 0.10635105 -0.15051803 0.30606613 0.1962381 -0.17690082 0.059392147 -0.31230932 0.037037965 0.2098153 0.551632 0.044610176 -0.4778652 -0.16583353 -0.24588591 -0.73519874 0.27351153 -0.33971852 -0.28448814 -0.12160346 0.1379832 0.14350727 -0.11160368 -0.037701927 -0.10035748 0.316108 -0.014856416 0.32218823 0.22830726 0.12276974 -0.27366453 -0.017783787 0.11003539 0.13055524 0.21819516 0.22967412 -0.11059971 -0.3490822 0.21521662 -0.32511297 -0.12410296 0.037881423 0.090928994
1875 0.09068855 0.14866397 -0.15023898 0.45459878 0.20764226 -0.03994889 0.17817084 0.24390504 -0.53531706 0.23039569 -0.0058745374 0.37999567 -0.07109802 0.13439867 0.15523486 0.10907388 0.42596006 0.3460939 -0.44810066 -0.12951615 0.3272545 0.32151282 -0.18602568 -0.37788987 -0.0065306355 0.19338027 -0.14846122 0.27820176 -0.6004401 -0.3854998 -0.083210126 0.16311896 -0.095330045 -0.27027544 -0.060637187 0.16526574 0.24267851 -0.15195966 -0.30822477 -0.3700293 -0.1279216 -0.03125482 -0.026502306 -0.11890104 -0.35739496 -0.08894993 -0.22707729 0.07574911 -0.1048554 -0.27330288 -0.09016222 0.23424989 0.18522815 0.4403722 0.08783043 -0.1858829 0.18720695 -0.3402335 -0.17186755 0.20501539 -0.20540051 0.038949534 -0.009551561 -0.04196738 0.4134902 0.24234287 -0.25168765 0.054724924 -0.08871575 -0.21732903 -0.17060351 -0.21076502 -0.05169877 -0.16311589 -0.11760638 -0.3835942 0.20983832 0.16407588 -0.116571546 0.56613004 -0.32728708 -0.35815048 -0.2845712 0.30491632 0.15993959 0.42288345 0.43959296 0.08295621 -0.16640025 0.13415323 -0.0052104155 0.36051917 -0.035132144 -0.12460144 0.067874774 0.198299 -0.3198198 -0.31568837 -0.0068581216 -0.3180088 -0.108069584 -0.23930869 0.07481335 0.07171135 0.46619868 -0.45332775 -0.08910147 0.12536466 0.017142307 0.32834122 0.13882352 -0.024467997 -0.0071863174 0.1502731 0.13145491 -0.081386015 0.33001137 -0.096633464 0.119690634 0.2756948 0.09444672 -0.21370491 -0.1388328 0.029417237 0.19015022 -0.011999772 0.2237419 0.38381106
599 0.19890337 0.08150706 0.42266583 0.24183626 0.23879884 -0.051026363 0.08575986 0.09154251 0.08334652 -0.20506479 0.1801221 -0.096947126 0.1278502 -0.15656498 0.14377464 0.26881242 0.26239753 0.054569528 0.06876875 0.19126588 0.31879902 0.32776582 0.26907414 -0.27224076 -0.0010077183 -0.11460842 -0.009760999 0.16084622 -0.028095672 -0.18702327 -0.17008239 -0.040370744 0.14625295 -0.0045614606 -0.16625308 -0.2321838 0.110109575 0.08193577 0.023563614 -0.061949678 -0.20946157 -0.10447674 -0.30098018 -0.24612738 0.040238313 0.15810543 -0.23541176 -0.29765326 0.2707555 -0.09895427 -0.08287163 0.2429965 0.313482 0.3189264 0.036783017 -0.20317566 0.3896956 -0.2187743 -0.35628653 -0.16151588 -0.13835183 0.12939087 0.36022678 -0.30984432 0.08337563 -0.012164702 0.18516907 -0.44548926 0.05849989 0.38794416 -0.012914931 -0.24465102 -0.27169055 0.10328486 -0.14111726 -0.5682952 -0.35257816 0.0194515 -0.16619536 0.49491704 0.13450095 -0.70069075 -0.14313287 0.5992329 0.32485983 0.20430563 -0.11827562 -0.05729511 -0.05194305 -0.090837635 -0.051773623 0.032792296 -0.27732882 -0.013061295 0.29751375 0.33208433 -0.23655346 -0.2743421 -0.35094297 -0.27245146 -0.56509656 0.24320264 -0.032497976 0.16680565 0.51504594 -0.41476828 0.068136245 -0.22850399 0.09304549 -0.057118107 0.49397948 -0.28893462 -0.37804863 -0.0760396 0.070639655 0.24841417 0.18997502 -0.24500792 0.16632764 -0.17163698 -0.51618207 -0.05563436 0.12392825 0.0620253 0.051810514 -0.07678863 0.05349243 0.122226626
158 -0.03655502 0.068906546 0.22798032 -0.009195768 -0.1187757 -0.16685233 0.24284826 0.19808255 0.10705381 -0.16146222 0.03935836 0.16530429 -0.24697198 -0.33839583 -0.13088143 0.21558784 0.11915307 0.2599571 -0.044365928 0.27709964 0.2754704 0.17387824 0.19862801 -0.53486454 -0.42360887 0.32250583 -0.29784447 0.61123645 -0.13168524 -0.104266405 -0.12897234 0.019808767 0.19600369 0.09385477 -0.15694918 0.15542656 0.34688133 0.18507402 -0.08641052 -0.11573349 -0.09880741 0.17734851 -0.016061444 -0.13949148 -0.033696875 -0.036875583 -0.4752284 -0.043408036 -0.056925535 -0.18122153 -0.004427059 0.10008649 0.2941485 -0.051862784 -0.16557431 -0.36914545 0.39855248 -0.31768882 -0.35039613 -0.22403024 -0.38317096 -0.0561508 0.354493 -0.3330157 -0.110672094 0.057530526 -0.020300996 -0.10684856 -0.123504505 -0.14239763 0.094363324 -0.2674527 -0.29396725 -0.13873807 -0.11246665 -0.4472098 -0.006539676 -0.1448784 0.13459527 0.31470245 0.05310888 -0.37984338 0.18014842 0.40039924 -0.07937279 -0.24717662 0.17985341 -0.0153988935 -0.012021383 0.23530786 0.27898127 -0.04882023 0.017400164 -0.15955031 0.13167518 0.39560038 0.045315064 -0.44993085 -0.22979046 -0.3504029 -0.18521605 0.041103456 -0.1936121 -0.27482668 -0.026252603 -0.27117974 0.16361217 0.47480392 0.40191466 0.17912742 0.37199894 0.068695016 0.07778277 0.041177772 0.08652751 0.04133288 0.030127719 -0.15828784 0.04443184 0.23981217 -0.23764625 0.46938765 0.21861456 -0.035247833 0.062050402 0.03618252 -0.028966608 0.23821518
600 -0.16062967 -0.089577466 0.08631793 -0.07029246 -0.24341835 -0.14301476 0.21371853 -0.20754777 0.044864897 0.13449378 0.14427869 0.056565356 0.072221376 0.09144256 0.15438068 0.273538 -0.03157147 0.30230322 0.10204667 -0.02132633 0.1261413 0.28348488 0.11930204 -0.10822508 0.2516269 -0.15141368 -0.2959402 0.034388077 0.20273627 -0.037658103 -0.365351 0.11106871 -0.35618675 -0.073782384 -0.1288152 -0.19732012 -0.03156643 -0.57903606 -0.43183982 -0.27432546 -0.17448471 0.102085635 0.29962483 -0.46908998 -0.31457135 -0.15446694 -0.36336234 -0.797651 -0.11948934 0.029123116 -0.03543135 0.051503874 -0.076705396 0.5454069 0.13453072 0.2103374 0.060044184 -0.3642231 -0.06541462 0.017345678 0.021136506 -0.0014547992 -0.105519444 -0.06279216 0.25507656 0.22850694 -0.21484159 0.032732274 -0.567766 0.16650176 -0.31791466 -0.2409973 -0.30148554 0.03553929 -0.08002813 -0.32515964 0.09611295 0.17631131 -0.013202214 0.27925715 -0.16406047 -0.39394915 0.25937212 0.7738975 0.37909976 0.13656509 0.32695383 -0.2779221 0.16908453 -0.04273745 0.0400488 -0.057350244 0.0029981583 -0.21008018 0.4281512 0.51955694 -0.19851744 -0.09889472 -0.2745881 0.061384656 -0.05991687 -0.023065493 0.1149972 -0.0019246496 0.093164265 -0.052451856 0.31564093 0.04689098 0.19429775 -0.051911723 0.0006574084 -0.015047014 0.10400601 0.39003834 -0.06838478 -0.03453823 -0.031981286 -0.21698506 0.2826825 -0.1893865 -0.16368069 -0.15528099 0.06719397 0.12030153 0.19984463 -0.09214113 -0.21237887 0.40886763
354 0.021283075 -0.07216133 0.3868343 0.26215953 0.34611943 -0.23088995 0.14428753 0.20265424 0.13771065 -0.16673407 0.17289753 0.035792526 0.07307682 0.30097324 -0.33392724 0.14815041 0.6900947 0.3109106 -0.14834625 0.39861417 0.37192753 0.060447697 -0.27025223 -0.6110334 -0.44789955 0.36567116 -0.22646606 -0.08404759 0.08230253 0.12532634 -0.24446785 0.026863035 -0.03327391 0.2232737 0.02139055 0.008436925 0.23386717 -0.26743948 0.140017 -0.34753317 -0.15097314 0.13853341 0.1898893 -0.31624952 -0.20662673 -0.25413007 -0.11784167 -0.1269317 -0.56250983 -0.26906353 -0.15861234 -0.20783399 0.4095171 0.2551687 0.20519525 -0.106105894 0.36821717 0.05914044 -0.20771897 -0.35303324 -0.2954687 -0.39628193 0.10478439 -0.09770436 0.06066745 0.22741666 0.09310338 0.08595839 -0.2216607 0.30386046 0.24536055 -0.22862628 -0.39504215 -0.050793923 0.05343446 -0.07777401 -0.35181922 -0.115541086 -0.029572079 0.37348148 -0.08677143 -0.19041254 0.24757259 0.33938 0.0079379715 0.09927915 0.186129 -0.21903087 0.08431423 0.53334653 0.13762848 -0.16268 -0.30898273 -0.46612895 0.4516771 -0.34335586 -0.4154437 -0.34605533 0.18065391 -0.16680375 -0.4034254 -0.1747076 -0.033058356 -0.02921125 0.10541495 0.21190315 -0.013170169 0.3924041 0.43632457 0.06387213 -0.03515518 -0.039860588 0.01266863 -0.08777497 0.35719654 0.22787909 0.1568608 0.21693137 0.0867508 -0.4586871 0.044923905 0.2445814 0.0031788906 0.11329269 0.0022305986 -0.34675884 0.25237498 0.37168878
1868 0.33665788 -0.0701964 0.17053857 0.21910109 0.08519602 -0.4798477 0.12983577 0.23516393 -0.39875793 0.38833717 -0.08870207 -0.16304156 -0.1960322 0.17032327 -0.2036026 0.25294346 0.46346053 -0.11416726 -0.16368854 0.3622183 0.29492196 0.24631964 0.0011353579 -0.31434777 -0.18733728 0.07043218 -0.41062918 0.29062423 -0.037266623 0.1257673 -0.54123414 -0.31705612 0.36683556 -0.06034071 0.33925393 0.1279312 -0.25846225 -0.30198634 -0.21215749 -0.18795517 0.049311947 0.67522484 0.2312474 -0.1865233 0.036105428 -0.038067788 -0.27288204 -0.27562898 -0.3095855 -0.18698786 0.04828329 0.07179528 0.18244223 0.09330327 -0.07090957 0.097392306 0.008609575 0.32785755 -0.21104184 0.21154498 0.059022836 -0.012644849 0.22730541 -0.18728636 0.5551204 -0.31163463 -0.05390392 -0.09486863 -0.2833583 -0.21888089 0.0061969645 -0.24176426 -0.23132788 -0.36597863 -0.116198055 -0.42208856 0.22901507 -0.03718693 0.10555374 0.22475047 0.04201838 -0.10136948 0.044848457 0.23009095 0.3213695 -0.3451946 0.19785425 -0.17932759 0.053869687 0.043147497 -0.12205711 -0.23544419 0.26248962 0.31004497 0.48414245 0.09429416 -0.0867144 -0.2876181 -0.15224929 -0.11337806 -0.083053455 -0.115039736 0.26950195 0.106658354 0.5052139 -0.051097184 -0.038286734 0.18991975 0.12304393 0.24509074 -0.091041006 -0.3936944 0.10779766 -0.0077685528 -0.32124782 0.09629597 -0.003842417 -0.0034879677 0.4210367 -0.0022133766 0.06464865 0.25357223 0.038243696 0.14848566 0.12792353 -0.1502934 0.10324148 0.6596035
1168 0.23289189 -0.060250092 0.56105715 0.16808714 -0.18277873 -0.33087245 0.04474311 -0.04891019 -0.15544786 0.4264616 0.017296694 -0.0064060814 -0.360872 -0.005857286 -0.31577936 0.09418264 0.23895529 -0.42971632 -0.43098244 -0.07511711 0.047086533 0.22045515 0.27227464 0.051205263 -0.25737047 -0.38973105 -0.09251357 0.5582258 -0.23681945 -0.2375529 -0.046753 0.47680643 -0.15440322 0.10972522 -0.30090067 0.11227714 0.61546844 -0.11783834 0.19672489 -0.058530796 0.21640134 0.16692306 0.29318956 -0.16659445 -0.103509076 0.12299959 -0.13910829 -0.4118792 0.12058038 -0.20281154 -0.07429507 0.07287144 -0.0056178207 -0.02480746 -0.06340316 -0.20728801 0.40468234 0.2900594 -0.47322172 -0.28843558 -0.20475185 0.19776101 0.06279643 -0.08140532 0.30967233 0.11723905 0.09539247 0.3766763 -0.38354677 -0.07195157 -0.00082766026 -0.12867755 -0.3944865 -0.5699126 0.07739876 -0.1330733 0.15144935 -0.3149281 -0.06320947 0.22665639 0.32296434 0.1913897 -0.24436057 0.38166094 0.40562558 0.012057885 0.52801394 -0.25756502 -0.0019781925 0.18410316 -0.22047806 -0.12787522 0.027794482 -0.09851358 -0.23860833 0.6750573 -0.71113706 -0.102434404 -0.5383943 -0.22683397 -0.47122213 0.4736405 -0.04888888 0.42952558 0.19621389 0.22177209 0.46388096 -0.013432852 0.5479191 -0.0019929882 0.096751176 -0.019131213 -0.20603733 0.16329819 -0.063072816 0.17906953 0.31731364 0.31538782 0.008972275 0.25304383 0.043817416 -0.25638294 -0.4542783 0.12624379 -0.18313617 0.21745637 0.19365512 -0.099223934
26 0.13555303 -0.14312658 0.37664634 0.12727667 0.13595317 0.16829032 0.45197055 0.4245368 -0.08404807 -0.10111342 0.084037334 0.01948354 -0.16648248 -0.24781203 0.30435684 0.0070947353 -0.12210415 0.009484191 -0.16168427 0.06941612 0.42847356 0.28434643 0.21088977 -0.28305188 -0.16419347 0.30097526 0.018976295 0.27350545 0.22593732 0.004827686 0.034187272 -0.417027 0.31827474 0.4034877 -0.21471763 -0.08018128 -0.17783876 -0.21087211 -0.0155575 -0.07491057 -0.5270999 0.2601577 -0.24057399 -0.102222025 -0.4496087 -0.021431444 0.15045089 -0.22553985 -0.40923536 -0.22841911 0.1532017 -0.16816697 0.6109631 0.53499544 0.22181156 -0.06455985 0.19289275 0.03339681 -0.35344154 -0.22843839 -0.31941354 -0.066910796 0.31692907 0.23638667 0.05509715 0.20459278 -0.05390976 0.0065723252 -0.28030312 -0.24529858 -0.27868637 -0.39751163 -0.23761989 -0.3193265 0.18069217 -0.44746664 -0.100418925 -0.31078354 0.13725542 -0.060107846 0.14311217 -0.53528714 0.01807895 0.4867649 0.3209832 -0.02942834 0.0052033393 0.032824058 -0.056251906 0.1720162 0.19033603 0.14686246 0.07625015 0.11237213 0.52333754 0.014777637 -0.08651918 -0.4626647 0.17165226 -0.33139554 -0.033216786 0.07696491 -0.33522946 -0.111841604 -0.09178809 -0.16039465 0.0248177 0.33593324 0.17390943 -0.12343474 0.14677885 0.33649614 -0.24569029 0.43906188 0.23303936 0.22508585 0.21512182 0.21643497 -0.041278344 0.097311474 -0.25618392 -0.11450895 0.39285392 0.48514533 0.0151436785 -0.20445138 0.023603428 0.31306067
1742 -0.1994416 0.0073187808 -0.1500385 -0.052608702 0.25731832 0.06686615 0.23839255 0.044488255 -0.09695792 0.4161995 -0.02247931 -0.48180044 -0.07777213 -0.050827708 0.25141042 0.3046098 0.31248498 -0.07479087 0.108478636 0.23330712 0.044336956 -0.024456318 -0.26221493 -0.23034234 -0.3386084 -0.4782492 -0.0989614 0.6647388 -0.11294466 -0.121684976 0.29867893 -0.0070229736 0.060056806 0.47729543 -0.17337136 0.25567597 0.2956221 -0.20468919 0.016194027 -0.14697543 -0.34912777 0.2048242 0.29105297 -0.16371998 -0.20072082 -0.41358447 -0.09777266 -0.363944 0.10225525 -0.019762302 0.14104179 -0.11244879 0.23424828 0.03217605 -0.055713214 -0.13501614 0.29156074 0.1695198 -0.13927877 0.0153100565 -0.16373812 0.26788357 0.15374301 -0.17439638 0.15573303 -0.10246237 0.25062674 -0.36806482 -0.12112705 -0.1276239 0.14415148 -0.024097906 -0.44971502 -0.08439151 -0.24373436 -0.559112 0.028204337 -0.28766105 -0.15373656 0.32654807 -0.29261798 -0.38152677 0.19121446 -0.20271845 0.71973974 0.31469437 0.2895392 0.22702582 -0.13370068 0.10903282 0.21787192 -0.0072327033 0.16207837 0.014020942 0.1527189 0.017556276 -0.19466041 -0.11402608 0.11240085 0.21452846 -0.040398926 0.33853808 -0.5090402 -0.14283554 0.03846723 0.10195956 -0.29429892 0.2796945 -0.15431811 0.08540986 0.2775704 0.051988184 0.06521209 -0.01991831 0.12255782 -0.23085007 -0.26418313 0.0070205387 0.33270872 -0.12608817 0.059906345 -0.46722952 0.0041428264 -0.12103021 0.09137405 -0.3232904 -0.04101559 0.5863137
417 -0.08504469 0.03534741 0.30940762 -0.22410265 0.106985666 0.23086353 -0.091662824 0.0834691 -0.2409512 0.3511219 -0.09456518 -0.2228122 -0.04843318 -0.15366895 0.03180792 0.4689317 0.20396347 0.29047117 0.041264538 0.04581862 0.08791653 0.16821246 -0.14737588 -0.17839047 -0.3049112 -0.12007335 -0.33659056 0.49976566 0.15145648 -0.28099912 -0.1758619 -0.08698581 -0.18458577 0.16751538 -0.26951703 -0.013241161 0.30423045 0.21638988 0.06881993 0.27873752 -0.17168264 0.41333592 0.017604467 -0.234587 0.069370806 -0.1387326 0.0474046 -0.51751053 -0.232322 -0.034103632 0.017373022 0.15072182 0.065614946 0.033768155 0.5718795 -0.18447608 0.45419252 0.2306404 -0.45801857 -0.20933828 0.16189481 0.18096104 0.09958473 0.011442386 0.47944212 0.0020673932 -0.07677513 -0.45886683 0.14365998 0.12260076 -0.08944541 0.031680927 -0.4071889 0.084645934 -0.004987211 -0.31440863 -0.26690045 0.41713274 -0.03321683 0.30608293 -0.2813276 0.12190806 -0.057604313 -0.08098656 0.48688793 0.0042058798 0.25875497 -0.20490491 -0.15487383 0.23551965 0.26058498 -0.009689606 0.00876835 0.2018879 0.25117594 0.011361071 -0.40818194 -0.3933523 -0.13707371 -0.30313855 -0.20241201 -0.15018238 -0.5155197 -0.24531919 -0.16532063 0.092713244 -0.5246016 0.22342175 -0.17592567 0.17646745 -0.103994675 0.23556347 0.14482136 -0.02522521 0.08928907 -0.21039316 0.05277745 -0.20869388 0.27956092 -0.28411564 0.1287917 -0.22524306 -0.2990644 -0.04978863 -0.06535111 -0.39760423 0.0110584665 0.62223506
1864 0.1007644 -0.016270034 0.20895381 0.50693625 0.2391095 0.29793978 0.5758846 0.026200783 -0.17662808 -0.011642339 -0.18808137 -0.32805982 -0.20926927 0.017206987 0.27887776 0.22916792 0.32885024 0.49930093 -0.29239756 0.40137458 0.14859149 0.2557451 0.14803955 -0.12370269 -0.23533756 -0.09210301 0.19818678 -0.16467388 -0.3847807 0.3189478 -0.44844458 -0.05244389 0.17960593 0.3538028 -0.06719452 -0.21615167 0.44831368 -0.26578712 -0.19445437 0.6271708 0.009685864 0.48159993 0.3009832 -0.26116574 -0.32791534 -0.48661414 -0.45211676 0.15296578 -0.13083094 -0.5331365 -0.041618016 0.33145985 0.279839 0.32758167 -0.21265033 0.07955462 0.40756133 0.027277263 -0.58336264 -0.23801795 -0.3801193 0.26375782 -0.13886651 -0.2729284 0.17990412 0.17637382 0.073240995 0.28860363 -0.16751762 0.29034996 -0.013604951 -0.18045962 -0.17241588 0.0961727 -0.033215676 -0.44936642 0.2798389 -0.060005486 -0.1261208 0.65300286 0.16981551 0.050871566 0.12645988 0.1885353 0.06140759 0.23729241 0.34798807 0.07729034 -0.3100774 0.16548388 -0.005336179 0.53415626 0.31282774 0.036821146 -0.25662705 0.20676689 -0.05876212 -0.15149155 -0.1785276 0.107028864 -0.02823346 -0.3607811 -0.2590086 -0.14538614 0.38175905 -0.040304575 -0.021805728 0.3242864 0.13412118 0.19246839 0.28021368 0.19166166 0.06964799 0.42765194 -0.1175583 -0.05740364 -0.27757874 -0.3002529 0.15005748 0.009102685 0.034857422 -0.1456161 0.21956901 0.2439167 0.10751659 -0.00021052852 0.031867467 0.33107144
111 0.11281618 -0.13270304 0.24277864 0.130431 -0.0352291 0.01128334 0.33333066 0.12280567 -0.45629582 0.06173213 0.41024128 0.2478828 0.03809713 0.20330742 -0.040088516 0.53153366 0.17019716 0.20793995 -0.048570197 0.40737584 0.07499945 -0.18348002 -0.1272363 0.09849872 -0.1990959 0.023879575 -0.17622305 0.22407128 0.18784694 -0.06865587 0.04427827 0.4909353 0.5789999 -0.021858849 -0.09630588 -0.30742303 0.052295003 0.079626106 -0.27350459 -0.31442913 -0.05866251 0.30132547 -0.176891 -0.48368165 0.24110241 0.16386023 -0.36825228 -0.43378603 0.24202387 -0.06530353 0.2103576 0.29111573 0.52827543 0.4929873 0.033806775 0.025865015 0.0010663888 -0.037047002 -0.18848054 -0.14557052 -0.34762436 -0.38799956 0.11657269 -0.18856882 0.068269774 0.6673378 -0.35072476 0.11462538 0.14943248 0.092440195 -0.13951711 -0.24072999 -0.62558085 0.31003207 -0.27162957 -0.34955016 -0.35886824 -0.17834738 -0.10955334 0.21979183 0.299135 -0.010767996 0.03555747 0.092934 0.19596905 0.110789895 0.03986713 -0.42139357 0.13509807 -0.17130488 -0.29901224 -0.10348014 0.1910319 0.41322303 -0.0851544 -0.3525 -0.027133191 -0.29086998 -0.07514068 -0.15109983 -0.44117624 0.42842406 -0.30695736 -0.080090776 0.14982629 -0.0060260454 0.07437078 0.0844561 0.09165877 -0.45712227 0.42117232 0.03634003 0.04019376 -0.05966593 0.07910631 -0.53692865 0.054318674 0.032784015 0.25842923 0.13371637 -0.28752917 -0.4979623 -0.15957801 -0.114332154 -0.22141296 0.21502696 -0.045938693 0.025883963
1702 0.17927058 -0.057626918 0.25333247 0.23671989 -0.110232025 0.098163605 0.22385494 -0.077235915 -0.30769104 0.006769986 0.039379295 0.10506704 -0.08620787 0.04317529 0.035276502 0.24257252 0.17452393 0.817858 0.09589653 -0.012430253 0.3696117 0.25819507 -0.015625611 -0.0116935605 0.17640686 -0.019539755 -0.20447837 0.30273932 -0.21356447 0.25527784 -0.58348626 -0.16271222 0.26667735 0.0011841276 -0.23545961 -0.13210487 -0.10967373 -0.44537356 -0.24613208 -0.0880234 -0.12736419 0.29458922 0.277223 -0.33432874 -0.2827255 -0.12664394 -0.45526448 -0.28015095 0.12313544 -0.36294764 0.07180162 -0.0521321 0.14739396 0.46924993 0.14244959 0.18494973 0.21459931 -0.30958915 0.14342734 0.08934528 -0.045217153 0.23049587 0.28819555 -0.08202593 0.15776041 -0.08592618 -0.031643562 -0.35290277 -0.5334767 0.027280312 -0.11590282 -0.38851845 -0.19071755 0.13747379 -0.48769766 -0.5546234 0.47589207 0.43052354 0.101345636 0.36403364 -0.19469969 -0.25672504 0.42540687 0.30334157 0.20330583 0.09977888 0.3121282 -0.16440324 0.011656087 0.33574113 -0.23373131 0.08339058 0.15892985 -0.27888322 0.26550522 0.44062522 -0.49943173 0.17090195 -0.25073448 0.026145168 -0.018596487 -0.2230679 -0.10301259 0.11091877 -0.076828495 0.1759562 -0.023104139 -0.044370092 0.2809853 0.31468716 0.04311904 -0.49519092 -0.005752133 0.23561922 0.065283164 -0.13878188 0.101535335 -0.41208956 0.34303477 0.09867155 0.2100152 0.06048453 -0.07519762 0.17803921 0.4699046 -0.1374305 -0.17914522 0.12359767
405 -0.100207165 0.02442766 -0.095603265 0.30989742 0.47112814 -0.12199127 0.2366852 -0.11854524 -0.27374318 0.005668499 -0.26585674 -0.2096435 -0.0931987 -0.049598448 0.25932145 0.41303065 -0.029102271 0.360616 -0.17940798 0.4220526 0.021454075 -0.07557564 -0.060347706 -0.13159563 -0.38181338 -0.4514169 -0.02885522 0.027507091 -0.13188276 0.018602245 0.02129818 -0.23893127 -0.13506214 -0.18058215 -0.1541784 -0.27464977 0.4959432 0.060034625 -0.26953533 0.2821432 -0.1919034 0.28579938 0.09042412 -0.18959916 -0.34729612 -0.059921104 -0.2808152 -0.15341495 -0.06339492 0.0749509 0.2786704 0.0072193136 0.5300037 0.35171562 -0.22876084 -0.07755397 0.59073055 0.042625427 -0.6244634 0.080180734 -0.5615131 0.22212636 0.28541446 -0.11184657 -0.044346087 0.22497423 0.016852384 -0.24420732 -0.060587443 0.02791034 0.126909 -0.21899247 -0.10188242 0.26989922 -0.3489169 -0.28821954 -0.09678028 -0.16192347 -0.39850515 0.4782139 -0.25447565 -0.33222607 0.49898434 0.120704 0.059075978 0.48399603 0.39588448 0.16335979 -0.017383734 -0.101017885 0.30649614 0.017949365 -0.4596142 -0.3649101 0.030943247 0.17381555 -0.10976854 -0.37997937 0.22821963 0.005516449 0.018996544 -0.23560974 -0.17586204 -0.09093706 0.14459002 -0.14412455 -0.10176414 -0.035134193 -0.21476139 0.21323243 0.21806788 -0.019559551 -0.12254916 0.5481709 -0.12125757 -0.33673084 0.1681546 0.42093036 0.049208134 0.14580631 -0.2420921 -0.07441407 0.07168795 0.046371277 0.2645547 -0.28008693 -0.001293753 0.24359705
1014 0.079475924 -0.22553872 -0.034053106 -0.16724847 -0.121022955 0.2283656 -0.3804596 0.13538438 -0.025054414 0.3725645 0.0023458612 -0.34615812 -0.21357334 0.064561985 0.05026796 0.27556965 0.1859577 -0.003273377 -0.15237232 0.36533806 -0.14014354 0.35930696 0.25294515 0.11819702 0.07450543 -0.051252045 -0.6083086 0.13059337 -0.058202326 -0.12222688 0.06005631 0.026416143 0.2334308 -0.15177804 0.29374567 0.32598153 -0.00039637092 -0.24472544 -0.03982112 0.52226615 0.17474185 0.23642282 0.10116976 -0.6638655 0.26438928 0.06628085 -0.3075855 -0.31324592 -0.15932417 -0.14931752 0.16408235 -0.032016672 0.03795197 0.052158557 0.29256088 -0.19199625 0.31892693 0.1647302 -0.24803428 0.23014514 -0.1762406 -0.25438994 0.25122014 0.4517962 0.14677572 0.050050285 -0.06946288 -0.32243857 0.08472102 -0.21402249 -0.35006616 -0.14858072 -0.7843683 0.008826005 -0.12591797 -0.33722988 -0.06157021 0.53537107 -0.49979568 -0.0462971 0.16171527 -0.25229368 -0.07515105 0.3541648 0.7470237 0.30231452 0.059114497 0.2964223 0.22077577 0.36606246 -0.36432287 0.16118509 -0.36713612 -0.5523065 0.2204082 -0.18672156 -0.17838213 0.2986816 -0.55281043 0.16238213 0.04164614 -0.008114987 -0.30375114 0.10669064 0.2323434 -0.20297064 -0.23044848 -0.00859823 0.28973022 0.07990626 -0.18278046 -0.11291316 0.20156132 -0.17574921 0.057993975 -0.13707267 -0.23584925 0.33064023 0.03218156 0.118183084 0.20684958 -0.34016874 -0.05780036 0.08472743 -0.055499744 0.024142632 0.0118894195 0.030848345
238 -0.09280366 -0.27198014 0.28182733 0.19865815 0.021120638 -0.449632 -0.026437731 0.017945388 -0.24326544 -0.22837181 0.18395868 0.12349028 0.08414884 0.030569542 0.22619769 0.15214539 -0.18457867 0.4743243 -0.095149375 -0.11479255 0.032019418 0.24175027 -0.14527874 -0.208556 0.011849221 -0.20739946 0.08918517 0.12267862 0.12026274 -0.2626772 -0.4529494 0.27011234 -0.08182664 -0.20069097 0.2465578 0.19155926 0.22051051 -0.018795751 0.0032608213 0.10710576 0.17000312 0.37872896 0.30521867 0.10505569 -0.051721785 0.1492626 -0.40766996 -0.16660434 0.044936344 -0.06071016 0.04541113 -0.040620353 0.21080501 0.0028391147 -0.24355099 0.44291934 0.27497706 0.27091658 -0.13136142 -0.10343273 0.0020337158 -0.30851182 0.0009525893 -0.2827492 0.12562831 0.046795383 0.05169221 -0.40151232 0.08387479 -0.22756155 -0.0018300995 -0.5241257 -0.37247607 -0.32500637 -0.17464921 -0.39373538 -0.14415415 -0.06466772 -0.010871378 0.19030513 0.09630232 -0.23354879 0.16206494 0.38670358 0.11396327 0.022954041 0.16515675 -0.26994494 0.0980878 0.006344991 -0.20431879 0.3843397 0.0676556 0.025767958 0.23622943 0.18803245 -0.36712164 -0.2139074 -0.17658821 -0.14429383 -0.3542063 -0.12792473 -0.629544 0.013333442 0.17737071 -0.29660806 0.19482741 0.16049118 -0.1423178 0.24688654 0.3674328 0.053651057 0.32975057 0.056920744 0.027938286 -0.4185611 0.09821492 0.117176846 0.20387508 -0.08864818 0.29170862 -0.03933689 -0.36019272 0.20774585 -0.6377025 0.097128205 0.2921869 0.024568833
368 -0.34161302 0.18061729 0.48996815 0.61851555 0.38592264 -0.23275188 -0.19346628 0.07383334 0.24558179 0.100899436 0.43799755 0.32200238 -0.07391437 0.5262464 0.22901875 0.5063171 -0.39734215 0.23260574 0.0088178655 -0.326698 0.28686532 0.51034963 0.16486582 -0.27850252 -0.07367107 -0.29898813 -0.13930967 0.2530367 0.34665284 -0.14836279 -0.18960798 0.18091851 0.15502797 -0.11214038 0.07433887 -0.13163216 0.16272204 -0.22042026 0.20821126 0.21771345 -0.24708506 0.6491937 0.3359437 0.0033216707 0.40538403 0.40058768 -0.33381993 -0.47072676 -0.20463394 -0.09937558 0.3459773 -0.01686875 0.10579618 0.004901056 0.0765106 0.10182537 0.4044623 -0.10392252 0.022372218 0.41613793 -0.19176862 -0.13829054 0.24757633 0.09140631 0.04496779 0.319732 0.24639398 0.10634163 -0.015614758 -0.027241128 0.17641243 0.0065419273 -0.10398404 -0.0004942151 0.3262726 -0.08423757 -0.19171399 0.2009606 -0.3042331 0.14372693 -0.21785992 -0.2565529 -0.18410131 0.16083305 -0.27207017 0.1773055 0.21428543 -0.2786948 0.02508335 0.030618368 -0.41888854 -0.21104512 0.19596581 -0.3881949 0.20098479 0.1140857 -0.50336605 -0.43097505 0.21174774 -0.19241013 -0.23675655 0.33693036 -0.32579935 -0.21940146 0.21247125 -0.19219407 -0.18345575 0.07958556 0.2218137 0.19582355 0.48287976 -0.26192895 0.27881762 -0.07906328 -0.31300732 0.04227863 -0.13969332 -0.25670123 0.3030517 -0.004943274 0.17659147 -0.11135717 0.08391414 -0.010230045 0.0047808853 -0.13716906 -0.18404709 -0.049378093
747 0.081858784 -0.33775744 0.082233906 0.53751856 0.05078885 -0.3391983 -0.0025002179 -0.10934808 -0.20114896 -0.13652061 0.5455158 0.11565198 0.14646553 0.37341273 0.19184332 0.6279827 -0.16056792 0.058290858 -0.12186082 -0.2433609 0.19780906 0.20245332 0.0061840126 -0.076035835 0.47753537 -0.14196688 0.031016642 0.06903149 0.35516518 -0.30038208 0.13345113 0.13644338 0.22866116 -0.1653949 -0.043940373 0.057367425 0.36909884 -0.20391515 0.20088638 0.28622207 0.32169113 0.41973248 0.084490575 0.076197065 0.1529396 0.16631393 0.072062135 0.039378084 -0.054393336 -0.24996172 0.01844597 0.14203773 -0.14565437 -0.22794464 0.45715 0.27046332 0.57431203 -0.17983149 -0.17956617 0.24992485 -0.37075296 0.18784292 0.13159022 -0.25039712 0.061314303 0.18301925 -0.1630749 0.18307973 0.25753817 -0.07927692 -0.046265293 -0.14875497 -0.51482147 -0.29112294 0.43582082 -0.31201264 -0.083306246 0.24049182 0.08536311 0.29458058 -0.03869984 -0.247327 0.21578307 0.43909958 0.38550296 0.054533582 0.21859114 -0.0725184 -0.28687114 0.46079907 0.20734686 -0.061288975 0.083684534 -0.031640895 0.30894288 0.25140476 -0.05802407 -0.3450069 0.14243305 -0.13211496 0.22863735 0.04459251 -0.6366437 0.02166324 0.42486742 0.120907485 -0.13389358 -0.016176118 0.26695305 -0.11225649 0.63972497 0.03990819 0.27961156 -0.2547828 0.087414294 -0.07349777 0.17754324 -0.41310158 -0.120151564 0.042703565 -0.014570486 0.046987653 -0.2323231 -0.10677725 0.25415123 -0.078471884 -0.45697844 0.01839543
318 0.22074226 0.18816093 0.34593803 0.081532255 0.13539201 -0.07004211 0.34074038 0.22444333 -0.012861947 -0.20837338 -0.12339083 0.23000559 0.17511451 -0.039779488 0.10403818 0.23027788 0.034458272 -0.28373453 -0.07183831 0.29871127 0.21052939 -0.06823274 0.058067787 -0.4043874 -0.23283955 0.6149738 0.013105353 0.24802737 0.35472387 0.07831246 0.027496165 0.08007327 0.20842203 0.29906598 -0.1506592 -0.1519294 0.07487679 -0.000907015 -0.34124243 -0.28791878 -0.229887 0.06576936 0.09762473 -0.49741235 -0.22755334 0.065474704 -0.2504277 -0.19933039 -0.17530645 0.26148358 -0.023167524 0.22319518 0.41641033 0.22268169 0.17270201 -0.10837928 0.5120682 -0.1150473 -0.17609894 -0.22561254 0.11042303 -0.24364826 0.34964284 -0.32540593 0.018115295 0.34934592 -0.19084956 -0.46511972 0.033565637 -0.072757356 -0.072134756 -0.4716524 -0.23387253 0.21869901 0.051454928 -0.6406182 -0.14848307 -0.13282415 0.13019958 0.38070536 0.24645573 -0.29874644 0.16225502 0.8236687 0.23006643 0.2851242 0.014833942 -0.08129537 0.1486916 0.023106055 -0.05145738 0.14366364 0.004124155 0.36028692 0.3037805 0.085861124 -0.19257297 -0.21362934 -0.11863965 -0.4884563 -0.2826417 0.22152995 -0.1214447 -0.13418862 0.67432755 -0.42036903 -0.33612326 -0.09856569 0.09010745 -0.16831389 0.3651007 -0.45401287 -0.035647016 0.08086762 0.42227823 -0.28831849 0.2329777 -0.051415827 -0.14736417 -0.0056912457 -0.29418918 -0.27336556 0.015042448 0.03287995 0.13800094 0.29997557 0.044106018 0.09599412
1094 -0.12739342 0.035878878 0.13168356 0.04700686 -0.22541371 -0.08461768 0.30589965 0.011361597 -0.19933186 0.055525232 -0.022990786 -0.24487942 -0.054599967 0.24386844 -0.0020695038 0.36465427 -0.014626604 0.32477373 -0.10188376 -0.09771706 0.27189365 0.46462333 0.22989249 -0.36692795 0.29814708 -0.32660812 -0.3017053 -0.0013571568 0.0147464145 -0.06239752 -0.14006218 -0.05828011 -0.20639853 -0.049208343 -0.064574234 -0.04801126 -0.42540416 -0.36124045 -0.2818542 -0.33604208 -0.075431384 0.048859525 0.40363207 -0.47944143 -0.5118079 -0.5681556 -0.471362 -0.24969107 -0.3198517 -0.035236873 0.1401098 0.26479083 0.026474474 0.77804744 0.21106051 0.25738287 0.042476777 -0.18727782 0.15723492 0.3772696 0.05399672 -0.008515587 -0.09123687 -0.26664522 0.13908009 0.04641567 -0.34927216 0.18797445 -0.3789812 -0.14017321 -0.14888912 0.09451548 -0.18913506 0.25884506 -0.054896493 -0.14986888 0.1919391 0.21202411 -0.10970038 0.43906745 -0.20316416 -0.80542856 0.34098595 0.43463397 0.42640325 0.13799575 0.4032681 -0.23981893 -0.09668902 -0.07700089 -0.38224682 0.057035033 0.06262913 -0.37157995 0.2222496 0.28928435 -0.33047876 -0.31747457 -0.5111054 -0.16909127 -0.10699889 0.15006074 -0.11342543 -0.08988377 0.22302713 -0.13804974 0.32144794 0.20779808 0.31722277 -0.33631703 0.08369478 -0.025206834 0.056794927 0.5585047 -0.103642896 -0.046698052 -0.21049808 -0.20068628 0.44391224 -0.28277302 -0.20038776 -0.06825289 -0.3560118 -0.22368665 0.34039697 -0.12890355 -0.045896072 0.49942204
384 -0.11711086 -0.060383204 0.35510254 0.29906487 0.24383447 -0.29949415 0.40001437 -0.14214413 -0.053048793 0.34706846 0.71643466 0.21136272 -0.24620523 -0.29774448 0.17827588 -0.003112357 -0.15276903 -0.1404946 -0.15232024 -0.02729984 0.2732903 -0.023799183 0.40797254 -0.045288004 0.19930658 0.15571718 -0.15807845 -0.0013217749 0.09912907 -0.23172127 -0.56994355 -0.030773574 -0.16363399 0.032863114 -0.11064629 0.14218189 0.08829436 -0.17799544 -0.005621373 -0.36844003 0.13584661 0.409836 -0.57639855 0.13003145 0.4328597 -0.039775092 -0.39578635 -0.5523135 -0.07520059 -0.29301798 -0.11484017 0.35443324 -0.12085264 -0.008994802 -0.5409592 0.07680032 0.72149825 -0.06736023 0.05154433 -0.20937943 -0.088114925 0.051234625 0.36133358 0.0709986 -0.049772732 -0.12927105 -0.22302872 0.10461732 0.067963004 0.21858913 0.41358337 -0.16015267 -0.36933413 -0.27487954 -0.20411502 -0.059791505 0.092583 0.30158624 -0.11136761 0.31169364 0.21401422 0.09303776 0.2136075 -0.16416 0.47966933 0.21848844 0.26739332 -0.46805456 -0.029557442 0.271073 -0.11542493 0.32686254 -0.19955671 -0.21104366 0.32591152 0.35293394 -0.52330077 -0.64093906 0.3143589 -0.024236102 0.14301212 0.654269 0.045818172 0.022872748 0.41911983 -0.26856577 -0.09400406 0.19460903 0.12327248 -0.281076 0.28501025 0.04741964 0.19916672 0.07694372 0.25754267 0.099453524 0.3130751 0.24199843 -0.018674696 0.15116936 0.08512188 -0.20982404 0.30148327 -0.04031333 0.1711927 0.12826286 -0.15218465 -0.118132226
1015 -0.35242417 -0.49744758 0.121764295 0.1353097 0.23967527 -0.22825944 -0.33542588 -0.3256549 -0.25380582 0.12182466 -0.04076374 -0.09858075 -0.42487752 0.0028803817 0.12352495 0.0863795 -0.044517312 0.09699433 -0.14373486 0.2831794 -0.05581099 -0.21534759 -0.2356263 -0.010101087 0.30129257 -0.28216156 0.00297541 -0.011696764 0.22637835 -0.14107756 -0.024275357 0.12983312 -0.34595412 -0.14060938 0.07715283 -0.24484071 0.39392972 -0.08385505 0.08502344 0.018907072 0.012674883 -0.18679921 0.01937795 -0.4539394 0.18670832 0.26684815 -0.34033576 -0.31259853 0.16000131 -0.12455575 0.332829 0.37913087 0.18381332 0.16142702 0.16212177 -0.14467783 0.5550121 0.10053918 -0.39869457 -0.2725177 0.16234604 -0.17299762 0.38561285 0.2971889 0.22246622 0.46088067 0.41701487 -0.001328452 -0.14656416 -0.28490102 0.066531956 -0.3834441 -0.3081966 -0.035134304 0.060862444 -0.36195186 0.0005531863 0.52491534 -0.5252802 -0.04277611 -0.4183987 -0.3007841 0.29363137 0.122781835 0.4389016 0.33032382 0.17672557 -0.068211384 0.037516147 0.17192595 -0.12435227 0.21145697 0.008781272 -0.10584407 0.0022052303 -0.15778711 -0.2583795 -0.04018968 0.17355393 -0.13565221 0.4974602 0.046765316 -0.20410758 0.35180643 -0.103931576 -0.105056554 -0.24130118 0.3283699 0.13586259 0.01089794 0.285632 -0.0908807 0.55568343 0.14320326 -0.037277326 0.3885981 -0.082741596 0.22832082 0.031467855 0.38107324 0.006541789 -0.18540369 0.07937045 0.3143663 0.100829 0.07201121 -0.1210625 0.22825642
1968 -0.030554458 -0.025279513 0.084761016 0.15658912 0.27420875 -0.3930794 0.31484637 0.060094364 0.086318135 0.16844726 0.6758457 -0.21845858 0.23497891 -0.124417946 0.18798299 0.15300591 0.04436147 0.2861249 -0.2509085 0.09226577 0.17388128 -0.16235624 0.45651376 -0.03830089 -0.1384121 -0.038357224 0.09229402 0.08728898 0.1521621 -0.032512926 -0.15068482 -0.06081977 0.13129763 0.12190927 -0.2821756 -0.016833857 0.164202 -0.17517425 0.31939185 -0.1748521 0.011670014 0.23311289 -0.24776146 0.13122231 0.19392581 0.13722557 -0.43455216 -0.34959206 0.12801392 0.31319225 0.18514226 0.3382135 0.12672924 0.12127561 -0.13666764 -0.14542624 0.50396484 0.35603288 -0.05533437 0.01897225 -0.03700697 0.18684852 0.13139726 -0.22717841 0.31789264 0.20616436 -0.0011555365 -0.18972208 -0.010038396 0.010861839 -0.019922124 -0.106486306 -0.18272506 -0.5220603 0.0816778 -0.056031074 -0.02261015 0.3171317 -0.3436061 0.6849883 0.18818043 -0.23268038 0.23927043 0.50868326 0.22210824 -0.24327675 0.36521712 -0.24381986 -0.1609207 0.24212103 -0.33384496 -0.24257809 -0.3529418 -0.37547347 -0.11704835 -0.08740151 -0.4769396 -0.40029258 -0.3746298 -0.27613315 -0.2476781 0.35671338 -0.059610322 -0.010825361 0.37182844 -0.4924851 -0.16584668 0.40747544 0.21694654 -0.11594303 0.1936831 -0.24360032 0.044953525 -0.43307233 -0.06538683 0.07425513 0.16063641 0.00828622 0.063890055 0.111406885 -0.30623433 -0.04852891 -0.01457106 -0.25851423 0.13437042 0.17495422 0.0023556007 -0.13125278
1811 -0.14312033 -0.05305685 -0.09857139 -0.0019959195 -0.08187401 -0.6314342 -0.19443628 0.090577245 -0.06378465 0.12948345 -0.036341533 -0.150247 -0.18417364 0.06084867 0.074169606 0.48455283 -0.086914934 0.3606445 -0.24071074 0.3248653 0.44450298 0.2750457 -0.07903861 -0.33159685 -0.23432149 0.21671116 -0.10975093 -0.14459527 -0.023278056 -0.35138565 -0.2316388 0.024784558 -0.17929937 -0.12520005 0.32842228 -0.26143566 -0.14779654 -0.46425828 -0.4537205 -0.13773951 -0.1541342 -0.015468793 0.022223987 0.101864345 0.29631576 -0.2913893 -0.58404946 -0.3061324 0.060684044 0.11146289 0.271952 0.21536267 0.16511072 -0.21532927 -0.009026307 0.22631158 0.22610682 -0.082010336 0.18618986 -0.105970524 0.1997478 0.07578301 0.32320893 0.33294407 -0.19357602 0.17360163 -0.014310053 0.33911 -0.22872745 0.43242803 -0.41267684 -0.20899752 -0.48717836 0.02987308 -0.25448957 -0.15534052 -0.27247453 0.6031221 0.46432024 0.32352158 0.13942866 -0.08089404 0.11541311 0.78717387 0.8493745 0.33243 -0.001746069 -0.18802531 0.24993466 0.298193 -0.32772112 -0.03640631 0.47819328 -0.4319563 -0.3772746 0.57996273 -0.0781975 -0.2879231 -0.101954095 -0.20401481 -0.26058614 0.046362847 0.09304553 -0.36262533 -0.0140652675 -0.046889775 0.10459544 -0.2815497 -0.031425036 -0.23774058 0.565327 -0.09630775 0.20806326 0.19595143 -0.2403682 -0.38741642 0.3067603 -0.0493574 0.15230176 -0.10281017 -0.3604941 -0.46427178 -0.32327822 0.041756637 -0.08680882 -0.1530161 0.22556978 0.038512766
90 0.2544566 -0.056728803 0.038965896 -0.16452354 0.029927524 -0.22835419 0.25472516 -0.15056993 -0.14811525 0.41082636 0.16579634 -0.51723176 -0.03566009 -0.115962565 0.1321184 0.31110704 0.084174946 0.17656514 -0.0485038 0.30063692 -0.046339445 0.3430971 0.111289695 -0.019449824 -0.10113908 -0.2520424 -0.13710977 -0.120611936 -0.03207116 0.02455979 0.1312454 -0.03417948 0.05008484 0.09732933 -0.3279443 0.32267395 0.049785335 -0.21022557 0.017452974 -0.38793752 -0.57309353 0.07991589 0.08003926 -0.107805654 0.3327889 0.005343656 -0.14834563 -0.22636268 -0.16078107 -0.42054117 0.203058 -0.12760957 0.026512193 -0.092104554 -0.01795536 0.19037868 0.092496626 -0.20164964 0.048229177 -0.14720821 -0.44098905 -0.07713075 0.05317204 -0.014863399 0.41968885 0.32019433 -0.15412381 -0.060337096 0.2549917 0.11115141 -0.12679817 -0.03357357 -0.3884606 -0.4293432 0.22181742 -0.1912233 0.09168241 0.68469644 -0.14371859 0.20810942 -0.4153078 -0.16704023 0.11470191 -0.25895065 0.57791644 0.35219902 -0.12860467 0.15640937 0.55190223 0.23679402 -0.3810965 0.19438463 -0.04884701 0.23860255 0.110576905 0.61876136 0.039281614 -0.6424038 0.0806448 -0.014543109 0.08817717 -0.32815915 -0.6854439 -0.1852349 -0.37178966 -0.2075515 -0.23275824 0.49137235 0.2557799 -0.11903377 -0.24155553 0.022942442 0.2059312 0.45978153 -0.4086958 -0.098165385 0.45291173 -0.28176174 0.3983317 -0.14093119 -0.2458379 -0.22182275 -0.85582393 0.19399297 -0.3984279 0.39275822 0.06589295 0.49327517
320 0.049842726 -0.15407084 0.6272559 0.3417108 0.14066389 -0.17539679 -0.10863781 0.27411205 0.013326374 0.29872674 0.10023422 -0.34444934 -0.1498695 -0.066926815 -0.22283939 0.21268925 0.29740456 0.10047419 -0.26032794 0.086494416 0.25354642 0.036960263 0.0099479025 -0.051191125 0.022258542 0.1728174 -0.39233348 0.15619011 -0.15440348 -0.19625816 -0.07594582 0.0120918695 0.327275 0.21417382 -0.27152327 -0.06976506 0.31355497 0.0015065469 -0.07597838 -0.10326793 -0.13801235 0.2694932 0.17837644 -0.21529487 0.08995668 -0.13301766 -0.681786 -0.24240324 -0.004911408 -0.3416979 0.09939221 -0.18948641 0.29757753 0.35677165 0.17271927 0.33371115 0.15349902 0.15602493 -0.058713242 0.13271403 -0.2633485 0.2958656 0.15254036 -0.79821 0.112806834 0.16441767 0.21029472 -0.0035018031 -0.21697141 -0.64155453 0.0980703 -0.061802268 -0.1489083 0.22319515 0.27339762 -0.29331705 0.056371994 0.22211246 -0.26084206 -0.008230549 -0.2010034 -0.064024426 0.028068986 0.03920703 0.33829287 0.2000268 0.13472587 0.11232009 -0.26164615 0.13663477 0.3699975 -0.066068225 0.06005748 -0.29251954 0.17446983 0.29018345 -0.08784712 -0.03387707 -0.21235274 -0.13027538 -0.31384712 -0.038612656 -0.05304028 -0.17789787 0.38339645 -0.37331048 0.0039895987 0.4861414 0.14896436 -0.28191045 0.16830842 0.04005426 0.113222755 0.0995183 0.14999312 -0.012246498 0.30943772 0.15554589 -0.18000163 0.5515618 -0.0894696 -0.025978928 0.12477918 -0.0032325005 -0.19712836 0.19151261 0.47288778 0.22648121
928 -0.32340884 -0.2480499 0.23695941 0.17325015 -0.29709822 -0.51779395 0.13557245 -0.03909901 -0.022444699 0.19852999 0.5172803 0.11546864 -0.12744446 -0.27981243 -0.040417247 0.035419237 0.09038741 -0.44883296 0.075947344 0.28859687 -0.011754349 0.32697764 0.237724 -0.26252335 -0.17026685 -0.30472994 -0.5068566 0.43952724 -0.18526487 -0.36552247 -0.5763561 0.23388816 0.26664853 0.010008884 -0.12967277 -0.2567939 0.1443337 -0.2438611 -0.04176961 -0.5291652 -0.30879745 0.23693815 -0.16081052 -0.032814473 -0.19419955 0.24437441 -0.042517275 -0.39852998 -0.26997793 -0.12278084 0.3649967 0.040118348 0.14095187 0.2341077 0.11703618 -0.07102991 0.19861978 0.2690886 0.16291551 -0.38043934 -0.2399305 -0.22723776 0.082089104 -0.33688298 -0.03387973 -0.0038507392 0.0529668 0.11506909 -0.36958933 -0.17999484 -0.086055875 -0.48354292 -0.52395886 -0.5039102 0.5484299 -0.41496947 0.03648528 -0.22483689 0.019588377 0.32140586 0.010887583 0.07557224 0.09861018 0.18326311 0.44215626 -0.11132819 0.3741064 0.10919389 -0.12512387 0.04483383 -0.2739191 -0.29061967 -0.34084532 0.059061714 0.25159281 0.57180834 -0.4313117 -0.28467098 -0.4458717 -0.48417133 -0.17523368 0.30897686 0.1644173 0.20066413 0.1701757 0.25796616 0.38844186 0.24660759 0.19123374 0.27447185 -0.108836025 0.14524971 -0.061219733 0.23300344 -0.46410057 0.1992328 -0.087540515 -0.09738334 -0.33244315 -0.022089327 0.16175418 -0.31559855 -0.17715617 0.13074745 0.15363964 -0.055647206 0.09490785 0.03542005
964 -0.05299809 0.07872657 -0.057619248 -0.2256474 -0.088933825 -0.357315 -0.14844003 0.2457085 0.24422 0.36068714 -0.33582386 0.065714404 0.1793903 0.00053007127 0.19943596 0.479712 -0.082768515 0.07802259 0.09882409 0.23653638 0.105249606 0.015190547 -0.06214694 -0.08743115 -0.18382649 0.108833134 -0.25258067 -0.042489644 -0.06308965 -0.357348 0.03511561 0.15040958 -0.048942886 0.09357592 0.43142673 -0.27923286 0.020156141 -0.5319846 0.17245972 -0.3474102 -0.12168373 0.21648319 -0.44437158 -0.13548915 0.21017416 0.016800463 -0.6571906 -0.25328276 -0.52396697 -0.1355668 -0.09887023 0.33651155 0.06847101 -0.120376825 0.048229944 0.16194806 0.3542883 0.025642067 0.16137207 0.08332565 -0.31096208 -0.069343045 0.57577896 0.3531384 -0.047890157 0.25398108 0.21728027 -0.19162324 0.14455207 0.28588438 -0.4862971 -0.28552622 -0.17838766 -0.20463555 -0.14490499 -0.28313136 -0.032955352 0.53862387 0.3138332 0.69601077 0.21175589 -0.11688584 0.18167837 0.7920539 0.7676013 -0.12901746 0.09509072 -0.04704314 0.3156899 0.2268292 -0.18731584 -0.277399 0.6563504 -0.538949 -0.26129514 0.25341475 -0.4444768 0.19141527 -0.33851972 -0.07887381 -0.35449138 0.26329058 -0.20230913 -0.19055423 0.633486 -0.0062016547 -0.156149 0.08826045 -0.017392492 -0.31662264 0.35462967 -0.0104059875 0.4355941 -0.07811247 -0.2632563 -0.36390176 0.4267783 -0.18951239 0.019591631 -0.21034463 -0.33028182 -0.38410982 -0.30086696 -0.13098404 -0.26846194 0.015615122 0.20665379 -0.1571215
261 0.045542445 -0.004707804 -0.05086884 -0.047166463 0.6662864 0.0013163575 0.25472134 0.009720638 -0.086406045 -0.026833931 0.09461327 -0.050013993 -0.048831988 -0.29019114 0.18398075 0.4102576 -0.07347767 0.4954415 -0.3124669 -0.07521853 -0.05601036 -0.27345538 -0.33641782 -0.062897876 -0.33701423 -0.2600374 -0.08680519 0.3301223 -0.20968357 -0.24891931 0.26729804 -0.26841745 0.01917443 0.5596354 -0.217014 0.41884065 0.53075296 0.047601514 0.00023146199 -0.1116252 -0.6831422 -0.1238207 0.4843163 -0.009485546 0.07234205 -0.5032746 -0.25011742 -0.2551418 0.33774352 -0.03862697 0.022012647 0.09257757 0.29297924 0.37009603 -0.048648924 0.08028876 0.62384796 0.19267322 -0.517899 0.11113876 -0.18019132 0.21927483 0.022232778 -0.007606185 0.18827401 0.0146218 0.15804216 -0.10744482 0.10166371 0.15743043 -0.014704045 -0.02123261 -0.30571744 0.13086174 -0.36954677 -0.49155745 -0.048734102 -0.44169578 -0.11899145 0.74203205 0.09206995 -0.13006684 0.30773452 0.023601763 0.7043859 0.33163354 0.37443158 0.044399682 0.07749834 -0.047383897 -0.08085159 -0.30780712 0.07927536 0.15882957 -0.20600334 0.29575276 -0.45453838 -0.23544775 0.14160669 0.096627906 -0.09660439 0.009170368 0.013492702 -0.00040318057 0.29038575 -0.17024034 0.15648803 -0.07235536 0.21547987 -0.33765438 0.08993125 0.1345599 0.3445516 0.28289074 -0.10992757 0.050626826 -0.10476622 0.17718218 0.61681944 -0.16254778 0.20733213 0.16928306 0.09385024 0.46574914 0.45889562 -0.06617386 -0.110729665 0.11529801
724 -0.07048725 -0.012184384 -0.1238641 -0.0035032814 0.2630432 -0.091292344 -0.02868367 0.37170097 -0.45160174 0.07913605 0.26231548 0.16136822 -0.07300885 0.058851454 0.33743426 0.10865844 0.2528439 0.4915918 -0.6785669 0.036359727 -0.11147909 0.27086803 -0.036127347 -0.40505847 0.06815888 0.017256789 -0.45384938 0.29666862 -0.54177296 -0.19005625 -0.052392032 -0.00655284 0.1697826 -0.19997478 0.09233804 -0.16698433 0.31502917 -0.16854902 -0.06793121 -0.42761344 0.026613094 0.26113197 0.278942 -0.03967143 -0.24693604 -0.22596407 0.020707358 0.2896447 -0.11616393 -0.12196946 -0.33176234 0.25501546 0.28527004 0.32492307 0.08974841 -0.4706654 0.13461487 -0.11430962 -0.04398672 0.25090542 -0.16260828 0.032275464 -0.11883001 -0.35470784 0.41053477 0.12865436 -0.2761573 0.11441372 -0.0077279382 0.00079492875 -0.3822366 0.011138075 0.01745021 -0.32840967 0.043381624 -0.39756012 -0.0065133055 0.26185042 -0.38072455 0.46529058 -0.411563 -0.34112895 -0.17469658 0.21797824 0.15159447 0.48690462 0.31342006 -0.08116393 -0.25679296 -0.05239199 -0.13508497 0.09106492 0.209376 0.05314777 0.3673357 0.41261408 -0.4188494 -0.4612183 -0.0108112795 0.023548512 -0.30156025 -0.28486365 -0.34070274 -0.13405484 0.39063257 -0.3937041 -0.14551832 0.14373451 0.20846325 -0.10957338 -0.10085502 -0.048435748 0.26366064 0.30072972 0.28550377 0.10679043 0.58545905 -0.018588178 -0.009655825 0.20871359 -0.054728583 -0.0855511 -0.05293854 0.09045432 -0.42302155 -0.09255259 -0.15384062 0.2700406
1576 0.35744548 -0.0607391 0.27952975 0.3289566 0.22182244 -0.285582 -0.35926285 -0.40781307 -0.15887143 0.1633781 0.4305686 0.08817024 0.03560722 0.04373596 0.13373874 0.5241504 -0.12174094 0.257623 0.49357376 -0.17133385 0.12542373 0.21333733 -0.31122234 -0.34698248 -0.22705713 0.027236832 -0.056144565 0.51650345 0.15965004 -0.36663976 -0.49043217 -0.012347017 -0.11547629 0.34321836 -0.025974905 0.018790293 0.27983275 -0.028951209 0.22564466 -0.19233099 0.021460906 0.069074795 -0.10851331 -0.3621237 0.19916499 0.130409 -0.026317392 -0.4244204 -0.19047832 -0.15372652 -0.28955734 0.018187111 -0.0341132 0.26947832 0.33035943 0.10012792 0.2754686 0.12895927 -0.30816454 0.29310256 -0.18283297 0.28019965 0.06857485 0.09516367 0.17506999 -0.08150529 -0.03705083 -0.25453874 0.27608278 0.07961399 -0.13029025 0.26708668 -0.49310195 -0.123125225 0.17559339 -0.39069563 0.07473285 0.1880121 -0.012468659 0.33689052 -0.2062095 0.10633856 0.25858915 0.12491217 0.38349232 -0.110968344 0.12782188 0.03519526 -0.15034993 0.5646511 -0.21588124 -0.22062413 0.1097172 -0.09971727 0.16256337 -0.052049816 -0.24968706 -0.32966664 0.13096467 -0.20970967 0.09047129 -0.09037924 -0.47074494 -0.113037534 -0.14608802 -0.23870118 -0.2913572 0.19626795 0.113486245 0.071827054 0.33622718 -0.13631164 -0.075102285 0.10095543 -0.035277102 -0.34989232 -0.09484778 -0.13828434 -0.16600893 -0.051965706 0.31409818 -0.21770073 -0.037417196 -0.00027162544 -0.15175593 -0.20036186 -0.38808313 0.46628755
1311 -0.15294455 -0.0037456767 -0.06612308 -0.019093907 0.12510368 -0.031725544 0.068367064 -0.108917855 0.09485518 0.2872992 0.08479942 -0.65118927 -0.105975464 -0.08507292 0.14137398 0.4934137 -0.15482076 -0.29951617 -0.2592997 -0.14327638 0.042777404 -0.044778187 -0.0043660393 -0.117698655 -0.12680997 0.07426114 0.077792756 0.37175223 -0.43661264 -0.12893613 -0.16381982 -0.45888844 0.008021235 0.052128922 -0.5216239 0.30857828 -0.37727982 0.13045433 0.12550698 -0.07299263 -0.15696499 0.26880586 -0.061256062 -0.2404446 0.09020945 -0.23116946 -0.08287871 -0.6665334 -0.2993464 0.05025722 -0.00041914257 -0.10600161 0.24736325 0.015251542 0.18346341 -0.26748866 0.16527948 -0.15885189 -0.37505618 -0.21637775 0.0020512054 0.15644072 0.2572797 -0.2689169 0.29563233 0.04732413 0.13657418 0.048330948 0.4293704 -0.13092116 -0.06637097 -0.21512564 -0.24142344 -0.04921373 -0.08257213 -0.52992535 0.06397686 0.15757853 -0.37763306 0.35535753 0.027253278 0.09366196 0.08420093 0.17053378 0.4974932 0.21931705 0.22394004 -0.3068805 0.0065523917 0.19335717 -0.033666726 -0.15482442 -0.010129417 0.08799293 0.6097407 -0.12394978 -0.46597058 -0.121285096 0.28495985 -0.1747893 -0.27494544 0.23519747 -0.5207103 0.14087942 -0.24683143 -0.40264115 -0.181934 -0.032937758 0.23982137 0.1274545 -0.09812133 0.24726915 0.27343646 0.20557716 -0.42948985 -0.18517016 0.1804427 0.07006801 -0.028142117 0.18507949 -0.021857476 -0.23473403 -0.51727885 0.09131543 -0.12809227 -0.37025803 0.089444995 0.5173409
1559 -0.25342992 -0.56038743 0.44447184 0.5339643 0.5930568 -0.29951045 -0.45945996 -0.23079528 -0.37701473 -0.08999715 0.062176757 0.027882472 -0.32418266 0.0018269705 0.039653555 0.36257055 -0.08490289 0.25040603 -0.09259057 0.02498396 -0.014072733 0.33628225 -0.03879219 -0.14226769 0.121950895 -0.31166553 -0.21824987 -0.03392447 0.2356612 -0.10271366 0.15141477 0.37118766 -0.55440617 -0.15081953 -0.053785767 0.06281089 0.24084473 -0.1463611 0.2137607 -0.062837645 0.28742954 0.1576023 0.12348289 -0.4174276 0.066596024 0.16763695 -0.34156153 -0.23002642 0.12822765 -0.13924272 0.26335177 0.46680945 0.017985478 0.145072 0.093095 -0.0673746 0.59914905 0.2019058 0.041459817 0.26994935 0.064433835 -0.14511332 0.20426057 0.049873 0.4098388 0.5506508 0.27976632 0.17908892 0.049405556 0.047279216 0.022796161 -0.057406187 -0.2889458 -0.06432265 -0.009252144 -0.37106594 -0.09951142 0.39259952 -0.114978574 -0.11419064 -0.49135855 -0.35710925 0.39432374 0.09554332 0.20538786 0.37959626 -0.25915602 -0.1444557 -0.15450744 0.30455768 -0.16092983 -0.12632073 0.16219027 -0.14181784 0.19329238 0.35976803 -0.40026 -0.3947936 0.30460805 -0.14854296 0.11589132 0.15451024 -0.27329218 0.19958058 -0.20081054 0.059867885 -0.11041774 0.09248043 0.027958408 -0.19284241 0.47046378 -0.39675426 0.6431315 -0.16717838 -0.16973253 0.053816084 -0.24034368 -0.1866251 -0.2311079 0.62736773 0.13304888 -0.008052184 0.20952512 0.16608757 0.24147967 -0.15304501 -0.39169472 0.32092944
145 0.100078136 -0.011049894 0.16405746 0.15097846 -0.25280663 -0.26998818 0.51830804 0.21855526 0.21805918 -0.4546125 0.25192583 -0.13547046 -0.14059283 -0.30608407 0.08589001 -0.07024268 -0.063871615 0.22311857 -0.05022236 0.20494214 0.34497425 0.4778916 -0.2254781 -0.2974463 -0.41660357 0.21877897 -0.21907343 0.21939668 0.047677856 -0.27375373 -0.29949832 -0.22647914 0.10419119 0.11149487 0.07662161 -0.17403382 0.20848498 -0.03591123 0.12096163 -0.022596199 -0.2464746 0.39890632 -0.042537756 -0.31617332 -0.072923034 -0.17649727 -0.11791579 -0.13503343 -0.23995766 -0.44115546 0.36230132 0.14621654 0.31642735 0.060832422 0.49221882 -0.123779275 0.25552696 -0.11695477 -0.21181485 0.021430993 -0.053880427 -0.17406663 0.48127496 0.21616925 0.107408024 0.17848937 0.094555125 0.18068363 -0.057935283 0.044408236 -0.007294904 0.014393681 -0.43004715 -0.24088176 0.11054545 -0.35032505 -0.029910496 -0.3072378 -0.3069025 0.51760936 -0.10204685 -0.2930077 0.3062443 0.3701489 0.13397989 0.1910997 0.2807513 -0.30683228 -0.07678821 -0.06206213 0.3078269 -0.036782537 0.09957584 0.007363446 0.3213219 -0.10814418 -0.2455111 -0.45647618 -0.43748766 -0.0025960295 -0.0022533897 -0.03854312 -0.20911834 0.03104515 -0.045618497 -0.5671345 0.023429092 0.47838995 0.06747711 0.022136694 0.0077244765 -0.08023239 -0.2208356 0.39084122 0.23466738 -0.0051929657 0.19763139 0.09766607 -0.070485495 0.006379276 -0.20490225 0.31023425 0.18747309 0.13719071 -0.1131009 0.18552762 0.1165221 0.13896936
520 -0.3131674 0.053931117 0.30318448 -0.08928989 0.22019103 -0.030227575 -0.026839893 0.24779013 -0.4811648 0.19660927 -0.19544221 -0.08893799 0.10051468 0.035339158 -0.23872289 0.35594326 -0.14926182 0.19870055 0.005701986 0.07391874 -0.19375308 0.2091626 0.036847588 -0.56280434 -0.17899637 -0.011654394 -0.20131795 0.8049071 0.28255084 -0.42390624 -0.15156241 0.44099882 -0.19361824 0.3700469 -0.08528093 0.15031257 0.25091755 0.251469 0.36133084 -0.18346874 0.07008357 0.57202405 -0.031958386 -0.29243326 0.29203066 -0.10772209 -0.23252286 -0.3863915 -0.37057418 -0.0056843087 -0.026485952 0.17736715 -0.13214667 0.08944364 0.66422594 -0.1560376 -0.04180554 0.3758106 -0.9281894 -0.17783533 0.07012469 0.2657935 0.098506376 0.20153926 0.09541337 -0.15673004 0.0035866743 -0.5994309 0.18359344 -0.11936641 0.02653487 -0.03337057 -0.19687536 0.10079654 -0.033505585 -0.21032234 -0.15825701 0.1983414 -0.01093806 0.32696563 -0.07686873 0.26895347 -0.017359732 0.20505953 0.39494908 0.061306033 0.036919996 -0.29033592 -0.03492982 0.5072744 0.08347927 0.50108033 -0.09631957 -0.055007033 0.2782784 0.083844386 -0.21558398 -0.38328338 0.037569277 -0.041696273 -0.24154966 -0.04524467 -0.45979887 -0.03937054 -0.33245382 0.053904306 -0.39005482 0.43953088 -0.095652156 -0.16038877 0.17945704 0.087597854 0.25730497 0.26590353 0.088607304 -0.39905202 -0.008357402 -0.120634764 0.35720792 -0.1953636 -0.093731545 0.054852173 -0.29121265 0.09612647 0.030574441 -0.47826114 -0.090157785 0.25197285
1302 0.10609733 -0.3528831 0.5159609 0.2744649 0.09716998 0.2630646 0.28917357 0.3862996 -0.03651629 0.1610262 0.17412186 0.022073828 -0.047716852 -0.4236979 0.31171352 0.08078556 -0.080919094 -0.23290105 0.043365568 0.049148154 0.44412464 0.4014349 0.03399765 -0.27874863 -0.24883941 0.58308095 -0.25950682 0.30992827 0.059686977 -0.27667823 -0.17227668 -0.35238507 0.17380343 0.2919538 -0.06566084 -0.086194225 0.12078673 -0.20121856 -0.27243894 -0.011434738 -0.4986227 0.1153403 -0.31649107 0.022433706 -0.49729896 -0.064902976 -0.060550272 -0.14085418 -0.4844714 -0.15449914 0.13784853 0.06282603 0.6626928 0.45797765 0.33975855 -0.16070181 0.32805938 -0.09989248 -0.31480592 -0.19451132 -0.24425277 -0.22108735 0.17318457 -0.021466114 -0.1473976 0.33851326 0.050548963 -0.004625889 -0.039664473 -0.27965105 -0.41234565 -0.37939003 -0.44182307 -0.4304449 -0.0058717476 -0.27466485 -0.27090707 -0.21073322 0.20382279 -0.1351369 0.103990234 -0.23533212 0.014181159 0.67415667 0.18939011 -0.019034209 0.19032906 -0.012163794 0.16130227 0.0006348307 0.02115281 0.16582593 -0.29592323 0.2522874 0.5430919 -0.15843657 0.008748704 -0.42739895 0.15424614 -0.25239584 -0.14745504 0.031822346 -0.43655664 -0.14456601 -0.000324698 -0.07833666 0.021693338 0.1674614 0.09267338 0.044928875 0.092661716 0.13673925 -0.22101282 0.44004646 0.41009426 0.2554905 0.15769176 0.1843745 0.013080721 0.09910819 -0.6065592 0.017816406 0.35461134 0.50065887 0.17260829 -0.12290542 -0.0009089076 0.28074396
1466 -0.3236761 -0.31601447 0.111017674 0.1606466 -0.13321783 0.14938578 -0.4587414 0.033667397 -0.06208039 0.14279985 -0.16908285 -0.42457804 -0.3054821 -0.2183508 -0.10730339 0.4977294 -0.059206363 0.3993654 -0.46131027 0.26729465 -0.23120306 0.33696598 0.14552858 -0.07305922 -0.28553826 0.20876549 -0.27910373 0.0078084706 0.3147429 -0.25945958 0.23168512 0.16823314 0.18851162 0.19745865 -0.24014239 0.15378585 -0.13218519 -0.21413964 0.08653336 0.17624451 0.30992672 -0.13544494 -0.36477116 -0.20510969 0.103286445 0.29472294 0.044303283 -0.39718354 0.022338701 -0.3329819 0.029201437 0.47415727 0.4338604 0.4430715 0.24291821 -0.054718137 0.5993718 0.031538233 -0.38408762 0.10714195 -0.34237015 -0.26607615 0.14149375 0.44718802 -0.05911444 0.3492288 0.373334 -0.42545158 -0.013322236 -0.06880479 -0.014090446 -0.30934808 -0.0607115 -0.012190851 0.030467508 -0.16481091 -0.15667115 0.3532443 -0.18386735 0.33488217 -0.21110637 -0.17541131 -0.06257957 0.51188964 0.60106117 0.2865163 0.22810884 0.08078012 0.24704902 0.42229414 -0.08331997 0.15392359 -0.40942937 0.014309167 0.2276447 0.09057975 -0.18541934 0.059548046 -0.18398774 0.08714229 0.050905813 0.01818649 0.010215527 0.0473871 0.29196328 -0.17327374 0.10718048 0.19756234 0.3398229 0.016216565 -0.46122813 -0.032045167 0.43803337 -0.22708549 -0.17271064 -0.07308288 0.04381412 0.27431512 0.05659063 -0.008337263 0.4039718 -0.1890082 -0.14874853 -0.01894157 -0.2106517 -0.04265537 -0.5187089 -0.011287846
393 0.14037484 -0.63443506 0.05286218 0.39152446 0.21295094 -0.29721415 -0.13056771 0.105873704 -0.012167515 0.105538435 0.40140423 -0.0018470553 0.07960168 0.04444832 0.2253203 0.16553476 -0.08831894 0.44045204 0.0586424 -0.17493574 -0.100989334 0.10405721 -0.24166903 0.0070666373 0.007878999 -0.07686602 -0.13989581 0.14235942 0.05076522 -0.14176525 -0.27425817 0.12604871 -0.001203886 0.08759228 -0.0747989 -0.012093677 0.15369453 -0.32909408 0.15335044 -0.13293165 0.20566864 0.4366199 -0.14534886 -0.45619065 0.28473577 0.04989385 -0.26534596 -0.36263695 0.11534617 -0.11060702 0.22978446 0.26262996 -0.29255813 0.051457364 0.29914224 -0.065318055 0.49829206 -0.11158354 0.009113898 0.045963626 -0.3375688 0.13635759 0.05947204 -0.2174733 0.15638284 0.33304814 0.18021768 0.016239466 0.10983938 0.26420012 0.07172125 0.09309754 -0.94566065 -0.26354563 0.0018108606 -0.12087726 0.14219448 0.27571437 -0.24433781 0.15733857 -0.2430614 -0.05868098 0.17823724 0.26380327 -0.14135951 0.10853162 0.27375776 0.2437167 0.007888975 0.6391177 -0.21334423 -0.144481 0.14524673 0.03484533 -0.013835718 -0.016068507 0.1762993 -0.5498982 0.38759044 -0.29236233 -0.13794902 0.21686408 -0.4275325 0.060048293 0.52190876 0.1919706 -0.05273652 -0.32691073 0.16470703 0.068786666 0.3729006 -0.44238493 -0.006036951 -0.0023313693 0.06008505 0.09287514 -0.10959924 0.0064595924 -0.044638876 0.2665031 0.09525454 -0.021777079 0.1821589 0.101115115 0.28529346 -0.073625855 -0.54775786 -0.08317188
644 0.23588991 -0.11264994 0.22817095 0.36897272 -0.33189052 0.098677255 0.14174047 0.3436542 -0.47004786 0.20481682 -0.15419258 -0.074281104 -0.28525013 0.026276002 0.1835697 0.0828122 0.21133003 -0.1026376 -0.37721708 0.0037259324 0.5927405 -0.20547375 0.15708031 -0.22506411 -0.10182738 -0.45093638 -0.06799009 0.37285498 0.20123199 -0.36248133 0.25424403 0.37062278 -0.3569468 0.005007923 -0.55856085 -0.030313728 0.4564898 -0.35308164 -0.046657838 -0.049160987 0.5002267 -0.059925232 0.5236605 -0.1732486 -0.13542007 -0.15643874 -0.4679333 -0.4150225 0.18910532 -0.20251502 0.059224606 0.20313434 -0.11343996 -0.17494905 0.13173176 -0.4386537 0.24213652 -0.009587294 -0.446042 0.096415326 0.094678946 -0.18538056 0.40044102 -0.10588447 0.16421351 -0.14297096 -0.18713988 0.475786 0.054826975 -0.56727785 0.00058365846 -0.49538344 -0.5616525 -0.05412698 0.4016094 -0.11748267 0.25993812 -0.4115307 0.111138746 0.37232724 0.07971642 0.22121489 -0.3657368 0.44837713 0.017028417 0.4047087 0.37501413 -0.044607464 0.42289793 0.44549027 -0.34782442 -0.16147214 0.10140765 0.25264013 -0.08321256 0.046391126 -0.65997607 -0.40662116 -0.46895906 0.28398272 -0.49529615 0.43386766 -0.035978306 -0.049873315 0.01567004 0.012470611 0.22792208 0.117347375 0.5329077 -0.06593044 -0.19255432 -0.3172192 -0.022222223 0.20798549 -0.039882336 0.13055894 0.48664504 0.16278575 0.11843687 0.07448322 0.018375171 -0.11490023 -0.067850865 -0.20600921 -0.34449485 -0.06772079 0.21172029 0.3024101
1679 0.007173346 -0.1643743 -0.012589029 -0.4450091 0.35470435 0.16953948 -0.023655878 0.20101424 -0.4491774 0.03764525 -0.23468724 -0.43849307 0.13547386 0.09553743 0.123468794 0.39990795 -0.39188817 -0.1597786 -0.16457029 -0.1027175 -0.07591992 0.16134948 -0.19938177 0.06352611 0.29813555 0.04046623 -0.12696795 -0.07931395 -0.117107436 -0.065475576 -0.04087284 -0.057176463 -0.07150203 0.43045554 0.058649573 0.07040191 0.37261683 0.30743188 -0.14386208 0.0758025 -0.100982524 0.2507879 0.027502663 -0.23814148 0.07050064 0.18179822 -0.16767515 -0.5621583 -0.16688663 -0.2956856 0.07302599 -0.1304283 0.13671534 -0.01027936 0.23628068 -0.051521283 0.2047731 0.34230006 -0.41617846 -0.11923458 -0.276532 -0.005847576 0.28951788 0.08480897 0.30885872 0.15479627 0.012827386 0.032864083 0.1333084 -0.21991074 0.08474262 -0.050840873 -0.4041365 -0.17762153 0.0058732945 -0.13634284 0.031898033 0.066638365 -0.17866163 0.47748962 -0.31810865 -0.1137331 0.078892 0.039572723 0.5266663 -0.2848751 0.12225719 0.21661375 -0.1441249 0.3975275 -0.041433755 -0.061048437 0.07664126 -0.12595296 0.11643204 -0.21339138 -0.39346182 -0.6714038 -0.11408631 -0.038651098 0.038868442 -0.2783728 -0.3580714 -0.40446007 -0.2510995 -0.20787996 -0.11488197 -0.19975911 0.48143965 0.016907591 -0.29812548 -0.19151239 0.49813086 0.008275516 -0.032315046 0.09434909 -0.12271196 0.085225455 0.17507568 0.23270556 -0.30378383 -0.6785349 -0.29307166 -0.4185932 -0.29875562 -0.3753633 0.21773756 0.30701438
723 0.05513834 0.18898971 -0.109139964 0.4326644 0.090369456 -0.11522418 0.31252706 0.22412543 -0.19991219 0.11216711 0.043560453 0.25168642 0.12472712 -0.11452123 -0.028006535 0.263542 0.22444654 0.45940092 -0.54120237 -0.23140185 0.20058192 0.4249178 0.20847167 -0.4577149 -0.06024828 0.01674638 -0.2978142 0.18941386 -0.3113671 -0.24799295 0.027853698 0.18099608 0.105187714 -0.19843183 -0.014599804 -0.25754523 0.26469153 -0.10285488 -0.21060482 -0.5158164 -0.05974741 0.23835005 0.118586466 -0.3768925 0.028413676 -0.2915164 -0.25091225 0.29262492 -0.1260108 -0.25215834 -0.13548288 0.28643718 0.17361782 0.30883712 -0.0270991 -0.29767168 0.21182305 -0.2595992 -0.31104523 0.120722964 -0.2079216 0.11826687 -0.008779195 -0.00845186 0.15150899 0.25231105 -0.0463883 -0.28264004 0.074064404 -0.17843689 -0.10808088 -0.042317506 -0.04813632 -0.01979329 -0.20864348 -0.4974974 -0.03550197 -0.04330029 -0.11107586 0.69603395 -0.041450597 -0.36754274 -0.110468276 0.4818926 0.054073364 0.2861943 0.29140395 0.011173112 -0.13103886 -0.051814288 -0.082019046 0.30927187 -0.0452959 -0.1957479 0.32209882 0.19557314 -0.3157898 -0.6715236 -0.13423209 -0.2965299 -0.03830788 -0.34411898 -0.087107256 0.38966104 0.170509 -0.39380154 0.081563644 -0.14497392 0.101630874 0.29242736 0.27293476 -0.16400626 0.05192415 -0.06117647 0.12071324 0.039177697 0.20071843 -0.19419637 0.0564107 0.12814504 0.09898581 -0.5498091 0.14420989 -0.11554848 0.074472025 -0.13827857 0.18617782 0.4767547
1442 0.09957091 -0.37361148 0.39362204 0.5849402 0.15702564 0.03785267 -0.0056358953 0.15285711 -0.026521591 -0.026800867 -0.12386967 -0.14645831 -0.3064948 -0.1540394 0.15034781 -0.12954369 -0.14841476 0.46649072 0.18839616 -0.12846737 0.13364342 0.21345058 -0.43193126 -0.39619976 -0.3593006 -0.003947818 -0.3442653 0.12306546 0.05672654 0.14393695 -0.11143774 -0.057134647 -0.013430596 0.07524271 -0.16002032 -0.27416596 0.18312995 -0.47479603 -0.1731045 -0.19044963 0.36494622 -0.10948702 -0.123331785 -0.2521432 0.32008493 -0.16155235 -0.34652132 -0.19201446 -0.45296717 -0.2835813 0.09091199 -0.10913889 0.22404124 0.17921743 -0.22653644 -0.026097903 0.37362978 -0.11998587 -0.23534316 -0.066095844 -0.21489902 0.5702495 0.29885402 -0.10866748 -0.07754937 0.3387685 -0.35084713 -0.0666498 -0.24227895 -0.4228061 -0.17169377 -0.28246966 -0.4445537 -0.11148864 0.0090097105 -0.6699308 0.3590846 0.018777678 -0.1552442 -0.39258945 -0.20862369 0.03912637 0.2960786 0.06784454 0.21916111 0.46950173 0.43612275 0.10302799 -0.22304162 0.24554482 -0.04236099 0.062874675 -0.012414626 0.24532674 -0.33567795 -0.19445676 -0.006030843 -0.38999465 -0.22705261 0.07151294 -0.10348908 -0.28256363 -0.12030754 0.13365854 0.27595398 -0.24815148 0.08503543 -0.12473355 0.11643384 -0.33735272 0.40530497 0.09152422 0.16433413 -0.53273237 -0.09470823 0.119649135 0.63210315 0.29868504 0.62679285 -0.2404123 0.14877805 -0.17318213 -0.28220856 -0.1114074 0.43055823 -0.09513927 0.31579635 -0.03293117
1721 -0.055902738 -0.65369284 -0.09907122 0.27068892 0.30515298 -0.30217975 0.15573792 -0.02104448 0.07859578 0.30905515 -0.275344 -0.503552 0.053154096 0.15659402 0.081414975 0.1294929 0.1412738 0.29333824 -0.122195244 0.4603564 -0.13125366 -0.09130651 -0.3884289 0.16454183 0.19101341 -0.60690486 0.016680062 0.23461464 0.034968916 -0.07277753 0.5887638 -0.1323937 0.23107415 0.3650551 0.15487425 0.2504815 0.5056798 -0.026438786 -0.0916177 -0.12826222 -0.46680307 -0.2119911 0.0749313 0.08015454 -0.24511507 0.030296812 -0.4189285 -0.50403506 -0.01908577 0.24283384 0.20557377 0.13842747 0.420214 0.43776682 -0.3762411 -0.30628413 0.2410138 0.07754555 -0.41866356 -0.07919112 -0.2931815 0.0010792027 0.6342332 -0.51380867 0.08111906 0.06282174 -0.016439801 0.06101191 -0.05290491 0.04314057 -0.072774485 0.02380708 -0.62305325 0.53132504 0.3881315 -0.32092288 -0.13322566 0.02252382 -0.44811314 0.083437435 0.005364984 -0.370417 0.24123876 -0.13389774 0.41517502 0.3675923 0.62561804 0.119003 -0.10710949 0.40495512 0.43560588 0.016304834 -0.08510841 -0.032443836 0.102918595 0.1905334 -0.28721413 -0.12071364 -0.2024581 -0.060795326 0.026077691 0.055809695 -0.33700654 -0.27023512 -0.2045905 -0.14058898 -0.28827143 0.4757923 0.18308961 0.17703776 -0.30662036 -0.47190422 0.40473548 0.3576313 0.15031883 -0.041720346 -0.16070357 0.06505342 0.017507983 -0.057628836 0.41587144 -0.36765692 0.210988 0.1617327 0.33026284 -0.50034994 0.21961321 0.1636685
871 0.1854847 -0.262418 0.5366039 0.16699447 0.12128104 -0.111513704 0.3269956 0.3646586 -0.2640654 0.2840531 -0.27757862 -0.03865 -0.2286738 -0.17822605 -0.055552334 0.060062177 -0.092646934 0.92964566 0.22257791 0.18295038 0.41925818 0.228996 0.22952151 -0.32713625 -0.012789846 0.150449 -0.389672 0.18731765 -0.019344313 0.2122197 -0.2953197 -0.29196814 0.37226367 -0.19280466 -0.33125517 0.16715254 0.08670036 0.22277975 -0.20998271 -0.045239247 -0.27788174 -0.105684355 0.19702168 -0.6585855 -0.10213114 0.2594736 -0.2978372 0.26426312 -0.14382565 -0.42240927 0.13733621 0.088022225 0.1321887 -0.123849876 0.21319912 0.22235404 0.38354963 -0.13939641 -0.049007155 -0.18779898 -0.2002967 0.37869313 0.20386948 -0.13220268 0.23932537 -0.1784898 0.21928193 0.14303005 -0.24630716 -0.10446861 -0.050455347 -0.51791763 -0.16104546 -0.65145564 0.102113895 -0.51080763 0.048070922 -0.19330956 -0.24107775 0.3608464 -0.0453744 -0.2918767 -0.22183904 0.22802249 0.27570093 0.15744038 0.60771674 -0.31989953 0.05549673 -0.033855602 0.22436301 -0.21320908 0.21564753 -0.070549734 0.2760835 0.097958446 -0.095711574 -0.21451978 -0.249157 0.04267056 0.116031654 -0.33991227 -0.024431048 0.15369962 0.020392071 0.115348585 -0.027975691 0.11461857 0.23427512 -0.037309743 0.29354993 -0.09366976 -0.0028188727 -0.022611616 0.1446232 -0.08653309 -0.0877249 0.37017766 0.25087467 -0.034442883 -0.09468153 -0.16442044 0.14507818 -0.40556705 0.37853247 0.025247546 0.27192378 0.21078083
282 -0.07475397 -0.2666586 0.2634621 0.41040194 0.076166 -0.22695966 0.22970894 -0.23696923 -0.5084131 -0.11553614 0.2501384 0.17262286 0.027926728 0.22246529 -0.074412644 0.40945068 -0.30864474 0.051707745 -0.31779322 -0.22352439 0.047692828 0.28059256 -0.39342147 -0.30837697 0.3923152 -0.22239985 -0.020711813 0.23117885 0.6897531 -0.51997566 0.27307266 0.21254592 -0.029247018 0.22011077 0.046315946 -0.14512898 0.07514425 0.09827311 0.26602072 0.39614996 0.10179035 0.33480716 0.15208818 0.046615086 -0.019312263 0.092057414 -0.22649607 -0.17914768 0.25462216 -0.15634848 -0.0028889673 0.15224065 0.14773913 -0.07254819 0.4000704 0.16746174 0.24592681 -0.18479611 -0.19617172 0.3137406 -0.53898335 0.2505518 0.21962261 -0.52075946 0.10727598 0.3171447 -0.0075223907 0.5256961 0.37925595 -0.12996684 -0.046659824 0.01237519 -0.64487976 -0.5145448 0.24633315 -0.39324486 0.18462116 0.513338 0.3681989 0.34060487 0.10564987 -0.4462143 0.36144274 0.42834407 0.23438628 0.08211261 0.025676653 0.17613056 -0.16383655 0.37949994 0.10802386 -0.13200954 0.010732464 -0.20065975 0.4258965 0.31434834 0.008979467 0.07767242 0.24036035 -0.011392461 -0.073273405 -0.16485247 -0.7040803 0.26364976 0.5626832 0.043986455 -0.30596018 -0.0064808372 -0.1724589 0.11054717 0.48220038 0.06206885 0.1767972 -0.3135611 0.28005123 -0.07937413 0.13803072 -0.47880065 -0.12791434 -0.16235977 0.14406106 -0.22773543 -0.21740253 -0.09302379 0.22372112 -0.1387972 -0.16175462 -0.11378634
183 -0.103550784 -0.39765897 -0.1396686 -0.103690825 0.05879921 0.15208334 0.0006671923 -0.46406204 -0.05227369 0.3207315 -0.024161257 -0.070293926 -0.31707227 -0.09114771 -0.38662863 0.32953343 0.08457312 0.14643994 -0.32343867 0.08020617 0.10969335 0.009398637 0.20324473 -0.15315768 -0.28869143 -0.0078092883 -0.09118269 0.08895575 0.2179696 0.09272352 0.32356444 0.03914264 0.088485375 -0.045480065 0.3429663 -0.12584758 0.058077652 0.07886092 -0.1538427 0.32417214 0.081672706 -0.19429605 0.09102091 -0.24374504 0.28703332 0.4615385 -0.057518926 -0.13073014 -0.16001615 -0.24285401 0.5281406 0.11074168 0.24951379 0.19705197 0.2734743 -0.6255199 0.5795176 0.27277383 -0.07040727 0.32108346 -0.2898364 -0.12541866 0.3904433 0.107575715 0.2800578 0.1547008 0.021955341 -0.12009764 -0.1800044 -0.15364647 0.036707684 -0.32849854 -0.27777967 -0.058886975 -0.31744897 -0.34776378 -0.34468773 0.4621976 -0.23428977 0.20107324 -0.11477372 0.0060719894 0.33096007 0.57402843 0.586863 0.34091505 0.3893178 0.3323068 0.048420765 0.31618676 -0.02898787 -0.0091986405 0.045918472 -0.19370914 0.13142422 0.07509678 0.04191382 0.028472058 -0.37860623 -0.1250881 0.088649325 0.44742543 -0.11694655 0.38990483 -0.01892166 -0.4301667 -0.38255137 0.012234457 0.17124261 0.11055947 0.012224727 -0.0144130485 0.46409127 0.2173269 -0.23108368 -0.13383283 -0.14453143 0.12469928 0.09321652 0.052258573 0.10751319 -0.08569671 -0.26606497 0.027222717 -0.13247278 -0.05753912 0.4707834 -0.12989075
1366 -0.15103604 0.08131665 0.14418633 0.32846412 0.034990706 -0.29871124 0.06591771 0.160109 -0.039042056 0.0032457903 0.49560547 -0.19397697 -0.040469028 -0.07558706 0.28686038 0.14814213 0.12888065 0.36666718 -0.121196255 0.030075565 0.2777089 -0.059822753 0.3329572 -0.28389028 -0.11564037 0.041191194 -0.07354675 -0.06970575 0.0027223278 -0.12810752 -0.20677496 -0.0431133 0.12373323 0.034153294 -0.13760352 0.2292023 0.08300702 -0.25709832 0.42684242 -0.20511243 0.26176283 0.16420938 -0.14849377 0.106057115 0.23205175 0.05098667 -0.255195 -0.5049258 0.070836335 0.29788268 0.19230567 0.188865 -0.10905279 0.045373764 -0.13181083 -0.13816458 0.55538666 0.07785346 -0.22523561 0.05824287 0.039705552 0.21389557 -0.04669633 -0.14580649 0.3131718 0.05301551 -0.29436314 0.029917836 -0.136918 -0.23289865 0.13750327 0.095689274 -0.30023497 -0.38141328 0.07498545 -0.09952386 -0.23467717 0.30254027 -0.4750394 0.5684943 0.0025774622 -0.24677986 0.031165507 0.4154325 0.3365935 -0.07323129 0.28576732 -0.36366636 0.16282503 0.2328105 -0.2010027 -0.21359861 -0.32200953 -0.26479477 0.26245332 0.1297196 -0.4626813 -0.39015138 -0.37763807 -0.1694477 -0.2781262 0.3295108 0.098570295 0.36869603 0.3402665 -0.28358746 -0.1591201 0.36502022 0.31728324 -0.08146446 0.48419893 0.007674467 -0.0039816024 -0.19217028 -0.10230229 0.10630385 0.14574572 -0.13391776 -0.15268989 0.20660734 -0.19633424 -0.17030546 0.25286323 -0.17965338 0.3282225 0.1397381 0.012462221 -0.1480271
23 -0.21271813 0.07817285 0.13951159 0.21637926 0.30050302 -0.21273881 0.11666318 0.12620695 -0.14034784 -0.073412694 0.47877032 0.011057854 0.18497269 -0.20442429 0.06331589 0.20296931 0.06879303 0.049289536 -0.1855572 0.082113475 0.14309968 0.018366765 0.64501923 0.036597155 -0.040246632 -0.17152783 0.04320373 0.18840474 0.11222032 -0.08712577 -0.15047207 -0.06388905 -0.013910464 0.006677058 -0.06494369 0.04666326 0.15268989 -0.30460075 0.1569222 -0.22848837 0.073762186 0.3128969 -0.44628683 0.114054285 0.12972017 -0.0013357872 -0.37019262 -0.44358787 0.23177189 0.26396108 0.20852585 0.31523472 -0.0028620414 0.27162382 -0.1885221 0.025279814 0.489081 0.28220809 -0.012931121 -0.26282975 -0.19158213 0.20896131 -0.033372145 0.0446792 0.27710173 0.14841273 -0.04209687 -0.06853898 -0.057397615 0.055848673 0.10806644 0.035657547 -0.4165534 -0.62155396 0.05608719 -0.14550994 -0.03551171 0.3267135 -0.4710348 0.5992102 0.19234207 -0.28823066 0.14581138 0.3909183 0.3540724 -0.17574458 0.46258542 -0.41179577 -0.19606423 0.4405834 -0.21276404 -0.32047552 -0.15268195 -0.32175 -0.079656936 -0.03187422 -0.4413751 -0.4643559 -0.21713156 -0.047093384 -0.17619553 0.3189222 -0.008489093 0.24056195 0.18608586 -0.45729548 -0.37824765 0.35797653 0.04071673 -0.25418347 0.5414734 -0.034585383 0.16648862 -0.37546477 0.16911598 0.03070355 0.33461052 -0.11514963 -0.036595136 0.0726723 -0.2275086 -0.041877907 0.20610328 -0.38772807 0.06555513 0.055781573 0.019475898 -0.121264875
533 0.165471 0.039155427 -0.21093394 0.36826032 0.62411034 0.2966556 0.396712 -0.04674255 -0.5436102 -0.1872575 -0.13819045 -0.2949203 0.15526594 0.3037973 0.23445676 0.0320202 -0.04215164 0.49782032 -0.09927165 0.4582235 0.5916106 0.051530115 0.27970415 -0.12784553 -0.27519947 -0.24365436 -0.10821976 0.052775107 0.084581986 0.083824076 -0.20368259 -0.08225788 0.018128714 0.36720318 -0.038417865 -0.089994505 0.085947655 -0.34851164 -0.5193207 0.044226587 0.10954335 0.42820892 0.2228179 -0.20382228 -0.2667518 -0.4513553 -0.31082326 -0.087029874 0.09812566 -0.37853572 0.10919103 0.14812513 0.27884805 0.40440077 0.0043792264 0.41079053 0.23154685 0.106061995 -0.30260703 -0.090842456 -0.33332795 0.1432087 -0.14412613 -0.36993048 0.30571955 -0.44124785 0.2267504 0.29158917 -0.27408358 0.18314622 -0.21328963 -0.44200018 0.09422456 0.13262187 -0.31147286 -0.414213 -0.046613146 0.1687794 0.07542821 0.3360578 0.2092508 -0.3571272 0.20231521 -0.01987285 0.3262018 0.18109371 0.27221596 0.36349568 -0.05212711 0.30107844 0.25699463 0.26160398 0.1767628 -0.16546345 0.24478151 -0.012216881 -0.054447472 -0.51716167 -0.50504786 0.053223684 0.0350122 -0.5105498 -0.257611 -0.009820909 0.37790334 0.031408425 0.194113 0.08328199 0.0072924932 0.44929978 0.5812745 -0.1885462 0.1221579 0.34160337 -0.092026904 0.029591745 0.47826687 0.111699514 0.29608214 0.41071483 0.15762904 0.0412168 0.16557191 0.27577445 0.3371835 -0.04542692 -0.10823411 0.37583548
