2708 128
1988 -0.2962614 -0.13825485 -0.0003229302 0.21207076 -0.11205509 -0.37203425 0.27014345 0.12254369 -0.17453642 -0.09357655 0.31564933 -0.07441646 -0.0065019163 -0.057057198 -0.14415517 0.06564264 -0.157561 -0.08825612 -0.3143534 -0.34699097 0.12356281 -0.056256812 0.022484662 -0.067841776 -0.12818612 -0.0067253513 -0.21719146 0.04303087 -0.10518319 -0.20499845 -0.26442853 -0.061659344 -0.08555124 -0.07786709 0.09357012 0.21328299 0.20043525 -0.4863816 0.20204088 0.055638034 -0.4937747 0.34601694 -0.27065372 -0.18926723 -0.019168235 0.109706275 0.0048801135 0.15115036 0.1619568 0.31249112 0.10896824 0.11905013 -0.0064964797 -0.11050593 0.17144838 -0.07411488 0.37978008 -0.50496006 -0.29785353 0.5978436 0.048263073 -0.11244672 -0.09239713 -0.21532494 0.13384192 0.1921657 0.081014544 0.5133856 0.025056018 -0.005865753 0.2155845 -0.14474574 -0.27564287 -0.41100678 0.262294 -0.37553275 0.12059691 -0.18267804 0.068610385 -0.1541826 -0.36212495 -0.06921941 0.18108492 0.71421915 -0.21582152 0.27041125 0.022024315 -0.050321337 0.08562084 -0.07339936 0.025483884 0.1966559 0.36546856 0.007949089 0.46351337 0.076292425 -0.34142834 -0.036151543 0.07694393 -0.16911693 -0.39156994 -0.12286706 0.122560956 0.16868286 0.19475192 -0.29914007 0.14153512 0.3349731 -0.059672978 -0.31867546 0.17750531 -0.31671846 -0.015573321 0.21581346 0.076961905 -0.13906905 0.4207742 0.22865905 -0.056069832 -0.21216974 -0.21002935 -0.17088254 0.36208522 -0.0021965895 -0.17886637 -0.036348257 0.09927335 0.07497012
1916 -0.01710035 -0.25818312 0.03295798 0.05417261 -0.09378229 -0.12923792 0.3364575 0.117812626 -0.07814343 -0.23764722 0.30310732 0.25900465 0.0855167 0.027403394 0.14424324 0.03348869 -0.04302371 0.066123396 -0.6609495 -0.15802735 0.14754441 0.17682105 0.3939374 -0.2546498 -0.02121679 -0.08931188 -0.01788233 0.22282952 -0.10559528 -0.34431738 -0.056912653 -0.23297755 0.106419615 0.012323158 -0.44720545 0.1761865 0.4000359 0.38451442 0.17602 0.03190017 0.20567568 0.400156 -0.072736934 0.021477452 -0.15769035 0.3064261 -0.019470356 -0.18073076 -0.04004047 0.11325511 0.04852396 0.13531227 0.07341711 0.28236607 0.50289387 -0.015890656 0.17302613 -0.33573297 -0.09065079 -0.12644513 0.32285753 -0.36218184 -0.19019717 -0.0011519538 0.25394174 0.020046016 0.27146795 0.09188755 -0.005694061 -0.081208795 -0.12613975 -0.17158447 -0.29553118 -0.07832847 0.09958262 -0.07174612 -0.070105456 -0.22271188 -0.31076947 0.3442325 -0.2235256 0.07426335 -0.0992756 0.36432824 0.15364753 0.39147967 0.41669586 0.060990144 0.25337967 0.35818344 -0.0020003167 -0.0838409 -0.0960771 0.0151766045 0.19320096 0.21890387 -0.128583 -0.27297348 -0.06958041 0.07340354 -0.5992395 -0.01342653 0.050954342 -0.0052208123 0.15081032 -0.24718808 -0.039669786 -0.034693025 0.0495241 -0.09058577 0.06490591 0.06251995 -0.18769625 -0.07444655 -0.09369612 0.07483276 0.18079337 0.27438387 0.43262565 -0.09685467 0.055880524 0.18863812 0.088036776 0.055670533 -0.44394627 -0.06372567 -0.3213064 0.30009654
1915 -0.027620377 -0.22904748 -0.05298702 -0.07614603 -0.12510069 -0.21156652 0.35557956 0.19390608 -0.06626863 -0.19148676 0.3531256 0.35009953 -0.05068933 0.13255446 0.05332513 -0.11746412 -0.09174475 -0.009818537 -0.5400563 -0.19213773 0.23117414 0.35239556 0.6066695 -0.31469598 0.109344795 -0.042039633 -0.106895626 0.21331693 -0.1418661 -0.3117405 0.022288946 -0.12266102 0.0044259555 0.1615856 -0.43260348 0.26596245 0.4302226 0.2508019 0.172597 0.016264783 0.14538306 0.46949613 -0.006538347 -0.14577283 -0.067926355 0.26946864 -0.027074592 -0.15500313 0.104558356 0.0061610052 0.25842908 -0.027603889 0.022113971 0.33061916 0.25643575 -0.03106502 0.012731896 -0.32860816 -0.12393102 -0.07203776 0.2159069 -0.26631606 -0.10314668 -0.06404239 0.22553317 -0.052167088 0.36144233 0.20099054 -0.11697612 -0.05980763 -0.035029937 -0.051414646 -0.36640584 -0.096005246 0.05309824 -0.09454829 -0.06640663 -0.12112752 -0.22169992 0.37566715 -0.09461045 -0.010160556 -0.15636472 0.4414888 0.16091937 0.30929965 0.5224796 0.06403755 0.18213122 0.22156426 -0.03221933 -0.048705447 -0.12777592 0.074803025 0.2924839 0.064140074 -0.2638227 -0.34824598 -0.21210067 -0.025204077 -0.5428565 0.023640228 0.09553842 -0.20314595 0.14876248 -0.20180851 0.020110024 -0.16801237 0.109585546 -0.039174605 -0.05964296 0.0016860729 -0.19381212 0.10835098 -0.097039185 0.12734391 0.09538356 0.33694714 0.51539624 0.027122926 0.0774556 0.11687053 0.09838139 -0.06264451 -0.39460152 -0.1211187 -0.31332928 0.3349207
1987 -0.30934718 -0.17004976 0.10785379 0.11497067 -0.12946765 -0.31201547 0.27158347 0.10441855 -0.22238244 0.0533996 0.306661 -0.14482765 -0.052206453 -0.15878958 -0.16394505 -0.0070948983 -0.1070824 0.029251195 -0.41794252 -0.17249008 0.15689817 0.13886131 0.037438218 0.12177294 0.0029221515 -0.055916533 -0.09720571 -0.12928599 -0.15921761 -0.24029648 -0.11459848 -0.19173482 -0.041697145 0.04946817 0.2290007 0.25400016 0.18040188 -0.49803057 0.25112277 -0.033129837 -0.45751816 0.26372284 -0.25366157 -0.105936795 -0.060157068 0.22783776 0.015024526 0.26970014 0.25344926 0.14982249 0.24275172 0.12392944 0.09586717 -0.1766843 0.1822037 0.0708775 0.4272267 -0.32608858 -0.25443107 0.6271088 -0.062453426 -0.21724913 -0.18865903 -0.082013436 0.24278647 0.17214954 0.16175827 0.5416492 0.062393773 0.04913379 0.17455111 -0.05500444 -0.25112998 -0.36270866 0.29771683 -0.54038435 0.14321394 -0.20738697 -0.10604552 -0.27638718 -0.3447238 -0.03939807 0.25499701 0.68599176 -0.19737867 0.24537168 -0.13242626 -0.010466382 0.13342041 -0.13377707 -0.07495047 0.28614518 0.40200058 0.0017392575 0.5108375 -0.012551363 -0.2757403 -0.17179255 0.18422116 -0.10733225 -0.38710254 -0.14467198 0.13662297 0.38795182 0.12510964 -0.32154813 0.21953803 0.27855453 0.05708029 -0.40710574 0.28623456 -0.2776857 0.046865523 0.34021226 -0.020743826 -0.05481711 0.2676759 0.3770357 0.02267872 -0.31530577 -0.26603028 -0.19631252 0.2502443 -0.11551844 -0.10103915 -0.1503664 -0.116891146 0.06885274
1812 -0.47734442 -0.436768 0.043927323 -0.13245249 -0.12219608 -0.6444224 1.683642e-05 -0.09235808 -0.1214616 -0.001204659 0.46127343 -0.009164567 -0.18341394 -0.17776296 -0.011130419 -0.110319465 -0.20485175 0.37052065 -0.08836596 -0.08821807 -0.23813766 -0.0036480871 0.1351185 0.33958885 -0.0036649252 0.03791149 -0.23721345 -0.050824452 0.011796248 -0.49391454 -0.4035787 -0.2496331 0.20778088 -0.3197145 -0.035281636 0.26955026 0.43120763 0.056148402 0.35393134 0.00015582671 -0.12394973 0.43404087 -0.3691308 -0.21374248 0.13646182 0.022458164 -0.2399143 -0.17779703 -0.09689279 0.27612922 0.077963814 0.1022462 0.4440513 0.03671835 -0.06660592 0.10646433 -0.07529408 -0.18097323 0.042871892 0.3056133 0.15243173 0.12402985 0.23999508 0.35150275 0.056071077 0.06508998 0.1719635 0.35202774 0.114606515 -0.20454814 0.08360427 -0.5930117 -0.2553559 -0.56098205 -0.19733047 -0.20419842 -0.10663867 0.42821026 0.28268787 0.4990793 0.114846006 -0.094603345 0.23436958 0.90310025 0.22363375 -0.113190316 -0.04117749 -0.18380524 0.53033566 -0.21687311 0.3715196 -0.28943074 0.18261826 0.01198824 0.3610219 -0.17851748 -0.45859775 -0.18341498 0.19942513 -0.42566103 -0.6782705 -0.06422995 -0.25132176 0.20400974 0.053185116 -0.18513343 0.03628638 -0.43483597 -0.033495206 -0.5394714 0.5032268 -0.2434313 -0.10291055 0.025362711 -0.20770374 -0.21625254 0.15246317 0.15891817 0.12504059 0.07921454 -0.123220034 -0.31091508 -0.06441282 0.22810984 -0.61205196 -0.10149811 -0.2909638 -0.2161476
1 0.4251519 -0.15391615 0.16403691 0.17790478 0.20219456 -0.051085096 -0.123831615 0.011955574 -0.51964027 0.20500004 0.15907936 -0.38305447 0.09028933 -0.03626395 0.00072695676 0.114353225 -0.16870195 0.17285974 -0.556491 -0.009983231 0.22643818 0.04020216 -0.17341174 -0.05105655 -0.18767908 -0.20310405 -0.35930476 -0.0071310014 -0.1529521 -0.06624442 -0.26982233 0.20459776 0.06470698 0.19128615 0.1605003 -0.2305661 0.32347545 -0.07269987 0.15552029 0.15712984 -0.11332289 0.06757575 -0.011516079 -0.17304312 0.12916403 -0.03177024 -0.09741399 0.20835142 0.03416472 0.08214067 -0.065435626 0.012899208 0.20547436 0.30924442 -0.102961965 0.044037096 0.4779235 -0.3235862 0.04123115 0.44001836 -0.4396205 -0.059449427 0.3526888 -0.20959656 -0.01283364 0.07766705 0.24560282 0.3146175 -0.06280437 -0.22388516 -0.14989266 -0.19699268 -0.278915 -0.34229153 0.12752923 -0.09877509 -0.043141812 0.15689814 -0.54571366 0.16155398 -0.09039556 0.052023698 0.1058469 0.42196333 0.10656054 0.20675646 0.118232034 0.1356118 -0.12918282 0.040217746 0.21363993 -0.13606417 0.19821177 -0.11619243 0.12023 -0.020674352 -0.20885812 -0.23072536 -0.31505767 -0.120930515 0.034947924 -0.06464897 -0.25962126 0.21376942 0.30360955 0.13644901 -0.033993635 0.18266273 0.54260594 -0.05570429 -0.10795626 -0.2970349 0.23842476 0.5415732 -0.10798141 -0.055768207 0.021571454 -0.13045242 0.23861125 -0.13231917 -0.08410331 0.03711032 0.14417633 -0.11637423 -0.2304688 -0.0008937294 -0.34862417 0.24120606
1703 -0.22169563 -0.28041205 -0.013663894 0.42069313 0.018462751 -0.36767706 -0.21338746 -0.23799889 -0.2407646 0.02004756 0.45657668 -0.15165065 -0.2021959 -0.14552663 -0.04591738 0.089693226 0.15120524 0.20429821 -0.12189442 -0.014119297 0.25058812 0.0785392 -0.01736868 0.43833563 -0.0006227861 0.14333342 -0.34074914 0.067014895 -0.03908872 -0.48954645 -0.0073100696 -0.065735295 -0.08430573 0.1545245 -0.12420798 0.12797222 0.47070894 -0.21882297 0.16267546 -0.14568542 -0.060634356 0.24272074 -0.30670968 -0.01298712 0.4641232 0.029337153 -0.03444341 -0.13824166 0.2778798 0.27763265 0.12651968 0.38016045 0.1605414 0.23849727 -0.08620902 -0.039966643 0.32417718 -0.21787351 -0.06684634 0.73298925 0.14811257 0.13148184 0.05300368 -0.24956438 0.22578062 0.06690192 0.13409927 0.28648657 0.10306981 -0.09506301 0.2107634 -0.3871067 -0.21177223 -0.34029958 -0.0034251434 -0.045946464 0.057510365 0.012725835 -0.27040958 -0.09157455 -0.10122385 -0.12599877 0.07007373 0.42430097 0.09219399 -0.11150458 0.004512107 -0.116362 0.104346246 0.07625375 0.21034464 0.119838424 0.10653407 0.07511701 0.335976 -0.24439222 -0.23092435 -0.12365207 0.028337562 0.092306376 -0.36020675 -0.008646412 -0.23516634 -0.032123186 0.33998904 -0.033046708 -0.10737326 -0.09387281 0.203958 -0.046803627 0.108942196 -0.38097966 0.19746529 0.2695017 0.052926295 -0.08379577 0.08252169 0.041873496 -0.12855618 0.23861922 -0.3635393 0.025550565 -0.124160044 -0.021291126 0.04223776 0.124322414 -0.2228975 0.03338465
1360 0.17484097 -0.034072354 0.051824607 -0.155795 -0.13599993 -0.19787453 -0.044121142 0.25339508 0.097357824 -0.03289572 0.20817451 0.06708352 0.059645116 -0.08362844 -0.016935652 -0.121082455 -0.06959704 -0.19992505 -0.62471807 -0.19850968 0.086356364 0.1352998 0.5810661 -0.34055558 -0.13393538 -0.17902598 -0.16149485 0.18380988 -0.08874811 -0.3249695 0.1120155 0.05555766 0.114755176 -0.08877062 -0.23484845 0.31935695 0.3540983 0.28429967 0.2774726 -0.047362626 0.06318028 0.29585078 -0.08840659 -0.145537 -0.20614669 0.28277832 -0.265867 -0.033421587 0.13130945 0.28973442 -0.14020874 -0.008803231 0.21600682 0.38601902 0.4526118 -0.03103436 0.12337758 -0.41156104 -0.12444306 -0.04126952 0.2541847 -0.03346828 -0.2929286 -0.06129445 0.17218545 -0.012818878 0.16701432 0.04813654 0.02579766 -0.35350332 -0.005902546 -0.17470577 -0.40536115 -0.011506811 -0.16773862 -0.057891596 -0.081696995 -0.36273485 -0.47620013 0.27743784 -0.15131587 -0.04006366 0.11018907 0.39733186 0.0896215 0.26387954 0.48357415 0.034826845 0.11241129 0.2466788 0.14010511 -0.04088969 0.022018367 -0.055401027 0.25450844 0.10853715 -0.15385282 -0.18657379 0.0020452924 0.06270895 -0.38138536 -0.08913446 0.03745949 -0.030927492 0.08974332 -0.2892065 0.14610875 -0.046985045 0.09964347 -0.18473218 -0.14637123 -0.1600768 -0.16647516 0.13931397 -0.021412719 -0.025319273 0.27205497 0.15953946 0.4567768 -0.08893704 -0.0066380566 0.12175862 0.23641196 -0.19805056 -0.20139682 -0.13762406 -0.14799449 0.23126882
1811 -0.47602773 -0.56093144 0.08516298 -0.007985716 -0.18336572 -0.558357 -0.10548886 0.08094662 -0.14232656 0.03094837 0.42058128 0.110298455 -0.12184356 -0.16950414 0.014777897 -0.045189053 -0.33145794 0.19644181 0.014934411 -0.18931252 -0.1748009 -0.059085142 0.28602198 0.26476783 -0.085825086 0.06750652 -0.16894142 0.09970587 0.14932775 -0.42596292 -0.4458189 -0.23232026 0.07183594 -0.19614872 0.044602975 0.29926378 0.2800135 -0.036428533 0.44336817 -0.12503554 -0.2795655 0.5240116 -0.3742085 -0.27703935 0.17545433 0.01677094 -0.15026177 -0.2040944 0.03967087 0.39994836 -0.03899874 0.098752685 0.39620575 0.07789385 -0.010380848 0.21748397 -0.15169291 -0.2545079 0.028954377 0.28032985 0.10000947 -0.004773685 0.34428418 0.35368845 0.07843129 0.1190657 0.10286011 0.36688632 0.29258204 -0.050765097 0.1435375 -0.52858686 -0.28184843 -0.4099811 -0.13104323 -0.23366216 -0.14166722 0.39368668 0.28789285 0.4393401 0.18855906 -0.032160345 0.26569688 0.98915964 0.162313 -0.18904562 -0.006074164 -0.051972967 0.43203622 -0.13749571 0.372295 -0.19305061 0.10047705 -0.07516471 0.31801477 -0.08634314 -0.4095443 -0.38609836 0.16099243 -0.33596367 -0.7125657 -0.03498962 -0.3163885 0.31610128 0.095474705 -0.105443716 0.14759894 -0.33119452 0.06929361 -0.48387623 0.46384394 -0.2205843 -0.14646536 0.07480095 -0.19839881 -0.2778218 0.21233086 0.077164575 0.098275356 0.12005374 -0.15177503 -0.35478774 -0.08001772 0.22418645 -0.5489638 -0.07754147 -0.26136357 -0.301294
2 0.2826503 -0.16642246 -0.096557446 0.06628479 -0.14476258 0.06881532 0.15322044 0.07184348 -0.44610998 0.08713384 0.2124552 -0.21877383 -0.050881673 -0.031874612 0.16428795 0.21936585 -0.46616754 0.19838561 -0.5813337 -0.022027623 0.24479005 0.11233907 -0.14602408 -0.2028612 -0.18934993 -0.1584921 -0.42887986 -0.0044485256 -0.031402808 -0.32860196 -0.17719516 0.12584385 -0.12178343 0.1166983 0.10427713 -0.06515363 0.49399865 -0.12247336 0.07189091 -0.061697073 -0.2621215 -0.040339455 0.02806871 0.08129421 -0.11403546 -0.17471015 -0.24846724 0.014099236 0.17274617 0.3734663 -0.1132205 0.19542624 0.25361687 0.2557949 -0.19505718 -0.11964312 0.4795772 -0.3266416 -0.3241089 0.28114462 -0.32040346 -0.07163233 0.15081726 -0.22620565 0.22324802 0.17864934 0.3666722 0.16033342 -0.12165954 -0.25624704 -0.1868293 0.17337278 -0.32021162 -0.2649882 0.34616455 -0.021748627 -0.11910656 0.07673249 -0.42638707 -0.019907828 -0.109689675 -0.038353845 0.46924546 0.47138587 -0.33018816 0.44585586 0.18341684 0.30984703 -0.09304088 0.21916595 0.37058204 -0.11932526 0.10294735 -0.073694326 0.21255745 0.11763177 -0.2583498 -0.1843319 -0.31620228 -0.17684446 0.013822811 -0.11207165 -0.19507232 0.31131974 0.2254293 -0.050340354 0.20622735 0.07581047 0.4724241 -0.21176267 0.121318 -0.069333 0.48183405 0.2780717 -0.14252965 0.31983155 -0.13120188 0.34390506 0.23800997 -0.21051186 -0.15746151 -0.009919977 0.08007784 0.2643832 -0.15652576 -0.13248333 -0.44203725 0.24526265
2036 0.005222564 0.08304639 0.5336903 0.33805004 -0.28112155 -0.40500334 0.17918018 0.16055891 -0.5340777 0.37757865 0.24861255 0.02305169 -0.027367853 -0.21175034 0.32007328 -0.07082755 0.20713222 0.06172819 0.14811489 0.21435092 -0.30909958 0.38357103 -0.20564328 -0.40389857 -0.33004624 -0.19795965 0.19013451 0.0056210966 0.36142698 0.023560274 -0.4956832 0.2521459 -0.13767077 0.3622714 0.07728766 0.6985381 1.1910719 0.091980144 -0.08614883 0.19014399 -0.26265794 0.28705004 0.47661594 -0.1210622 0.48594704 0.26446623 -0.10845122 0.035948634 -0.164124 -0.06657833 0.14743823 0.08220554 0.46978882 0.049318694 0.23300968 0.18255965 0.44175518 -0.021955296 0.4984826 0.22251934 0.12269514 -0.10001123 0.5095146 0.43564534 0.3344396 0.08426836 0.49002537 0.09355594 0.11178847 0.04615986 -0.03420183 -0.47268495 -0.67867297 0.062980406 0.25236 -0.029312275 0.07414442 0.18724826 -0.18496267 0.0024669538 -0.12627912 -0.26860818 0.19231024 0.478121 0.09261585 0.32409212 0.2722577 -0.13927367 0.40670022 0.10083243 -0.1085675 -0.35526332 0.1901341 -0.0053102477 0.8039525 0.62413526 -0.4224342 -0.0897436 0.25948414 -0.24533655 0.03236967 0.24396357 0.24723959 -0.11308813 0.19218293 0.2442989 0.116867825 0.4038263 0.045753084 -0.035200443 0.42580125 -0.23616897 0.17276543 0.12027301 -0.32511896 -0.19706547 0.37925005 0.22196849 -0.621566 0.5605016 0.21973859 -0.15108544 -0.20646057 0.048556443 -0.23785275 0.06009744 -0.36581358 0.17865519
23 -0.22594889 -0.31089762 0.008051874 0.3442351 0.29160163 -0.523247 -0.14988993 -0.032095093 0.22517551 -0.18261664 0.1779341 -0.07848515 -0.29201218 -0.12929605 0.10044847 0.15205745 0.060757276 -0.07252047 -0.07139419 -0.090901464 0.1281326 -0.115895525 -0.40401337 -0.014907273 0.17534879 -0.2185444 -0.37713265 -0.20041037 0.18681554 -0.1282788 -0.021713063 0.079408966 0.17089169 0.17607458 0.055853993 0.14247799 0.61330616 0.19046535 0.22161043 -0.09787441 0.23239776 0.2507065 0.074048586 -0.11718506 0.33056366 -0.11114339 0.09061232 -0.0045189755 0.29088092 0.19040228 0.107005596 0.16501719 0.07213307 0.43117842 0.11077512 0.22725374 0.40315503 -0.11561908 0.043714035 0.7445991 0.04662313 0.085462295 -0.06998788 -0.25199997 0.21783116 0.12489591 0.41352314 -0.1975691 -0.008806109 -0.106548935 0.076872185 -0.6369923 -0.107903406 -0.15741424 0.1412822 -0.29686922 0.22133943 0.13919103 -0.10180801 0.12063069 -0.13085689 -0.12663095 0.26859447 0.4255741 -0.08819722 -0.12764058 0.21182433 -0.32424563 0.15728839 -0.015048085 0.1347761 0.37193528 0.3241997 -0.21238588 0.30064738 -0.0569647 -0.27539045 -0.1792564 -0.35794345 0.103721 -0.42682466 0.07198935 -0.22133379 -0.2438962 0.06430748 -0.09306194 0.019458076 -0.13439713 0.11228459 -0.019921185 0.32456997 -0.24921921 0.056098785 0.3202324 -0.4090669 -0.26132208 -0.14274839 0.108740784 -0.08026722 0.0003741303 -0.12113969 0.097495385 0.1436434 -0.052701898 -0.07622361 -0.12895149 0.053075295 -0.17856696
4 0.18825415 -0.034571048 -0.113265164 0.3167837 -0.13928714 -0.32021743 0.11340724 0.07964485 -0.45353025 0.18494707 0.11827563 -0.2815739 -0.0927781 -0.038123574 0.113707736 0.1581773 -0.44311583 0.33430198 -0.68833464 -0.050066337 0.35939267 0.15085606 -0.0319554 -0.2487541 0.12827925 -0.11080332 -0.16712515 0.011713643 0.14078362 -0.113361716 -0.0079718605 0.08447636 -0.14846689 0.19782461 0.13365978 -0.07033074 0.47300798 -0.356885 0.041891262 0.19914411 -0.1984175 -0.020624492 0.036381446 -0.04761993 0.06236717 0.21968786 -0.085530445 0.107178815 0.18458045 0.093056776 -0.15349138 0.10350674 0.30015588 0.12189948 0.021760242 -0.20959541 0.3144659 -0.37511447 -0.2871502 0.3355706 -0.2312309 0.047849 0.40364867 -0.14747362 0.10733737 0.09502375 0.071372576 0.35403016 0.38707858 -0.13115512 0.13735713 0.022275196 -0.24490744 -0.18836504 -0.032620925 -0.0111908745 -0.12779957 0.29902965 -0.60342956 -0.07641937 -0.16820031 -0.19219092 0.44827652 0.2535509 -0.02203145 0.34100726 0.0818972 0.1339435 -0.071941756 0.2339194 0.22469525 -0.081117846 0.120856605 -0.06487172 0.45681027 -0.09847273 -0.31283703 -0.29175884 -0.16299228 -0.066885225 -0.27423683 -0.12594515 -0.045194853 0.29445723 0.20519583 0.064503685 0.054607462 0.15468803 0.34000933 -0.19933517 0.14580046 -0.08823215 0.4008468 0.49370584 -0.1768599 0.09075587 -0.23614772 0.13205385 0.42868936 -0.20810945 -0.1252762 -0.25796637 0.3381831 0.08959775 -0.011492703 -0.24390577 -0.33055273 0.21410805
3 -0.061895408 -0.08307499 -0.040868685 0.40022257 -0.12645583 -0.25133738 0.45702448 0.026531244 -0.55407584 0.15228033 0.37371245 -0.23038813 0.10862333 -0.28159845 0.16539147 -0.08330529 -0.50737196 0.13585499 -0.66636777 -0.021581698 -0.009919268 0.06666568 -0.115775906 -0.17127469 -0.086719036 -0.15298703 -0.32728103 0.09625008 0.05766093 -0.27575257 -0.06607692 0.17751482 -0.20447317 0.12337021 0.063581936 -0.003611783 0.4409276 -0.066972405 0.13248977 0.09691266 -0.30142716 0.011035917 0.013898876 -0.045323655 0.14781846 -0.029744623 -0.14562608 0.08115949 0.5051743 0.14907031 -0.28566858 -0.047570847 0.23721719 0.21450095 -0.035595506 -0.28850174 0.3532755 -0.3020808 -0.5043144 0.35044435 -0.35474837 -0.27322483 -0.0039842157 -0.16499032 0.14471826 0.189723 -0.0121003855 0.2180309 0.008971432 -0.14363715 -0.13523 0.19798265 -0.37344235 -0.2573422 0.130405 -0.24948129 -0.06514787 -0.048552696 -0.54083186 -0.01954427 -0.21091956 -0.12462215 0.42038816 0.28099754 -0.2529997 0.4927825 0.10295981 0.19570634 0.02019229 0.05399844 0.2623232 -0.25550482 0.18146232 -0.12430041 0.21546322 -0.030077608 -0.3182064 -0.40739846 -0.3261369 -0.05367861 -0.15001024 -0.12637635 0.09119788 0.45406005 0.24543107 -0.16053475 0.18601176 0.22565646 0.30299446 -0.11217976 0.33195934 -0.16956827 0.26031572 0.4232413 -0.10187922 0.2467005 -0.28038362 0.28937405 0.28365144 -0.12524495 0.12169811 -0.21068045 0.2458486 0.18897313 -0.043356575 -0.17355105 -0.18822835 0.22291973
24 -0.3283286 -0.5351631 0.08408726 0.6404405 0.13557272 -0.48051926 -0.18390188 -0.17980541 0.041626677 0.032836437 0.22803803 -0.21466625 -0.1535325 -0.13099387 0.08549571 0.16049193 0.063075036 0.12664796 -0.1388207 -0.19287272 0.1383539 0.16884428 -0.20508967 0.08678286 0.11512911 0.31602716 -0.094913624 0.107871786 -0.09041606 -0.23265462 -0.23751232 -0.17940974 0.06447119 0.3608797 -0.2899097 0.024824038 0.34335944 -0.19530743 0.2481898 -0.10845002 -0.23200539 0.16361152 -0.081026256 -0.15339255 0.19855085 0.13733812 0.13895448 -0.0007120016 0.2109247 0.31958193 -0.09945789 0.2625475 0.35815826 0.4434426 0.14325792 0.08520406 0.38602728 0.10261362 -0.15832996 0.6955897 0.13652585 -0.07360395 0.07195342 -0.11386708 -0.082200296 0.10505995 0.37253475 0.19422391 -0.06583442 0.30093607 0.18492375 -0.3955002 -0.20456679 -0.19827566 0.3196 -0.0924441 0.02819394 -0.1387465 0.046381816 0.041412733 -0.10531276 0.09624112 0.10973295 0.6425156 -0.18139416 0.15836969 0.043778494 -0.49177715 0.031515826 0.06440912 0.057027254 0.3081206 0.40880194 -0.050271098 0.38538972 -0.1160773 -0.29059085 -0.2834721 -0.21969095 -0.07266794 -0.24851178 0.08309038 -0.18203866 0.079844214 0.28345722 0.11690865 0.06563149 -0.11359451 0.2616962 -0.23449808 0.28380284 -0.3336762 0.041296884 0.22766267 -0.16141881 -0.3010595 -0.07663424 0.02430559 0.021824002 0.211299 -0.119986035 -0.07404479 0.1967826 -0.24957335 0.1072456 -0.20542131 -0.0005568907 0.018477485
111 -0.31468895 -0.37423247 0.013293098 0.24292487 -0.02643227 -0.53362954 0.023609314 0.008475527 0.101298206 0.07615424 0.4550869 0.0129899215 -0.093948066 -0.20117289 -0.31199163 -0.32515168 -0.03850134 -0.033078246 -0.1732876 -0.35104808 0.13054411 0.3714653 0.43500927 0.15462342 0.039081275 -0.0014999172 -0.048420027 -0.13698855 -0.048963547 -0.20569244 -0.26504344 -0.12155422 -0.02449062 -0.2017862 -0.11553741 0.05105702 0.38370126 0.21621272 0.44806293 -0.009368344 -0.26634225 0.17930897 -0.3297544 -0.3846388 0.20189644 0.26154372 -0.108741224 0.01963785 0.026953747 0.02678629 0.024475362 0.18670993 -0.015996285 -0.044435088 -0.051300988 -0.2698877 0.074288465 -0.2732465 -0.1050537 0.28238785 0.06435991 -0.17392452 -0.13600937 -0.25400698 0.27027553 0.07255782 0.1193587 0.091264226 -0.046589363 -0.13521597 0.09241202 -0.3831402 -0.10990928 -0.21742244 0.005272223 -0.5387789 -0.04649888 0.12166092 -0.07654853 0.34067643 0.09454379 0.05898349 0.029963722 0.8312284 -0.17442802 0.14563192 0.090544544 -0.27018523 0.4938745 0.023250518 0.090086386 -0.030462574 0.09376882 0.13315302 0.15777302 0.006107651 -0.24027634 -0.05519892 -0.24713211 -0.253814 -0.1280402 -0.098654285 -0.017258942 0.25524563 0.094891176 -0.26751244 0.028433006 -0.14982215 -0.03105986 -0.48133066 0.18211856 -0.17823885 -0.005882844 0.025248539 -0.005949609 0.01135666 0.2499535 0.028696839 0.018415328 -0.08692571 -0.17936572 -0.05700152 0.056527536 0.37648538 -0.49646953 -0.20510766 -0.24964233 -0.10834293
1359 -0.13048343 -0.0012273691 -0.10195757 -0.2924563 -0.013591007 -0.22879551 0.1540117 -0.036916602 0.13893765 -0.15592285 0.09757638 0.22911456 0.17236325 0.12600164 0.2475417 -0.025167348 -0.23742197 -0.31322265 -0.57685775 -0.06215256 0.09433317 0.037042666 0.5240339 -0.21985878 -0.45203313 0.037171036 -0.07741067 -0.06736692 -0.016538411 -0.29308236 -0.04172348 0.44920883 0.067883484 0.19229552 -0.2571887 0.19538186 0.3110568 0.080261715 0.14949504 -0.110174395 -0.018767683 0.60137755 0.022950824 -0.3025743 0.03902083 0.4967782 -0.32080022 0.22674662 0.2231713 -0.072711386 -0.36349657 0.003022188 0.082120955 0.40572277 0.21704984 -0.13456 -0.16433226 -0.25099108 -0.13115326 -0.12759906 0.22834392 -0.1506765 -0.27289277 0.007398604 0.3446101 -0.029708656 0.18579799 0.026504869 0.118856 -0.3038629 -0.012075964 -0.17509155 -0.05444422 -0.08247135 -0.12241367 -0.06931708 -0.03974358 -0.15294912 -0.10875374 0.30022535 0.07162023 0.15528469 0.16243754 0.26748997 0.07454716 0.31877738 0.55617183 -0.13007711 0.345596 0.2372539 -0.06276768 -0.03501222 0.13176343 -0.008638965 0.3403882 -0.013738215 -0.047993325 0.06372789 -0.10793098 0.11864076 -0.40466997 -0.161892 0.1019227 0.08805482 -0.05601675 -0.3531111 0.21200259 0.18211058 0.2435459 -0.17487703 0.024943529 -0.2321189 0.22977933 0.43283278 -0.023427783 -0.2217495 0.17559406 0.22211671 0.2874061 -0.50977045 0.20578462 0.12203852 0.16430229 -0.16223541 0.109558396 -0.12830324 -0.5087921 -0.032103125
634 0.23345508 -0.09150549 -0.007884126 0.28426895 0.054026842 -0.12463258 0.014818526 -0.32276672 -0.44140267 0.22934836 0.03397654 -0.3747335 -0.37342045 0.04754006 -0.1251662 -0.018205568 -0.0413719 0.35586578 -0.6114092 -0.006414793 0.13214545 0.20699908 -0.40794402 -0.17646202 -0.24297264 -0.12746769 -0.16169877 0.11450195 0.16166633 -0.2507881 -0.20994668 0.2254323 0.11842804 -0.09366304 -0.027124992 -0.067671135 0.6068982 -0.026758315 0.17632142 0.18983322 -0.1492008 -0.08500318 -0.08162879 0.0071801837 0.11393846 0.0742094 -0.24251966 0.12835045 0.27150533 0.43482557 -0.16351411 0.09547916 0.25273058 0.29872632 -0.33754915 0.046950065 0.3050589 -0.42072654 -0.26791295 0.4410225 -0.30557352 0.011681383 0.2861039 -0.033353772 -0.05424353 -0.0008269431 0.23978329 0.149271 -0.06507642 -0.10816154 -0.119880274 -0.00677747 -0.09050792 -0.18388648 0.25965375 -0.23262028 0.010400714 0.0688793 -0.42615193 -0.04504672 -0.24459891 -0.18505906 0.42682868 0.36465454 -0.06527292 0.405252 0.25222066 0.30312634 -0.032674927 0.0978114 0.38807195 -0.14318964 0.2454744 0.053316068 0.20558234 0.03856005 -0.37635255 -0.07318275 -0.42200384 -0.18344449 -0.0019648846 0.051079404 -0.20280349 0.18649907 0.2047197 -0.010291402 -0.021748737 -0.029331729 0.51201504 0.07828237 -0.22997613 -0.34814397 0.27873182 0.22220989 -0.09870378 0.19334494 -0.06909131 0.18265267 0.3860041 -0.1702908 -0.09339026 -0.14613916 -0.02939451 0.31364933 -0.35385513 -0.039562486 -0.34748006 0.072070986
1704 -0.31340358 -0.3118521 0.05937727 0.2585346 0.0578014 -0.47044638 -0.19481124 -0.28955835 0.07655516 -0.032735635 0.29794085 -0.15883984 -0.068604395 -0.16675553 0.12841812 0.14897649 0.18005145 0.26565433 -0.22821827 -0.19126199 0.19525515 0.07937951 -0.119076215 0.10569552 -0.086477496 -0.060923636 -0.17066793 0.020067837 -0.14853105 -0.25868496 0.034585975 -0.3824203 0.040975165 0.12405644 -0.13202782 0.2081018 0.3589267 -0.13862833 0.11091029 -0.29204014 -0.040392496 0.17029934 -0.14031802 0.020904595 0.22653565 0.3841056 -0.06623297 -0.18466815 0.22317573 0.40495726 0.27407193 0.3399605 0.22128765 0.44609746 0.30519205 0.10126782 0.43770388 -0.09125693 0.059652608 0.82101476 0.21885373 0.1489208 0.38749862 -0.2901153 0.069876276 0.18189433 0.2611912 0.24570203 -0.11394737 0.074603386 0.24508105 -0.3281842 -0.14026195 -0.10570476 0.4148792 0.032990526 -0.12833597 -0.019924542 -0.080641575 0.17414287 0.039883446 -0.11699504 0.15775271 0.41858622 -0.058085002 0.005460933 -0.075913556 -0.0015456214 0.22049735 -0.12855275 0.039484512 0.44111374 0.26529655 0.111583926 0.4760956 -0.22597158 -0.1550153 -0.36208114 -0.22728692 0.1741294 -0.4215407 -0.037539482 -0.14754125 -0.064942814 0.20945472 -0.14299715 0.05587133 0.09373239 0.3769916 -0.1613905 0.22867922 -0.1764372 0.17603458 0.2521944 -0.12539585 -0.07892 0.0047778273 -0.13635002 -0.36845514 -0.056557454 -0.023227619 -0.12703414 0.16025701 -0.11415828 0.14986871 0.078091525 0.32025558 -0.012478868
1702 -0.10142558 -0.2585687 0.024883676 0.35238928 0.06899302 -0.1555884 -0.042945214 -0.1330593 -0.25060055 -0.040303424 0.36541876 0.03145067 -0.23434123 0.065088324 0.07351685 0.05905469 0.19255064 -0.034573417 -0.24273665 -0.22334333 0.12179769 0.13474226 2.123254e-05 0.38108826 0.007994978 0.3277631 -0.3616909 0.04150677 0.33143646 -0.44785383 -0.15552375 0.20697246 -0.17897356 0.20742232 0.0787129 -0.0659152 0.33137488 -0.07692024 0.31926548 -0.025050538 0.020427164 0.29839414 -0.21576051 -0.124697864 0.31063893 -0.107350156 -0.066312104 -0.061892312 0.35462862 0.13726981 -0.05451607 0.23529893 0.4142228 0.38700894 -0.22184314 -0.0919881 0.55188024 -0.24716225 0.038268294 0.8431545 -0.05958435 0.091113076 0.22878827 0.07536514 0.13147458 -0.13441877 0.31217173 0.05144042 0.19138162 -0.25337255 -0.105871685 -0.38427082 -0.37007418 -0.40857482 0.06841008 -0.26223266 0.08503275 0.30972174 -0.25948906 -0.036641132 0.0029780958 0.007284814 0.2347948 0.4778566 0.11242206 0.31923497 0.174008 0.08501273 -0.15922904 -0.07998734 0.2382947 -0.12931375 -0.09050251 -0.00018688687 0.09849856 -0.2637317 -0.06295473 -0.23186657 0.01694219 0.049453255 -0.14800435 0.009087632 -0.17011665 0.30120805 0.5169664 0.03750134 0.017445708 -0.02219336 0.27726007 0.008621446 0.15959658 -0.4008964 0.12957063 -0.031112196 0.09603741 0.001801671 -0.09876185 -0.063964754 -0.1273534 -0.0150249945 -0.3560763 -0.14343652 0.019870976 -0.21107224 -0.2527653 -0.078928135 -0.32579458 0.30740616
176 -0.039710414 -0.24564917 0.24750173 -0.0008141366 -0.11011471 -0.037679084 0.46725044 0.051269762 -0.104382 -0.18489537 0.4459242 0.29372272 -0.1651832 0.26592335 0.056723505 -0.28909677 0.019136785 -0.02541694 -0.5056196 -0.20045175 0.25578558 0.1761635 0.22405033 -0.3290081 0.057346147 -0.25976342 0.04664818 0.21934658 -0.092784844 -0.055693734 -0.11270611 -0.03776954 0.21185811 0.065456904 -0.24129874 0.14886235 0.24180362 0.37396753 0.23260348 -0.0339886 0.001956219 0.11132532 -0.37950832 -0.15707435 0.08408308 0.29527998 -0.19624327 -0.109509565 -0.121826455 0.19937912 0.12827589 0.1924716 -0.15501449 0.39329118 0.2472206 0.044190157 0.38500288 -0.40340942 -0.049934153 -0.02219134 0.24397977 -0.21968056 -0.12273128 -0.22449172 0.2861192 -0.1462895 0.45649058 0.31614065 0.040841322 0.06444953 -0.21507592 -0.11031178 -0.22934629 -0.27014855 -0.13747454 -0.21123761 -0.26494706 0.06761682 -0.20284168 0.26503417 0.013781605 0.13403752 0.086515 0.3551939 0.5408286 0.32309368 0.3692303 -0.15590969 0.3956676 0.3905952 -0.15872236 -0.08506747 -0.13164154 0.13953893 0.25430992 0.065290935 -0.22226526 -0.2909845 -0.11806736 0.025267825 -0.62925273 0.146071 0.089146495 -0.17851777 -0.07510929 -0.28528062 0.06947405 -0.26763403 0.17376389 -0.04209967 0.04325137 0.03098597 -0.077280216 0.20874321 -0.06260615 -0.24926043 0.15700255 0.2313488 0.37151915 0.059779584 -0.047577415 0.22284575 0.14232312 0.07173817 -0.2632881 -0.13391234 -0.2013883 0.19088723
42 -0.043839373 -0.15090957 0.14061294 0.0069680642 -0.2844174 -0.37410927 0.2777078 0.04503517 0.058839627 -0.0745524 0.36088446 0.11908276 0.12779629 0.02551549 0.10967294 0.00947996 0.028091762 -0.15059045 -0.10760522 -0.25105017 0.28210115 0.19715737 0.2331417 -0.38773894 -0.07935849 0.002520237 -0.17869435 0.1685954 -0.018137034 -0.1722194 -0.14291681 0.035487346 0.057786833 -0.20382494 -0.36636811 0.174511 0.42430383 0.13607052 0.25688368 0.09839983 0.043439236 0.27646887 -0.13366833 -0.30211407 -0.19055957 0.34822118 -0.20926031 -0.13889776 -0.046414144 0.14560476 0.24890874 -0.011667593 -0.11414767 0.26346475 0.2754498 0.13424143 0.32677546 -0.34094563 -0.05237113 -0.03853824 0.17825772 -0.19072917 -0.09662782 0.0894052 0.33353785 -0.23402701 0.2802035 0.22548357 0.16110462 -0.020849574 -0.36003536 -0.12746379 -0.044531915 -0.31745327 0.14404452 -0.30178496 -0.36369762 0.347781 -0.13091283 0.26935947 0.14621536 0.1039112 -0.02677672 0.45498326 0.36041248 0.22087319 0.5876647 -0.07545402 0.18826066 0.20083123 -0.057476025 -0.12007443 -0.35797217 -0.15597291 0.37009433 -0.22866067 -0.30272684 -0.3745602 -0.16584489 0.049451705 -0.40803847 0.1428262 -0.08006738 -0.026992457 0.26935095 -0.49568754 -0.0902612 -0.33031783 0.10362301 -0.09358564 0.011492527 -0.020568658 -0.26662138 0.23109256 -0.013427309 -0.08293879 0.16828853 0.21838431 0.25759226 -0.11851909 0.02251445 0.1656439 0.06504863 0.22250375 -0.23641491 -0.096906036 -0.3821756 0.1642413
43 0.2969413 -0.25878677 -0.015464957 0.028935 0.032085452 -0.21455558 0.19939612 0.4531509 -0.19690411 -0.113796085 -0.02856812 0.010000985 0.028962085 0.3229213 0.28375682 0.22283038 0.27511913 -0.15311667 -0.54759127 0.25632584 0.13892299 0.082683705 0.124295406 -0.3723755 -0.21503644 -0.056329772 0.14631942 0.21244906 -0.11717635 -0.32544634 -0.19247235 -0.24153706 -0.22730543 0.033856194 -0.3528529 0.18348369 0.39706117 0.1202758 0.5248218 -0.13405104 -0.11550124 0.47103024 -0.17557928 0.0574967 0.40713364 0.5360337 -0.1937253 -0.08024358 -0.26881406 0.03424696 -0.09508912 0.335857 0.17742422 0.47791696 0.40797248 -0.09109516 0.31397408 -0.29876488 0.112986535 -0.31712574 0.27196887 -0.42913312 0.0540594 -0.23407173 0.3666552 -0.25135726 0.42207807 0.553201 -0.25205374 -0.048579484 -0.121555015 -0.2724406 -0.40876582 -0.37651116 0.19108807 0.16103154 0.033891764 -0.33895424 -0.06994321 0.12401088 -0.31704903 0.056905318 0.47102493 0.34218127 0.22863072 0.15996034 0.16417782 0.10221359 0.36301208 0.23045199 -0.23382531 -0.29934347 -0.27290863 0.16814373 0.14767091 -0.034660485 -0.0038855262 -0.14490543 -0.029699815 -0.02298277 -0.58282465 -0.08780776 0.09175598 0.033966612 -0.046146825 -0.45050147 -0.06933855 -0.1279972 0.01723641 -0.030650254 0.13784873 -0.04510242 -0.1867657 0.16912073 -0.18939734 -0.079822 0.031731673 0.046673838 0.40012673 -0.13960692 0.28036955 0.14832048 -0.19421092 0.10599352 -0.2722541 -0.23905098 -0.16061987 0.05718253
509 0.18774492 -0.26361433 0.010973205 0.15899782 -0.04536874 -0.34254274 0.037477825 0.39648947 -0.15806223 -0.2198413 0.16590649 -0.5753041 -0.3129864 -0.18534394 0.48028538 0.055209484 -0.1332135 0.025922313 0.09833963 -0.01650325 0.029083936 0.029019812 -0.3555939 -0.26607242 0.12438998 0.011374752 -0.13932939 0.13021095 0.22284076 -0.23113362 0.19315873 0.10866193 0.011171001 -0.122347675 -0.2506576 0.14250423 0.3317643 0.22808664 0.39324075 -0.03219645 0.013024551 0.5284223 0.20985235 0.14433607 0.13612615 -0.2130469 0.02850395 -0.2047652 0.2367316 0.2758495 0.3708502 -0.28502256 0.21810812 0.02224889 0.17593414 0.27301827 0.15771116 -0.30078053 -0.003939049 0.8292758 0.113510355 -0.0721754 -0.107109845 -0.22256479 0.07060032 0.24750191 0.2846508 -0.22669713 0.25196767 -0.266912 -0.16742086 -0.5801725 -0.19202629 -0.49025708 0.27708414 -0.32576963 -0.031603925 0.11753988 -0.0639481 0.2861288 0.088798895 -0.065695696 0.16857526 0.34491572 0.19035637 -0.13297863 0.16565445 -0.36265948 0.38183528 0.013599641 -0.45314205 0.23673959 0.17390788 0.09782009 0.26733887 -0.028736532 -0.31017655 -0.34389713 -0.54782516 -0.09414207 -0.455312 -0.14635225 -0.425448 -0.07197175 0.18765192 -0.0142369345 -0.3230737 0.20528822 0.025298625 -0.22993205 0.22969383 -0.06767708 0.34745187 0.49824893 0.11409774 -0.17322332 -0.09581266 -0.12535365 0.09537523 -0.0011326023 -0.22572 -0.14914353 -0.1612059 0.06602837 -0.21557137 -0.34317407 -0.087596536 -0.13712268
635 0.36348513 -0.20205961 0.25295386 0.17936459 -0.15760195 -0.06744019 -0.06385435 0.13735269 -0.14974914 0.08823893 -0.024138007 -0.13180341 0.23890927 0.11621061 0.28108987 0.09110274 -0.19448176 0.32156903 -0.46550846 -0.24522993 0.32842162 0.19536811 0.23285422 -0.12907998 -0.04822933 -0.19325079 -0.4286141 0.020755136 0.013687814 -0.18952021 -0.19454844 0.0315937 -0.07063426 0.09132349 -0.12422603 -0.5873494 0.23411617 -0.34363222 0.08793751 0.2870804 -0.14821982 -0.10370522 0.052421473 0.14602092 0.12673007 -0.037920512 0.037360355 0.18502937 -0.16149421 0.28944904 0.023400018 -0.27854288 0.3123784 0.5876177 -0.25434664 0.015786797 0.28943983 -0.13546202 -0.29854035 0.5727151 -0.19551969 -0.06746169 0.23152433 -0.19110633 0.6359826 0.06355276 0.16588885 0.3415376 0.042073723 -0.4671503 0.14104778 -0.10690308 -0.10643303 -0.05046195 -0.027014866 -0.53898144 -0.16813825 -0.028426956 -0.42090437 -0.012295615 0.079753965 -0.016689507 0.19687894 0.4965708 0.26623967 0.17213754 0.28998616 0.18678212 -0.0977726 0.2361221 0.04735605 -0.04158875 0.4509236 0.064285055 0.2165771 -0.19788833 0.025755519 -0.021230794 0.068562105 0.032284647 -0.1904726 0.002023024 0.18390596 0.26758277 0.2547309 0.5089509 -0.3574305 -0.0032645958 0.6135766 0.05488716 -0.19770302 -0.34685275 -0.030764516 0.58562607 -0.43054625 -0.13946708 -0.30499738 0.09698584 0.30846176 0.15721317 -0.15418418 -0.14276905 0.09916803 0.012031646 -0.34655163 -0.8531298 -0.13815035 -0.040382955
89 0.3996082 -0.35756862 0.2685436 -0.12151042 0.08336126 -0.25862944 -0.09459947 0.48862332 -0.08110313 -0.12869678 0.09470588 -0.34143054 -0.35814163 0.21764317 -0.039960027 0.19355658 0.0819866 -0.2871277 -0.10722443 -0.22801228 0.2242742 0.166232 0.27766317 -0.449879 -0.45420703 -0.26100367 -0.16583443 -0.13712135 0.3056251 0.06419199 -0.5450704 -0.21030405 0.28306496 0.17581375 0.063785575 -0.112206616 0.37053418 0.10204433 0.027775493 0.04491749 -0.07827789 -0.15931837 0.0401914 0.36322865 0.40016767 0.19518174 0.13092957 -0.024954075 -0.16983852 0.0005368976 0.09978972 0.23617597 0.5704934 0.5031535 0.53845054 -0.20120123 0.058758624 -0.15039213 -0.24992396 -0.031275406 -0.20134531 -0.28895316 0.3764818 0.13358195 0.3683601 -0.19530934 0.29869884 0.33291784 -0.26463228 -0.59625745 0.039959457 0.09005771 -0.2360474 -0.55061126 -0.11469405 0.2556272 -0.25930378 -0.01098618 -0.3611316 -0.17756513 -0.21418355 -0.09712478 0.41281787 0.42537615 0.2522482 0.19250606 0.19906498 0.07963984 0.11601608 0.13535172 -0.37830734 -0.32345647 0.21569037 -0.020208469 0.09386289 -0.02829877 0.046175018 0.07045472 -0.17569512 -0.10015275 -0.5962481 0.039899252 0.17047067 0.13327529 -0.054343965 -0.19617563 0.050299443 0.29013667 -0.089755595 -0.12287578 0.23775388 -0.23099577 -0.21997535 0.33793363 -0.29499057 -0.059089966 -0.14130813 0.13146554 0.14806078 0.04741925 -0.08187863 -0.35778564 0.021607911 0.16512367 -0.18195699 -0.10564045 -0.2339603 -0.042076245
41 -0.12945841 0.04961362 0.05591623 0.107703395 0.047144447 -0.5256494 -0.34560946 -0.052900877 -0.0776513 -0.12023219 0.3933096 0.028779695 -0.55606204 -0.17337698 0.44521162 0.0050366353 0.3100317 0.15255633 -0.14621006 -0.16524254 0.22140715 -0.2562046 -0.31676227 0.06921032 0.12167938 -0.018609058 -0.43737838 -0.14504468 0.22954266 -0.15584971 0.06965422 0.0022183696 -0.037855305 -0.024472976 0.01587777 0.21734637 0.5551859 0.025818665 0.11150807 0.11277637 0.2443514 0.40171057 0.37401798 -0.07269141 0.17915133 -0.44389123 0.02039029 -0.23015581 -0.08606474 0.10492325 0.23111965 -0.4627725 0.15157123 0.25538757 0.41369635 -0.04452935 0.46603313 -0.3020475 -0.025241762 0.5388367 0.21166667 -0.083988816 -0.190651 -0.2027194 0.33601868 0.09920847 0.25126487 -0.21282896 0.015126908 -0.2381194 0.003917871 -0.5220475 -0.058314618 -0.07275387 0.32232574 -0.09210239 -0.11641268 0.007100088 -0.12059916 0.20100571 0.10743831 -0.16844049 0.23696917 0.42722204 -0.058699455 0.18754078 -0.052073196 -0.41575712 0.37417087 -0.18176675 -0.32581377 0.25324452 0.22948185 -0.18892367 0.36674592 -0.112710245 -0.053718362 -0.38222575 -0.6344829 0.08144383 -0.59180886 0.04850922 -0.46917394 -0.21466461 0.036487386 0.07229413 0.03143554 -0.26287687 0.062172722 0.12493934 0.46389118 -0.4122053 0.1550343 0.2820949 -0.1785533 -0.108541176 -0.040607825 0.038289554 0.22421826 -0.024606537 -0.07380135 -0.28239304 0.019958314 0.0038609887 -0.022178272 -0.12266616 -0.017623963 -0.09648213
2035 0.05490418 0.008998549 0.6227434 0.2558727 -0.027369736 -0.4529497 -0.121687755 0.034128338 -0.51291984 0.44381508 0.21975498 0.022234755 -0.02599366 -0.08316342 0.33289316 -0.21521126 0.13863064 0.23987348 0.17460355 0.2619968 -0.4244406 0.31127638 -0.30281186 -0.36714298 -0.2379616 -0.050514627 -0.05270593 0.062403318 0.07569165 -0.030463682 -0.40072876 0.37434548 0.028790774 0.34292176 -0.053001683 0.6365403 1.1198303 -0.2104959 0.052374832 0.16149323 -0.29149377 0.17936777 0.5454194 -0.19221812 0.49741817 0.5035426 -0.23977043 -0.0259993 0.010049996 0.014355689 0.083631106 -0.07195247 0.28359357 0.19578332 0.30408144 0.14272779 0.43347725 0.0964573 0.3548528 0.29166573 0.040292393 -0.1037853 0.5728173 0.5201846 0.39396086 0.14762601 0.4731627 -0.003210075 -0.0026959993 -0.17563745 0.12316963 -0.36864057 -0.58178 0.19521011 0.29481336 -0.009487883 0.05849797 0.15831517 -0.15683827 0.03476807 -0.1806925 -0.20148411 0.026054902 0.42128825 0.11600293 0.34060436 0.17195277 -0.20397542 0.46629772 0.13667715 0.04193443 -0.26886925 0.23751427 0.1740725 0.54498625 0.5772837 -0.49961078 0.013225295 0.30886343 -0.2386184 0.035904035 0.21599056 -0.06965412 -0.3748584 0.10567518 0.3083922 0.15325093 0.39368507 -0.052076224 0.11761392 0.40076047 -0.28734916 -0.034163278 0.26735842 -0.3307124 -0.21368788 0.35821357 -0.02071899 -0.74575174 0.45759743 0.009013971 -0.04460911 -0.12963858 0.026544014 -0.21849462 0.062744595 -0.5227172 0.2584749
2160 -0.18956327 -0.3623111 0.064030156 0.5925419 0.011692737 -0.22003645 -0.1932081 -0.15927242 0.18796688 0.08102035 0.23835342 -0.2867218 -0.087427795 -0.09853074 -0.012646354 0.13350219 0.2588128 0.21585256 -0.20306273 -0.18353032 0.04464401 0.095160484 -0.22814511 0.06056973 0.18487617 0.43244386 -0.020305803 -0.005620377 -0.027624402 -0.13372995 -0.20827617 -0.12645102 0.061353717 0.2925475 -0.37954035 -0.10638743 0.1925616 -0.41205525 0.2654051 -0.2999052 -0.35419324 0.3195491 0.09450707 -0.22665304 0.09513367 0.042866148 0.08804288 -0.27512106 0.31601512 0.3707067 0.22082417 0.52273715 0.5583032 0.3413313 0.04140159 -0.080707155 0.34910855 0.05383628 -0.12711479 0.77436084 0.21989152 -0.016261429 0.25655764 0.17511532 0.10720238 -0.081986904 0.4028048 0.3124707 -0.04871755 0.07821561 0.099990204 -0.3953902 -0.17095147 -0.29420844 0.3969189 -0.1551272 0.20793374 -0.06723069 -0.17463441 0.06978884 0.019754648 -0.02853327 0.35128564 0.88400346 -0.2624733 0.24739525 0.17328545 -0.49877754 0.0146442745 0.27978435 0.15143423 0.14514758 0.3502203 -0.06100278 0.21326819 -0.07000903 -0.2981976 -0.082291685 -0.37374064 -0.06694834 -0.5470559 -0.1155951 -0.2386244 0.13747959 0.59003067 -0.0375278 0.004932752 0.107617535 0.15839991 -0.3054882 0.26514462 -0.39668822 0.06547175 0.33720693 -0.12534294 -0.26100054 -0.1139822 -0.0629223 -0.08685381 0.063245684 0.08376879 -0.11791561 0.5318648 -0.046239935 0.18321782 -0.046872925 0.09939559 0.1963288
1296 -0.27770284 -0.17503053 0.029906662 0.32966337 -0.08150176 -0.2527687 0.31367 0.07537954 -0.3032219 -0.062943265 0.33339602 0.088185884 0.24103889 0.09147351 -0.09505688 -0.027349208 -0.2356779 -0.06322931 -0.32970273 -0.1878916 0.18487245 -0.14755146 0.12017791 -0.1820248 -0.17497693 -0.30051017 -0.30591634 0.29077935 -0.30699778 -0.15632382 -0.22076978 -0.26727363 -0.08795697 -0.1692164 0.110919476 0.26035628 0.3215133 -0.18542928 -0.047648612 -0.10455648 -0.44854787 0.25212657 -0.1863542 -0.3718438 -0.1935335 0.10186703 -0.1572603 0.040010296 0.18930167 0.23900984 0.107320786 0.13984756 -0.23547558 0.052499473 -0.012616385 -0.040288996 0.3230161 -0.4364681 -0.36070508 0.6310445 0.10506502 -0.12909847 0.011460961 0.037393447 -0.029320179 0.13403942 -0.12513356 0.30606392 0.07356166 -0.005102315 -0.019617405 -0.26424763 -0.2117483 -0.33566934 0.26786935 -0.33435 0.08221852 -0.3001838 0.016699923 -0.117383204 -0.47812048 -0.16606246 0.37795222 0.8306649 -0.19411322 0.22135139 -0.012692875 -0.30093196 0.23278569 -0.09797228 -0.35705873 0.13719438 0.11729903 0.22406428 0.41163948 0.09942412 -0.23047838 0.007368259 0.1873292 -0.11896241 -0.30289578 -0.03778244 0.25875777 0.26516545 0.19206685 -0.359567 -0.053359985 0.3555775 0.27886754 -0.496138 0.34434137 -0.035817996 -0.069041476 0.08550823 0.0682852 0.1232948 0.25244945 0.25818828 -0.15897232 -0.17839402 -0.45706654 -0.036672667 0.47697842 -0.30292755 -0.2981175 -0.054750025 0.1677118 -0.08143831
177 -0.24771862 -0.54439956 0.06807036 -0.0020273468 -0.08837289 -0.2688543 -0.002004264 -0.20816179 0.0062301927 -0.124699555 0.38083377 0.09612875 -0.064517215 0.18421952 0.12872492 -0.44487292 -0.036296003 -0.08437211 -0.23192337 -0.19149378 0.14523438 0.23598018 0.19223198 -0.30164334 -0.008738235 -0.27603805 0.0007357577 0.01731929 -0.0065152654 -0.47648343 -0.0719506 0.2825753 0.32957742 0.102050796 -0.45212498 0.23818919 0.21821058 -0.037867814 0.401119 0.3452868 0.0048133126 0.14290853 -0.20876339 -0.6297516 -0.15629166 0.10609434 0.24568412 -0.33773422 -0.32033017 0.058222428 0.3185722 0.12323081 -0.060543366 0.093299225 0.24635808 0.19746147 0.008689474 -0.4474286 -0.44123757 -0.009878907 0.07898493 -0.23855814 0.031833466 -0.046952903 0.26183167 0.1063948 0.36025286 0.04895429 0.04742276 -0.072282605 0.30102915 -0.057613775 -0.15481432 -0.35283113 -0.031449907 -0.4158113 -0.029653857 0.24180813 -0.15770121 0.22559445 0.14725704 -0.099965796 0.31235665 0.45041797 0.23150906 0.23919982 0.2055752 -0.25897706 0.30273503 0.030720275 0.071361735 -0.31785536 0.025377862 -0.52197385 0.17193383 -0.09254077 -0.49694246 -0.16372044 -0.23742923 -0.020239687 -0.60710645 0.39738378 0.27746755 0.23400924 0.12628083 -0.26609036 0.11119119 -0.38055384 -0.1478042 -0.1369931 -0.0503769 0.1511057 -0.19902846 0.15857986 0.0039395224 -0.078567944 0.18365797 -0.35699877 -0.07148406 -0.29479098 -0.18877552 0.00029749915 -0.018701632 0.02169299 -0.65384954 -0.12072247 -0.7472489 -0.005180434
965 -0.032662738 -0.5897612 -0.25121137 -0.45299 0.18746196 -0.6524579 0.20613159 0.2724375 -0.15236063 -0.16914082 0.46372366 -0.5454332 -0.4240836 0.083943024 0.3348308 0.37918565 0.1971427 0.16444169 -0.22967412 0.02057152 0.4328056 0.30529872 -0.18018182 -0.21178384 -0.09808496 -0.34031835 -0.4718998 -0.17183307 -0.08711174 -0.37454292 0.32259578 -0.21597266 0.019002099 0.2416604 -0.4996173 0.3717612 0.6064951 -0.23486339 0.07918888 0.08189341 -0.14822525 0.23867515 -0.1599332 0.17371207 0.11127032 0.24238381 -0.2148676 -0.2933099 -0.18734582 0.49253097 0.16405374 0.18361059 0.5040037 0.3327986 0.21588539 -0.17480011 0.3183804 0.0074074366 0.2645617 0.21816143 0.1848087 -0.37512565 0.17144255 -0.046270996 0.08695845 -0.021059446 -0.3277184 0.40309092 -0.07666557 -0.23563735 0.0021437271 -0.17901236 -0.27945557 0.104874924 0.098853976 -0.5432542 -0.0097010955 -0.55639863 -0.42549163 0.1821406 0.10922694 0.0044880854 0.043283835 0.42509648 0.18011537 -0.19383246 0.21886915 -0.25994247 0.4686999 0.19820692 -0.15081368 0.1713124 0.06962635 -0.47820827 0.027797433 0.39700156 0.3463421 -0.062661365 -0.41654694 0.17566861 -0.20831344 0.36473393 0.39397088 0.15821098 -0.04293928 -0.16844216 -0.38279754 0.20451498 0.26494554 -0.10936586 0.042849828 -0.28767395 -0.06025274 0.16505653 -0.047857244 -0.031882368 0.40446353 -0.20586422 0.12864237 -0.17822874 0.058801167 -0.29536223 0.20136565 -0.019332213 0.023184959 -0.014339163 -0.07025758 0.06025808
40 -0.24568214 -0.025285227 0.07977672 0.3607418 -0.0047539715 -0.42755383 -0.006980137 -0.108795874 0.18441918 -0.19177255 0.17382275 0.043320574 -0.35794187 -0.04831303 0.30784392 0.20278588 0.09812146 0.087845385 0.14356552 -0.10747523 0.21270229 -0.15505609 -0.43375596 0.10235348 0.21760224 -0.009367513 -0.26648253 -0.03908288 0.3059032 -0.2530181 0.19019951 0.034145385 0.28798085 0.057066172 -0.11548924 0.25373766 0.40057254 -0.04986846 0.03150714 -0.031589992 0.10030707 0.46785688 0.19873488 -0.00302274 0.34870917 0.14493215 -0.20197585 -0.32004613 0.31735006 0.06678784 -0.004597841 -0.056424465 0.11549404 0.56693417 0.028797338 0.25196543 0.27504486 0.015667778 -0.15834962 0.7016965 0.09312499 0.06935833 -0.044054132 -0.0076480755 -0.01277189 -0.05554569 0.425514 -0.13442715 -0.19387253 -0.020770276 0.044638284 -0.58908486 -0.3406451 -0.17012316 0.3997293 -0.17465729 0.061384376 -0.062203836 -0.13333161 -0.007979418 -0.12065175 -0.16234998 0.23191024 0.5044053 -0.01982101 0.038632475 0.039157268 -0.24272448 0.08513645 -0.23568223 -0.040956948 0.17442138 0.29559153 -0.14807403 0.43434948 -0.03185364 -0.102092475 0.0044413703 -0.42272863 -0.010129475 -0.5164874 0.060648616 -0.2402055 -0.26564142 0.25089318 -0.06620292 -0.14000861 -0.29286563 0.114908345 -0.20701307 0.28812855 -0.36614263 0.21638782 0.53568137 -0.34651852 -0.34003985 -0.10926809 -0.15751356 -0.036589317 -0.0152329225 -0.2606255 0.18701215 0.029633686 0.14667057 0.023611499 -0.14272098 0.085481204 -0.21889217
90 0.26790467 -0.26597843 0.20622438 -0.066428594 0.14983977 -0.14177968 0.16421752 -0.049758818 -0.2685235 -0.034388743 0.3573266 -0.0872418 -0.41765836 0.019237773 0.14791709 0.059967674 0.36565065 -0.18073131 0.13929893 -0.12911427 0.22104475 0.24776746 0.108521484 -0.553449 0.20799638 -0.23919322 -0.16555415 0.0030334583 0.2153917 -0.25904715 -0.09308983 0.1273943 0.14622605 0.36099446 -0.21442166 0.058132213 0.6215613 0.14316557 0.24232395 0.28198206 -0.006933411 0.084984675 -0.21257935 0.1868116 0.18106471 0.2145666 0.081548385 0.25855935 -0.20657353 0.04071713 0.11011291 0.1508515 0.57981664 0.3722766 0.0014208412 -0.2382963 0.3336109 0.21370347 0.06398388 0.14649734 -0.25255275 -0.3560261 0.48095033 0.23029403 0.22707368 0.065195054 0.09398792 0.2647533 -0.05835996 -0.34704962 0.008310379 0.3013404 -0.20384139 -0.12432029 -0.16219729 -0.113678105 -0.045256708 -0.5551314 -0.48215377 -0.008004214 0.0859883 0.08018898 0.1673838 0.3557034 0.12797132 -0.09283588 0.12634046 -0.045005348 -0.14043736 0.4003304 -0.099407814 0.25466603 0.62249434 -0.23671792 0.18124312 0.032149233 -0.020111376 -0.12639962 -0.1454793 0.23969251 -0.31466 0.0024116277 0.041058652 0.09984156 -0.08456815 -0.4290944 -0.32364714 0.36094427 0.43752274 -0.42782223 0.026707005 -0.57446986 0.34799403 0.2202825 -0.5361886 0.054026697 0.025547547 0.0446898 -0.04978559 0.2136923 -0.3929664 -0.39297962 0.3207276 0.15935652 -0.31318322 0.033756237 -0.123793714 -0.09056433
1044 -0.43070534 0.16594476 0.122129776 0.29415068 0.202344 -0.51559114 0.07351401 -0.035481438 -0.1332569 -0.32134703 0.28350702 0.13517198 -0.2756079 0.027428394 0.10993281 0.36643302 -0.24849251 0.04457424 -0.032962408 -0.35214272 0.36213028 0.05886467 -0.16598582 -0.7410957 -0.052611295 -0.22149079 -0.1483386 0.1503884 -0.10706009 -0.49208733 0.09188801 0.3590463 0.24168894 -0.095502466 -0.039700005 0.39045525 0.095446564 -0.08255963 -0.06376109 0.26460186 -0.0027074073 0.38801795 0.53707975 -0.25601158 -0.13678484 0.29885402 -0.2322144 -0.26688078 0.20257796 0.1406212 0.0572129 0.28502002 0.06051857 0.62937653 0.21293654 0.2292168 0.062180687 -0.015755484 0.16311832 0.49351397 0.18862969 0.0047971862 0.027786443 -0.5305408 0.3222733 -0.19130242 0.40235507 -0.00316174 -0.34393594 -0.03274273 -0.32528657 -0.5613027 -0.12380666 -0.1326217 0.05898967 -0.04582685 -0.01545176 0.14819098 -0.6688188 0.3062049 -0.15155022 -0.36358827 0.16306755 0.14857434 -0.08745161 0.10093139 0.0537663 -0.41023797 0.05095233 -0.045699313 -0.113002 -0.07683829 0.31511477 -0.19081314 0.48129442 0.071283035 0.28503036 0.14880538 -0.66828865 -0.025203867 -0.15579708 0.10460757 -0.4133285 -0.36544687 -0.115753286 -0.3373609 0.1724722 0.35895327 0.041886196 0.19199216 -0.1809951 -0.21609937 0.3166338 0.42694798 -0.1365388 -0.069608785 -0.05466648 0.14999087 0.054062013 -0.03745731 0.14945236 0.029513484 0.09990006 0.055327192 -0.20082518 -0.12745187 -0.0017919583 -0.43482843
2545 0.29312888 0.061827444 -0.012133199 0.36171877 -0.086408325 -0.40702882 0.0437756 0.09182359 -0.38857445 0.41125566 0.025427938 -0.37883198 0.023524648 0.01352385 0.001005546 0.23405337 -0.34089223 0.42307824 -0.51773876 -0.10598081 0.26049337 0.3422636 -0.115907244 -0.33586416 0.22008562 0.03941385 -0.31565812 0.06773104 0.057932634 -0.1654691 -0.05219428 0.113595255 -0.042845927 0.22036028 0.0707222 0.054352403 0.2662848 -0.34698635 0.15203983 0.18705767 0.060222927 0.15158719 0.10330861 0.24302243 0.14324413 0.06803567 -0.1737337 0.360451 0.011406479 0.189072 0.17836736 -0.00815043 0.43138304 0.32594538 -0.1183464 0.07753124 0.5050611 -0.2422664 -0.25550842 0.50983185 -0.20811087 0.07391886 0.28116015 -0.22809541 0.02638481 0.22014196 -0.03548054 0.5665163 0.39147395 -0.21259275 -0.010583506 0.11510087 -0.27814806 -0.30888116 -0.045103036 0.04336506 -0.12644948 0.30484343 -0.50219905 -0.0659926 -0.09468417 -0.14751579 0.4908432 0.3413743 -0.08432132 0.47909206 -0.1429368 0.30263358 -0.17520359 0.27746546 0.3404487 -0.15184364 0.2653776 0.09190405 0.50661135 0.002436866 -0.16372874 -0.2219386 -0.0116685955 -0.090560935 -0.31964368 -0.2195268 -0.039546054 0.45056304 0.33185476 0.09058722 0.11630298 0.059627533 0.47017473 -0.1985102 0.28228268 -0.15125869 0.3883428 0.5023664 -0.037186462 -0.071290165 -0.17057528 -0.07007266 0.29851684 -0.3947449 -0.27989802 -0.17626213 0.26500276 0.13791542 -0.07798007 -0.11103858 -0.441072 0.18321408
568 -0.3592103 -0.20491673 -0.12123982 0.19728126 -0.1649782 -0.6207959 -0.074082404 0.110786326 -0.004884959 -0.08484445 0.70147276 0.1280345 -0.17797713 0.05306764 -0.37020683 0.023593131 -0.07488089 0.038852572 -0.42194507 -0.1799535 0.15412952 0.16632949 0.25125813 0.1574305 -0.114152215 0.040387068 0.061702833 -0.20832302 -0.12393567 0.04833137 -0.15325059 -0.30507368 -0.027177919 -0.14947297 -0.06470015 0.28582764 0.16274971 0.21373963 0.51012844 0.016664747 -0.3796786 0.28162923 -0.23047441 -0.31202623 0.11009301 0.330028 0.10597604 0.01394464 -0.3299581 0.27048936 -0.2576545 0.018730368 0.08997111 -0.06623268 -0.13542907 -0.15377635 0.12865745 -0.4167388 -0.32224953 0.33073717 0.1063942 -0.077670485 0.04689434 -0.18592459 0.48057172 0.090879366 0.057731036 -0.19070731 -0.061794005 0.0062231673 0.113796994 -0.2734605 0.04623331 -0.12402889 -0.06572614 -0.7057535 -0.024042478 0.16727957 0.039655443 0.35703692 0.26365933 0.058325592 0.25330862 0.7992204 -0.14813949 0.24678117 0.081715755 -0.41371948 0.64332116 0.16734943 0.23094943 -0.22831272 0.12558284 0.123803586 0.10049193 -0.2748069 -0.34748927 -0.083140634 -0.17406903 -0.15600012 -0.12635879 0.023107743 0.11877837 0.28784063 -0.018758383 -0.58475363 0.0018863331 -0.032653946 -0.021106223 -0.37749407 0.14212672 -0.23831624 -0.037471753 0.012798717 -0.23829645 -0.15052254 0.22340654 0.27921218 0.04961279 -0.033568434 -0.15811746 -0.31284162 -0.04834235 0.38963664 -0.22195339 -0.15588555 -0.30262557 0.10810848
508 -0.122715056 -0.08809119 -0.1322025 -0.15776315 -0.13003375 -0.25664815 -0.052264832 0.20449585 0.0403922 -0.09723679 0.41273457 -0.27869424 -0.24573399 -0.09943439 0.13544044 -0.032919798 0.15056667 0.19351742 0.07083264 -0.27946827 0.10310297 -0.018517502 -0.060516603 -0.28171438 0.19625823 -0.22839127 -0.50285095 0.05850502 0.37490684 -0.08248736 0.03188 -0.019658744 0.015120711 -0.18920976 -0.17651665 0.41883716 0.38497242 0.24503706 0.38421616 -0.24845754 0.0049906406 0.1410395 0.20243502 -0.062288053 -0.0802591 -0.28251532 -0.10206665 -0.27019003 0.006470436 0.0020032001 0.33861804 -0.4722263 0.14799927 0.18906496 0.2097841 0.35040957 0.395685 -0.33912715 -0.013536282 0.81596345 0.33030623 -0.11425636 0.036850657 -0.3536556 0.04088289 0.11327211 0.24703966 -0.1065311 0.1784984 -0.22136796 -0.08218022 -0.651595 -0.43435162 -0.4271352 0.34626427 -0.19870575 0.0017914239 0.37109217 0.10848725 0.2752405 0.15883683 -0.038658507 0.16368957 0.25431618 -0.08141983 -0.0051786206 0.122051485 -0.3596752 0.5955498 0.14441068 -0.21820071 0.3790524 0.3829667 -0.13876384 0.33929437 0.08319938 -0.05790281 -0.14565831 -0.6038006 -0.48937947 -0.5023742 0.0031972518 -0.32004553 -0.113243185 0.17773144 -0.26799238 -0.3352971 -0.047931235 0.05403449 0.18588415 0.20978731 0.057182364 -0.034177363 0.58061016 -0.11721606 -0.190678 -0.15887399 -0.006258222 0.111533865 0.23173846 -0.3486974 -0.26563835 -0.23507579 0.061331123 -0.18547729 -0.09507434 -0.24444608 -0.008759987
15 0.036203016 -0.35979927 0.16257554 0.45503366 0.14513981 -0.24428542 -0.31121382 -0.124685876 -0.4250567 0.3584187 0.09332088 0.13909222 -0.29876894 -0.13585798 -0.26305297 -0.2854382 0.48988098 0.14619747 -0.35331526 0.12669607 -0.098387726 0.28810024 -0.20493066 -0.1236492 -0.056116704 -0.08462738 -0.3768314 -0.00023520092 -0.069103636 0.044706974 -0.08156103 0.72730374 0.101340406 0.2672005 0.09479774 -0.04617617 0.7154802 -0.056411937 -0.009789312 0.21244453 -0.5042078 0.13905318 0.07002203 0.26294962 0.07623985 0.08664815 -0.29625377 -0.00361763 -0.049110577 0.46492285 -0.060047925 -0.299638 0.22725892 0.14169501 -0.17376997 0.26661888 0.7431123 -0.36464095 0.41478038 0.4879304 -0.06290806 0.12240473 0.18593773 0.28352574 0.2732674 0.046273198 0.04127834 0.4159012 0.0525932 -0.44528094 0.2115524 -0.25661996 -0.41166544 -0.2182455 0.024340691 -0.013034349 0.15314862 0.31257367 -0.3315776 -0.32943076 -0.0020164817 -0.090050995 0.22294064 0.2246272 0.030736556 0.070786536 0.4413668 -0.06569335 -0.076211296 -0.03214251 0.025226157 -0.0027294082 0.27514482 -0.20658828 0.3307825 -0.05977846 -0.4311342 -0.24374029 0.16831243 -0.28671986 0.06213212 0.54803246 -0.17056274 0.23755373 0.27520576 0.10014728 0.10008519 -0.10956541 0.37036547 -0.03538262 -0.07887723 -0.23460492 0.021093657 0.15925485 4.7255053e-06 -0.21320099 -0.14791316 0.11320261 0.07959285 0.07988404 -0.32711387 -0.18761247 0.13013652 0.0829153 -0.25924742 0.12248761 -0.027553104 -0.054370064
1863 0.19471985 -0.11298381 0.1600385 0.24162741 -0.0049491343 0.14810805 0.06871184 -0.29687655 -0.34176067 0.04260453 -0.05645879 -0.28680354 -0.18415558 0.15291557 -0.021798916 0.166099 -0.035820454 0.16941376 -0.57077074 -0.023384323 0.13697247 0.27971965 -0.3775086 0.07302291 -0.13963984 -0.10901434 -0.3236028 -0.035201848 0.12715618 -0.24200718 -0.1751377 0.18368077 0.09582103 0.03387691 0.031812467 0.044059917 0.55664766 -0.14076847 0.16322304 0.12151785 0.10800222 -0.034692246 -0.03912605 -0.039191704 0.18683109 -0.07498128 -0.13366008 0.07410213 0.32152447 0.35512066 -0.18570913 0.09930642 0.11924714 0.31286877 -0.32164457 0.08432499 0.5020498 -0.44202918 -0.26516894 0.42689726 -0.15230076 0.023408135 0.25789008 -0.0054279314 -0.055210866 0.11088548 0.15790439 0.26443216 0.0832436 -0.09835266 -0.051683426 -0.1107042 -0.13756208 -0.28000036 0.25750965 -0.023850461 -0.16577889 0.1317613 -0.4589513 -0.07680121 -0.18702137 -0.03325321 0.3176542 0.5665091 -0.15886667 0.42126828 0.16676137 0.14504132 -0.07472623 0.09278103 0.3794054 -0.3575925 0.2908656 -0.12558989 0.21017668 -0.04430499 -0.24501298 -0.1382981 -0.25285846 -0.22236226 0.12168757 -0.027788587 -0.18363185 0.3007244 0.09124541 -0.11893236 0.02853973 0.19266471 0.52209926 0.023907412 -0.13086177 -0.30494016 0.42912927 0.38285297 -0.29561657 0.18319997 -0.049366713 0.02047815 0.41382214 -0.124044605 -0.009246212 0.04454337 -0.10127923 0.15069726 -0.20683713 -0.03473895 -0.24309392 -0.09295585
308 0.025561832 -0.315209 0.2994597 -0.30695066 0.11442864 -0.10012959 0.15336676 0.17955072 0.04568124 0.8279022 0.057863764 -0.11643083 -0.07288122 -0.09377588 -0.17801856 0.1182761 -0.3066658 0.39335218 -0.051306985 0.07683267 0.18240559 0.05173008 0.024369888 0.019953318 -0.21271437 -0.4621821 0.33277136 -0.1323294 0.24809659 -0.09292324 -0.14234892 0.10426426 -0.07523886 0.09630372 -0.2995334 0.22354674 0.418387 0.08974539 0.13440834 -0.31707567 0.190287 0.397006 -0.07803214 -0.28873676 -0.024396656 0.4802872 0.04288609 -0.1608693 0.123632655 0.23373038 0.056484025 -0.17085497 0.19852315 0.34284827 -0.18081588 0.063923985 0.25586268 0.0011587454 0.023255363 0.06521419 -0.16396618 0.0031300338 -0.070362784 -0.3762456 0.3269567 0.21683796 0.39183494 0.20523973 0.24549341 0.17083807 0.0777922 -0.09906114 -0.19458921 -0.24351145 -0.15994146 0.024536394 -0.2677069 0.28219387 -0.52536273 0.5118514 0.27650696 -0.3975014 0.15574338 1.1098142 -0.106484346 0.29211056 0.20694757 0.020293312 0.10135135 -0.017531147 -0.20761038 -0.20302412 0.017052328 -0.056598302 0.09304733 -0.12644239 -0.0021592337 0.068406805 -0.26668096 0.082153335 0.022295436 0.4098851 -0.20408931 0.41391215 0.33195812 -0.039208837 0.09868083 -0.0864912 -0.20800935 -0.09776286 0.16092612 -0.14894843 0.17769693 0.11101476 0.19993325 -0.011494757 -0.2126219 -0.064451545 0.19069575 -0.18102078 -0.30119804 0.057971258 0.265249 0.24017283 -0.42118326 -0.1785939 -0.14961706 -0.280948
71 0.035274252 0.06285236 0.043162975 0.08761438 -0.17810085 -0.24471252 0.43090954 0.09911168 -0.1415403 -0.49484235 0.29677328 0.023118405 0.25606772 0.09520391 -0.1892836 -0.11106452 -0.12870416 0.10018853 -0.42049766 -0.011732978 -0.05635462 0.20820399 0.105791904 -0.2082995 -0.01055415 -0.02627668 0.14905362 -0.007348166 0.13447388 -0.40820417 -0.43574053 -0.093639575 -0.08247561 0.28155115 -0.64538056 0.08284259 0.61548054 0.13970284 0.040715028 0.06722959 0.09398429 0.25189757 0.27218288 -0.41036123 0.0061627384 0.6830516 -0.10252938 -0.2118951 0.3607892 -0.04150253 0.21347538 -0.022999479 0.22016585 0.4121056 0.38837644 0.4973385 0.20245896 -0.18251227 0.4790273 -0.23968345 0.15417522 -0.32515365 -0.13232535 -0.5996429 0.14050536 -0.07093414 0.3613504 0.23716354 -0.0176412 -0.24674055 0.06613036 -0.1171268 -0.20605204 0.27775434 0.102538176 -0.29104236 -0.016151885 -0.14296646 -0.40474382 0.18425992 -0.15767646 -0.069627985 0.037292067 0.21572039 0.37824774 0.10563353 0.45261145 -0.09268751 0.2146673 0.30162796 -0.24342315 -0.23170325 -0.10637278 0.098308995 0.16896512 -0.085271984 -0.08413446 -0.2964174 -0.30498075 -0.010249636 -0.70462704 0.14726427 0.14850293 0.31622386 0.2602246 -0.28078038 -0.08834318 -0.12320799 0.1786937 -0.41859505 0.22623312 0.026969224 -0.24148618 0.10396182 -0.16740377 0.20864563 0.2876802 0.07099247 0.22058617 -0.28008795 -0.12460348 0.06208336 -0.05494701 -0.20469517 -0.30544922 0.22066607 -0.24144939 0.0023416728
110 0.15003438 -0.17750311 0.08737158 0.17495152 -0.049446367 -0.47842476 0.017036585 0.02178226 -0.009031018 -0.021002507 0.19139709 0.027740994 -0.0071684932 -0.40779877 0.10877017 -0.27385655 0.11757778 0.29388255 -0.018128237 0.06540186 0.080526404 0.15081137 0.49168903 -0.1866452 -0.03558132 -0.090811245 0.12969263 -0.014896675 0.056204647 -0.3419707 -0.22390923 -0.025020203 0.16956829 0.10451119 -0.3894209 0.07584245 0.35700563 -0.065886185 0.28499493 0.18471885 0.16426328 0.20424691 -0.2830416 -0.85154194 -0.012592027 0.20861334 0.03838103 -0.3389994 0.03505972 0.09439092 0.3347168 -0.075632006 0.003316632 0.4752376 -0.43811882 0.33860013 -0.022651853 -0.318007 0.0358562 0.08357555 0.1441958 -0.46252877 0.096170984 0.23788652 0.40656286 0.39951104 0.31083572 -0.1420621 -0.23066233 -0.14142877 0.17455252 -0.014492229 0.18026842 -0.15273082 -0.03614172 -0.5246728 -0.31200996 0.40333825 -0.29507905 0.33929372 -0.13461028 0.021592157 0.112331435 0.8193632 -0.06962021 0.0028995026 0.14420323 -0.09730921 0.44559306 0.27994317 0.11217028 -0.014926554 -0.1871434 -0.1417538 0.19843186 0.29735443 0.05946106 -0.46131444 -0.21153195 -0.21937136 -0.33843228 0.33222947 0.28449276 0.37647694 0.26617473 -0.46686578 -0.010598734 -0.26873118 -0.261291 -0.5107184 0.18289919 0.02964369 0.004306046 0.086198844 0.2733307 -0.4391238 0.057263613 -0.116929546 0.09002175 -0.11593096 -0.15720919 0.26025802 0.03154703 0.044767242 -0.29067338 -0.14629044 0.061876215 0.054932624
597 0.033171207 -0.18824445 -0.019103624 0.07729379 -0.22773468 -0.18563335 0.36878175 0.027881708 0.19141416 0.054331567 0.41419658 0.18167919 0.053075373 0.2675282 0.18777235 -0.26595825 0.010708722 -0.04988617 -0.5445453 0.078611955 0.05792906 0.14574023 0.32782355 -0.2847812 -0.08806653 -0.03153953 -0.13681494 0.1687483 -0.19070765 -0.12589248 -0.08805843 -0.21874192 -0.108551435 -0.033581797 -0.27446255 0.09371208 0.5437273 0.027031513 0.278988 0.11313054 0.083443046 0.033838335 -0.3287245 -0.20825016 0.012863974 0.50162876 -0.00941494 0.27351642 -0.2386336 0.06340369 0.005448355 0.03935271 0.06041581 0.5331096 0.39576045 0.09595799 0.18578926 -0.46374542 0.15625708 -0.11441591 0.26372248 -0.2984413 0.14754735 -0.012492457 0.33907178 -0.10079625 0.18985383 0.2259358 0.2216084 -0.05050664 -0.261564 -0.034543358 -0.2997295 -0.1761111 0.13103898 -0.00774902 -0.08647858 0.19270064 -0.28851372 0.36782372 0.03958926 0.24251284 0.15952665 0.35548767 0.42191765 0.29099205 0.5363012 0.06959572 0.49151883 0.5392431 -0.04858644 -0.023891421 0.18099485 -0.083155245 0.08612971 -0.053640626 0.027030285 -0.2121416 -0.15849166 -0.0697449 -0.65370476 0.09615735 -0.010795436 -0.15602665 -0.14398447 -0.29837573 -0.014654519 -0.29118997 0.022419529 -0.116131775 0.110756025 0.20988359 -0.27185655 0.13922524 0.31284198 -0.09775 0.17493556 0.28220674 0.18145113 -0.041365 -0.026195021 -0.0063729375 -0.10723262 0.117615044 -0.37643403 -0.052981094 -0.37692428 0.15546572
1705 0.025065236 -0.44699582 0.17331548 0.37088004 -0.2066867 -0.39815593 0.14144844 0.060025815 -0.35922936 -0.06231161 0.26870504 -0.25294307 -0.07154376 0.19767223 0.18930893 -0.24883403 -0.040413253 0.1851934 -0.36505437 -0.05161313 0.29645577 0.52770925 0.11884103 0.0518464 -0.18209511 -0.2971204 -0.47939357 0.048754774 0.1445854 -0.43785706 -0.006201793 -0.031956296 -0.28799164 0.12813658 0.15177624 0.2906496 0.1309568 -0.45328632 0.34609023 -0.2513504 -0.314817 0.08039201 -0.15258056 -0.24533013 -0.25324753 -0.0015020194 0.24226882 0.019376427 -0.007965451 0.47158945 0.08065481 0.15370584 0.16128445 0.063149676 0.5073154 -0.22439058 0.46695432 -0.2617868 0.0891983 0.5437611 0.18734108 -0.09436334 0.2781966 -0.004304088 0.23444052 0.4296696 0.17908505 -0.05275689 -0.014768868 0.21308434 0.4265511 -0.019928923 -0.28643125 -0.15172704 0.07454698 -0.31781968 -0.2371602 -0.154945 0.24135725 0.19674416 -0.21074785 -0.12241442 0.2592014 0.5797856 0.08564865 0.16058701 -0.019365195 0.1354665 0.17929234 -0.13618012 -0.39194438 0.4948421 0.27193946 0.01898926 -0.07060816 -0.03370464 0.028192043 -0.26534662 -0.48944137 0.14799614 -0.6802791 -0.16625082 0.100794956 0.21547131 0.6916614 -0.06795551 0.09350899 0.21295917 0.3272984 -0.41874698 0.30469835 -0.1052044 0.02127456 0.24838594 -0.09608454 0.036971267 0.19481306 0.557615 -0.37524626 -0.14227901 0.123817764 -0.34453043 0.26055175 0.012808653 0.101300344 0.06466635 0.43411133 0.16604984
88 0.17750987 -0.25311172 0.045661513 -0.12921745 -0.10027333 -0.22418687 0.14132598 0.46076107 -0.15483132 -0.08111116 -0.20264554 -0.13474782 -0.23190281 0.16430315 0.41232395 0.30021322 0.35556453 -0.21504615 -0.37150955 0.41045707 0.1975178 -0.00026371868 0.03495944 -0.27490035 -0.38367796 -0.12823589 -0.078255594 0.19917537 -0.3046763 -0.21455154 -0.5285583 -0.5017227 -0.100700915 0.19294308 -0.1735297 0.2581226 0.4921868 0.20608222 0.41708386 0.13742921 -0.29330018 0.6857845 -0.12765205 0.23626226 0.56996524 0.54449505 -0.025624793 -0.09775014 -0.3241158 -0.2472533 -0.14056882 0.49247903 0.08105739 0.48348203 0.6022894 -0.33927947 0.40159702 -0.20198673 -0.11326342 -0.2026595 0.24001114 -0.5500636 0.12918597 -0.34006184 0.32467386 -0.16846485 0.5232134 0.6770869 -0.21838103 -0.35043174 -0.15214169 -0.21987711 -0.3829101 -0.29172167 -0.003176096 0.09000647 0.05221678 -0.15371409 0.052726813 0.18933862 -0.39110923 0.011401858 0.5475249 0.16460265 0.20255305 0.21679619 0.1309508 0.079651125 0.15956455 0.11554987 -0.09920954 -0.20672522 -0.22194974 -0.06584842 0.07933607 0.03234439 0.04934438 -0.1251624 -0.25003755 -0.11180618 -0.68042254 0.27478257 0.28026173 -0.13821356 0.0077922815 -0.40266985 -0.06714095 -0.035349216 -0.074770115 -0.1566838 0.15722728 -0.081145786 -0.19361055 0.085110664 -0.031212077 -0.38875115 -0.047309216 0.08641103 0.48290965 0.031040836 0.3053052 -0.20899107 -0.1507494 -0.14397512 -0.34302384 -0.2379108 -0.06754276 -0.058126826
2161 -0.28146666 -0.5987519 0.27940738 0.770394 -0.029002726 -0.30883107 -0.13683623 -0.15058115 0.10078618 0.03039529 0.278967 -0.27872148 -0.09955408 -0.23278247 0.007687532 0.1523765 0.12628238 0.029644715 -0.2369366 -0.31116703 -0.010376115 0.016363025 -0.23318417 -0.05651976 0.16836959 0.39551932 -0.011183724 -0.06523136 -0.20857151 -0.35840702 -0.38004106 -0.1137684 0.016024683 0.6597019 -0.38151646 0.06595959 0.17213498 -0.49605608 0.115952656 -0.14162791 -0.30717313 0.096003756 0.059605327 -0.2716621 -0.06507956 -0.10007795 0.1833005 -0.26485682 0.3570616 0.37132904 0.02690177 0.49475518 0.6448646 0.53968656 0.041914746 0.21648322 0.37487665 0.10913175 -0.17503007 0.60369295 0.17657459 0.025487807 0.20394185 0.0014431321 -0.0121215265 0.13243122 0.402807 0.35614038 -0.08525497 0.21584918 0.055848997 -0.29356995 -0.22901495 -0.033697195 0.456318 -0.15519448 -0.11148767 -0.06291857 -0.0042684563 0.25096515 -0.12430306 0.07801942 0.37875196 0.9042812 -0.29995596 0.23100203 0.25279853 -0.59509045 -0.055887893 0.25968426 0.09634212 0.015784973 0.28389946 0.021471674 0.3052087 0.14160998 -0.31874844 -0.14626434 -0.31655502 -0.24061333 -0.56842846 -0.22369666 -0.15352413 0.18039112 0.66371906 -0.026742617 -0.057893373 0.09832668 0.18139964 -0.38753948 0.2970142 -0.2155146 0.050964702 0.22593385 0.059030812 -0.2599118 0.17287011 -0.20930499 -0.04680745 0.23144512 -0.10687439 -0.15521872 0.5376208 -0.22829849 0.1606265 -0.13800368 0.045633 -0.00038401078
521 -0.42294994 -0.19297592 0.2815879 -0.059447113 -0.2194333 -0.27167338 -0.026281709 0.2994413 -0.38807583 0.13297075 0.33259344 -0.23220655 -0.08922547 -0.30842385 0.079690896 0.13804147 -0.034916386 -0.08265702 -0.31571093 0.03958358 0.022819363 0.096943535 -0.19819246 -0.29244345 0.17472097 -0.057338208 -0.061463907 0.041706685 -0.02351645 -0.06236423 -0.25166833 -0.09309705 -0.12845638 -0.039772365 0.14442198 0.25294748 0.10102992 -0.6500505 0.61378336 0.07208569 -0.14097139 0.012565398 -0.075850144 0.12977181 -0.012200877 0.27307314 -0.40248215 0.33089286 0.16943489 0.20191616 0.2887932 0.13713044 0.036838867 0.09093969 0.086209714 -0.07008101 0.4092855 -0.40990347 0.14037788 0.6433987 -0.2997496 0.02608322 0.021687457 -0.15880774 0.48996678 0.34457856 0.103131294 0.28842628 0.21638721 0.09498557 0.21818092 0.11010065 -0.18138197 -0.5922978 0.34517318 -0.4424474 0.12392109 -0.118649 -0.36546993 -0.11741681 -0.2492286 -0.13839073 0.09691232 0.94400775 -0.0559929 0.05346962 -0.15311496 0.17388321 -0.31880617 -0.12767433 0.11535389 0.12770891 0.34979403 -0.019227957 0.3205749 -0.04036281 -0.4340892 -0.08963993 -0.014279267 -0.18435507 -0.3663243 -0.09024818 0.22225888 0.21997622 0.10233534 0.012366655 0.050217018 0.18445607 -0.18302305 -0.43983185 0.18956469 -0.61056787 0.019366749 0.2855628 0.130999 0.17658156 0.25732008 -0.0356644 0.23958369 -0.34206516 -0.3818446 -0.0029496404 0.014734042 -0.21074359 -0.12193793 -0.3470454 -0.13495286 -0.09563052
1837 -0.3080411 -0.45481393 0.32971388 0.820448 0.0017757968 -0.22277366 -0.033430338 -0.17102179 0.15961693 0.08282074 0.32560048 -0.36755434 -0.15732549 -0.027767561 0.020778853 0.28388363 0.28174555 0.041442994 -0.21320082 -0.28042424 0.013453683 0.034284342 -0.30225217 0.17041661 0.25999856 0.4224458 -0.04307511 0.05683274 -0.01586176 -0.3548187 -0.32196972 -0.19753869 -0.17709593 0.35089737 -0.23026034 0.26877537 0.18452764 -0.34773645 0.19506697 -0.16885659 -0.4220449 0.09352026 0.19585389 -0.12250431 -0.07331833 0.16426447 0.06782522 0.02043292 0.35474145 0.5220818 0.04004409 0.43885973 0.43049303 0.40911177 0.48898435 -0.12364717 0.31443915 -0.06297706 -0.10356688 0.60539836 0.19902822 -0.10380345 0.3112535 -0.10918987 -0.045494944 -0.01740473 0.49643692 0.18517187 -0.33921316 0.061718866 0.28004733 -0.23052554 -0.26554146 -0.09429268 0.2668559 -0.2609035 0.11834094 0.16456214 -0.12456789 0.1746912 0.05947128 -0.05698212 0.43456262 0.77697957 -0.07635172 0.26538053 0.10207805 -0.20610544 0.11301651 0.37963519 0.05647107 0.043640185 0.2616012 0.07889989 0.23512988 0.017935345 -0.11828918 -0.12062624 -0.29384142 -0.115624964 -0.5961821 -0.031109473 -0.17032921 0.15909025 0.38391924 0.12003512 0.011906468 -0.04559969 0.07496944 -0.44468698 0.13697435 -0.43532482 -0.072549604 0.35387304 0.082538724 -0.31555137 -0.023646729 -0.16395961 -0.0716038 -0.06816889 0.05045635 -0.0503001 0.54967445 -0.20011164 0.15442114 -0.17034975 -0.11626902 -0.0038154083
569 -0.46492434 -0.28150752 -0.17461723 -0.050597835 -0.097515486 -0.65623623 -0.1363324 -0.21004905 -0.14568545 -0.19957684 0.38229233 -0.13814488 -0.06606952 -0.25588295 0.123940565 -0.057783272 -0.21721333 0.22805132 -0.14827648 -0.3595094 0.22599754 0.03621338 0.46137518 0.4676944 -0.014766898 -0.025009591 0.12740661 -0.080911405 -0.014114972 -0.24213757 -0.32132113 0.014163547 0.20191988 -0.22010693 0.027761519 0.31895286 0.25644118 0.11140274 0.46150085 -0.1317254 -0.20171505 0.43507683 -0.30098623 -0.23326999 -0.09411936 0.12619357 -0.13093844 -0.18380535 -0.06453604 0.3068602 -0.052717693 0.092130095 0.027287265 0.18352012 -0.081493415 -0.15950653 -0.0051881927 -0.047309525 -0.060376782 0.23525427 0.2379829 -0.09766573 0.06838215 -0.09478994 0.1057465 0.14962825 0.14122777 0.13844596 0.0014166455 -0.16465445 0.1414986 -0.22730143 0.07786362 -0.28438967 -0.17580727 -0.43411547 -0.09855864 0.3572022 0.034904454 0.19307409 0.043727186 0.18183225 0.043337397 1.0526415 0.092246406 0.10869473 0.050864466 -0.3300204 0.32820737 0.2073168 0.11558551 -0.107106835 0.36415395 0.108293295 0.49900636 -0.23640631 -0.5600544 -0.34143972 -0.11623335 -0.6501618 -0.6372186 0.18625152 -0.31565267 0.4088381 -0.15526563 -0.32212862 0.007510712 -0.2040309 -0.021006206 -0.37771946 0.14429942 -0.26181382 -0.05558536 -0.012781507 -0.15468338 0.08395098 0.07388449 0.15202138 -0.13376065 -0.0093168365 -0.18238159 -0.19559115 -0.02365794 0.3476592 -0.50336 0.032922987 -0.21532102 0.20276436
2326 0.034915913 -0.5801391 0.069451675 0.2349377 -0.30264497 -0.5866387 -0.020959875 0.4129081 -0.4630304 -0.15198198 -0.0220434 -0.70931095 -0.17607994 0.13804731 0.62693816 0.13795476 0.08840376 -0.2310316 0.045445956 0.05230063 0.083678395 0.052252527 -0.34630865 -0.30489582 0.27815205 0.059588388 -0.26243928 -0.010958409 0.003543996 -0.08595 0.09690486 0.09251565 -0.09806747 -0.17901376 -0.44370565 0.03874259 0.18371053 0.0896179 0.2707303 -0.051940896 -0.0029589708 0.602277 0.09599879 0.18701406 0.09989625 -0.05200339 -0.06819668 -0.6390031 0.30405986 0.51778 0.5250505 -0.27891174 0.4573279 -0.036779817 0.12083126 0.40255243 0.14837666 -0.34169346 -0.026791554 0.7283895 0.20079622 -0.5260634 -0.12492104 -0.3260507 0.0865417 0.4540846 0.3584975 -0.3024673 0.25154692 0.050274353 -0.2811621 -0.45965147 -0.15228876 -0.5590717 0.3170648 -0.39117318 -0.08368311 0.103538826 -0.03829953 0.19537994 0.016882632 -0.35046706 0.13151176 0.26977345 0.07853338 0.226408 0.13332875 -0.32563266 0.19961257 -0.2283032 -0.08142086 -0.010000246 0.28112793 -0.043597087 0.103849865 0.087170325 -0.160512 -0.3421882 -0.40895563 -0.17303824 -0.7144695 0.034719937 -0.4012159 -0.22711533 0.11873054 -0.1364896 -0.17700063 0.023744985 0.0817324 -0.3089298 0.5331702 -0.31429833 0.27807435 0.6003063 -0.04896708 -0.20510742 -0.18943447 -0.11202367 -0.16094393 -0.01800534 -0.369632 -0.4733816 -0.042904057 0.20114306 -0.10505575 -0.2506029 -0.15111865 -0.03158381
301 -0.042032123 -0.0033921762 0.098038144 0.12163461 0.03753813 0.040081456 0.1312188 0.28035042 -0.46230727 0.45977587 -0.34614596 -0.37423974 -0.103812575 0.14019705 -0.16316193 -0.050237752 -0.14802282 0.30478972 -0.21634148 -0.046935283 0.28242135 0.53068006 -0.13735518 -0.2075389 0.1606747 -0.15053374 -0.4415833 -0.28999647 -0.057571214 -0.39831147 -0.022636559 0.02560784 -0.40339142 0.19118819 -0.2993253 -0.25411227 0.74755335 0.055190228 0.08465336 -0.04346721 0.082751 0.041329294 -0.29413864 0.33899784 0.11533175 -0.13764204 0.10156287 0.12985379 -0.44447547 -0.3092184 -0.17631488 0.03773835 0.7125489 0.506766 -0.105950885 -0.023393583 0.5000069 -0.1858421 -0.31838483 0.49713427 -0.061664503 0.19977333 0.15515517 0.29655966 0.6022417 0.099017754 0.04261197 0.28643456 0.13028717 0.00035130983 -0.12561665 0.09751985 0.07381544 -0.10608706 -0.21610662 0.06972825 0.11042148 -0.04366829 -0.4370013 -0.05914784 -0.13105883 0.38470104 0.32604647 0.4922592 0.16011749 0.09907366 0.069025986 0.13826069 -0.17353006 -0.07698247 -0.067249365 -0.18109372 0.62361115 -0.12454717 0.17392914 -0.16040175 -0.10640356 -0.10767317 -0.38094205 0.119222075 -0.49553698 -0.057456445 -0.31052837 0.2820063 -0.028873943 -0.18649133 -0.10179204 0.20986746 0.3306706 -0.21025802 0.024035083 -0.3952963 0.28319418 0.42307404 -0.4007046 -0.14695612 0.0845627 -0.16505739 0.11061562 0.1316534 -0.41850862 -0.13217135 0.21354337 -0.16906549 -0.111018054 -0.37902877 -0.12984641 0.2570908
22 -0.6916838 0.17550041 -0.016414884 0.23333421 0.30576876 -0.36219153 0.03870031 0.07630496 -0.038182236 -0.14485104 0.2371733 0.28106326 -0.39007246 -0.062217962 0.13544035 0.5010337 -0.06775125 -0.18100224 -0.15317523 -0.27420744 0.25812995 0.012854341 -0.12556767 -0.5466615 -0.14916788 -0.4871134 -0.1088598 -0.10281144 0.19582638 -0.4520953 0.15732865 0.4064896 0.1564768 0.089028895 -0.03609888 0.3596858 0.096652426 -0.18746042 -0.30856955 0.15248144 0.06721554 0.41477814 0.44272324 -0.32989344 0.15489578 0.17825872 -0.09889376 -0.346142 0.0156184165 0.058888875 0.17999868 -0.039343607 0.17783627 0.5603102 0.1747901 0.100810826 -0.01358387 -0.061769303 0.13328376 0.6991779 0.2019009 -0.010016684 -0.22294436 -0.46669582 0.33813113 0.054643527 0.43243515 0.14664465 -0.5175888 0.041284293 -0.57007354 -0.41153568 -0.090333216 -0.06588166 0.17674685 -0.19153392 0.034983415 0.18230914 -0.53707004 0.5861275 -0.35295612 -0.10771581 0.46313372 0.15615669 0.37612122 0.11313709 0.14212857 -0.43965137 0.039317627 0.09508758 -0.11158836 0.104760066 0.37307572 -0.06629544 0.39565784 -0.22635789 0.3315654 0.09405861 -0.5134166 -0.2262478 -0.13600552 0.2060842 -0.3961929 -0.73439276 -0.18197279 -0.4037614 -0.13450389 0.23536201 0.13119501 0.07359881 -0.020673364 -0.23097731 0.28926963 0.3574681 -0.08725701 -0.25763652 -0.023654433 -0.009967393 -0.049471 -0.15022062 0.20475417 0.4848978 -0.0023401019 0.27517703 -0.36183238 -0.09702268 -0.056100983 -0.3944427
1864 -0.19068867 -0.39578635 0.13562721 0.56756103 -0.044255987 0.10899789 -0.3046527 -0.40684855 -0.11854278 -0.052676834 -0.20433241 0.056241527 -0.083255775 -0.09907863 -0.054270163 0.17231198 -0.26703572 0.17018804 -0.33313382 -0.5337364 0.65304667 -0.14946611 -0.17575386 0.051515702 -0.28450438 0.18291466 -0.21773294 -0.29919156 0.28661612 -0.1203751 0.058268413 0.113369375 -0.034134235 0.12870413 -0.20053224 -0.03939076 0.76717573 0.09522727 -0.22949527 0.153609 0.043090656 0.28269306 0.16651163 0.026055388 0.10891361 0.10790031 -0.20047197 -0.0681882 -0.066423334 0.22363456 0.08916748 0.19400203 0.22595625 0.63216424 -0.60253996 0.12859158 0.8281151 -0.47054824 0.12016584 0.8823548 -0.090448044 -0.069520004 0.39315578 0.114318945 -0.10715813 0.24465957 0.2317535 0.08608139 0.1542007 -0.2874872 0.053207822 -0.042269398 -0.1507806 -0.15179452 -0.08225521 -0.1524867 0.22476439 0.19930597 -0.39975944 -0.18645848 -0.12790112 0.22759818 0.44792774 0.42819732 -0.09030272 -0.15637305 0.1454467 0.023798466 -0.113213 -0.07252891 0.13148557 0.18848151 0.13574685 -0.09286297 0.079977065 -0.28074202 -0.22273177 -0.48425552 0.030323688 -0.099875405 -0.27249435 0.09654053 -0.16316512 0.07298936 0.34356242 -0.09771799 0.11089456 0.27325267 0.39480513 -0.0038424074 -0.13307393 -0.2749054 0.08825394 0.20405385 -0.22700028 0.13908869 0.38287538 -0.050820313 0.28506118 0.20960496 0.16048178 -0.13463145 -0.0004426698 0.24126986 0.04170371 -0.15799451 -0.57623166 0.08064713
964 -0.018791117 -0.90494895 -0.054034393 0.068199486 -0.027030101 -0.6891879 0.2466378 0.21354644 -0.19829744 -0.015631141 0.32260236 -0.59056634 -0.29012945 0.1008615 -0.056959227 0.4381585 -0.05971166 -0.081558675 -0.29227382 0.2395857 0.47130188 0.1243457 0.037656426 0.082182094 -0.08353531 -0.28242895 -0.21045598 -0.021185223 0.06592651 -0.45040795 -0.118829116 -0.205546 0.04575871 0.32742795 -0.4405602 0.6757881 0.34163517 -0.6185627 -0.15702304 0.16328542 -0.25129366 0.33845794 -0.3313352 -0.061037887 0.2817145 0.7071196 -0.23941007 -0.2304894 -0.28045872 0.4671257 0.29206473 0.22142147 0.4332748 0.35388848 0.4428933 -0.20875216 0.52574635 0.03591703 0.034726523 0.44024578 0.12882805 -0.26571518 0.10038797 0.06027405 0.08566082 0.20948559 -0.086710826 0.43339553 -0.16612983 0.05705162 0.18672056 0.0054239617 -0.12748569 0.096322596 0.20951922 -0.34987956 0.12495551 -0.5758863 0.035707846 0.18153226 0.28218895 -0.026463289 0.15108167 0.40027663 0.2198328 -0.37938958 0.16734888 -0.32339987 0.36969376 0.2898542 0.05655811 0.3707161 0.052653965 -0.19107027 -0.007275738 0.4464422 0.19810215 -0.17472425 -0.31657022 0.1102294 -0.32311875 0.03563797 0.057982195 -0.0149130365 -0.077014536 -0.40081897 0.01939005 0.3846082 0.1884466 0.010514138 0.048731707 -0.2208198 -0.08855626 0.30518577 0.078221574 0.16603446 -0.0056785652 -0.07968927 0.023299593 -0.22248614 0.15712436 -0.22838816 0.35033223 0.15935831 -0.02997538 0.06563096 -0.059189424 -0.10955288
1172 -0.37824342 -0.31671265 -0.08243095 0.10801429 -0.4815439 -0.58456486 0.5144311 0.21286453 -0.08212348 0.02985465 0.6028617 -0.19839463 0.38445148 0.012846287 0.020669907 -0.42409587 -0.10047704 0.42847437 -0.29367596 0.057406764 0.51900846 0.041914213 0.29344124 -0.408436 -0.16567995 -0.2096909 0.13057238 0.09418532 -0.36864838 -0.11389202 0.14313981 -0.22256464 -0.0021152967 -0.113382004 0.20913926 -0.236813 0.08877157 -0.19221656 -0.30378726 -0.3516551 -0.51725703 0.31365398 -0.17209905 -0.4617293 0.043897517 -0.113194585 -0.3934518 0.32440743 0.38689682 0.06773684 -0.17230669 0.0036214849 -0.3974565 0.006635609 0.41047296 -0.27579024 0.4650644 -0.5735945 -0.15902334 0.530784 0.34390175 -0.50151026 0.26521224 0.0011614489 0.05118687 0.31433868 -0.15264572 0.33959904 -0.11848082 -0.10716727 0.15954554 -0.102402285 -0.23139697 -0.35022825 0.18382314 -0.25481188 -0.03879721 -0.4265936 0.046323616 -0.28179988 -0.4698422 -0.11358118 0.097987466 0.6991481 -0.33258587 0.3948706 0.14616452 -0.24977003 -0.030168403 -0.09689466 -0.080719054 -0.22879095 0.17267303 0.44799533 0.48824045 0.2227179 0.049718898 0.18175688 0.032690663 0.022290088 -0.3191417 0.36746883 -0.3157503 -0.12526079 0.23358595 -0.20194544 0.15921035 0.41766468 0.48077822 -0.5449668 0.4208729 -0.052492768 -0.5276809 0.08502297 -0.18620409 -0.15695202 0.21457633 0.074683025 0.14545153 -0.25987712 -0.5175766 -0.17003599 0.061198775 -0.38476774 -0.23398557 -0.14550829 -0.026971059 -0.18988644
443 -0.34783918 -0.22169578 0.044288117 -0.272357 -0.18273158 -0.20003535 0.013036717 0.12578048 -0.6010294 -0.2410224 0.30912474 0.044513315 0.07896734 0.16896795 0.13818933 0.15824409 0.16288301 0.22755219 -0.22773044 -0.027024038 0.09556263 0.2488298 0.22488719 -0.02661917 -0.13971096 -0.29996172 0.09031198 -0.02534499 0.19693993 -0.23157673 -0.48042864 -0.14609851 -0.013418112 -0.1161292 -0.33852267 -0.01125508 0.6326307 0.163101 0.22518623 -0.006378703 -0.14165449 0.29361576 0.17787628 0.03482989 0.06747254 0.81774193 -0.19227792 -0.21136871 0.5238491 0.18845345 0.10585902 0.20471543 0.027033566 0.4389814 0.30705416 0.63382363 0.21318622 -0.5008367 0.21875185 0.25543472 0.23720866 -0.69870293 -0.03440363 -0.296492 -0.006382901 -0.14153214 0.4942775 -0.088667005 -0.014112591 -0.36592358 0.08826011 -0.08874495 -0.5993917 0.39495194 0.24339226 -0.10804681 0.09217454 -0.029590549 -0.10718957 0.113604605 0.04048224 0.10000569 -0.11311903 -0.29687616 0.3094432 0.16899943 0.28237745 -0.32865888 0.3148576 0.19772129 -0.043200288 -0.32332373 0.16592546 0.16542588 -0.14783971 -0.24138261 -0.17544362 0.01215328 -0.40295133 -0.058016762 -0.6475197 -0.008161442 -0.015952786 0.23908429 0.179481 0.08476175 0.19727047 -0.045937307 -0.000604809 -0.38081458 0.16628462 -0.15963827 -0.23050016 0.3232222 0.05391739 0.070314586 0.20199534 0.2843647 0.30729324 -0.45981652 0.017826313 0.4091615 0.24506061 -0.186814 -0.39674604 0.23900706 -0.34697026 -0.019468386
465 0.04730365 -0.4458337 0.4837429 0.2537258 0.30148658 -0.0872 -0.4108242 -0.211333 0.41046467 -0.34372172 0.58357555 0.060114898 -0.017595837 -0.03614123 0.5223968 -0.018013487 0.18259075 0.23845309 -0.06790556 -0.18227507 0.23054622 0.25796336 -0.023380477 -0.0025688298 -0.09653077 0.09053254 0.0032663925 -0.048688743 -0.04157935 -0.01893348 0.078588106 -0.32286793 0.180035 -0.036576368 -0.0792346 0.16782194 0.47004327 0.14569958 -0.018654399 -0.030393753 0.060928874 0.4186364 -0.15699211 0.09982122 0.7722207 0.03711428 -0.24749427 0.08467537 0.3671819 0.29164958 -0.094648264 -0.112101704 0.19080216 0.31407773 0.08675617 0.012189906 0.47339636 -0.13269883 -0.1517126 0.4738154 0.112131625 -0.02937617 -0.08957495 0.18609895 0.423188 0.15411559 0.4639671 0.29064536 0.15125686 0.38610384 0.6085498 -0.028724948 -0.2725098 0.12956062 -0.09996966 0.11188931 -0.18557273 0.026966885 -0.4169778 0.31617948 -0.17626615 -0.10955565 -0.30938697 0.37251735 -0.073451586 -0.01866405 0.2072153 0.18834402 -0.19422385 0.09882087 -0.1809822 0.20509978 0.021506868 -0.18527079 0.45776653 -0.27270126 -0.29128912 -0.09770674 -0.2586298 -0.029424476 -0.4890907 -0.23014799 -0.26860014 -0.10374868 0.40777123 -0.39359957 0.14296457 0.16144885 0.31704062 -0.66410774 0.18997642 -0.3838394 0.2501317 0.38470143 -0.14858879 -0.0062575988 -0.4079452 -0.10410051 -0.29175472 -0.038306396 -0.19444776 -0.24792668 -0.276095 -0.1514994 -0.3289973 -0.08693016 0.10465205 0.102140546
1015 0.019610321 -0.05121205 0.009081422 0.12306789 -0.1429248 -0.11563086 -0.18011071 0.29132217 -0.16940238 -0.14095591 -0.15738168 -0.3163085 -0.0057108602 -0.0064656218 -0.2887039 0.13418064 0.016692724 -0.1664435 -0.49763656 -0.055738818 0.23060302 -0.098483786 0.20733958 -0.16810425 -0.098173626 0.24320766 -0.14730048 -0.30696326 -0.09130334 -0.40337068 0.093493104 0.6619741 0.08696582 -0.21763124 0.057961665 0.14498395 0.71478194 0.02115141 0.058210175 0.15408213 -0.13832572 0.23409522 -0.08459755 -0.10722662 0.09112145 0.32286975 -0.39420927 -0.011412607 0.2295333 0.21415634 -0.25010392 0.1536424 0.21142511 0.033400036 0.3959553 0.10020123 0.34508026 -0.09757533 0.020975612 0.21666455 0.05332706 0.12505011 -0.17722665 -0.12372072 0.06045596 0.09054583 0.18089212 0.70641756 -0.060972985 0.032667298 0.45859867 -0.09137911 -0.21953999 -0.43635145 -0.014539527 -0.5957471 -0.4114864 -0.33626887 -0.30272427 -0.31588987 0.23926525 -0.5236941 -0.0603058 0.582575 0.25919768 0.67431897 -0.2380807 0.09743467 0.3360281 0.11354676 0.17990799 0.014768059 0.41384092 0.051113203 0.122866146 0.004730511 -0.39849976 -0.26818034 -0.031148834 -0.35338193 -0.025734551 -0.1537907 0.23717223 -0.047117762 0.25526416 -0.13832161 0.15692793 0.249155 -0.21856123 -0.7046033 -0.14243746 -0.032611195 0.19056106 0.41800842 0.3448827 -0.31675473 0.45764843 0.2944982 -0.1503726 -0.22243802 0.1800074 -0.4171338 0.28694555 -0.5506896 -0.53815717 0.12738416 -0.22632363 -0.056642428
26 -0.2880339 -0.47574916 0.060517717 -0.22460434 0.055319257 -0.3186747 -0.18006058 -0.3022429 -0.15213013 -0.24443087 0.6301748 0.31655037 -0.04751533 0.1379101 0.05020278 -0.12106734 0.5269332 -0.23207274 -0.056341615 0.14076243 0.13745971 0.5001178 -0.18538329 -0.39105642 -0.12362042 0.105135255 -0.12353529 -0.16264027 -0.112377 -0.22185498 -0.29401377 0.1453631 -0.17970668 0.020284822 0.17069049 0.53148514 0.85808116 0.022771465 0.17351648 -0.4195631 0.111319624 0.47535354 -0.262885 -0.1440228 0.5282595 -0.16220489 0.03755335 -0.06682663 0.049426008 0.34620216 0.043535694 -0.090782456 0.43685475 -0.14957604 -0.28572693 0.3400767 0.48953417 0.08144732 -0.19830947 0.020996202 -0.23533326 0.025727453 0.47471732 -0.05772298 0.026293607 -0.10510315 0.19937362 0.15905528 0.07829353 -0.41935727 -0.13094407 -0.11511403 -0.529092 -0.24824563 0.14363988 0.15249039 0.06831877 0.12182707 -0.43491688 0.063866675 -0.5823143 -0.10817814 0.2754709 0.436639 -0.08128004 0.43768862 -0.15363969 -0.35387677 0.42050382 0.66398156 -0.36113673 -0.10874063 0.054210253 0.06476179 0.15392004 0.39638087 0.10034132 0.22260572 0.07651412 -0.18385263 -0.28477132 -0.047704283 0.018752582 0.09984389 0.433638 -0.076347604 -0.14486282 -0.11453869 -0.19169661 0.17448227 0.10477922 -0.5349968 -0.062400747 -0.11797517 -0.24048997 -0.28086093 -0.20297998 0.16598868 0.22723193 -0.023174379 0.33407432 -0.35788125 -0.13558769 -0.31170642 -0.3340279 -0.07223945 -0.47974083 -0.049805924
93 -0.3053299 -0.26901177 0.09873608 0.7032961 -0.21732573 -0.3180292 -0.252834 -0.18078597 -0.0010745504 -0.2487937 -0.04471248 -0.14580405 0.06465781 -0.11812788 -0.20103928 0.3248976 0.40765694 0.1124092 -0.383694 -0.36650988 -0.06784793 0.21434237 -0.3042876 0.18125881 -0.21882908 0.07769613 -0.11095659 -0.087701775 0.18910871 -0.52948636 -0.13647768 0.029286873 -0.17675653 0.44156936 0.06486043 0.21168026 0.0126988515 -0.3773026 0.2956407 -0.23440658 -0.5146923 0.11393709 -0.29373884 -0.0829731 -0.17032233 -0.06954043 0.23736161 -0.28078598 0.24500391 0.36711314 -0.043257818 0.62408066 0.20104204 0.40305364 0.023531558 -0.17314224 0.5176337 -0.02097653 -0.0014322938 0.30566952 0.0690775 -0.3814601 0.25335595 -0.02735555 -0.033636168 -0.24900238 0.16772592 0.19129558 -0.34087542 0.51226616 0.059687607 -0.2059208 -0.54180735 -0.0980606 0.62009865 -0.21918242 -0.017571086 0.029484883 -0.11447295 -0.04106544 -0.107995085 0.07287518 0.37381354 0.87278265 -0.13607809 0.37193307 0.40482914 -0.368628 0.28566274 0.41403165 0.07561153 -0.022721175 0.39281636 -0.0822046 0.33370626 0.32406452 -0.5564286 -0.0515481 -0.36753777 -0.09552281 -0.72750235 -0.3492398 -0.087556966 -0.005521315 0.30260366 0.23695566 -0.13635768 0.08290896 0.24478738 -0.69593173 0.4774157 -0.33253425 -0.118418425 0.4224905 0.38494328 -0.16524072 0.27291295 -0.07039313 -0.16447352 0.35770172 0.16842657 -0.03134061 0.5186579 -0.06218114 0.38546544 -0.3812737 -0.098995864 -0.118701994
302 0.25090423 -0.4034752 0.37959677 0.44331363 -0.45245832 -0.0317683 -0.04106125 -0.010823316 -0.65887177 0.05273677 0.08008075 -0.20451431 0.032207645 -0.1265527 0.22343044 0.27954373 -0.3479516 0.23723178 -0.3444536 -0.54728854 0.32120734 0.26964957 0.5487843 -0.2695235 -0.13178436 -0.13469227 -0.24013865 0.09036426 0.055697896 -0.25965658 -0.042222586 0.2097539 0.01457111 0.05762734 -0.15717904 -0.3823816 0.41255382 -0.12711564 -0.039683443 -0.097928785 0.11857896 0.24114437 -0.117027596 0.044543937 0.19234946 -0.19389845 -0.26009557 0.42494404 -0.23375769 0.15491241 -0.19443944 -0.13529058 0.25049856 0.1823926 -0.20063046 0.2745823 0.2702012 -0.6023655 -0.0259469 0.40269962 -0.08559788 0.16115452 -0.039616633 -0.07082338 0.32396427 -0.23764066 0.061915863 0.03788551 -0.020019762 -0.5317669 0.18660611 0.091239914 0.0033807845 -0.075626545 0.121124126 -0.18517242 0.008711725 0.027279163 -0.21017855 0.6819836 -0.4451455 0.21127576 -0.018819094 0.68690395 -0.094442874 0.35684496 0.33453515 -0.05571699 0.020759482 0.15307271 0.36497304 -0.3493634 0.14685653 -0.119236596 0.058938444 -0.2079883 -0.3880522 0.17833744 -0.4925457 0.22200222 0.115384415 0.4577154 0.122548506 0.008623442 0.090157576 0.008165679 -0.31944773 0.249446 0.64114755 -0.07056196 0.17940596 -0.019620609 0.030343328 0.5018882 -0.2445845 0.13171035 -0.28691518 0.14242151 0.48437706 -0.32214415 -0.23507884 -0.161587 0.15169069 -0.2688526 -0.03718036 -0.23383291 -0.44049814 0.06445519
97 0.016716793 -0.5705197 0.16342875 0.020798894 -0.030895103 -0.52470434 0.06423746 -0.2900546 -0.18940808 -0.2524155 0.35784116 0.22014539 0.021228697 -0.05468958 0.31056988 0.15271258 0.0477351 0.23951316 -0.30895126 0.12464692 0.097379155 0.53892344 -0.009156572 -0.42163756 0.19806725 -0.17074494 -0.05540465 -0.06973831 -0.0886221 -0.39590153 0.1940178 -0.28958562 0.15954652 -0.15661062 -0.41493425 0.21637718 0.27361608 0.1707083 0.367776 -0.23276193 -0.22222972 -0.053224873 0.013419804 0.029784441 0.49066848 0.1217918 0.054580204 -0.18193291 -0.21862923 0.07203682 0.35209978 0.022571681 0.21006511 0.1959374 0.34684053 0.08434286 0.6584154 -0.21406794 -0.1828583 0.24471556 -0.010020442 -0.21329674 0.5169977 -0.23885298 0.1637094 -0.2745093 0.012354736 0.011481046 0.08695387 0.17122185 -0.37512094 0.05011137 -0.31621376 0.014136245 -0.3352029 -0.48828498 -0.19282144 0.18251728 -0.05998866 0.079635136 -0.0086118635 -0.07217158 0.19531858 0.7075821 0.2606723 -0.2567315 0.7155089 -0.17747113 0.13778682 0.22461227 -0.01975092 0.0163038 0.25795174 0.23868266 0.5757298 -0.21797809 0.5149924 0.36258677 -0.49558774 -0.13186938 -0.15763593 -0.072358675 -0.19586943 0.27398095 0.21719314 -0.09556859 0.21077865 -0.3180294 -0.6992433 0.27973542 0.3524265 0.32405272 0.030696249 0.3516946 -0.22783601 -0.12126311 0.49920967 0.039075274 0.2261973 -0.11774549 0.05418484 -0.32499114 0.34785476 -0.13080713 -0.39341748 -0.0058413185 -0.020689381 0.11460118
1967 -0.14266662 -0.6877857 -0.11354796 0.09842619 0.15822919 -0.3898065 -0.16335824 -0.5411815 0.06141376 -0.3718931 -0.08741129 -0.033937175 -0.06642919 -0.31751212 -0.11936454 0.079186685 0.41482815 0.5162938 -0.22500382 0.122642525 0.11498061 -0.19511662 0.12150977 -0.0521952 0.13553002 0.12463142 -0.08587217 -0.32735148 0.06908045 0.06442256 0.09945693 -0.026984451 -0.06052631 0.09542182 -0.19206873 0.034574494 0.096327595 0.0014180971 0.09662103 -0.11165426 -0.36640057 0.31064296 -0.2887278 0.07371013 0.48289096 0.5001071 -0.1586874 -0.13324398 0.4344448 0.34350306 0.10275958 0.10321992 0.5380619 0.4054362 0.23416427 0.027143681 0.4838917 -0.035169158 -0.39664063 0.7280524 -0.07622075 0.42527297 0.03823855 -0.22108036 0.18357374 0.2511067 0.30537254 0.23104891 -0.1109302 0.16417006 0.32196927 -0.43107355 -0.26840377 -0.005360873 0.045408387 0.18655719 0.08836528 0.16497241 -0.07245839 0.08967834 -0.018500108 0.22508463 0.03294735 0.49273938 -0.03465461 0.46121967 -0.03335049 0.19154644 0.25798935 -0.17898329 0.34618405 0.3318574 0.2683612 0.18579465 0.4727064 -0.20655715 -0.17013024 -0.1422705 -0.050048422 0.26468262 -0.55146855 -0.09312378 -0.13094428 0.33637422 0.2021843 -0.026749479 -0.025205512 0.08507048 0.054809302 -0.14479838 -0.060706034 -0.48370647 0.14585474 0.13173337 -0.209796 0.2187558 0.0369662 0.21229532 -0.3838127 0.07088133 -0.014307111 0.07899078 -0.1708054 -0.21544406 0.13443139 0.09490659 -0.03410275 0.046647217
75 -0.13759656 0.108487755 0.07396066 0.12258127 0.16948757 -0.24011822 0.098069854 0.0143608535 -0.05013443 -0.42843068 0.21646678 -0.070657015 -0.09284464 0.21579556 -0.04516411 0.09848345 -0.17915529 -0.18701972 -0.49825996 0.02264306 0.53963107 0.078100026 0.47865322 -0.30074868 -0.2250927 -0.09962464 -0.13393854 -0.10912925 -0.030135999 -0.50415766 -0.10990252 0.22598696 0.20418088 -0.016768238 -0.3201736 0.10234991 0.2547669 0.19669724 0.051946804 0.45801917 0.05299549 0.39631414 0.49998203 -0.2499786 -0.08524752 0.26217815 -0.31426385 -0.2546917 0.22067536 0.06563646 -0.15578549 0.29303458 -0.28903022 0.22721584 -0.20836025 -0.006622099 0.05461161 -0.27855757 -0.06566196 0.24498399 0.21892342 -0.037879895 -0.14380333 -0.429309 0.042716246 -0.14964662 0.14454608 0.055142302 -0.24218275 -0.11002733 -0.22081187 -0.25582877 -0.3711112 -0.1453156 0.015237279 0.18825065 -0.06380451 -0.06595808 -0.053483058 0.55648774 -0.019970912 -0.18944213 0.23122217 0.34564465 0.051716473 0.08001051 0.41902232 0.18847959 0.0066841533 0.09201948 -0.4247824 0.021143882 0.5398957 -0.20678017 0.5203522 0.2673343 0.025266513 0.25171342 -0.2752909 0.33875236 -0.3121541 0.429983 -0.40599677 -0.2150875 0.087593414 -0.14505893 0.4380414 0.32353544 0.06844522 -0.19404225 -0.13515212 -0.18248318 0.23150639 0.31509674 -0.05672803 -0.20526248 0.13418142 0.24314614 0.11553246 -0.27021515 0.121042706 0.010843295 0.19740467 0.028619435 0.040856965 -0.36953738 -0.29781166 -0.015775295
734 -0.26751208 0.14572775 0.23488377 0.17090884 -0.035298713 -0.6059393 0.013646719 0.024284665 -0.6680737 -0.0862826 0.0584684 0.040677126 -0.013536741 -0.4680887 0.2475027 0.011255132 0.40631956 0.08463641 0.08156367 0.114968225 -0.061810687 0.60430837 0.03260052 0.027935103 -0.5473828 -0.24836783 -0.067952186 0.04618865 0.006602162 -0.016995916 0.06339598 -0.32235986 -0.19086279 0.21640615 -0.15870705 0.44408295 0.8415722 0.24827676 -0.14656706 0.22001679 -0.4924249 0.24231784 0.3382791 0.098137535 0.3056159 0.15168273 0.029307906 0.11400475 -0.21789686 0.010359538 0.38360512 0.16841371 0.49718198 0.03656311 0.12951958 0.061735522 0.14918874 0.33997425 0.3519905 0.15777405 -0.09536671 -0.075678565 0.44856367 -0.23457205 0.34959176 0.13303478 0.64452463 -0.02558924 0.36468744 -0.05174387 0.15395808 -0.122911625 -0.80663204 -0.4360596 -0.06814135 -0.21565355 0.15480049 -0.03858371 0.18557693 0.03858105 0.14608635 0.08027874 0.376815 0.79701716 0.37568083 0.22023836 0.20582196 0.11531231 0.013167465 0.3951752 -0.23066713 -0.5383136 0.34975952 0.14507724 0.6721995 0.48411375 -0.3588998 0.11496878 0.15593839 -0.29592296 -0.1717126 0.083030105 0.10152054 0.08046534 0.29495475 0.10966431 -0.00047661454 0.23719798 -0.37456626 0.017467653 0.3796779 0.046696126 0.14081566 0.22096159 -0.581565 -0.8101883 0.50617105 0.26746547 -0.3746264 0.89797944 0.22962324 -0.39191973 -0.3807075 -0.18835305 -0.1225571 0.23335813 -0.12226701 0.27869293
38 0.124137305 -0.09430476 -0.06351959 0.1459982 -0.18699665 0.064631656 -0.11208332 0.25576875 0.07520919 -0.11653246 0.25238127 -0.07549186 0.28102767 -0.48608446 -0.18564126 0.07213819 -0.17848322 0.24250995 0.26555806 0.0399713 0.089888036 0.5233029 0.29135215 0.047427583 -0.13087764 -0.14427207 -0.025865613 0.30680406 0.08625836 -0.06494519 -0.15112273 -0.015508364 0.18215469 0.09756973 -0.28331065 0.10404916 0.90274304 0.1410433 -0.1677762 -0.03476262 0.055029344 0.019740533 0.04795324 -0.54196304 0.19338231 0.2799256 -0.028517133 -0.4724161 0.49116716 0.15902194 0.27639621 -0.012035407 0.1919438 0.80567485 0.37911427 0.3900145 0.47206083 -0.023925995 0.17202328 -0.13792711 0.36501506 -0.3761621 -0.17377178 0.28163064 0.46153867 0.08113602 0.101104975 0.13455857 -0.52763665 -0.058335993 -0.014122595 -0.16836615 -0.63286704 0.52116936 -0.09744677 -0.29871583 0.07283045 0.3094789 0.24674864 0.37220395 0.08622255 -0.06996523 0.47546527 0.54647464 0.38862205 0.6419527 -0.07297979 -0.49933243 -0.36674583 0.25175357 -0.09248192 -0.010902968 0.21366507 -0.14795515 0.4327159 0.35471436 -0.39716575 0.1866133 0.04883621 0.25945425 -0.29371423 0.03145756 -0.049742676 0.39235267 -0.053492494 -0.13165818 0.10531237 0.0153505895 -0.06905342 -0.291743 0.09209822 -0.20584202 0.053338233 0.18926981 -0.040406775 -0.254412 0.42323 0.022843068 0.31011823 -0.3249503 -0.3832959 -0.31437075 -0.15875407 -0.25621536 -0.30715486 -0.18914443 0.10316612 0.19036543
