2708 128
1916 -0.26035357 -0.27120718 0.34461823 -0.06547463 0.16896051 -0.051397875 0.13531758 0.22480676 -0.04302566 0.34968397 0.22518642 -0.19737211 -0.37934625 -0.29832795 -0.23863521 0.5349614 -0.16147487 0.020092096 -0.0247538 -0.26357743 -0.09975899 -0.15550804 0.1251481 -0.39425197 -0.12570137 0.0021396754 -0.32595462 0.103969514 -0.14085716 0.09369937 0.05700024 0.17258328 -0.07655499 0.11641036 -0.3207602 -0.20709032 0.76099676 -0.091168255 0.12220052 -0.03493329 -0.19327442 0.038723554 0.13673954 0.018145658 0.06644028 0.16965953 -0.22790556 -0.25860453 -0.1078591 0.36366287 0.036878925 -0.09129726 0.10076741 0.16257352 0.45125967 -0.19387 0.43113074 -0.16385913 0.14254613 0.529241 -0.07382113 -0.04128126 0.11023792 -0.0325071 -0.007330359 0.29303366 0.040778723 0.10928686 0.06437278 0.15104093 0.5575972 0.040701073 -0.10884417 -0.0906981 -0.17984536 0.19718415 0.14262183 -0.24314712 -0.5230162 -0.05380413 0.07932198 -0.06937829 0.29688442 0.5699773 -0.52051115 0.21787855 0.26899403 -0.09135922 0.2305031 0.23938131 -0.25729185 -0.087918766 -0.12195453 -0.36387283 0.30498657 0.084575 -0.19577569 -0.34571484 -0.07966285 -0.28218395 -0.34761643 0.14327334 0.030316569 0.31147775 0.050158404 -0.06830137 0.0674405 0.09240349 0.21271372 -0.09599951 0.22012673 -0.13640222 0.0990374 0.11350448 0.01347944 0.09470725 0.12121539 0.13293126 -0.042984456 0.14129199 -0.60416293 -0.19005671 -0.050223086 0.15155748 0.029236272 -0.21895936 -0.21164827 0.03679245
1988 0.14629911 -0.18680891 -0.20705873 0.06653697 0.55664444 -0.22020875 0.22212328 0.19787613 -0.09589178 0.16202366 0.36755955 0.20172189 -0.060358837 -0.43560004 0.25268742 0.1495291 -0.07249165 0.3867421 -0.28975296 0.15072858 -0.08178774 0.21709709 0.095183045 -0.20242463 -0.17203802 0.05327183 -0.0756097 0.3497188 0.2975722 -0.026001493 -0.22883134 0.04747509 0.15856665 0.017258748 -0.29430437 0.00877975 0.5548882 0.35170856 0.2811057 -0.05139812 -0.03714882 -0.10790586 -0.03814897 -0.19377677 0.093031876 0.07436779 0.05182151 -0.05109012 -0.39681333 0.24786347 0.034119777 0.17882425 0.3984153 0.12468193 0.20811754 -0.037684955 0.4220528 -0.11680352 0.11908208 -0.15263277 0.101042606 -0.07041253 0.33575675 -0.0369318 0.14211437 -0.01700881 0.237784 0.3508341 0.5623392 0.054154955 0.22621308 -0.015609217 -0.07069112 -0.050311666 -0.26145098 -0.24488401 -0.12652352 -0.0071669463 0.13783516 0.44926438 0.24125111 -0.35041586 0.033313807 0.38119102 0.18160951 -0.16680259 0.31533593 -0.014986997 0.3723778 0.17524214 0.21454711 -0.50016445 0.0044438182 -0.024284411 0.34856752 -0.19581302 -0.26213476 0.05804831 -0.04380438 -0.20402454 -0.28466552 -0.06444529 -0.12618567 0.005228511 -0.19889733 0.109339446 -0.0038111343 0.043380886 0.04024586 -0.19102584 0.21887222 -0.13325137 0.3320618 0.082857296 -0.0144948475 -0.34628022 0.3407588 0.21841371 0.27306885 0.16088663 -0.15675275 -0.15966415 0.0590144 -0.09204888 -0.05069578 -0.093933135 -0.17577171 -0.06827366
1 -0.015858022 -0.47878116 -0.07763895 -0.021840358 0.28682545 0.018616686 0.30366963 0.15676154 -0.06305723 0.638154 0.4010015 0.011685012 -0.33031884 -0.16216505 0.28202713 -0.009404714 0.213749 0.34785584 0.058263414 -0.171357 -0.1871075 0.2364094 -0.45178977 -0.12316359 -0.18740435 0.4469392 0.0051397234 -0.22104928 0.3190623 -0.12123636 0.1630612 0.1534092 0.2795251 0.32833627 0.0787414 0.29352698 0.359215 -0.043438558 -0.080365784 0.047401197 -0.12671372 0.11670398 0.1763661 0.14164387 0.10660104 -0.0020392246 -0.36324835 -0.031560905 -0.016163109 -0.05533142 0.17878112 -0.16458783 0.1386333 0.11243325 0.17073977 0.35153198 -0.1515571 -0.065731116 0.00829757 -0.14942023 0.028030803 0.13506673 0.038034078 0.022715662 0.22475725 -0.11836481 -0.3781453 -0.080056325 0.07128715 -0.14256138 0.09932731 0.17194317 -0.3597704 -0.06732634 0.09762756 -0.0607172 0.13595566 -0.22902483 0.15179765 0.33838698 0.19736387 -0.6006771 0.049552742 0.27698025 -0.11517878 0.19628814 0.13490146 -0.028505784 0.26172945 0.33684456 -0.07080235 -0.28562978 -0.085435696 -0.37727538 0.4300791 0.16243799 -0.09561502 -0.43859473 0.003734733 -0.23793532 -0.012810132 0.19862506 0.2340143 0.21638843 0.010042429 0.026192535 0.24167852 -0.17471893 0.10262239 -0.30427215 -0.36916777 0.23574735 0.0042527937 -0.17448196 0.107801765 -0.09298267 0.21020386 0.13187827 0.19350712 -0.2959555 -0.06763905 -0.22765641 -0.18521711 0.036874622 -0.17178173 0.12896298 0.23860647 -0.27894378
1812 -0.10679234 0.399067 -0.09877637 0.34076333 -0.12290789 -0.10252326 0.14952222 0.22333884 -0.15809037 0.14923134 0.36802694 -0.31251928 0.13774814 -0.6858849 0.27777424 -0.08951693 -0.52711964 0.23563965 -0.20534454 0.21954076 0.2287086 0.41324237 -0.5820905 -0.32411483 -0.38818523 0.1620817 -0.1702368 0.14626141 -0.24730356 -0.012005655 -0.018443935 -0.005562655 0.19502379 -0.4517929 0.15597925 -0.08290049 0.344231 0.12761812 0.36998308 -0.10827452 -0.14650378 0.17169842 -0.03834686 0.038445164 -0.20910099 -0.06916725 -0.17216381 -0.17705664 0.10030323 0.00730353 0.21252272 0.067364894 0.13408168 0.3435215 0.2485711 -0.30458742 0.49446657 -0.10474966 -0.38828495 0.0125885205 0.1258046 0.17006171 0.2269055 -0.18368073 0.08933647 0.10408003 0.17568056 0.3657851 0.12679061 0.011560092 0.044760674 -0.14547108 -0.63754785 0.30514446 0.2476522 -0.23178788 0.12444545 0.09685838 -0.3171093 0.2859017 0.12608893 -0.22841254 0.28572083 0.6847665 -0.1427723 0.35207286 -0.012254429 -0.113097094 0.11164211 0.20832314 -0.0075753294 -0.1407657 0.1050594 -0.22738399 0.09271715 -0.14204851 -0.58413017 -0.21405485 -0.11690913 -0.15202264 -0.13353457 -0.09606403 -0.0865079 0.21515687 -0.17654416 0.035262845 0.14450291 0.21789001 0.15006517 -0.35510322 0.31400603 -0.09086432 0.23555635 0.36752635 0.29907912 -0.16733174 0.4790642 0.34527504 -0.03542923 0.22357678 0.003954488 -0.13513711 0.20169914 0.24662049 -0.0786878 -0.70505655 -0.066541985 -0.050493427
1703 -0.13202271 0.021526627 -0.07753294 0.32805204 0.1495971 -0.0153387375 0.32517108 -0.014198882 -0.18834908 0.47281516 0.6185468 -0.0084308665 -0.047419146 -0.52347654 0.016693471 0.16338317 -0.07715412 0.37812456 0.013088 0.0714303 0.13278946 0.16676441 0.32847306 -0.14047074 -0.1440623 0.068733044 0.049451236 -0.25831237 0.14987504 -0.08353896 -0.25610968 -0.05121901 0.06605771 -0.138465 -0.10146926 0.16382585 0.3215091 -0.09768945 0.5471503 -0.018684959 -0.12633581 0.103570975 0.021491157 -0.22432461 -0.09203466 -0.110035084 0.115674436 0.020910066 -0.12968579 -0.02453602 0.5691785 0.067135364 0.08060564 0.15587378 -0.032276124 -0.21318856 -0.16871887 -0.27742204 -0.27521 -0.24058445 0.19913952 -0.15829314 0.27506867 0.11417185 0.3573065 -0.34401363 -0.07498387 0.13626492 0.19623415 -0.12589414 0.3410301 0.068567336 -0.24639457 -0.08255627 0.22293946 -0.28535563 0.1903961 0.10359219 -0.100309916 0.38253284 0.1972425 -0.3590029 0.43074018 0.26032513 0.05161107 0.104037434 0.18804944 -0.22999504 0.03919709 0.20602773 -0.040517714 -0.3560091 0.0032505018 -0.010104641 0.24734716 -0.092726 -0.41859525 -0.31700963 -0.1508137 -0.1111114 0.0020719697 -0.021331977 -0.051056374 -0.07800625 0.24587622 0.17282769 0.15246974 0.10627215 0.23043512 -0.51455057 0.375601 -0.12626262 0.2703075 0.101833425 0.5070401 -0.103917666 0.18821822 -0.07385065 -0.030558348 0.20098142 -0.13907515 0.033799704 -0.04799688 -0.030600762 -0.17301409 -0.4136691 -0.2596903 -0.08025146
1915 -0.2827081 -0.20583592 0.35533756 0.059253067 0.13193218 -0.2558105 0.1556121 0.25198334 -0.039236102 0.3494078 0.4505468 -0.17427778 -0.42689013 -0.39650083 -0.17726617 0.29447624 -0.13761331 -0.0473163 -0.23328799 -0.2533156 -0.090009816 -0.033760305 0.053556386 -0.32508245 0.012406171 0.07332613 -0.21872453 0.18621 -0.20232393 -0.012696374 0.10195852 0.029647667 0.006883557 0.11250826 -0.14473596 -0.41273785 0.74110603 -0.11190924 -0.00886928 -0.0032831582 -0.41041872 0.05143594 0.13000846 -0.19552898 0.117809325 0.25884977 -0.14266795 -0.32702297 -0.12124031 0.25497296 -0.107154176 -0.049794003 0.048130453 0.17303754 0.38349473 -0.22204542 0.4222681 -0.17850325 0.19534715 0.4932247 -0.207292 -0.048621878 0.0915216 -0.17756625 0.1609859 0.19637012 -0.102811076 0.06983205 0.05394778 0.2548543 0.49711493 -0.016006054 -0.25224844 -0.14899535 -0.22500119 0.21735121 0.09351057 -0.19739488 -0.3726819 0.020253206 -0.1582093 -0.08824804 0.42287752 0.5650036 -0.4245979 0.27109885 0.25615716 0.03684437 0.19819403 0.26094475 -0.21196492 -0.2472275 -0.013510528 -0.32025272 0.2139339 0.00916759 -0.3408675 -0.47496197 -0.01635773 -0.19105642 -0.2913763 0.21537967 0.0023330331 0.37873015 0.15988146 -0.25438717 0.022763574 0.106108636 0.16117223 -0.19323975 0.23087072 -0.18278448 0.036465682 0.0016103016 0.04791791 0.17606738 -0.09459541 0.10130295 0.03232837 0.28626403 -0.45453623 -0.2570972 -0.11298041 0.13520937 0.07085314 -0.17736149 -0.31359714 -0.048221085
1360 -0.42780256 -0.35924315 0.018839639 -0.038620558 0.22504717 0.042078987 0.26251215 0.2468653 -0.1810745 0.09444263 0.3763873 -0.22190519 -0.6225555 -0.07902779 -0.009351003 0.6078698 0.021101382 0.15536526 0.05806396 0.19429566 0.0092885755 0.06272959 -0.23732981 -0.15961608 0.030718386 0.1118654 -0.58399963 0.15544584 0.2831894 0.16815233 -0.05896493 0.29422194 -0.07429893 0.1963749 -0.24094334 -0.06647287 0.5612287 0.35067615 -0.0110319 -0.106347226 -0.0076007186 0.12825471 -0.055129662 -0.003656574 0.35196167 0.13337822 -0.14874016 -0.26035792 -0.290242 0.16779 -0.016903942 0.07708265 0.17481352 0.17877218 0.20900218 -0.0626354 0.46891728 0.015512381 -0.068414405 0.1459927 0.031998664 -0.00045096636 0.2657754 0.035268195 0.2327089 0.1813586 0.041503854 -0.0014007698 0.087686636 0.08467389 0.4458667 -0.18792698 -0.3232415 -0.16474237 -0.03332062 -0.0029682969 0.14119203 0.08691597 -0.525728 -0.051761806 -0.20309539 0.14937623 0.049057413 0.30304682 -0.19515856 0.032219514 0.47115502 0.13912213 0.328201 0.30469796 -0.07320151 -0.055939447 -0.27663997 -0.15473747 0.3885825 -0.031494945 -0.14894305 -0.12636483 -0.08813896 -0.28055838 -0.37542254 -0.010856696 0.2087002 0.29815468 0.3102328 0.069776945 -0.117463864 0.07645694 -0.06799562 -0.1284492 0.007747905 0.056966975 0.25613242 -0.021969318 0.26304173 0.16818914 -0.11384484 0.32925504 0.053932328 -0.20074458 -0.45367086 0.08141939 -0.13257347 0.0737861 0.1767134 -0.1454256 -0.38142446 -0.14683618
23 -0.06614655 -0.013966738 0.10763156 0.3050052 0.06413599 -0.15938361 0.2246556 0.084252544 -0.05945096 0.17366123 0.6218846 -0.038205195 -0.16586986 -0.5367467 0.23789096 0.29216138 -0.033669908 0.2728813 0.3122368 0.076059125 -0.25486064 -0.03191771 0.12866409 -0.28506815 -0.093385056 -0.11339453 -0.025117386 0.073733054 -0.0016505376 -0.021933202 -0.29311338 0.041847147 0.052191477 -0.0685279 0.01990508 0.3253292 0.6971917 -0.12592904 0.33405104 -0.008189921 -0.28462914 0.4896108 0.070424944 -0.22556826 0.00025481914 -0.047662243 -0.017640952 -0.25155598 -0.13005175 -0.13970596 0.35311264 0.009818052 0.15993686 -0.13342401 0.285775 0.12950523 -0.08342271 -0.13705063 -0.20019726 -0.14529781 0.030241242 -0.16575032 -0.10115372 0.03267612 0.12997438 -0.25319088 0.10643123 0.30462304 -0.05113537 -0.14673054 0.13116571 0.007909598 -0.5367179 -0.19839592 0.21428636 -0.33547387 0.18341088 -0.020392556 0.16845691 0.49462605 0.09219554 -0.36919913 0.2982848 0.4255958 0.18979786 0.012328998 0.10117077 -0.036955908 0.26855046 -0.01027045 -0.25124127 0.19834116 -0.10230827 0.1169549 0.17209837 -0.037155043 -0.35787514 -0.22926626 0.116180494 -0.42008245 0.1291132 -0.14780505 0.08790279 -0.25157028 0.06641846 -0.03401125 0.2639324 0.050819445 0.024769891 -0.5085723 0.47966886 -0.13967957 0.3078904 0.35612184 0.4809062 0.19947624 0.18164694 -0.133345 0.113819286 0.198932 -0.06121611 0.019424949 -0.039582048 -0.08801328 -0.10647784 -0.06541162 -0.13721743 -0.20575409
1296 0.020738544 -0.41163075 -0.33035532 -0.0127031 0.43211427 -0.09487959 0.27859667 0.17993593 -0.17486916 0.27248824 0.32635036 0.14005513 -0.017909508 -0.40709308 0.28755164 0.19091299 -0.14281626 0.4411006 -0.21687356 0.080237806 -0.22658929 0.1595401 0.026908804 -0.20422682 -0.15757246 0.110619344 -0.0546157 0.3333149 0.32153663 0.009511188 -0.21408202 0.080666095 0.095322594 0.06363597 -0.20409563 0.048782196 0.48436514 0.25709152 0.4297959 -0.094903894 -0.17848827 -0.078509346 -0.044532664 -0.24696396 0.18536998 0.05051293 0.08673626 0.04777388 -0.31463957 0.041165378 -0.12609552 0.22491752 0.43431237 0.11662721 0.15167701 0.011469141 0.4297728 -0.19218548 0.16653457 -0.21900597 0.11763379 0.097955525 0.5733234 0.09844916 0.11716194 0.017830145 0.12088171 0.31399843 0.49116343 0.16629751 0.23461701 0.19622576 -0.055678014 -0.088826306 -0.24559781 -0.2829663 -0.13519149 0.101412 0.23756059 0.5042171 0.118791126 -0.29562476 0.05323349 0.47348788 0.10865876 -0.09536107 0.36278543 0.047182873 0.3113425 0.11944209 0.11552945 -0.45669025 -0.10868444 0.0006615499 0.39994273 -0.3751801 -0.06519073 -0.107642435 -0.11639138 -0.27531487 -0.12640482 -0.06548196 -0.08761419 0.00412951 -0.07950718 0.032051828 0.032247942 -0.088771045 0.047991112 -0.07396626 0.24659319 -0.22910629 0.35385686 0.21936888 -0.11866619 -0.33156797 0.40203822 0.095635355 0.2998295 0.16114849 -0.22219138 -0.22579947 0.046569042 -0.04091485 0.06800878 -0.24664828 -0.15286978 0.10615816
111 0.095121145 -0.19162959 -0.02311505 -0.09436495 -0.044314228 -0.1802513 0.25295845 -0.11546278 -0.1180109 0.2085323 0.40729606 0.019273277 -0.27059996 -0.50692916 0.19558993 0.2950213 -0.07700679 0.36153245 -0.22580689 -0.1665428 -0.05218168 0.07453363 0.10027888 -0.1658806 -0.23984689 0.1755627 -0.30902612 0.18172334 -0.01679191 -0.12128585 0.05526625 0.07529404 -0.15371671 -0.27745804 -0.20595492 -0.11546807 0.52086216 0.23106775 0.33624473 0.09438349 -0.28134844 0.2513846 0.021484636 -0.051288653 0.100646146 0.28645244 -0.2943564 -0.22802098 -0.21602838 0.20300348 0.2332829 -0.16949925 0.17889088 0.19285658 0.11398895 -0.21049309 0.28051206 -0.09052856 0.027996771 -0.1065061 -0.18077803 -0.002066541 0.32788327 -0.45384037 0.116219595 0.18841547 -0.15519013 -0.08037527 0.11871905 0.093000285 -0.100660816 0.007916949 -0.1559929 0.23710163 -0.23088364 -0.2524448 0.36251417 0.1858185 -0.14924474 0.16377935 0.16975197 -0.2947975 0.29662362 0.30751932 -0.20090781 0.15098944 -0.049980536 -0.03718651 0.5075716 0.2360137 -0.084620185 -0.24815851 -0.09790396 -0.3356648 0.14142022 -0.107613795 -0.40179914 -0.10153062 -0.07491055 -0.24891305 -0.08357541 -0.37018535 -0.21454191 0.20455837 0.13274918 0.09981398 0.17334262 0.08868832 0.073329665 -0.21182887 0.366622 0.093159765 0.18885997 0.30552754 0.20654732 -0.25052658 0.35738474 0.25502723 -0.059201118 0.4256271 0.103296995 -0.2526153 0.10024542 -0.072949134 0.2778795 -0.47047573 -0.109623 -0.21440192
42 -0.07593937 -0.14441748 0.47239915 0.18864961 0.046387672 -0.17745523 0.3754933 0.2032717 -0.20376243 0.2435765 0.18891342 -0.21399914 -0.36589774 -0.32024035 -0.15492369 0.28259405 -0.12158421 0.119912624 0.015037592 -0.34398428 -0.21764584 -0.07749813 -0.06122972 -0.49029097 -0.07361189 -0.061033994 -0.1970745 -0.10476686 -0.09280022 0.111892655 0.20082238 0.14890118 -0.24855858 0.1076627 -0.23198621 -0.31799352 0.7208404 0.044587415 0.10934509 -0.023814557 -0.19080687 0.2511905 0.3646486 -0.18759054 -0.008508836 0.19573806 -0.25133693 -0.17112541 -0.06348879 0.4184522 -0.11878034 0.061927747 0.2414104 0.2942013 0.32893443 -0.16982242 0.34042338 -0.2886824 0.1251577 0.5465009 -0.31951833 -0.23588431 0.058512375 -0.08517401 -0.117192104 0.20533058 -0.007040571 0.117428035 -0.06426552 0.16867861 0.32992563 -0.010218003 -0.034703366 -0.08654319 -0.07406451 0.26258174 0.13456272 -0.25178218 -0.3787604 0.10190632 -0.04756727 -0.05303328 0.48691002 0.5302494 -0.3630878 0.17022347 0.28454345 -0.054279532 0.3121986 0.22851466 -0.21542357 -0.09982182 -0.022933712 -0.23539695 0.39383054 0.057273217 -0.24741335 -0.39293718 -0.005115037 -0.36277464 -0.3649161 0.064939715 -0.024284542 0.5414837 0.14127699 -0.062747635 0.059694022 0.07675252 0.25114545 -0.20615506 0.38075766 -0.2582288 -0.06944804 0.015680093 0.094815455 0.11148036 0.20747621 0.19002064 -0.014444072 0.30412245 -0.29058933 -0.22241198 -0.15405256 -0.101791576 -0.18399025 -0.23377807 -0.13697882 0.048100892
41 0.07429427 -0.28657687 0.1466238 0.37365147 0.04661202 -0.13385826 0.2678622 0.26021296 -0.11735029 0.06827212 0.3431947 0.13104784 -0.093425564 -0.1989213 0.24851686 0.038110286 -0.23924749 0.3760418 0.31562632 -0.119695805 0.049893335 0.16563284 0.07559744 -0.31179574 -0.14822489 -0.10477416 -0.1875051 -0.030720325 0.05133802 0.0820246 -0.32487845 0.10594269 0.1822171 -0.078318946 0.17157562 0.35172024 0.6208315 -0.19428632 0.4313655 0.25262004 -0.2754184 0.38821533 0.024065264 -0.28081265 -0.05895488 -0.21169989 -0.07764233 -0.12967555 0.12541708 0.01062685 0.18561062 0.082560286 0.22003329 -0.036968257 0.0022521652 0.08553239 0.11120842 -0.017597489 0.094433345 -0.2754786 0.10553483 -0.36658952 -0.19972758 0.07694275 0.12345075 -0.29936045 0.17757666 0.1975991 0.044537336 -0.2528472 0.044379957 -0.08039206 -0.46028942 0.021953134 0.11155951 -0.21163364 0.14161836 -0.26372933 0.15442371 0.27752388 -0.009336901 -0.16199392 0.1639157 0.6575164 -0.09511353 0.21212955 0.14684944 -0.1652863 0.38365656 0.091540195 -0.2970967 0.40611464 -0.29714715 0.055890225 -0.017672196 0.047414757 -0.4461666 -0.37636676 -0.10738871 -0.567233 0.12606299 -0.29543296 0.10519483 0.05819333 -0.15415736 0.2900091 0.09024086 0.045777585 0.14116706 -0.18906105 0.48593226 0.13432468 0.58425695 0.32342166 0.46058956 0.11169138 0.059743356 -0.011905525 0.22670181 0.29950944 -0.19085114 -0.033513855 -0.041600604 -0.20140417 -0.24867189 -0.21838555 -0.08347978 -0.35513747
634 -0.06021542 -0.117010206 -0.09528776 0.06609657 0.09749286 -0.10612246 0.087837964 0.28781658 0.06976314 0.48524728 0.367809 0.10723925 -0.19600587 -0.34720114 0.41474918 -0.123246744 0.0015598971 0.29637045 -0.0038816498 -0.06669662 -0.25605062 0.31714407 -0.35888273 0.018481618 -0.15524255 0.16465646 -0.33532688 -0.26289055 0.2519876 -0.23615439 0.085585244 0.35222408 -0.008681276 0.44914827 0.039331537 0.204467 0.40604734 -0.04753362 -0.038657334 0.11008483 -0.19119918 0.06549504 0.2965893 0.06067364 0.09282845 -0.18137585 -0.44002247 0.08544708 -0.007162545 0.37981036 0.14052135 -0.27106035 0.28489235 -0.14179756 0.27957106 0.48043162 -0.30313835 -0.018937793 -0.0009398005 -0.061599027 -0.017291797 0.19746156 0.03912555 0.16395526 0.12565318 -0.3058265 -0.43245947 0.039440747 0.14575647 -0.084715456 0.09521684 0.047207437 -0.15607102 -0.11402505 -0.05663901 -0.2257561 0.06536099 -0.08584434 -0.053652886 0.5558682 0.023597615 -0.74709284 0.058450013 0.074701704 -0.1638936 0.22891758 0.35807493 0.14012896 0.42292747 0.37385833 0.05921241 -0.49991623 -0.23063248 -0.29186976 0.5103923 0.20737141 -0.42143103 -0.5976528 0.003591734 -0.1920915 -0.02932303 0.09575776 0.026601236 0.21659248 -0.13246036 0.051108457 0.020525932 -0.059453312 0.19979128 -0.40428245 -0.28514227 0.12917449 -0.06019845 -0.06319513 0.13180593 -0.009146491 0.02274904 0.24140012 -0.14342463 -0.21138841 -0.12572151 -0.060531046 -0.2992119 -0.006596554 0.0030969863 0.28359717 0.05895462 -0.27538028
1015 -0.24126813 -0.122756585 -0.21143612 0.30630556 0.33939394 -0.10722566 0.025255214 0.27318704 -0.16069487 0.17930232 0.29082856 0.22594143 -0.23552944 -0.4769555 0.06484474 0.36960953 -0.3308375 0.21050161 -0.17515314 0.025621658 -0.101520844 0.31545436 -0.06371027 -0.11561307 0.13277748 0.29287222 -0.21415645 0.30269703 0.49324915 -0.07477969 -0.13798551 0.05393362 0.10310035 0.2779992 -0.056034364 0.31686482 0.70234 0.7296827 0.2888294 -0.37219194 -0.009716042 0.064613305 -0.14876461 0.00054857973 0.099428095 0.13671649 -0.084727 -0.033325527 -0.0744665 0.12332368 -0.039301496 -0.062118113 0.29703885 0.3273579 0.13051029 -0.16005322 0.2597818 -0.24561867 0.15274104 -0.11765505 0.0003557668 0.05913146 0.43680477 -0.08618052 0.36885014 0.04813072 0.02644818 -0.09804393 0.25254476 0.16252348 0.54284245 -0.21109843 -0.13668703 0.07558632 -0.5170824 -0.22508734 -0.06860091 0.17919001 -0.28023848 0.35035074 -0.24677603 -0.3464819 0.12284339 0.19245757 0.3220752 0.21285297 0.2705615 -0.16391708 0.49230197 0.3626168 0.13851365 -0.14167976 -0.11334128 -0.2817247 0.36401653 -0.11620755 0.05652842 -0.05123818 0.043841176 -0.3363138 -0.10640467 0.11300985 -0.05535386 0.023092924 0.07171199 0.14784175 -0.17143846 -0.065988794 -0.03442416 -0.09583102 0.30184415 0.12259926 0.3225285 0.106344715 0.22828278 -0.112785734 0.0022459254 0.51617897 0.07428928 -0.039429378 -0.3728869 -0.10856622 0.46675754 -0.15065618 0.17518118 0.047454834 -0.09130975 0.27464184
1811 -0.043274384 0.37025034 -0.15463042 0.42265227 -0.047150485 -0.20847714 0.18405212 0.2277213 -0.22376998 -0.015336113 0.2397819 -0.31733352 0.018526545 -0.71237683 0.33082646 -0.011245786 -0.37515348 0.13515452 -0.26213393 0.107947975 0.19881919 0.21377528 -0.509612 -0.3581758 -0.32883742 0.304141 -0.07175231 0.16238722 -0.12938918 0.034608994 0.069392435 0.0038352387 0.14221022 -0.21238397 -0.073504515 -0.09493578 0.38884568 0.311264 0.37615845 -0.089163534 -0.30513144 0.24611731 -0.050153535 0.12490485 -0.19842868 -0.0073793763 -0.19189593 -0.35209668 0.04747694 0.0058687297 0.34218127 -0.09398502 0.2075331 0.17701249 0.34743625 -0.28746042 0.5422828 -0.1492802 -0.46771574 0.021201503 0.11806744 0.038745638 0.28489336 -0.052399144 -0.008608121 -0.08206295 0.017288942 0.27328634 0.10677035 0.11032339 -0.045935713 -0.23810916 -0.7208206 0.15447162 0.36470783 -0.14254266 0.23167193 0.2085022 -0.21733004 0.21673091 0.16306816 -0.15809007 0.21214078 0.681053 -0.08744166 0.39136562 -0.12979202 -0.2822696 0.040125456 0.23987296 0.07481588 -0.11231256 0.0413628 -0.3113215 -0.02433418 -0.17825535 -0.5835324 -0.15819831 -0.31302327 -0.15894137 -0.21229231 0.08382751 -0.056041967 0.10055175 -0.11980698 0.0742716 0.2515375 0.15575373 0.25973424 -0.3855126 0.38024125 -0.032086894 0.3097829 0.32875943 0.2242316 -0.038340405 0.62061745 0.24571627 -0.022184601 0.2276983 -0.002428037 -0.02785774 0.19207025 0.1710099 0.012491895 -0.6612288 -0.0223172 -0.007081039
90 0.15742579 -0.43296957 0.06668077 -0.08624586 -0.24417637 -0.1267769 0.007577875 -0.08542604 0.13281335 0.41670153 0.02223096 -0.17586361 -0.1378916 0.1683868 0.2642335 0.29666698 -0.20113444 0.08021576 -0.16754502 -0.27547917 0.5077937 0.4014991 -0.06838883 -0.3432731 0.36339194 0.0708063 -0.058600258 -0.19301575 0.3260732 -0.345911 -0.40727776 -0.2185338 0.1308732 0.4043948 -0.14329837 0.093372755 0.708137 -0.21367681 0.058815524 -0.38718203 0.09792719 -0.063499995 0.15173818 -0.023249602 0.2653512 0.2522677 -0.2589983 -0.14528088 -0.13537864 0.19276172 0.11928449 0.1345596 0.28745073 -0.123263516 -0.21839505 0.491591 0.4030033 0.30862063 -0.15133056 0.34396434 -0.18079197 0.11992657 0.13267724 0.34933445 0.15941043 -0.091879085 -0.28488675 -0.0014551794 0.2279427 -0.038381167 0.087111585 -0.12734276 -0.48868293 -0.12048121 -0.3718701 -0.48907515 0.5137064 -0.52650183 0.04222769 0.31591022 0.09413323 -0.15122738 0.20472284 0.36305553 0.109795205 0.4700084 0.06777699 0.047690928 0.15301423 0.47114363 0.017482057 -0.3524965 -0.015704613 -0.48206118 -0.083951876 0.0216613 -0.18672773 -0.26743808 -0.15740545 -0.15925549 -0.0077768825 0.31027696 0.33056468 0.28454828 0.24287155 -0.10813313 0.15221757 0.015758228 -0.21790574 -0.3787504 0.1820753 0.014938287 -0.015903676 0.3645097 0.170108 -0.23588017 0.21920505 0.06664125 0.27289897 -0.18487032 -0.56394064 0.0071936315 -0.061912656 -0.113746814 0.04811067 -0.09324874 -0.20811671 -0.07321417
2 0.39005682 -0.36611268 0.08534553 0.019850966 0.21995354 -0.27704623 0.15273166 0.2766968 0.11883322 0.62913644 0.38392812 0.009820051 -0.17769545 -0.07371528 0.60716367 -0.13844122 0.024863338 0.14688568 0.2690257 -0.104809105 -0.23424555 -0.006288631 -0.33952442 -0.0068219057 -0.009800581 0.27919182 -0.36554942 0.006735267 0.3097087 -0.029556897 0.2023385 0.4527514 -0.020785045 0.4382674 0.07158502 0.17086662 0.4767729 0.1160141 0.1767791 0.27780533 -0.25550306 0.10608315 0.3002282 0.098742016 0.36715275 -0.17079265 -0.3911002 0.09590572 0.16973147 0.2621977 0.18502426 -0.16882113 0.26396325 0.02272175 0.4306299 0.41426903 -0.22404306 -0.03579846 0.106226735 -0.19251055 0.11488701 0.15326066 0.25582552 0.08725905 0.20821325 -0.18051451 -0.48830885 -0.14646058 0.023872437 -0.24256745 0.03416506 0.16064371 -0.05756428 -0.060981758 -0.09565948 0.015291972 0.13910696 0.0014062045 -0.13829023 0.69342464 0.08693076 -0.6105924 0.1048442 0.09220938 -0.1701973 -0.045897048 0.38054493 -0.11770779 0.30806354 0.23799342 -0.024725432 -0.64542353 0.004581667 -0.36211425 0.3633606 0.08106116 -0.2907409 -0.6382321 0.014522972 -0.27615523 -0.06949167 0.22621495 0.0060576857 0.20893064 -0.08241417 -0.13358846 0.12229159 -0.14126293 0.32519725 -0.2927079 -0.2621807 0.059485123 -0.09351936 -0.06642962 0.20107865 -0.037400447 -0.07214514 0.31209284 0.00013318262 -0.045485545 -0.2714619 -0.06584706 -0.1595095 0.20515296 -0.0886758 0.08296411 0.07764645 -0.26220486
110 -0.14548218 0.0024907307 -0.14635707 0.081393234 -0.22940512 -0.05165126 0.4851237 -0.15827611 0.29644734 0.1061977 0.39788076 -0.021358188 -0.32282537 -0.2875151 -0.042705707 0.103139564 -0.19074744 -0.09985605 -0.27154136 -0.34346244 -0.34228325 0.23056571 0.14371638 -0.16408326 -0.298079 0.12612955 -0.18549031 -0.0048140027 0.1112596 0.064307265 0.2610951 0.16270758 -0.4719216 -0.25772807 -0.25562263 -0.20259295 0.5053023 0.1803295 0.26332092 0.30977288 -0.28128904 0.3762248 0.25641286 0.07200095 0.5148256 0.2017096 -0.3137571 -0.17061757 -0.18987934 0.16721627 0.42278513 0.067114145 0.21540384 0.16488758 0.1949157 -0.09929165 0.4406013 -0.13208933 -0.085466124 0.2381929 -0.040536247 -0.033574842 0.0451303 0.13934192 0.26352134 0.08656914 -0.19671741 -0.1807048 0.37752745 0.13660343 0.034549676 -0.1664486 -0.24447301 0.17726007 -0.16596885 -0.22068347 -0.093727686 0.05323772 -0.010218856 0.3990135 0.0760332 -0.26205888 0.34661573 0.4823208 -0.50717723 0.48398104 -0.0909591 -0.023734108 0.20564981 0.05607774 0.039388552 -0.32961953 0.049198642 -0.38363346 0.24179709 0.20843834 0.039174862 -0.2553999 -0.45858645 -0.3729268 -0.44380686 -0.1799604 0.113545254 0.42086643 0.02241519 -0.18160416 0.1740847 -0.14442964 0.026442612 0.017891876 0.40741098 0.1341806 0.18013328 0.58911234 0.14033785 -0.20388621 0.39374313 0.1198642 -0.2531174 -0.054481715 0.11129802 -0.09217143 -0.06497743 -0.1769466 0.04294259 -0.40507528 -0.049296934 -0.4193658
182 -0.11621667 -0.37708628 0.13141347 0.19676591 0.3897085 -0.018362336 0.06292982 0.068236515 -0.27124456 0.124257416 0.5227022 -0.12431919 -0.6104395 -0.3813399 0.115079515 0.54481995 -0.18211228 0.13674447 0.22023898 -0.07950118 -0.084289566 0.1965452 -0.10603965 -0.12758517 0.063641936 0.115858465 -0.3395831 0.0054823067 0.30145708 -0.29334104 -0.09308262 0.03734701 -0.016999653 0.01742756 0.06516669 -0.25580674 0.55653524 0.74519145 0.0262101 -0.16312823 -0.31827313 -0.42878267 -0.07095728 -0.12821689 0.26191714 0.10208366 -0.30405453 -0.13977617 -0.4420022 0.19594291 0.17888606 -0.0173153 0.63477325 -0.19805317 0.3480873 -0.087494895 0.17606309 -0.22628304 -0.1402702 0.2189935 -0.20229858 0.050420042 0.4507871 0.08700842 0.34983027 0.34243992 -0.07821756 0.0729639 0.20113575 -0.16124254 0.42831677 -0.27935538 -0.3907166 -0.35287908 -0.21038137 0.042591043 0.011391544 0.10596539 -0.40668568 -0.078304134 -0.18489547 0.05427146 -0.0782437 0.33879036 -0.10585992 0.11078211 0.24542214 -0.060654897 0.204126 0.23022781 -0.13713126 0.15403041 -0.20239866 -0.33533958 0.41443986 -0.04787167 -0.007571176 -0.04579607 0.018484661 -0.032362547 -0.3393133 0.0512435 0.29304087 0.30125454 -0.0015994399 0.24951908 -0.16858454 0.035784528 0.080280386 -0.44760725 -0.17513368 -0.0060798246 0.19827072 0.059525676 0.12779196 -0.044076875 -0.020142345 0.3438508 -0.3351385 -0.0040921657 -0.31268686 0.061017882 0.20022237 -0.118365936 0.007022542 -0.03897204 -0.21042228 0.042062096
965 0.17613836 -0.55928355 0.01424265 -0.16829412 -0.51992387 -0.15915093 -0.03890813 0.19641942 0.19401328 0.28347132 0.29261544 -0.047821365 0.017921949 0.049905743 0.45120215 0.317867 -0.17176905 -0.24934414 -0.041594792 -0.27935234 0.18612729 0.49608734 0.009187222 -0.36707905 0.22227289 0.2226181 -0.132147 -0.07319531 0.37507388 -0.48654902 -0.6126373 -0.25102964 0.46142218 0.05505357 0.022743752 0.28916368 0.50688887 0.011577883 0.23473932 -0.3666098 -0.31782007 0.17070483 -0.15525424 0.09798707 0.28868505 0.09479183 0.039404973 -0.13329878 -0.20222855 0.11160446 0.025665257 0.060299337 0.11179916 -0.08457202 -0.0055755754 0.6292159 0.63679254 0.11257605 0.15778077 0.3317528 -0.2395108 -0.21245518 0.08288986 0.16888991 0.2550141 0.07304401 0.10701259 0.24700226 0.1768525 -0.13507827 -0.089163706 -0.45282537 -0.34726816 -0.105760306 -0.19658259 -0.049455483 0.51654565 -0.27438536 -0.041263096 0.31058386 0.123248816 -0.20325926 0.22093973 0.3862195 0.031555142 0.40462676 -0.09965414 0.14537217 -0.040602673 0.20626491 -0.5315379 -0.31688645 0.048074156 -0.2553562 0.032039896 0.119586006 -0.23198782 -0.14391409 -0.13612288 -0.22466555 -0.087131254 0.1989695 0.09436771 0.59277886 0.18676926 -0.33259878 -0.16953582 0.08860372 -0.001144455 -0.28115457 0.3393646 0.058471624 -0.18655539 0.49638012 0.1670066 -0.12638792 0.3056026 0.06211533 0.24603716 -0.15024331 -0.7417833 -0.23765732 -0.29317287 -0.4648717 0.45496473 -0.044829126 -0.53058326 0.064500384
2036 0.7040462 0.10959266 -0.051631514 0.016731521 0.32344696 0.11951711 0.4312548 0.13380846 -0.30198213 0.18141405 0.31673738 -0.24021606 -0.7302114 0.14768519 0.31088376 0.4231211 -0.22394343 0.15169209 -0.2754717 -0.04771308 0.28833285 0.6790929 0.21691898 0.25131652 -0.26682478 -0.0030101794 0.04869504 -0.4749918 0.1296112 0.11742342 -0.7524607 -0.22420044 0.4893486 -0.011933089 -0.18596344 -0.34366181 0.5398859 0.15298629 -0.09280003 0.2506014 -0.25284916 0.011154703 0.08607336 0.26146618 -0.17502205 0.32849705 -0.26601055 -0.15874822 -0.5497178 0.3467931 -0.27399778 0.27480114 0.38680178 -0.023943255 -0.059280768 0.005085937 0.20860994 -0.6817945 -0.10394784 -0.0052697845 0.2038029 -0.36430413 0.40520644 0.015026586 0.29121003 -0.17083685 -0.15945658 0.12331395 0.092866816 -0.14724642 0.43917367 -0.06643727 -0.5716124 -0.15046789 -0.18719336 -0.11480188 -0.17748259 0.20284005 0.24433891 0.07232692 0.45097682 -0.57384735 0.28844643 0.48135754 -0.035018366 0.4083326 0.24960333 0.13637713 0.60239905 -0.10907829 0.35006806 -0.22962908 0.23531243 0.09086909 0.06607291 0.30075085 -0.29294026 -0.14668843 0.13810495 -1.2686247 -0.6217537 -0.025575856 -0.16608366 -0.0947049 -0.3039724 -0.007889068 0.5141181 -0.10776763 -0.21195418 -0.2764869 0.05932453 -0.37514907 0.2877554 0.48809442 -0.51860756 -0.032177668 0.121348985 0.21943158 0.11841599 0.28823334 -0.44254997 -0.16317925 -0.27737907 0.24611954 0.25164405 -0.015640846 -0.18514833 0.4013083
24 -0.15063122 0.0077661728 -0.044807993 0.07715562 -0.107804805 -0.34499162 0.0009067156 -0.073207185 -0.072477125 -0.05596916 0.46294093 0.2824628 0.30676237 -0.55068445 0.40627813 0.19189811 -0.19258785 -0.053182848 0.14296341 0.020708272 -0.2778071 0.22953136 0.17152508 -0.44134906 -0.19595823 0.21578348 0.02006453 -0.04416674 0.13135104 -0.43386984 -0.43012118 0.1253548 -0.33424634 0.014829863 -0.22675367 0.24089597 0.5116111 0.013932853 0.08224487 -0.102673896 -0.2047062 0.37945005 0.021555517 -0.2127787 -0.017520746 -0.0014488882 -0.26475558 -0.4039084 0.10865793 -0.15992336 0.23344803 0.16404425 -0.04756963 0.13038915 0.055646606 0.1408331 0.21056989 0.006611714 -0.2543071 -0.25303924 0.3202863 0.004233217 -0.08691604 -0.12185541 0.34183225 -0.30030003 0.0057066893 0.5176442 0.03354451 -0.23120345 0.17402928 -0.104956895 -0.43525904 -0.33338997 0.13724186 -0.16654086 -0.06746765 0.21739814 -0.15376578 0.5980732 0.07064958 -0.5240561 0.38229248 0.45501962 0.092925616 0.12632333 0.07454635 -0.28051776 -0.014292529 0.009595962 -0.38845125 -0.43746167 0.09384055 -0.050971344 0.5252904 -0.086452425 -0.21967332 -0.19022754 0.15877758 -0.32216224 0.1073617 -0.13589853 -0.10888086 0.09960704 0.0722258 0.20924118 0.31000832 0.11675581 0.20880269 -0.5201565 0.14108914 -0.21868432 0.36492905 0.31797862 -0.059356537 0.0043565277 0.22399545 -0.005666839 0.07833329 0.16501306 -0.0024472985 -0.089166254 0.119060814 -0.1417542 0.008602757 -0.15238632 -0.37126595 -0.288999
40 -0.16185568 -0.17204443 0.31182206 0.3072848 0.04238778 -0.041709416 0.19335504 0.14196706 -0.21493506 0.13551392 0.40523228 0.04016001 0.10231566 -0.42027876 0.18954359 0.3599563 -0.108748674 0.29988956 0.20259735 -0.093590364 0.06841102 0.19663109 0.1214081 -0.41651028 -0.41413435 0.05796998 0.089202166 -0.011345712 0.108102866 -0.10108412 -0.27253056 -0.07542276 -0.07985549 -0.16406149 -0.036502395 0.328091 0.46583298 -0.08657003 0.41614377 0.06786048 -0.29419097 0.31574896 0.0128109 -0.117874585 -0.022767643 -0.07004428 -0.14832976 -0.066315666 -0.17926721 -0.21486713 0.2528727 0.17053804 0.08959203 -0.17734493 0.3857288 0.06117423 -0.09774591 -0.13774584 -0.0875902 -0.21669847 0.290579 -0.29669374 -0.03624323 0.18304166 0.074269794 -0.52963084 0.056955647 0.2411723 0.009034023 -0.17572615 0.23772213 -0.027258456 -0.45177975 -0.22505395 0.31875426 -0.16824137 0.12450956 -0.17677303 -0.097703606 0.21456952 0.17528619 -0.25099137 0.37563807 0.5038575 0.0026642354 0.12956871 0.05315604 -0.11834342 0.47756383 0.13721107 -0.23310518 0.015300522 -0.0896114 -0.04939832 0.15260606 -0.036674865 -0.34448388 -0.22755608 0.26686695 -0.5978184 0.124552794 -0.14325531 0.08274743 -0.14614233 0.14913635 0.029894393 0.18672565 0.05953164 0.038973507 -0.28821856 0.39180884 -0.18722224 0.46393654 0.31183445 0.44951534 0.083835475 0.07618322 -0.07517757 0.09183186 0.23815411 -0.11586986 -0.038883403 0.13880348 -0.20750245 -0.14337435 0.053920075 -0.22690222 -0.28708935
509 -0.09928317 -0.10298653 0.016600784 0.38479236 -0.124623835 -0.23429438 0.34632558 0.26430932 -0.02995916 -0.00825526 0.50330335 0.16765064 -0.14390776 -0.25413668 0.1765015 0.08492797 -0.30120096 0.3811121 0.21704677 -0.062222663 -0.00019117078 -0.0070972615 -0.35117984 -0.3311925 -0.08070873 0.14824067 0.05671815 -0.0040623276 -0.09384684 -0.30641085 -0.3576235 0.031973626 0.14037712 0.07549297 0.17558058 0.44940886 0.5721014 -0.13104188 0.21074368 0.12244666 -0.29777882 0.5053031 0.11348355 0.0054394305 -0.23904893 -0.11686741 0.009353706 -0.14131795 0.1326178 -0.004304027 0.19025515 0.3310355 0.27838522 0.3123373 0.055766545 0.18481517 0.080981776 0.0327063 0.08113119 -0.19830856 0.2786723 -0.35938436 0.053757835 0.44370624 0.42013213 0.014719495 0.1526791 -0.22077888 0.033375677 -0.44139323 0.08216303 -0.06657462 -0.3921291 -0.13242346 0.003944287 -0.20874076 0.2134115 -0.057936355 0.18855332 0.19829309 -0.073616445 0.051365387 0.17360644 0.28625455 -0.31326148 0.0889492 0.2252339 -0.13086589 0.37867746 -0.073798895 -0.42035568 -0.0042055147 -0.065986365 0.05781123 0.015766647 0.3041622 -0.45540985 -0.26049095 0.12081985 -0.4760192 -0.29898265 -0.15225632 0.3256036 0.103711635 -0.24214804 0.17139913 -0.0069057876 -0.09828071 0.06595949 -0.2339318 0.5600774 0.009190404 0.34145236 0.3276743 0.26698366 0.2408744 0.30008367 0.04507737 0.26996732 0.24922262 -0.2824061 -0.49022624 0.2063065 -0.15288883 -0.11587985 -0.3077967 -0.0683885 -0.64717543
1172 0.054383036 -0.42464754 -0.11163756 0.1873954 0.35200143 0.033883367 0.061371937 -0.10744171 -0.24395598 0.2632191 0.21071507 0.21089062 -0.24036556 -0.37298077 0.1447663 0.21073255 -0.24582611 0.4120271 -0.2905211 0.00075282983 -0.055982742 0.22525842 -0.022810614 -0.09324783 -0.24873504 0.093436606 -0.10808411 0.4932766 0.25084004 -0.02449709 -0.085363664 0.26363924 0.3015384 0.087523736 -0.50015444 0.03172393 0.44915074 0.094198756 0.31188294 -0.045520183 0.10217928 -0.3150221 -0.3083482 -0.19949785 0.29329863 -0.10071591 0.11413436 0.033339966 -0.4712262 0.14561449 -0.0071826554 0.30074337 0.5145302 -0.0665447 0.19141215 0.1379844 0.35291567 -0.3800392 -0.027533056 -0.323255 0.22697097 0.05408108 0.38513622 0.13167359 0.2622633 0.2337075 0.1577259 0.39015678 0.45588577 0.076543674 0.30058986 -0.071419336 -0.2761369 0.0034187816 -0.4000452 0.024028685 -0.24687822 -0.06209935 0.14767528 0.7250422 -0.06677554 -0.44189182 -0.36478186 0.34383318 0.054339346 -0.10138967 0.5443048 0.37343037 0.4046993 0.07738247 0.14545496 -0.5639413 0.24034183 -0.18874577 0.20229404 -0.33762562 -0.1319698 -0.121650904 0.06010846 -0.21785614 -0.37155846 -0.038223233 -0.20524606 0.20908906 -0.12966043 -0.046524134 0.24359201 -0.10689366 0.13563238 -0.20988661 0.34169748 -0.124706 0.38714108 0.068780065 -0.0046357424 -0.095586956 0.39183825 0.24777259 0.29404363 0.03911477 -0.22100063 -0.23822667 0.2885017 0.0718025 0.13614391 -0.034631472 -0.44798303 -0.21449071
259 0.1364765 -0.6890544 0.021189738 -0.19687106 -0.36711055 -0.3098564 0.16819051 0.2803725 0.22807683 0.24565233 0.1989725 -0.052522965 -0.16052549 0.0007658081 0.22934584 0.40311813 -0.2756484 -0.101918206 -0.29293194 -0.3630545 0.577012 0.34975263 0.013629408 -0.3555089 0.18141839 0.12179521 -0.08510792 -0.106972255 0.44643608 -0.21652204 -0.5093557 -0.32976088 0.34732068 0.17647128 -0.05732639 0.11292631 0.55016243 -0.2920761 0.31182587 -0.42091915 0.06582004 -0.054986294 -0.114215896 0.024354285 0.21243846 0.0943558 -0.13074452 -0.46794623 -0.12637949 0.33019924 -0.029640118 -0.06992325 0.3724263 -0.21466033 -0.05703357 0.4766086 0.4317521 0.23923463 -0.055335328 0.5158324 -0.2018955 -0.032888964 -0.05973967 0.37507558 0.10149077 0.10449354 -0.098151036 0.08663998 0.1154471 -0.22836326 0.0028301293 -0.36424154 -0.5469749 -0.24521644 -0.17916481 -0.35510254 0.29710513 -0.34878787 -0.0023144684 0.1979858 -0.103189304 -0.08304032 0.19243482 0.3145219 0.2775617 0.43284354 -0.044902693 0.24019022 0.07066784 0.374682 -0.18743844 -0.41116843 -0.045158572 -0.32605264 0.0661388 0.23091422 -0.1920096 -0.25933042 -0.093649864 -0.2658861 0.009678681 0.3157661 0.28509218 0.51662093 0.120822 -0.19688839 0.024466325 0.11057391 -0.13507052 -0.392339 0.29428905 0.017929766 -0.1505008 0.46536267 0.13907765 -0.23774463 0.33487785 -0.027285386 0.21322735 -0.18919829 -0.8408325 -0.11666695 -0.09129286 -0.29103386 0.38121352 -0.20109068 -0.1680406 -0.00032992088
568 0.036584698 0.066414565 0.11490996 0.05382059 -0.09834888 -0.1444245 0.30225432 0.17198499 0.034001976 0.09844109 0.32274485 -0.1264135 -0.3206388 -0.6893834 0.17874071 0.399813 -0.24962726 0.40584388 -0.11449846 0.07982088 -0.037225835 0.121555686 -0.2200452 -0.026052857 -0.1822558 0.0161395 0.13278879 0.27353594 -0.12877294 0.020016931 0.26055962 0.26609966 -0.28560618 -0.1684766 -0.20342934 0.07364064 0.51461715 0.123824395 0.35290435 -0.085637115 -0.22482318 -0.043154806 -0.032694757 0.08429796 0.10093983 0.3323554 -0.3869867 -0.116226375 -0.17797378 0.11619749 0.13110614 -0.06688534 0.0217404 0.12993528 0.32345662 -0.18754734 0.592689 0.011648283 0.15170467 0.09157831 -0.2283756 -0.037902307 0.3765481 -0.4568816 0.17036848 0.17712101 -0.20081496 -0.06420167 0.24427931 0.0980212 -0.019334624 -0.05511505 -0.33280528 -0.07362681 -0.13618836 -0.12975097 0.24422629 0.078685194 -0.17399973 0.35896274 0.41991264 -0.24773724 0.45873278 0.19559672 -0.0712139 0.19312349 -0.039609257 -0.09307732 0.48930767 0.11988553 0.0011366364 -0.07831083 -0.091774024 -0.053067714 0.08418784 -0.13105328 -0.4704039 -0.18068355 -0.16299917 -0.3608925 -0.1367513 -0.3989477 -0.34917405 0.37462226 0.22723144 0.11352633 0.03338972 -0.060141735 0.059478927 -0.37085506 0.44745287 0.15128836 0.27193296 0.27335805 0.027999425 -0.16744955 0.4647317 0.074960805 0.01768303 0.30092505 0.12889925 -0.4139308 0.16141017 -0.017823238 0.27018267 -0.34651345 0.085048 -0.26324412
4 0.119990446 -0.47286007 0.015858144 0.013331943 0.10577792 -0.11101129 0.06669263 0.50711197 0.1584587 0.58847106 0.16202146 0.02625664 -0.26050326 -0.17349437 0.6025561 0.054931134 -0.035782788 0.22975118 0.14107803 -0.102925204 -0.15453763 -0.02866091 -0.30908668 0.08139982 -0.15793237 0.33181322 -0.18653202 0.047651593 0.31742862 0.0013637942 0.05889091 0.5537082 0.21863681 0.5148959 0.07204545 0.096757434 0.15765026 -0.024364091 0.19903935 0.38999915 -0.11230682 0.21366198 -0.13364783 -0.011850152 0.363477 0.03953791 -0.28005403 -0.04876414 -0.08474139 0.1258801 0.103972204 -0.28089082 0.2988767 -0.028104434 0.15279242 0.47626597 -0.25321597 0.1778563 -0.0783463 -0.015371154 0.05692545 -0.21267532 0.21382226 0.11847007 0.36792228 -0.13609993 -0.24519809 -0.042249463 0.07349193 -0.3442843 0.24967863 0.18727738 -0.37003005 -0.07262399 0.12732874 -0.12843181 -0.0060120737 -0.28215134 -0.059182674 0.4698041 0.066607095 -0.70466435 0.028554907 0.37551466 -0.0150897205 -0.019923653 0.24490026 -0.2287816 0.33772424 0.21518388 -0.04865367 -0.52431 0.08468443 -0.36805898 0.5055808 0.10851603 -0.22618283 -0.4891643 0.093646154 0.002673877 -0.22327513 0.27552202 0.07451284 0.42820942 -0.031900235 -0.0031634276 0.08771418 -0.3816257 0.283526 -0.21972 -0.21578637 -0.06264907 -0.04981507 -0.12343956 0.034818064 -0.18698074 0.07130179 0.25617838 0.07989224 0.13630635 -0.12119359 -0.19497296 -0.061247952 0.017539509 -0.19224094 0.24071568 0.12565671 -0.25805157
14 -0.1258735 0.2934207 0.053029366 0.3858967 -0.009021786 -0.16150172 0.17546453 0.23465197 -0.22549017 0.37438184 0.44724837 -0.31327748 0.22035007 -0.51671517 0.23501188 0.16538867 -0.39411986 0.06634636 -0.22875412 0.1027542 0.32569227 0.4299498 -0.469323 -0.1957538 -0.3600504 0.3577044 -0.18968195 0.10479 -0.15556122 -0.08594315 -0.14246178 0.009256836 0.20462276 -0.033230145 -0.08922513 0.08748726 0.34688905 0.40754434 0.33533093 0.12681061 -0.22213645 0.21191365 -0.0559537 -0.16423982 -0.29983374 -0.034934726 -0.24054693 -0.21939148 0.28086096 -0.17145695 0.42445782 -0.015117666 0.14354497 0.35681263 0.14760402 -0.45216143 0.4455084 0.017042631 -0.3521406 -0.17016137 0.0028001603 0.1332084 0.30471805 -0.09962461 0.11334057 0.04012045 0.22624657 0.4281904 -0.021954056 0.14109907 0.197545 -0.16549706 -0.50302124 -0.028927693 0.5279802 0.0041562994 0.006011535 -0.15567975 -0.20630379 0.21658944 0.32965672 -0.23317793 0.2783556 0.5807237 -0.05293161 0.16535026 -0.0939745 0.0024164254 0.16013259 0.43314213 0.07786088 0.04287165 0.07564137 -0.35276014 0.120883115 -0.23898803 -0.6502002 -0.42951077 -0.090944864 -0.20926088 -0.23150823 0.030057233 -0.057656333 -0.045338012 -0.12476292 -0.041779134 0.19362676 -0.10733736 0.05161773 -0.435337 0.3775317 0.04555674 0.2808516 0.3956052 0.35044962 -0.10718532 0.4407618 0.07120361 -0.07110106 0.07140804 0.020763364 -0.07169448 0.23532301 0.09981892 -0.0030052771 -0.7014493 -0.16468656 0.021463051
569 -0.16990058 0.27744955 -0.04616881 0.14844808 -0.07172023 -0.095386565 0.07693105 0.11165611 0.02202682 0.116723806 0.3018281 0.006758138 0.027649427 -0.5262047 0.1133104 0.14406644 -0.3477059 0.28835747 -0.016840408 0.07699748 -0.028183335 0.083238885 -0.37032497 -0.07041668 -0.3103666 0.10130604 -0.34279293 0.024992852 -0.16466391 0.25085014 -0.13478965 0.18030128 0.12669027 -0.36622667 -0.23556963 -0.107893005 0.1919557 0.30244228 0.34322882 -0.20995316 -0.4750551 0.2851528 -0.038940378 -0.008922948 0.035099454 0.2544441 -0.43899304 -0.05300334 -0.17727983 0.2531421 0.124975875 -0.25185904 0.15404616 0.22126532 0.51479405 -0.20474626 0.38478974 0.07472037 -0.07823538 0.1922723 0.11884716 -0.067244925 0.43422684 -0.19334026 -0.04764429 0.19686757 -0.1627036 0.17970206 0.18439108 -0.008999776 -0.034802467 -0.14234887 -0.6980279 0.106321 -0.25011995 0.11611641 0.31401214 0.23229387 -0.22797339 0.3822073 0.15808809 -0.42413718 0.46592867 0.4584674 -0.120427884 0.37176764 0.070640974 -0.25567967 0.32097545 0.20089558 0.031922277 -0.02826163 -0.01515356 -0.29431218 0.006012245 -0.09161137 -0.3708177 -0.14180653 -0.15786988 -0.17837204 -0.2942063 -0.37299094 -0.154038 0.20187283 0.12038165 0.12468257 0.097603485 0.06025837 0.05477284 -0.32222813 0.4484832 -0.13551538 0.21789414 0.52626425 0.3996559 0.0001552203 0.5152911 0.0051012505 0.15563227 0.40153387 0.21664122 -0.23093772 0.07033066 -0.24495779 -0.029754981 -0.55451286 0.2599134 -0.41192904
176 -0.29323465 -0.10106034 0.391069 -0.09466519 -0.046154086 -0.09904846 0.41406152 0.1696328 -0.12394376 0.2807668 0.25687307 -0.27868617 -0.5366214 -0.51812744 -0.074693725 0.32685715 -0.29761285 0.10558775 -0.100383244 -0.31996697 -0.12655395 0.006177704 0.13545616 -0.5862093 -0.06173023 -0.0080486685 -0.192108 0.017320951 -0.21903886 0.15115176 0.16041905 0.13777466 -0.123759985 0.033741716 -0.21092784 -0.27315116 0.8354769 0.0020047103 0.12248229 0.17211568 -0.25703737 0.10653366 0.29449645 -0.18388204 0.10357 -0.033407964 -0.25982517 -0.041246537 -0.045467153 0.3539646 -0.06328604 -0.043583535 0.22182906 0.26040187 0.27435443 -0.09067325 0.41399172 -0.2663276 0.09554453 0.37896466 -0.08632921 -0.0024495772 0.07214638 -0.3278097 -0.13182989 0.18879826 -0.045123346 -0.119739346 -0.060807984 0.12913321 0.41400504 0.08274211 -0.1861479 -0.17516138 -0.06636594 0.18751672 0.32498342 -0.23925455 -0.40859467 -0.022966225 0.044721644 -0.18872182 0.38112143 0.6583871 -0.37375686 0.4101852 0.22400399 -0.052357867 0.21450357 0.13626903 -0.24391854 -0.13407828 -0.0147232 -0.275046 0.38263038 0.26865125 -0.33663478 -0.33933634 -0.028971551 -0.16667885 -0.3929926 -0.02633221 0.020248106 0.4618952 0.029020239 -0.27063316 -0.039230254 0.012873523 0.24958591 -0.118834175 0.28814334 -0.28093767 0.15114178 -0.04721632 0.0302302 0.03570152 -0.046080954 0.13811602 0.19202346 0.18618533 -0.06424654 -0.16877182 -0.09514009 0.031517543 -0.18117745 -0.17210235 -0.23734826 0.013393702
1014 -0.22527465 -0.24252008 -0.1317847 -0.26807955 0.5073996 -0.050469633 -0.12028308 0.06741226 0.0714765 0.36409646 0.40207577 0.08294117 -0.6608185 -0.3523219 -0.04834253 0.22067615 -0.33352122 0.5485429 -0.2673988 0.14713715 -0.23512608 0.41837364 -0.15863694 -0.04447953 -0.069235496 0.081980176 -0.24635768 0.19471687 0.06320769 -0.07274646 -0.0132710505 0.26619858 0.19170065 0.08573378 -0.13281272 -0.19236375 0.6896364 0.3673629 -0.044495363 0.10116284 -0.07962409 0.027037261 -0.1992212 0.27132773 0.016964061 -0.09434731 0.053569105 -0.15764762 -0.3598831 0.074474804 -0.09549137 0.010308254 0.5620841 0.08697083 0.27903196 -0.031450287 0.13482547 -0.14039867 0.32355756 0.29252943 -0.21419494 -0.21015067 0.05785153 0.022718385 0.4420851 -0.121740475 -0.012518326 0.029480152 -0.118802354 0.28057307 0.2927395 -0.16303085 -0.2294711 0.030855764 -0.4129741 -0.13374066 0.12875716 0.15696879 -0.45045733 0.17779815 0.12923042 -0.076815985 0.22802432 0.5512396 -0.07876416 0.33593383 0.20763423 0.17519096 0.15114196 0.6314253 -0.1455499 -0.37815815 0.19719392 -0.23903233 0.3034012 -0.41437134 -0.047306716 0.16259347 -0.2522775 -0.28055015 -0.13929081 0.09191585 -0.03573623 0.4892904 -0.07010588 0.011167129 0.025088787 -0.013662241 0.33932087 -0.2006216 0.0070550037 -0.055887695 -0.11258677 -0.18113795 -0.051351424 0.21394765 0.06388869 0.17617023 -0.14380814 -0.06908193 -0.6684182 0.07979555 0.30932736 -0.1555112 -0.06723012 -0.22286892 -0.1812608 0.30672368
177 -0.43559325 -0.09340392 0.29755896 -0.11423725 0.0791256 -0.22430904 0.3128107 0.28503254 -0.025711855 0.112489656 0.33650443 0.0642763 -0.35779405 -0.611777 0.21665174 0.37091255 -0.091711715 0.110260956 -0.28098378 -0.43817165 -0.006112655 -0.21407814 -0.03603512 -0.5414609 0.23136997 -0.10716924 -0.40072054 -0.2543108 -0.45932978 -0.32258168 0.31517223 0.12951723 -0.27712044 -0.26209012 0.1848776 -0.16607475 0.399878 -0.049685817 0.51811206 0.19137245 0.021911431 0.2869868 0.11266392 -0.049467135 0.29562232 0.21958086 -0.16554059 -0.23932351 -0.105415426 0.14312328 0.2882747 0.039757088 -0.097093865 0.30836016 0.4578498 -0.35404795 0.48033985 0.10445661 -0.27176908 0.13983181 -0.11266343 -0.068654485 0.06059007 -0.19818136 -0.002021303 0.04004004 -0.3389129 -0.21293919 0.09776349 0.2619008 0.24792926 -0.33602038 0.04444605 0.37124273 -0.16995163 0.115077056 0.28384888 -0.32080147 0.034139484 0.31187695 -0.07936059 -0.41691348 0.23814464 0.6882654 -0.16303998 0.43319365 0.011802316 -0.21606421 0.22610295 0.22931753 0.16452569 0.07042578 -0.2223774 -0.22283642 0.2442139 -0.01153494 -0.16033863 -0.44007546 -0.12895401 -0.37002304 -0.5263667 0.022407806 0.021370383 0.4072127 0.16284859 -0.14084718 -0.11945324 -0.09437015 0.2620419 -0.3256193 0.15318766 -0.4999553 0.21286184 0.28033414 0.14922965 0.026977787 0.28116113 0.32481804 -0.0356638 0.4757853 -0.29051924 -0.16891874 0.20529164 0.1753929 0.078464694 -0.21940687 0.013271382 -0.21989271
3 0.3681582 -0.4322555 0.15473294 -0.020468954 0.3512469 -0.38179192 0.14118423 0.33224478 0.10071912 0.6208549 0.38340387 0.10171731 -0.303178 -0.18566765 0.5165783 -0.25514662 0.25567698 0.24887738 0.15276155 -0.13948096 -0.31966665 -0.11232941 -0.5607008 0.036395777 -0.22022748 0.20996374 -0.3124257 0.08028805 0.48940775 0.013713128 -0.09729173 0.54445964 0.016083634 0.34745395 -0.090764344 0.002807968 0.43954995 -0.08490645 0.22579579 0.39550453 -0.06584931 0.1573169 0.11318179 -0.054733288 0.27559584 -0.16706589 -0.38670358 -0.029472658 0.08285937 0.15147863 0.13903989 -0.35869354 0.1410502 -0.048842575 0.23228328 0.45855245 -0.18487644 0.22330306 -0.028147195 0.029515767 0.13242841 0.17864205 0.49176237 0.08128681 0.18559949 -0.13044563 -0.23880154 -0.1111721 0.20420109 -0.23262492 0.22886468 0.01266197 -0.27137744 -0.052523278 -0.11973223 -0.44884747 -0.093661405 -0.22344795 -0.13349663 0.58609194 0.13535728 -0.62052625 -0.04441497 0.11325571 -0.11173226 -0.19513789 0.31498614 -0.1404687 0.44247743 0.344448 -0.017923381 -0.41909748 0.08207639 -0.24908103 0.34222248 0.05924712 -0.21665132 -0.62090737 -0.0034197597 -0.3335422 -0.047739748 0.19311832 0.19234791 0.24359657 -0.08014723 -0.26951078 -0.2023658 -0.14784367 0.48972204 -0.27042773 -0.29303485 0.20520209 -0.11671223 -0.11254986 0.12541533 -0.022570238 -0.04082258 0.24468035 0.015458175 -0.044640936 -0.3283657 0.03805238 -0.21675915 0.10145891 -0.14098927 0.19769956 0.08099874 -0.255041
508 -0.15327805 0.004511035 0.14835267 0.41943538 -0.027181339 -0.1629542 0.2717699 0.35049748 -0.09330371 0.00031892094 0.27177066 0.28303275 -0.29691386 -0.3795967 0.42254558 0.19088194 -0.2274401 0.47453436 0.35366026 -0.23745683 0.18460785 0.14304285 -0.1696686 -0.25479147 0.088085994 0.24529465 -0.21023636 -0.21074848 -0.013493984 0.15305643 -0.12034418 -0.01626281 0.08975389 0.0026026655 -0.033080753 0.24534634 0.80563337 -0.16689683 0.32663435 0.14058794 -0.31388864 0.46467876 0.059811935 -0.22880918 -0.2543186 -0.17419992 0.053418636 0.07024292 0.0654815 -0.021723732 0.15864868 0.2509821 0.17433424 -0.118376076 0.13977808 -0.0011125933 0.17291778 -0.28521043 0.16290447 -0.10480611 0.2305501 -0.36018485 -0.08749477 0.15411788 0.22612183 -0.04873675 0.10531117 -0.033849493 -0.0471806 -0.40801138 0.048905607 -0.1749047 -0.37957495 -0.016531056 0.18221273 -0.15125862 0.22966243 -0.2207648 0.057717007 0.21888058 0.23395666 -0.17310159 0.110991485 0.15860523 -0.1444185 0.1841575 0.16614412 -0.07641274 0.68535453 0.10894802 -0.42077836 0.27338374 -0.105404824 0.03137694 0.16901277 0.3547945 -0.33286414 -0.1417872 -0.010787337 -0.22837648 -0.012142632 -0.48774204 0.15563682 0.17144632 -0.30046052 -0.050260305 0.110139124 -0.03458869 0.1833259 0.012026491 0.30026278 0.10345298 0.36193833 0.41993207 0.45686653 0.021126192 0.25845334 -0.06321124 0.25146708 0.33221924 -0.36214834 -0.11075159 -0.033388335 -0.17628092 -0.21459036 -0.43204618 -0.186563 -0.5905596
258 0.01163056 -0.6273917 0.09779439 -0.15738554 -0.36862013 -0.26262373 -0.012222019 0.18950528 0.24209332 0.22064473 0.39190686 -0.13745435 0.09285527 0.105711326 0.5013366 0.41019958 -0.30088326 -0.13911194 -0.030940317 -0.35120627 0.43567255 0.49654603 0.10169634 -0.5010606 0.31597283 0.1115386 -0.012715408 -0.12719157 0.52781457 -0.058339756 -0.47782466 -0.06941335 0.58800197 0.098743714 -0.19128855 0.36339164 0.60274136 -0.31322345 0.14260152 -0.26622647 -0.15331006 0.15172094 -0.054867815 0.26760346 0.27445227 -0.10486231 0.011217457 -0.08572754 -0.0175198 0.3107572 -0.13719231 -0.03212945 0.47599563 0.042909242 0.14636609 0.31318796 0.7135224 0.3181677 -0.18766043 0.24217804 -0.31742695 -0.12601945 0.029761374 0.16853513 0.090450026 0.16863908 0.1336289 0.1486937 0.15446939 -0.2718786 0.25484827 -0.41443 -0.2963385 -0.24511069 -0.1263864 -0.21100944 0.15889707 -0.15150122 0.03661267 0.26395255 0.1830574 -0.15997589 0.27584004 0.29716468 -0.10928511 0.53660893 -0.07027508 0.02622355 -0.12304339 0.03816098 -0.6436057 -0.36603713 0.08345252 -0.31379223 0.07767413 0.10762315 -0.17813693 0.012028738 -0.12490249 -0.034075446 -0.17490093 0.23262742 0.25160277 0.58945775 0.09528154 -0.1319197 -0.07919829 0.20018032 0.09578522 -0.6066055 0.5078595 0.00094560924 -0.3192134 0.30779934 0.12032696 -0.13901763 0.1593964 -0.017164722 0.027535256 -0.29535243 -0.6886404 -0.21763551 -0.27923426 -0.40971908 0.5650205 0.05689729 -0.46928072 0.094345614
734 0.43684623 0.1558196 0.034352303 -0.013078046 0.43591166 0.06184742 0.35024878 0.21686757 -0.14612095 0.21118091 0.5745115 -0.3729958 -0.74168926 0.13815844 0.17825183 0.36232093 -0.12927535 0.13570768 -0.37324777 -0.040809356 0.29121032 0.5778594 0.11909906 0.19153108 -0.31496862 -0.08933288 0.18901968 -0.5227748 0.013027705 0.043599445 -0.5797994 -0.12619838 0.63205796 -0.043682676 -0.22599792 -0.12232912 0.6807973 0.24295421 0.067360274 0.17327483 -0.1334368 -0.020064598 0.12710424 -0.04104405 -0.17243123 0.55726045 -0.2391751 -0.11460983 -0.43550247 0.465007 -0.33133352 0.21871 0.27517226 -0.038290143 -0.02080065 0.011217595 0.42339814 -0.6164904 -0.14771566 -0.088784896 0.3152187 -0.20094551 0.52399904 -0.041790605 0.17680304 -0.02554603 0.088712595 0.38350472 0.076980665 -0.2423695 0.65301347 -0.12808515 -0.63112885 -0.09486371 -0.14772412 -0.04911839 -0.25553843 0.25237298 0.38237947 0.13284855 0.50091624 -0.61530584 0.30336642 0.4830598 0.03935732 0.37023583 0.1505262 0.21585383 0.47275758 -0.026407354 0.33928835 -0.3558958 0.17601018 0.07616072 0.17996874 0.18502882 -0.20485346 -0.10304011 0.0394442 -1.1408628 -0.5482069 -0.117206104 -0.17380613 -0.05549291 -0.4007698 -0.037804935 0.326325 -0.081357524 -0.24833576 -0.2558483 0.097636886 -0.33671495 0.24292797 0.4506543 -0.47433844 -0.2801676 0.14853626 0.14588287 0.08799432 0.43376857 -0.26762947 -0.10850533 -0.10851694 0.17812192 0.17244795 -0.01808362 -0.23798339 0.35865375
89 0.19945972 -0.44854227 0.21133253 -0.17802063 0.14032401 -0.033774193 0.00786292 -0.15512738 0.083687656 0.2957427 -0.08435359 -0.052223925 -0.16312607 -0.12053578 0.028497808 0.1481708 -0.33463004 0.37485242 0.23536457 -0.320281 0.24844585 0.49899447 -0.19211356 -0.20058198 0.06421366 -0.070781484 -0.10769418 -0.15245722 -0.19952902 -0.53228045 -0.026859704 -0.12948571 -0.13665493 0.4271189 -0.21719196 0.1351378 0.5323917 -0.23236589 0.5116326 -0.46120757 0.27224118 0.18703973 0.061044514 -0.14673573 0.14094302 0.22682172 -0.28835234 -0.19954558 -0.2101078 0.27875248 0.30964553 0.17606826 0.08827318 -0.3137482 0.02819273 0.5609594 0.3281958 0.22283444 0.10930408 0.07362765 0.0060148863 -0.1157801 0.21708645 0.094104365 0.1110443 0.26747024 -0.3093652 -0.0010691126 0.14066844 -0.20463064 0.103682496 -0.104056634 -0.5785936 -0.3939963 -0.08927116 -0.2759177 0.44964537 -0.2014782 -0.1133688 0.3994343 0.03591291 -0.119702965 0.37388906 0.44934878 0.117059454 0.28242832 0.07225608 0.13987201 -0.04355774 0.55526716 -0.040827416 -0.24464492 -0.011623269 -0.55555725 0.13951641 0.053152565 -0.20801839 -0.5273942 -0.30952963 -0.53444004 -0.2863559 0.24527109 0.3137073 0.28343567 -0.03776586 -0.16862871 -0.16562714 0.3925301 -0.08944553 -0.27329463 0.032628454 -0.021285947 -0.12411904 0.23555185 -0.0590455 -0.22000045 0.03425273 0.1800687 0.42892084 -0.09602638 -0.5732866 0.11684524 -0.011728465 -0.18762349 -0.1283892 -0.018846951 0.055927057 0.21972978
308 0.037217885 -0.20073056 -0.06890098 0.103014335 -0.09564839 0.2487758 0.3298978 0.3249052 0.29800713 -0.058139455 0.12929933 -0.004945027 -0.20688131 -0.38752505 0.26683503 -0.023826823 -0.05669915 -0.062830105 -0.19656914 -0.46836656 -0.50761455 0.39916608 -0.018106326 -0.34138918 -0.30055523 -0.15575737 -0.12358344 0.0118827 0.065181024 0.16331822 0.1607718 0.24307379 0.040810883 -0.20099367 -0.39780033 -0.299667 0.3450238 0.1616475 0.019037217 0.35147542 -0.10476104 0.41127244 -0.20440778 0.2734086 0.40573695 0.35917544 -0.26739195 -0.23179449 0.12847292 0.19840175 0.4104624 0.097236104 0.4928944 0.18955283 -0.11179843 0.04330795 0.09131448 0.12234824 -0.23789582 0.06602924 0.086439274 0.4363614 -0.032734063 -0.33474028 0.1434612 0.037329085 -0.6575299 -0.38401774 0.23359028 0.111157544 0.3187158 -0.62054753 -0.4320978 -0.0031995433 -0.31957147 -0.073214315 0.037442595 0.077504486 0.107974604 0.19226418 0.31488833 -0.018703973 0.5592256 0.2681106 -0.15726689 0.30313185 0.13953051 0.26155797 0.49422014 0.19216356 -0.15145616 -0.24138844 0.31710768 -0.27945814 0.32817328 0.21129279 -0.057751685 -0.4021716 -0.2816654 -0.05430329 -0.13256013 0.08574203 0.23745947 0.44688138 -0.15158696 0.09496178 0.07962645 -0.21755736 0.2914446 -0.10030302 0.35361657 -0.21088614 0.10591761 0.18254556 0.51560694 -0.2885495 0.0100148255 0.30276823 -0.40976253 0.018982511 -0.13583271 -0.042353243 0.17978556 -0.044713136 -0.25418338 0.024109898 0.18425351 -0.28993446
1559 -0.24156493 -0.2747603 -0.12221115 -0.13494347 0.44137734 -0.2696529 0.3883475 0.44207343 -0.13983993 0.43005925 0.28657112 0.28992552 -0.15241143 -0.32192865 0.5167279 0.25766078 -0.4497807 0.18064287 -0.19565994 0.3149164 -0.07152846 0.21415737 -0.09741162 -0.18170238 -0.11850875 0.15445113 -0.44261628 0.115908794 -0.052756 -0.12611231 -0.049148474 0.15738648 -0.08754571 0.10972281 0.017811466 0.1341079 0.5909581 0.826147 0.49714717 -0.58750427 -0.01543993 -0.121998906 0.016983392 -0.15072632 0.14043681 0.20241117 -0.19740343 -0.0016467586 -0.17942739 0.32226628 0.12411621 0.15330708 0.39878955 0.3659723 0.2633478 -0.05657075 0.25129104 -0.16214846 -0.13337642 0.10693029 -0.0054955464 -0.007885158 0.2521642 0.1594504 0.1523302 0.23458308 0.14482127 0.08287399 0.21546187 0.2994609 0.45091602 -0.18669797 -0.4022555 0.029659688 -0.16053952 -0.26388302 -0.26053336 0.23227486 -0.09951633 0.058862966 -0.07490235 -0.28011522 0.12966579 0.20085742 -0.07051472 0.09086793 0.22008945 -0.20507486 0.40095192 -0.032323185 0.12598422 -0.24067345 -0.117793165 -0.44299835 -0.039005134 -0.026093347 0.048446566 -0.023371693 0.33956313 -0.4045146 0.035726104 -0.046306677 -0.20832777 -0.18555708 0.07096314 -0.120215274 -0.18279861 0.0019030672 0.049882703 -0.48202163 0.36557108 0.1470446 0.7239652 -0.12022566 0.037236296 -0.11850611 0.4127087 0.4518069 0.26741263 0.19112495 -0.3731357 0.083166815 0.11876794 0.016512964 -0.052315645 0.08953978 -0.18879887 0.34408966
43 -0.15993787 -0.57954913 0.21876541 -0.034095224 -0.23961695 -0.10171815 0.094297245 0.013508209 0.016971292 0.2744062 0.12318417 -0.32180482 -0.2842472 -0.54857844 -0.13943845 0.3667638 -0.36332926 0.09016013 -0.107433215 -0.19463871 -0.30682558 0.41888797 -0.14530815 -0.36437157 0.10813635 -0.25948653 0.023999019 0.1826205 -0.20841798 0.03349933 -0.48653832 -0.015306808 -0.27762067 0.28544942 -0.11118876 -0.109192476 0.8286401 0.05415113 0.20668606 -0.34677902 -0.14447977 0.4554227 -0.0052806316 0.10173141 -0.111656755 0.31837323 -0.048810206 -0.21068718 -0.26480386 0.422966 0.19892032 -0.18941359 0.30241278 -0.081099756 0.27100936 -0.1427474 0.43585435 0.06436438 0.3368858 0.31704736 -0.096996166 -0.10905251 0.18818697 -0.0010149023 0.04393185 0.6225015 -0.28119147 -0.0032282886 0.25021383 0.06536964 0.2934194 0.077771775 -0.1628089 -0.44118413 -0.21457513 0.1929283 0.1843584 -0.14481021 -0.46232656 0.098905966 0.20060183 -0.3826349 0.30002812 0.64806944 -0.48766497 0.2635244 0.26079 0.0044879396 -0.11602355 0.10796451 -0.41430596 -0.29615057 0.2200264 -0.3782905 0.11173519 0.1070183 -0.11106101 -0.27604282 -0.34835362 -0.37535116 -0.1320931 0.27630135 0.10749355 0.23119971 0.021371393 -0.069007136 0.20590036 0.27951238 0.10094027 -0.02449836 -0.054360636 -0.19403815 0.4260979 -0.21385488 0.085280605 -0.04854547 0.08080704 0.27143937 0.0961159 -0.1262018 -0.32833844 -0.16070305 0.065776065 0.17437924 -0.1661976 0.07992772 0.004908493 0.1251728
635 -0.069873564 -0.58036494 0.13905585 -0.066847205 0.08073651 0.020670153 0.5090787 -0.22933255 -0.11524891 0.62344694 0.46749735 -0.23024909 -0.2947857 -0.30645832 0.3574604 0.19934908 0.15454726 -0.12783459 -0.24583982 -0.15139556 0.22108032 0.12934855 -0.72307265 -0.15803549 -0.29398263 0.1804842 -0.17810158 0.0843363 0.16601738 -0.18432735 0.041825186 0.22812955 0.088354655 0.83017784 0.05158148 -0.19701421 0.3943859 -0.48507246 0.13245331 -0.23662901 -0.24162298 0.3584451 0.04270588 -0.20634341 0.2390822 -0.064986445 -0.42623165 -0.1138685 -0.14339495 -0.10674689 0.16682371 -0.14586943 0.38586852 0.09984208 -0.01287806 0.20772168 -0.13703522 -0.13256523 0.08001994 -0.12082174 0.11834061 -0.18363047 0.06856307 -0.22171158 -0.11916049 0.007317514 0.039385784 -0.13268091 -0.09195058 -0.120643385 -0.12902781 -0.029914545 -0.62515944 -0.034837544 -0.2926717 -0.33091238 0.30192137 -0.20578119 0.13782127 0.19990066 0.2938088 -0.43486506 0.6417074 0.09647301 0.47729692 -0.15186955 0.31043586 -0.2473896 -0.0027087806 0.22455834 0.050671615 -0.5383523 -0.1484506 -0.33460155 -0.02314439 0.32801858 -0.135707 -0.47276825 0.07563329 0.04080234 -0.2355784 0.44559792 0.058032457 0.53966796 -0.01438139 0.20441318 0.24186258 -0.049395274 0.0056894883 -0.25891444 -0.07206987 0.4633722 0.24688512 0.03300015 -0.15288258 -0.056613527 0.33588526 -0.07823493 -0.23768748 -0.5426386 -0.15154977 0.16814819 0.2174088 0.13270418 -0.21517676 0.25831532 0.10059969 -0.3765525
15 0.11275875 -0.119389184 -0.275226 0.18219389 0.23360485 0.3064904 0.13420242 0.55912477 -0.0034939605 0.47370753 0.40076458 -0.09839624 -0.3060617 -0.47799098 0.38672966 -0.029275045 0.5081208 0.40911913 -0.19364858 0.0491376 -0.20184623 0.099831365 -0.21247952 -0.37525254 -0.14354959 -0.16847564 -0.15899086 -0.57071227 0.11225646 -0.2843238 0.0663654 0.34920034 0.38594285 0.12179328 0.04672539 0.5573002 0.30439046 -0.014662475 0.07809812 0.034127254 -0.28565806 -0.042776167 0.21905474 0.12517971 -0.36644667 -0.15686072 -0.22979504 0.034944005 -0.21754764 0.24907254 0.4802539 -0.17964014 0.23609853 0.1256858 0.11839462 0.36542678 -0.23618627 -0.05418449 0.09754863 0.19426627 0.14387786 -0.13502887 0.2335784 -0.06535625 0.024399612 -0.51804423 -0.23813763 0.0698167 0.2689694 -0.2762621 0.24694549 -0.016161194 -0.31644446 -0.11649594 0.24406424 -0.45760068 -0.04887668 0.18413316 0.07048461 0.28781775 0.13641472 -0.6837384 -0.088290974 0.18905328 0.2251438 0.29057434 -0.024591113 0.20139776 0.39117986 0.30967486 -0.058048934 -0.28589118 -0.3430256 -0.40208617 0.47678664 0.010084602 -0.13613921 -0.49956086 -0.1954652 0.0033705735 -0.13822734 0.17897962 0.13845424 0.10530465 0.03433006 0.109891735 0.42156503 -0.15936364 0.09235003 -0.41129944 -0.067081384 -0.09424801 0.36631235 0.030880734 0.009295415 -0.03748235 0.341361 0.48478007 0.1652514 -0.25286043 -0.24585098 -0.04383827 -0.18994124 0.34417632 0.053404268 0.36134058 -0.13527529 -0.2024265
689 -0.23961261 -0.26985154 -0.08075436 0.18302234 0.6501304 -0.101360194 0.3111462 -0.10637368 -0.042534385 -0.15633918 0.3355443 0.30356708 0.03681827 -0.5360673 0.05089864 0.21203628 0.029363656 0.55830425 -0.42639014 -0.14967363 -0.35727835 0.070297174 -0.13406579 -0.58449805 -0.29177544 0.13102037 -0.4054069 0.44308743 0.28486738 0.13799956 -0.25704452 -0.05424006 0.13547906 0.049260546 -0.36463648 0.102432735 0.47176242 0.020872306 0.40921623 -0.04452914 -0.16043685 -0.033565026 0.023759369 -0.22986342 0.41785824 -0.06084355 -0.14435163 -0.28576687 -0.3621484 0.297572 0.042828266 0.40815923 0.48658487 0.28093207 -0.1450305 0.178018 0.60975444 -0.34348714 0.08367708 0.0029293082 0.19404928 -0.016526336 0.34960124 -0.19467714 0.32198048 0.10165982 -0.05352327 0.40261766 0.36480188 0.14546047 0.49265978 0.11421406 3.6379904e-05 0.0225636 -0.07497819 0.006021304 -0.14214364 0.07277915 0.10426187 0.46445867 0.28606817 -0.58108485 -0.10827186 0.4309467 -0.14863546 -0.14466095 0.45217973 0.006847479 0.076722674 -0.2173428 0.22734153 -0.6589289 0.0038375433 -0.04832359 0.016760545 -0.37105197 -0.051742088 -0.21633673 0.1001179 -0.5351746 -0.3075964 -0.23044881 -0.035307016 -0.24496157 -0.2903322 -0.12721348 -0.13008784 -0.27588946 -0.19083898 -0.17085896 0.1923888 -0.08703561 0.49266174 0.19507915 0.023674594 -0.48336226 0.42916074 0.3236032 0.28039303 -0.17660567 -0.52335626 0.041145403 -0.14282109 -0.11413487 0.07234527 0.033700738 -0.23057817 -0.27380773
70 -0.115427226 -0.4409522 0.12662004 -0.28430519 0.44486743 -0.20985354 0.026094098 0.34353307 -0.16468051 0.4724488 0.22351386 -0.3524979 -0.10829074 -0.60173684 -0.3117975 0.31436145 -0.013155138 0.04029834 -0.32800436 0.15105966 -0.054573502 0.1732908 0.18231547 -0.26889643 -0.06984505 0.060374882 -0.38271648 0.40255558 -0.042464677 0.042497687 -0.25709295 0.18698096 0.12266141 -0.09954603 -0.30606225 -0.4306786 0.51727617 -0.2178658 -0.05371387 -0.24061596 -0.23875076 0.048841696 0.0936074 -0.08135162 0.030853743 0.18938068 -0.13814038 -0.16054474 -0.46802497 0.19030303 0.06032183 -0.039284237 0.18914206 -0.041588865 0.47492456 0.022685884 0.4970981 -0.2602877 0.44610813 0.5019267 -0.2369049 -0.051250596 0.020653516 -0.018140757 0.22109501 -0.12257855 0.012160779 0.15828227 0.1597285 0.33503115 0.56584436 0.0733901 -0.21764442 0.11997537 -0.274851 0.057039768 -0.14884815 0.020202482 -0.48829293 0.08929412 0.019022962 0.027382532 0.40496236 0.56689656 -0.4471616 0.34566215 0.45283455 -0.020524157 0.24174888 0.27919084 -0.2303594 -0.0517177 0.036578067 -0.26889855 0.5098045 0.17767724 -0.21146992 -0.15352789 -0.3635353 -0.20506807 0.015004515 0.39218217 0.18400727 0.2577432 -0.05270845 -0.18608014 -0.04888963 -0.0024203744 0.20259063 -0.29219913 0.29518843 0.03356555 0.07009773 -0.16078116 -0.055518802 0.09324431 0.20702484 -0.0019116859 0.035999477 0.15788932 -0.5330338 -0.18718386 0.1795764 0.33073708 0.029143462 -0.096671835 -0.18923591 -0.025090506
103 -0.36493903 0.07934764 0.006266452 -0.04042211 -0.2575491 0.07533587 0.3175673 0.03802645 -0.0042237616 0.30403033 0.3370553 -0.010628083 -0.16483118 -0.40348217 0.2831258 0.15963586 -0.1695585 0.14186455 -0.10180688 -0.5807883 -0.4114015 0.18477437 -0.1998498 0.053647146 -0.2739235 -0.0750832 -0.4419832 0.03875741 0.02273952 0.17149268 0.3255983 -0.12800643 -0.30566436 -0.15669383 -0.35125673 -0.1685175 0.47323316 0.23198394 0.4244985 0.340387 -0.21534179 0.14297336 0.18505521 0.26160556 0.4069738 0.27027163 -0.38461214 -0.20048313 -0.07031853 0.09777812 0.4082089 -0.07055333 0.049346447 0.25020278 0.18941665 -0.15642664 0.5646482 -0.3055422 -0.25169972 0.031263944 -0.229106 0.049847655 0.22374584 0.07596304 0.19264261 -0.23288447 -0.25315514 -0.23030388 0.4876404 0.1710473 0.01604824 -0.26500145 -0.19577464 0.19439508 -0.25390768 -0.004632863 0.008661758 -0.057076577 -0.106374115 0.2356495 0.14243604 -0.20274818 0.5768601 0.49423075 -0.38465074 0.2536398 0.043140534 -0.17365132 0.31149212 -0.02663438 -0.19178738 -0.4456647 -0.024797665 -0.37130743 0.26642627 0.043097455 -0.06902506 -0.3341948 -0.37624794 -0.24395984 -0.44108877 -0.12298794 0.19383587 0.52129924 -0.035473533 -0.14087111 0.1582129 -0.077988185 -0.040296856 -0.031359512 0.28569904 0.013874392 0.15662742 0.45651355 0.10710231 -0.14544009 0.35984752 -0.004656965 -0.39778534 0.13994889 0.0112088835 -0.14850225 -0.10097599 -0.06917414 0.28810135 -0.21772137 0.17754541 -0.3699036
1702 -0.14786012 0.30233017 -0.049795646 0.44138575 0.11371076 -0.20204733 0.3913641 0.16747989 0.024738612 0.44817355 0.44927853 -0.2215261 0.0040973187 -0.43379536 0.3072782 0.10632695 -0.1251382 -0.045274805 -0.095821425 0.14262168 0.5105116 0.42108068 -0.28926632 -0.32297498 -0.58603656 0.57147026 -0.29596844 -0.14729878 -0.15241382 -0.06736277 -0.16810349 -0.2877142 0.2836893 0.2927005 -0.29789323 0.09283565 0.5086211 0.2977921 0.4687466 0.16416694 -0.22811496 0.16367663 -0.18034416 -0.0724402 -0.28556767 0.011604697 -0.21328492 -0.22943175 0.074230276 -0.09378022 0.49583307 -0.099833064 0.032128267 0.14407676 0.2483359 -0.008337933 0.43918628 0.14084665 -0.47989252 -0.30564407 0.033254243 0.12308805 0.11404714 0.086815774 0.015902432 0.033747513 0.23753753 0.36654335 0.05495491 0.030571634 0.17179161 0.12422256 -0.40907893 0.104588844 0.29410547 0.054164104 0.10474713 -0.05579547 -0.29719976 0.3932559 0.2127568 -0.053389024 0.44446024 0.42974862 -0.017293552 0.111130476 -0.042275388 -0.16601655 -0.013478769 0.28471717 -0.0932937 -0.26147366 0.259694 -0.16126621 0.13055891 -0.007976979 -0.65167195 -0.4157412 -0.14050774 -0.13552971 -0.29622146 -0.13929419 -0.12995976 0.17076276 0.08136546 -0.09757129 0.37770262 -0.23158257 -0.030139344 -0.49629572 0.21692078 0.09952721 0.28198808 0.40748468 0.5495666 -0.0681635 0.13383517 -0.073306195 -0.06532806 0.11528719 0.051258344 0.2299774 0.26032227 0.10550245 -0.27231133 -0.5409818 0.035525374 -0.045980528
465 -0.3875285 -0.36773592 0.3613867 0.07974936 0.2607621 -0.056859627 0.010060196 -0.06922061 -0.22916646 0.47388035 0.4375618 -0.32598075 -0.3405473 -0.13911809 0.29005817 0.36685807 0.030204434 0.43061224 -0.007069985 0.2686332 -0.098216675 0.4115303 0.13258044 -0.35006785 -0.4574979 -0.27829334 -0.22080076 0.19029999 0.26793748 -0.15649034 -0.29809988 -0.21305348 -0.14799942 0.112188555 -0.20528488 -0.057836793 0.47612482 -0.21199074 0.2785152 0.08608252 0.19136636 -0.046399716 0.11272377 -0.26709425 0.123331025 0.007439314 -0.20295572 -0.06457216 -0.30506128 -0.13572273 0.32043985 0.24357626 0.24381095 0.13762684 -0.019432232 0.2689101 -0.06572376 -0.112145774 -0.1816039 0.3023956 0.09706511 0.1503373 0.06438422 0.00975527 -0.15490492 -0.2396759 0.03770235 0.106288776 -0.18815279 -0.1462776 0.03482804 -0.002675952 -0.43667832 -0.39935657 0.1825272 -0.37676176 0.38182536 0.007631574 0.19447649 0.05049601 -0.39375412 -0.097594306 0.009980506 0.42132977 0.11599899 0.3649809 -0.06738272 -0.46454117 0.014103778 0.29168013 -0.3971798 -0.22027574 0.4759615 -0.3098596 0.17472856 0.12465266 -0.14033979 -0.52911794 0.078657806 -0.88756734 -0.3687368 -0.13091157 -0.3070374 0.007188637 0.34513232 0.1382767 -0.095187366 -0.11918267 0.27167904 -0.36486426 0.48280376 -0.2629805 -0.006652671 0.28342482 0.4667087 0.11382507 -0.020451885 0.24161913 0.2903784 -0.06325521 0.10205154 -0.09959504 0.4237298 0.12471672 -0.15546595 -0.33970988 -0.24115938 -0.5275524
1560 -0.18451859 -0.24436748 -0.0720281 0.6174162 0.4515878 -0.16678256 0.15851533 0.24848127 -0.017904732 0.2637191 0.023700258 -0.057072066 -0.34954742 -0.63912946 0.059168257 0.31638378 -0.277665 0.11400358 0.09145691 0.21930277 0.2020878 0.38424322 0.023914667 -0.22148141 -0.5240846 0.30182052 -0.098375216 0.28518888 0.54071605 -0.18712798 0.20543347 0.29757103 -0.07535601 0.28063056 -0.22784151 0.4309353 0.49910238 0.21634519 0.103638716 -0.476776 0.11970363 -0.13227527 0.17607148 0.4195732 0.36579657 0.28987238 -0.1103829 -0.019175323 0.26031893 -0.05810695 -0.023598015 -0.10009758 0.4760012 0.38160905 0.011683395 0.0057807295 0.2640272 -0.09390926 0.32945764 0.13279141 -0.092891015 -0.2194138 0.13154179 0.2456844 0.65796465 0.10417439 -0.20974894 -0.26843292 0.50000465 0.27815104 0.3522053 -0.16174997 -0.2661464 -0.0977263 -0.65692276 -0.2508234 -0.041972958 0.09641408 0.26079133 -0.11220772 -0.10074889 -0.4049729 -0.03753182 0.43877077 0.10307228 0.0887138 0.31950638 0.061144765 0.57296026 0.33133948 -0.27352822 -0.12966959 -0.24913484 -0.3344756 0.66025746 0.085457355 0.20076272 0.2543595 0.15926482 -0.084392056 -0.27318665 0.10794568 -0.13973655 -0.07942652 -0.25220326 0.20068674 -0.24764098 -0.1374396 0.1341552 -0.4508991 0.052782383 -0.13894205 -0.06912172 0.03463594 0.24729787 -0.20819587 -0.18669553 0.58608115 -0.0025896856 -0.116606064 -0.49932224 -0.3818093 0.4177441 -0.39508584 -0.021278974 0.08409589 -0.33530724 0.23684937
2160 -0.08281673 -0.12847698 -0.0070512667 0.15036546 0.047361597 -0.23160183 -0.014229151 0.20940825 -0.18003349 0.16296676 0.33419028 0.26822788 0.16929981 -0.73965955 0.5514072 -0.115183935 -0.2905956 0.05799781 0.06356796 0.042994495 -0.29479644 0.3735549 0.32084736 -0.32491156 -0.039580222 0.3806657 0.05909658 0.07470859 0.2819466 -0.46033168 -0.40013242 0.039030362 -0.3297586 -0.025673844 -0.3046791 0.407428 0.5693615 -0.074361436 -0.05946048 0.016306028 -0.020359695 0.4743356 0.03684697 -0.4010764 -0.016294764 0.0575517 -0.083127744 -0.3511367 0.15061827 -0.17045827 0.25010374 0.0062968517 0.11902041 0.2146624 0.011921052 0.08497594 0.11144658 0.04762088 -0.5253879 -0.26221812 0.23257746 -0.19223836 0.20035309 0.13978745 0.20553617 -0.1789562 -0.32703602 0.62789965 0.1639816 -0.3806278 0.15780646 -0.03418124 -0.6593362 -0.25303715 0.015388888 -0.0013646987 -0.08453591 0.35130695 -0.2157545 0.6436456 0.09412821 -0.4300428 0.41706696 0.52612203 -0.07393145 -0.05977477 -0.016059466 -0.13516943 0.033582363 0.005068954 -0.47543487 -0.3425364 0.06676713 -0.04847314 0.5461116 -0.15738347 -0.040157437 -0.060597792 0.18001084 -0.50737494 -0.093260296 -0.03270671 -0.19764003 0.2345363 0.03428847 0.13860174 0.22857496 0.0837433 0.18738878 -0.30631498 0.011643036 -0.0026351053 0.35524854 0.37785432 -0.06558601 -0.09023703 0.20362864 -0.26893997 0.047525372 0.12971999 -0.19455965 -0.011003102 -0.07295327 0.09387864 -0.10668226 -0.34392482 -0.2609248 -0.32603702
431 0.059591852 -0.49044585 -0.07628118 0.7693938 0.26010206 0.23635346 0.1970302 0.17363566 -0.29666242 -0.3043339 0.37167937 -0.043837383 -0.43848693 0.510019 0.43396688 0.09909228 -0.71562356 0.30395293 -0.42467222 0.04039781 0.17946021 0.51393336 0.1598692 0.019293148 -0.30181357 0.6039545 -0.13089317 -0.050303385 -0.37388903 -0.03600551 -0.42939416 -0.31611297 -0.0043977303 -0.11084117 -0.14958736 -0.2219578 0.18962777 0.19312012 -0.3616254 0.025475236 -0.32550168 0.36522973 0.031169593 0.21381193 0.43074125 -0.07187978 -0.22324073 -0.2269593 -0.5490061 0.3389188 0.1513613 -0.0037981858 0.6455978 -0.2253851 -0.12461888 -0.25068778 0.62143385 -0.14198516 0.33683258 0.25221014 -0.32199293 -0.53844255 0.32253584 -0.29469386 -0.017919287 0.19635537 -0.021017801 -0.025845947 0.3093748 0.246389 0.5360356 0.093852885 -0.5047668 -0.47660708 -0.22789401 -0.2056284 0.30243888 -0.26516482 0.083659224 0.4340954 0.34039176 -0.27597243 0.084074125 0.30068728 0.114970125 0.569602 0.34400207 -0.44168735 0.36340836 0.12536275 0.16883819 -0.32970735 0.012382206 -0.19604859 0.44687244 0.090761274 -0.49120513 -0.18470152 -0.029416775 -0.7775236 -0.46803886 -0.095130645 -0.35370266 0.033647906 0.18449226 -0.5131884 0.30569765 -0.036547475 0.19582559 -0.07075337 0.15194774 -0.6518708 0.30671626 0.45044282 -0.115530774 0.15973707 0.20884937 0.23617534 -0.06834448 0.16965412 -0.3200371 0.03367077 -0.12045495 0.4591723 0.2562468 -0.019621417 -0.7019717 0.5124974
2326 -0.29067853 -0.30925703 0.09315667 0.07269697 0.080321886 -0.09915747 0.30082121 0.60086954 -0.00025537048 -0.111472405 0.2062661 0.067642905 -0.1585867 -0.38446164 0.0681903 -0.20486037 -0.2320797 0.251294 0.076812714 -0.2617857 0.039952796 0.015499546 -0.38460016 -0.4086364 -0.019269373 0.4116623 0.16343567 0.07466926 0.18971136 -0.28802937 -0.5112671 0.23575696 0.40685597 0.05856894 0.15514413 0.57051826 0.34189686 0.020359725 0.385091 0.21750197 -0.1604072 0.59099203 0.04436985 -0.2869931 -0.24130772 -0.022052487 -0.07250619 -0.010516416 0.16186939 -0.21975765 0.2698887 0.5070286 0.26375523 0.4504628 -0.019063666 0.14661111 0.007732961 0.010675356 0.14998147 0.06576685 0.07493679 -0.46983716 0.32369775 0.44640672 0.56079894 0.25357538 0.1639742 -0.03801532 -0.20765705 -0.28747734 -0.09638202 -0.10101429 -0.36841992 -0.3926197 -0.2389086 -0.41476712 0.2791153 -0.26888448 0.04261447 0.49300715 -0.3331873 -0.3454144 0.45976308 0.16530518 -0.298432 0.15845598 0.18104967 -0.46404088 0.44227242 -0.22445932 -0.21080424 -0.059866454 0.0432299 0.047238264 -0.10356813 0.21204485 -0.583646 0.05789948 0.096887946 -0.45577878 -0.2663376 -0.26112324 0.37690964 0.21001464 -0.58293444 0.3142238 0.16306284 -0.14650933 0.22850934 -0.40389037 0.41051337 -0.15014245 0.42529443 0.41776463 0.25390822 0.099447854 0.21320929 0.21018447 0.16117741 0.24045132 -0.32216153 -0.17815927 0.08459198 -0.16078885 -0.23564555 -0.2106061 -0.09342582 -0.49742955
71 -0.200417 -0.3705088 0.44518808 0.2635485 0.036086462 0.1556111 0.11823189 0.2194922 0.0028688936 0.15509439 0.17659856 0.039318003 -0.36840805 -0.13949518 -0.08325887 0.2721129 -0.35750392 -0.03294671 -0.19903168 0.5068851 0.1869485 0.23113963 0.3718383 -0.5690868 0.021110233 0.27157155 -0.18148367 -0.110081494 -0.15221922 -0.04077662 -0.1433337 0.26912564 0.23144653 0.33874005 -0.34182653 -0.28314584 0.56536555 -0.06817957 0.17226389 0.2633182 -0.49486282 0.5477042 -0.010808847 -0.101582155 0.24650957 -0.011804139 -0.23913667 -0.052454717 -0.36986813 0.3448401 -0.056744218 -0.18866052 0.13311315 0.27003983 0.41868958 -0.07959825 0.26672253 -0.3814908 0.16961202 0.59191304 -0.4270902 -0.3454147 0.25421026 -0.08145062 0.098301165 0.59438837 -0.07535796 -0.049096208 -0.1366664 0.23490562 0.66808283 -0.23446308 0.035509307 -0.32139248 -0.30600062 -0.12341013 -0.1883461 -0.5126762 -0.09323643 0.37721857 0.35044286 -0.15320471 0.28721392 0.5881398 -0.3189231 0.04179803 -0.010764344 0.08441542 0.33304927 0.0708574 -0.16886622 0.010681141 -0.023835002 -0.33647755 0.33710194 0.005456982 -0.1511981 -0.104145475 -0.30343834 -0.35326514 -0.33684486 0.09326925 -0.034917507 0.1853793 0.2004515 -0.0795282 0.0018647829 0.02497225 0.27251437 0.057685647 -0.03025617 -0.47764885 -0.07807569 0.5525731 -0.09847936 0.029603574 -0.052758716 0.23580292 0.20395365 0.1779127 -0.19383647 -0.15116198 -0.03132999 0.13726428 -0.038581613 -0.074287 -0.39137796 0.020489756
511 0.080811575 -0.42464653 -0.21645258 0.07581171 0.49256483 0.3195403 0.30914629 0.16875626 0.092017435 0.054991487 0.50380856 -0.01819281 0.1519241 -0.70535326 0.35311413 0.47003433 -0.31547362 0.67776346 -0.13774216 0.21537521 -0.107336156 0.33370605 -0.14094317 -0.35338208 -0.18677232 -0.0064671286 0.050030638 0.3802308 0.5453117 -0.33992317 -0.15105082 -0.050513525 0.36045766 0.06510955 -0.17255041 -0.12012471 0.659893 0.2279627 0.025160963 0.008063597 0.017020361 -0.3644362 0.102247946 -0.1593124 0.19434138 0.11025249 -0.07652118 -0.12038069 -0.42606798 0.019094868 -0.113227956 0.02473415 0.05827417 -0.030295018 0.296829 -0.16482203 0.30400035 -0.36543489 0.12310724 0.027460769 -0.0982716 -0.02580526 0.25052193 0.012105437 0.14633405 0.005229343 0.26807326 0.090331584 0.45719177 -0.13134529 0.25289866 -0.20695916 -0.23236747 -0.17580076 -0.17048454 -0.11431201 0.30555448 0.25199136 0.11226589 0.1594387 0.11240708 -0.2926968 -0.060953684 0.2665046 -0.023254922 -0.14164206 0.32554105 0.14112645 0.39094126 0.2210105 0.4001436 -0.67550063 0.11788629 -0.103098415 0.47452962 -0.36455876 -0.13674678 -0.11863322 -0.11183717 -0.2861345 -0.14919727 -0.011491542 0.22878627 -0.0062738345 -0.16388069 -0.048267692 -0.17612128 -0.04953163 0.09316854 -0.04763078 0.21173592 -0.10726311 0.24375609 0.061308917 -0.00595943 -0.21784231 0.10875874 0.208309 0.15218537 -0.03933305 -0.23085521 -0.17190416 0.54926646 0.08640853 -0.2395576 -0.4011084 -0.37002358 -0.08948522
1705 -0.20683928 -0.5417781 -0.022460626 -0.12922873 0.06913277 -0.26013395 -0.1035079 0.34455475 -0.06422198 0.43069792 0.3121371 0.5141689 -0.23123695 -0.37100768 -0.30309293 0.4432311 -0.28224537 -0.09713839 -0.07928109 -0.2001459 -0.28689432 0.12756264 -0.09825717 -0.039291404 -0.32486632 0.06132407 -0.24495503 0.18839993 0.3790788 -0.6060946 -0.1996967 -0.09562068 0.031355385 0.03191528 -0.14404984 0.22516923 0.86250615 0.09378495 0.3279095 0.2246083 0.090524405 0.17620724 -0.21658434 -0.18695448 -0.017439129 -0.05699857 0.035779588 -0.42043608 0.049187735 -0.07613169 0.4239909 0.257991 0.37185898 0.111790396 0.59641874 -0.35762203 0.30974868 0.28962725 0.13410668 0.22147799 0.4212197 -0.03426403 0.5436105 -0.010100441 0.23214826 -0.40024048 0.020026403 0.3421904 0.60332763 -0.36214903 0.3388126 -0.21844766 0.06421415 0.083718814 0.011197388 0.006390813 0.010508575 0.21760955 0.6407202 0.34255156 0.037265953 -0.5801281 0.1462876 0.03314017 0.06657939 0.062093563 0.071784586 -0.11424255 0.364637 -0.32680944 -0.25025126 -0.34558716 0.17658634 0.10440477 0.23273394 0.09356841 -0.16583113 -0.2503701 0.03966078 -0.4704975 0.027246045 -0.39888304 -0.27088013 0.17111914 -0.17781736 -0.0025187207 -0.008079544 0.23223776 0.45813045 -0.04738994 0.41293687 -0.02739598 0.26785737 0.20800191 -0.33721453 -0.40762073 -0.07501524 0.19328126 -0.31902084 -0.011654887 -0.057291828 -0.18549684 -0.40438718 0.3612558 -0.33720106 -0.34976584 -0.21078715 -0.12998655
2545 0.21684973 -0.61492574 -0.04875816 0.21213008 0.008254043 -0.20776127 0.02094295 0.24096912 0.09717553 0.74515337 0.17965192 0.00024553132 -0.432056 -0.14309406 0.5326862 0.11775889 0.08874757 0.43288305 0.0001471471 -0.086286515 0.04142752 0.06359859 -0.12991965 0.13987473 -0.029232338 0.3259258 -0.118550144 0.05677465 0.29270887 0.0027326248 0.17206621 0.65531534 0.2587569 0.44608217 0.22760901 0.032623265 0.18809335 0.10162532 0.07074786 0.017331794 -0.28958392 0.28298542 -0.15745091 -0.111812435 0.24750671 -0.11057923 -0.26447326 -0.13483389 0.069181405 0.07826464 0.30977452 -0.19093221 0.20799536 -0.00134547 0.13999668 0.49799114 0.023236295 0.010144336 -0.22785687 -0.09600317 -0.1426563 0.0037314645 0.1828194 0.12745464 0.36306337 -0.21956398 -0.14045765 -0.10546333 0.087643616 -0.29009143 0.18034537 0.12902737 -0.30842906 -0.2165332 0.14069721 -0.03543754 0.11757245 -0.31173113 0.04054281 0.38193545 0.09153119 -0.7655722 0.40077004 0.3967058 -0.08592263 0.050157215 0.26709387 -0.09206987 0.47445443 0.32435313 -0.022499451 -0.42308614 -0.05242347 -0.3583231 0.51523274 0.099172175 -0.071393766 -0.49274048 0.06064762 0.081182495 -0.26205376 0.2960608 -0.08822687 0.27897236 -0.054061115 0.27696833 0.010465283 -0.55408645 0.35475835 -0.14820567 -0.32064992 -0.10222006 -0.06091116 0.0013746979 0.011873448 -0.21700329 0.17168356 0.13233532 0.13587418 -0.057005886 -0.28305596 0.03258558 -0.108178 -0.031138955 -0.282905 0.37092885 0.20315987 -0.3334241
1117 -0.35808235 0.113196835 -0.18507215 0.23036572 -0.11817443 -0.16087182 0.07125712 0.16051607 0.0656525 0.045484636 0.3635986 -0.058015652 -0.109404646 -0.7949356 0.19817835 0.09309904 -0.12623191 0.29837307 0.045746524 0.09111888 -0.1114519 0.11958138 -0.26590592 -0.25476822 -0.45313078 0.2285064 -0.20486279 0.12149651 -0.13358556 0.100586854 -0.19600525 0.19275163 -0.016494393 -0.36772355 -0.18920568 -0.33027855 0.3002807 0.2698818 0.4927603 -0.077037126 -0.1437758 0.31091198 0.17032103 0.104386896 -0.10615344 0.19799352 -0.49204677 -0.061208144 -0.13136217 0.43656445 0.09642583 -0.14188364 0.01735707 0.11576167 0.47979817 -0.26820287 0.44366342 0.18588026 -0.008665003 0.10897534 -0.013346763 -0.004753987 0.14328228 -0.26965365 -0.05730374 0.15811412 0.043782547 0.11825629 0.18724573 -0.15291697 0.14705455 -0.120860726 -0.7438329 0.15225576 -0.001752887 0.021010505 0.17375654 0.19923581 -0.36294037 0.43877453 0.34185198 -0.4262175 0.3894267 0.56424665 -0.140629 0.33416367 0.016048824 -0.1840191 0.4603825 0.076582834 0.09174777 -0.2361935 0.13875565 -0.3564877 -0.0916015 -0.057002407 -0.4654185 -0.024435308 -0.13854063 -0.109142415 -0.41859132 -0.2814641 -0.4346257 0.19340071 -0.06352268 0.22034347 0.25521278 0.021646231 0.15841512 -0.3706097 0.30312774 -0.0031407622 0.34013653 0.56270736 0.31365362 0.030406738 0.42859638 0.09914504 0.06078453 0.50364906 0.17074127 -0.37832582 -0.05240304 -0.21477121 0.16141354 -0.6669733 0.2934403 -0.2850735
443 0.005297245 -0.46562222 0.18432006 0.1593179 0.30567646 -0.33935735 -0.015707394 0.401977 -0.065247916 -0.37993857 0.3107848 -0.04747416 -0.29792786 0.027360255 0.023995088 0.22487529 -0.43258023 0.17907217 0.0048876405 0.55676466 0.39503342 0.49044716 0.46133745 -0.43322593 0.120694235 0.25569242 -0.13027932 0.21147026 -0.46418175 -0.20564319 -0.17657217 -0.006082715 0.22848308 0.2558971 -0.13983448 0.23973157 0.5042067 -0.31501895 0.14358099 0.39059895 -0.35463643 0.7415889 0.080438495 -0.12249806 0.219223 -0.10981352 -0.34093955 -0.016772415 -0.3027433 0.35678405 -0.07534955 -0.027729621 0.51788586 0.024358334 0.21514803 -0.14297402 0.099267006 -0.53870875 -0.037732404 0.39803174 -0.4754998 -0.5724022 0.18954337 -0.09123359 0.20235787 0.47379103 -0.18727332 -0.19991983 0.23340185 0.433876 0.7749973 -0.12705009 -0.22060195 -0.28544655 -0.29084638 -0.07352173 -0.04378091 -0.39578164 -0.060701676 0.32596245 0.36779243 -0.3060544 0.2775838 0.65499204 -0.16826704 0.02151256 -0.29188904 -0.033147253 0.28304875 0.22790684 0.15049385 -0.27597478 0.14819196 -0.08103727 0.44011438 -0.012364664 -0.20013681 -0.23759402 -0.056432202 -0.33796427 -0.4889516 -0.18529263 0.049521137 0.06311902 0.060980525 -0.08914505 0.0038634806 -0.10403345 0.67702943 -0.26136994 -0.0032193433 -0.3009112 0.16425735 0.5021467 0.13418525 0.10989423 -0.05992794 -0.033715535 0.3559745 -0.25098506 -0.043050695 -0.44516876 0.04871629 0.26743937 0.13163304 -0.0050069876 -0.09234574 0.17005935
736 -0.10263054 -0.26663777 -0.11476776 0.047022097 0.0740262 -0.29168352 0.5375126 0.108088806 0.21503143 0.11544936 0.1261414 0.26523796 0.24026088 -0.059019286 0.49705866 0.15676747 -0.1798604 0.24741733 0.13772115 -0.40925908 0.71606404 0.105139546 0.1898225 -0.4301847 0.23055947 0.0971722 -0.1287975 0.13705674 0.17490366 -0.03397707 -0.46708003 0.09068005 0.505958 0.23226611 -0.087100096 -0.0743106 1.0190643 -0.3215821 -0.023317559 -0.124594055 -0.28046262 -0.13039751 -0.03206244 -0.08682472 -0.4021165 -0.121371865 -0.41803303 0.089810975 -0.050089687 0.27181736 0.22693343 0.2994236 0.4913375 0.24673249 0.13107474 0.47416222 0.6246064 -0.081983306 -0.060580634 0.18059994 -0.20710297 -0.46121204 0.16806492 0.14236714 0.15350614 0.15177222 -0.13353413 -0.00042205112 0.021816904 -0.424409 -0.017213857 -0.61014885 -0.30059573 0.22313799 0.066579305 0.008367381 -0.1256613 -0.29751134 -0.20884301 0.30448502 0.32358587 -0.36691728 0.15842925 0.2302012 0.09852332 0.30683395 -0.15930407 -0.2454803 0.5443531 -0.34052292 -0.4761263 -0.028523434 -0.15490831 -0.05551801 0.3432655 -0.35966042 -0.13407607 0.12524405 0.05625799 -0.2693533 -0.27282816 0.33016008 -0.13471612 0.42625332 0.23188503 -0.2445027 0.23866352 0.11912066 0.04921552 -0.044804186 0.5432219 -0.20822242 0.023341745 0.4856163 0.44027072 -0.31776065 -0.1136437 -0.2558608 0.61160105 -0.29873133 -0.2972342 -0.14765261 -0.1890846 -0.25125328 0.17135572 -0.28433 -0.30104473 0.32198748
77 0.13395737 -0.32207355 0.14110723 -0.056236897 0.12259214 0.015781792 -0.08666874 -0.04829729 0.17632252 0.24542719 -0.10661669 -0.17986661 -0.3929164 -0.03012452 -0.023042744 0.07196993 -0.01795091 0.50103354 0.39108413 -0.37312064 0.46611437 0.45751995 -0.39689246 -0.50807285 -0.015286933 0.10149047 -0.05088178 -0.34508315 0.102101445 -0.42550388 -0.118997954 -0.33357823 -0.10421742 0.43235418 -0.118539125 -0.12605816 0.8334913 -0.25739977 0.5401415 -0.17620265 0.40230748 -0.056769155 -0.094263084 -0.17452355 0.31181815 0.2804278 -0.5428047 -0.15116234 -0.18695891 0.20028722 0.20347431 0.13847873 0.19548716 -0.24683425 -0.100188985 0.27541775 0.34682524 0.15510751 0.0015235345 0.13052335 0.08755867 0.12905803 0.34876847 0.23777124 0.28004363 0.30602884 -0.02775121 -0.11430333 0.29674706 -0.17166917 -0.09452125 -0.046313442 -0.49255824 -0.4614365 -0.2573139 -0.36944005 0.2735378 -0.10940433 -0.06326005 0.32076216 0.1286729 -0.24774449 0.30263034 0.38761568 0.35347262 0.31301 0.16057608 0.10721288 0.022957824 0.7166625 -0.28263062 -0.20588984 -0.002299932 -0.51915985 0.08661012 0.1218371 -0.14628977 -0.37214395 -0.21691465 -0.24226472 -0.11778197 0.24508518 0.1984425 0.3220231 0.019902458 -0.32337034 0.11941957 0.20479672 -0.19670561 -0.19365719 -0.06432653 -0.24525547 -0.08044689 0.26341137 -0.19990107 -0.113671005 0.040610574 0.14017391 0.2932278 -0.1884547 -0.5502065 -0.16897766 0.021544712 -0.28244248 0.036079314 0.040719397 0.1864942 0.12549004
96 0.104218036 -0.67959064 0.34724587 0.5567307 -0.030275313 -0.33537906 0.42207202 0.067768276 -0.04561734 0.23051338 0.19835936 0.5707396 0.21281295 -0.5268645 0.11760845 0.7143555 -0.6502683 0.52880406 -0.070747964 0.10122898 -0.28733712 0.10700544 -0.033552315 -0.03798486 -0.060467184 0.5365763 -0.33711675 -0.19675837 0.0009158535 -0.14148743 0.36303878 0.16650802 0.4127775 0.06741925 0.027441287 -0.11223489 0.2328777 0.16750754 -0.25721347 0.1066486 -0.45521754 0.046608604 -0.13063285 0.06381094 -0.5822859 0.2665617 -0.34680954 -0.2047015 0.08581107 0.5350848 0.12912534 0.29865056 0.12973988 0.11878696 -0.07897597 0.13995335 0.34690917 -0.24641828 -0.20658712 -0.34306884 0.18421833 0.43760356 0.58017814 0.058088757 -0.03141141 -0.0044727284 0.15463035 -0.14680085 0.5165918 0.06854983 0.002174928 -0.13645764 -0.19441257 -0.09052439 -0.30579373 -0.32593954 0.03495586 0.11121674 0.34243396 0.246827 -0.04582846 -1.0092671 0.10392358 0.14282256 0.56502247 -0.06487812 0.008802259 -0.29281196 0.10878253 0.5912949 -0.006003953 -0.47946882 0.22765034 -0.11256623 0.0594118 0.33947334 0.1959107 0.5502425 -0.26047716 -0.3118942 -0.076596856 -0.189658 -0.4037778 0.022494555 0.19565237 -0.47396064 -0.022586267 0.3871042 0.40174165 0.23097505 0.21587738 -0.30853322 0.7153407 0.35491985 0.24559863 0.09095789 -0.40884534 0.07353451 0.24761795 0.10745378 -0.34529504 -0.49947542 0.25604603 -0.45189878 -0.047684316 -0.37236318 -0.18179265 0.29323313
1044 -0.1209545 -0.1366506 0.25817433 0.46449268 -0.21902013 0.08031207 0.12674941 0.7571638 -0.3573283 0.5417283 0.5141461 -0.10048581 -0.23272589 0.035629433 0.18560657 0.14086816 0.052793257 0.089377716 0.3374691 -0.13670935 0.17694578 0.05624641 0.31796065 -0.7619261 -0.49605188 -0.059203494 0.04847875 -0.2566185 -0.17351042 0.18565384 -0.07306917 0.23506603 0.06461256 0.32551005 -0.009095486 0.51603854 0.39301962 0.17833748 0.05264442 0.38888842 -0.02225714 0.5783213 0.10971782 0.14099096 0.26116842 0.2385421 -0.68848103 0.048256323 -0.46458697 -0.043388564 0.060417365 0.54340017 0.414012 -0.09222687 0.2109385 0.13046892 -0.060823433 0.31792378 0.0104453815 0.29543942 0.17743036 0.033064034 0.025085833 0.015165963 0.48478678 0.15521593 0.21292667 -0.14362662 0.27872276 -0.0821661 0.26408046 -0.16159904 -0.28792268 -0.29460174 0.27011248 0.109647505 0.13669263 0.117668934 -0.1487143 0.36208287 -0.19214815 -0.36761406 0.13470909 0.70286286 0.20299107 -0.22067976 0.036903758 -0.08095226 0.34414357 0.09066135 -0.19575089 0.23299544 -0.428379 -0.06776702 -0.107972085 -0.06950941 -0.4330801 -0.031066597 0.20725882 -0.6238563 0.21482421 -0.35514444 0.29330558 -0.17487964 -0.25704798 -0.32945663 -0.4329514 0.5297045 -0.1804688 0.22365303 0.13170958 -0.12815869 -0.08282278 0.055813935 -0.042626344 0.09993139 0.3229834 0.058968674 -0.08362881 -0.15656711 -0.08613133 0.077647865 0.043322485 -0.6007037 0.17548068 0.49036482 0.09401748 -0.055862237
112 -0.020995568 -0.13092877 0.2593177 0.20267849 0.034656856 -0.2571222 0.26239452 -0.133028 -0.032638628 0.3999854 0.3368722 -0.063445926 -0.7311061 -0.40662515 0.17194149 0.39801487 0.019294953 -0.00257809 -0.0698522 0.06362893 -0.28137848 0.07703544 -0.14082927 -0.34054342 -0.18911515 0.07393637 -0.52280664 0.23081392 0.43683186 -0.3557594 0.21140039 0.29605797 0.033217344 0.2729852 -0.22215289 -0.036832433 0.3560146 0.22816175 -0.15837601 -0.0575081 -0.03610795 -0.06730671 0.14274682 0.2990103 0.022798272 0.01905408 -0.29584834 0.37399793 -0.24309556 0.11318504 0.11766504 -0.29162598 0.21872704 -0.08730562 0.41333646 0.1124681 0.42318776 0.024700277 0.09450471 0.13173077 -0.16372989 -0.4388727 0.46506813 -0.3885011 0.36946872 0.2226708 -0.22372372 -0.13316503 -0.02630302 0.033699766 -0.023566278 0.039694365 -0.44249508 -0.2179223 -0.16932231 0.043388236 -0.25557482 -0.2890627 -0.26763287 0.04845125 0.13648568 -0.13637863 0.22052746 0.23728146 0.078997165 0.16700968 0.70971256 0.042944334 0.10689219 0.52109796 -0.07533496 -0.6302406 0.06424218 -0.19910678 0.44315648 -0.17811689 -0.6765083 0.03403803 0.024772367 -0.46253762 0.33172992 -0.4805265 0.058940843 0.326945 -0.10068015 -0.04177488 -0.0022676047 0.013283753 0.06307884 0.25177208 0.21256667 0.027728004 0.49130633 0.25052333 0.04715159 -0.28708935 0.35119823 -0.04197344 -0.24174085 -0.041940562 -0.25107655 -0.016686976 0.23362829 0.3463786 0.2118289 -0.29571572 -0.0066132452 -0.37323883
1259 -0.29299986 -0.30181575 -0.10131026 0.1301278 0.39952457 0.36132762 0.7328762 -0.14135796 0.112059735 -0.17552355 0.15764058 0.25013998 -0.228081 -0.5427036 0.14859474 0.37765163 0.020022312 0.38905847 -0.5171497 -0.49791494 -0.6702043 0.20848538 0.1346336 -0.311788 -0.37252524 0.23156966 -0.47336307 0.61288315 0.13289234 0.15449727 -0.25041252 -0.0042376365 0.052809 0.20378369 -0.18737492 -0.016176999 0.29785603 0.24191989 0.3504646 -0.04619124 -0.10088475 -0.016025264 0.16138056 -0.18776923 0.4911351 -0.19923507 0.076606624 -0.19212292 -0.0931068 0.34533516 0.07650422 0.31066272 0.5059204 0.17169458 0.0090820575 0.1701777 0.682507 -0.17273556 0.10661254 0.07333342 -0.22005826 0.031939816 0.1810976 -0.2479946 0.05547655 -0.063030094 -0.08364963 0.6000025 0.59245133 0.2685798 0.40661487 0.04702808 0.13018367 0.05777289 -0.03494894 -0.09047344 0.09829647 0.28564286 -0.021222845 0.502207 -0.0911528 -0.4181377 -0.17992982 0.4024841 0.096047856 -0.048593864 0.43606427 -0.06196688 0.437459 -0.24175969 -0.17166616 -0.5014319 0.25332907 -0.24218737 0.037509046 -0.21787918 -0.3253714 -0.10421578 0.05360412 -0.57581407 -0.2913473 -0.14733264 -0.23027028 -0.087879404 -0.4012551 -0.24920326 -0.13554217 -0.10573194 0.07622946 -0.33148792 -0.0062132203 0.05570868 0.3239396 0.24593104 -0.18350649 -0.551937 0.6659291 0.15083615 0.4359351 0.1322525 -0.28776896 0.09274688 -0.08801241 -0.08022911 0.008101152 -0.19912407 -0.1155505 -0.4112086
81 0.18475875 -0.65174145 0.09636045 -0.16846354 -0.35028914 -0.1385797 0.15276219 0.33275267 0.26083276 0.2564653 0.49744642 -0.02382482 0.09469794 0.018081805 0.31510067 0.38677472 -0.28872123 -0.13221182 -0.048548024 -0.32468092 0.38733974 0.37885502 0.10132668 -0.49461278 0.26681373 0.242536 0.0086783385 -0.04535398 0.5582424 -0.25587064 -0.6052803 -0.2722105 0.59647506 0.039815452 -0.015376624 0.25352168 0.6472663 -0.051895335 0.21617962 -0.45491055 -0.09643809 0.15667576 -0.12598437 0.12583461 0.39131907 0.022953026 -0.0062983725 -0.049239703 0.04737351 0.11567378 -0.1667241 0.08041832 0.49727178 -0.11752145 0.050837457 0.39392933 0.6069644 0.14756298 -0.00025229235 0.47673243 -0.1483051 -0.20426807 -0.0056136665 0.2027895 -0.09713675 0.21802789 0.024190545 0.1742891 0.16887394 -0.11164687 0.16070333 -0.57890815 -0.40470073 -0.30979183 -0.22741665 -0.28600827 0.25930065 -0.2139819 -0.0613913 0.3847506 0.22731529 -0.24239627 0.31400472 0.4023077 -0.21599978 0.32091227 -0.11360169 0.14391263 -0.10507564 0.23766308 -0.50358325 -0.22897005 0.24665788 -0.18136187 0.114072986 0.19999179 -0.32419658 0.06600358 -0.027482435 -0.16539705 -0.16120881 0.23076712 0.13598913 0.4834028 0.34717026 -0.38669965 -0.16624324 0.16670789 0.025329832 -0.54858345 0.374174 -0.23108527 -0.32573485 0.54039407 0.09135087 -0.1720131 0.21910405 -0.14318363 0.081655435 -0.28312144 -0.7005019 -0.32083708 -0.3926378 -0.43992347 0.5052934 0.21278435 -0.5570483 0.049443465
1837 -0.10074181 -0.013429141 -0.08835501 0.07460361 0.02294773 -0.06289268 0.020921547 0.32720846 -0.08447127 0.20239617 0.2714149 0.34437364 -0.1747834 -0.596579 0.3195378 -0.04929561 -0.42253917 -0.045235466 0.08987015 -0.17278 -0.20842032 0.3699298 0.3007469 -0.37940744 -0.20885615 0.31561494 -0.00339588 -0.13380103 0.17600021 -0.64138085 -0.39113984 0.27711773 -0.29390916 0.11672185 -0.4088233 0.23764099 0.37450498 -0.106052406 -0.007645287 -0.21624918 -0.12388328 0.6416128 -0.1643995 -0.10659962 0.0073857876 0.13571659 -0.3441571 -0.5007571 0.31146884 -0.18933238 0.19760333 -0.1730085 -0.05060988 0.03154419 0.13139942 0.15820138 0.14392912 0.27056187 -0.48567832 -0.24998096 0.19556312 -0.1861455 0.23160046 0.06263431 0.13487566 -0.16696554 -0.13091515 0.53855956 0.29326245 -0.29369015 0.19411261 -0.15690686 -0.5142828 -0.3172372 -0.066238925 -0.062406056 -0.035027314 0.26981282 0.025966818 0.7789858 0.19296995 -0.38689047 0.340278 0.5017399 -0.05692436 -0.13994911 -0.17363937 -0.24761577 0.15699385 0.13797207 -0.32482418 -0.5082256 0.19426088 -0.046078105 0.4537237 -0.30802697 0.067269005 0.108127125 0.41113493 -0.51647913 0.14517695 0.024597486 -0.14707729 0.3106238 -0.084758386 0.3581733 0.08601642 0.08092753 0.035740435 -0.2743804 0.32822922 -0.14036176 0.40733814 0.24325761 -0.044761322 -0.08060246 0.124390446 -0.0034851623 -0.017739154 0.036557198 -0.2040867 -0.0021079867 0.09456802 -0.104738176 0.08058717 -0.45312157 -0.30224782 -0.39413098
46 0.29598114 0.0849932 0.06630771 0.009587107 0.58133876 0.2582875 0.51344806 0.3262401 -0.19372916 0.40591088 0.7119537 0.028413566 -0.60903347 -0.117296785 0.24204339 0.38174108 0.054859493 -0.055586517 -0.47596943 0.057399195 0.28389093 0.9244732 -0.0064207786 0.052367255 -0.10743894 -0.1433366 0.009860283 -0.42654198 0.16001007 -0.06296331 -0.38392565 -0.17768586 0.6281465 -0.2667013 -0.27347085 -0.24997911 0.6559366 0.15569834 -0.016018596 0.070286654 -0.20861542 -0.101628825 0.24450581 -0.035987157 -0.06780703 0.55630255 -0.34241313 -0.0919004 -0.34661993 0.1367246 -0.45556596 0.25687495 0.5498265 -0.20890337 -0.047257584 0.27043316 0.49708733 -0.49162203 -0.31814364 -0.08279892 0.3862008 -0.37663543 0.66084725 0.045440584 0.18362275 0.036252733 0.17800559 0.1575775 0.2323104 -0.13492936 0.5093144 0.022955624 -0.2788744 -0.13603821 0.0374106 -0.28572702 -0.3898401 0.22491746 0.08091715 0.23661599 0.34957817 -0.44134852 0.35776463 0.35731345 0.002202634 0.22219536 0.1029579 0.19309178 0.35109854 -0.13967364 0.20849136 -0.24537747 0.43943197 0.22910878 0.20329954 0.26924968 -0.3555767 -0.14599657 -0.07831471 -1.0439817 -0.56118304 -0.17277636 -0.181942 -0.08705849 -0.59762716 0.13421239 0.412371 -0.2452579 -0.25825828 0.18858428 0.10225763 -0.43004385 0.32655358 0.16553363 -0.6368623 -0.39494997 0.30194968 0.42716354 0.29502705 0.44714153 -0.2912462 -0.1967515 0.09650603 -0.015788928 0.22065958 -0.09594136 -0.15599649 0.3441468
