2708 128
1359 -0.5091142 -0.015457655 -0.23545852 0.2981445 -0.40848488 -0.35445544 0.33139142 -0.024476696 -0.028214961 -0.3469412 0.2882317 0.023461996 -0.25884816 0.27437615 -0.07561971 0.00514586 0.3188905 -0.17414637 -0.1828556 -0.3576524 0.3349831 0.2891039 0.23060508 -0.04197848 0.08235218 -0.04445645 -0.12946232 0.12159611 -0.067751616 -0.40889812 -0.25918657 0.006644285 0.043667745 0.34609714 0.114781804 -0.22553687 0.35769695 -0.4912317 -0.18801545 -0.40084746 0.010836117 -0.25086594 0.008473515 -0.19656159 -0.07596827 -0.30766875 0.2167567 0.10998403 0.053178642 0.33871767 -0.47363043 0.15899956 -0.3342551 0.21568312 0.21904917 -0.11337234 0.023587776 -0.19181657 -0.29550752 -0.028196285 -0.60015875 -0.27259475 0.0074060443 -0.20248264 0.06845639 0.030368647 -0.06518926 -0.25813887 -0.17776163 0.13336799 0.25227177 0.0027868797 -0.36225334 -0.6795887 0.12739871 0.059209444 0.5543864 -0.005855105 -0.06291463 -0.00028851556 -0.22049838 0.15956652 0.09433237 -0.29992104 0.119359165 0.13366644 -0.11059073 0.13163307 -0.4250877 -0.19515939 0.12273493 0.03165395 -0.08069976 -0.14487565 0.013243859 0.071879365 0.021936657 0.14510657 0.29442325 0.39615083 -0.022167724 -0.1268349 0.3554967 0.012915344 0.011083302 -0.47030914 -0.20684348 0.29230076 0.115219995 -0.04765741 -0.4695392 -0.18298654 0.053974874 -0.2119812 -0.09969338 0.03755385 0.31501174 0.18044747 0.2951847 -0.40883368 0.18154742 -0.040215377 0.4424885 -0.35421038 0.20103809 0.06912586 -0.18623221 0.11508782
1702 -0.32889944 -0.00048127215 -0.12949972 -0.18847495 -0.15708618 -0.2576129 -0.05330576 -0.35728034 -0.09257625 0.12585697 0.612851 0.11400576 -0.23964745 -0.14106286 -0.023147136 -0.02073756 -0.10862956 0.20852277 0.24430914 -0.28752106 0.313734 0.1763087 0.029723866 -0.23371647 -0.049799964 0.2776215 -0.4569742 0.117645234 0.2587782 0.09502436 -0.033922333 0.25378197 -0.17551653 0.42695922 0.14848591 -0.054301765 0.38733283 -0.15774913 0.48583928 -0.14305137 0.016158577 -0.19676767 -0.012428114 -0.37308207 -0.048210457 -0.0881516 -0.21256334 0.061217606 -0.6036192 0.065190725 0.32203057 -0.011055531 -0.033988077 0.092905976 0.15940632 0.01151494 -0.07913399 0.08879284 -0.24620056 -0.17993347 -0.1938277 0.27550992 0.112478934 0.14999712 -0.22454675 -0.030007228 -0.040576 0.1225601 0.16244046 0.28779384 -0.07620669 -0.2227598 -0.40091977 -0.115825124 -0.19490997 -0.036922082 0.16435258 0.40311173 0.009910838 0.47140983 -0.37121293 0.50401336 -0.102807365 -0.043282628 0.085893765 -0.33013025 0.18851662 0.16602081 -0.25650197 0.40912494 0.105839886 -0.19408797 -0.33034965 -0.0642513 0.5423854 -0.37536892 0.10506938 0.19223972 0.68284875 0.3970409 -0.10911357 -0.0061185965 0.45736396 0.0048018186 -0.6313297 -0.14141618 -0.18533373 0.3882443 -0.11319009 -0.40774 -0.0646238 -0.5578123 -0.047153283 -0.4989415 -0.32787484 0.40912402 0.16374779 0.41398618 -0.37058362 0.1820998 0.20569426 -0.0024669382 0.32649618 -0.5055048 0.0477933 -0.2682083 -0.2752139 -0.15055938
307 0.050786056 -0.38147128 -0.16774909 -0.17763655 0.12898259 -0.27935785 0.18905453 -0.52939767 -0.031803787 0.36058095 0.3858406 -0.17253086 -0.5340837 0.105904385 -0.042130526 -0.22320017 0.039714035 0.031115487 0.20700468 -0.26965812 0.45832655 0.28702793 -0.08400273 -0.08167406 -0.023889245 0.27660432 -0.4640108 -0.34962434 0.06300038 -0.4227813 -0.48332953 -0.37742212 -0.2598394 0.40053967 0.25854844 0.36030254 0.5488023 -0.29603755 -0.11792789 -0.25305364 0.11365192 -0.6185573 -0.016079359 -0.05767193 -0.045230556 0.034143962 0.18336491 -0.08963917 -0.17222361 0.35676417 -0.0023270948 0.2016805 0.07156788 -0.2672211 0.41514122 0.3216094 0.15635408 -0.015469753 0.10454192 -0.24575683 0.3356761 0.30336002 0.08489203 0.56498486 -0.043795314 -0.18591721 0.40269363 -0.056841988 -0.17262477 0.21685587 0.18717483 0.29138976 -0.336447 -0.2745877 0.11600419 0.060183544 0.06517595 0.27890107 -0.23382632 0.16734134 -0.2517604 0.1455347 -0.23852156 -0.04125641 0.51022434 0.19790877 -0.26671952 0.26813325 -0.4178964 0.25233552 0.0006680852 -0.18382655 0.10725447 0.039954185 0.19421163 0.03366786 -0.028876487 -0.26981327 0.0731607 0.30233058 0.38519654 0.100301035 0.3648331 -0.09452974 -0.29502183 -0.042268828 -0.23029952 0.34517083 0.24974489 -0.25358093 -0.60679424 0.099559635 0.3357253 -0.3180458 -0.37674597 0.32582796 -0.4422837 0.3977609 -0.049530264 -0.15348496 -0.035684977 0.09100486 0.19139239 -0.06903042 -0.049690038 0.1982723 0.38612613 0.23504242
1987 0.11469294 -0.3600097 0.020989725 -0.014383511 -0.12058133 -0.26140246 -0.22880691 -0.15523791 -0.06717508 0.08798538 0.4340243 -0.24123363 0.020646637 0.0308291 0.08146055 0.07962839 -0.121251754 0.109607056 -0.13579005 0.017279143 0.44163865 -0.0353904 -0.062022544 -0.29262114 0.112142056 0.2077838 -0.3563336 0.118377104 -0.15103857 0.027545592 -0.1286288 0.218789 0.09270474 0.5550164 0.17022991 -0.30778384 0.5610255 -0.20200826 0.5344765 -0.3893272 0.0070694233 -0.091706604 0.12487446 -0.07246712 -0.05714389 -0.13132757 0.005397865 0.3331821 -0.13110238 -0.05377703 0.23523822 -0.10398965 0.17421919 -0.028973585 0.3766772 0.4966968 -0.016083932 -0.13687807 -0.103055984 0.104735866 -0.26328936 -0.16410352 -0.14785413 -0.28630823 -0.22102448 -0.36592487 -0.45962557 0.29808298 0.31770518 0.091860324 0.18805347 -0.28037488 -0.3668334 -0.13348436 0.19682929 -0.07321639 0.0874663 -0.28264254 -0.37786236 0.7653099 -0.28716898 0.48064852 0.15156184 -0.40507808 0.17255041 -0.006935471 0.12862282 0.24231458 -0.31098744 -0.22681656 -0.081632584 -0.06043749 -0.38725784 0.6160338 0.4010673 -0.3686692 0.103288956 -0.11974029 0.541276 -0.06850551 0.07169516 -0.16571349 0.47652808 -0.41119635 -0.13853629 -0.37113655 0.14011797 0.1997878 0.07562306 -0.20016246 -0.41627067 -0.17863598 -0.011988091 -0.11891662 0.14603332 0.32133877 -0.12899087 -0.06259009 -0.055841107 -0.14200442 -0.07126862 0.3978897 0.5018735 -0.2889029 -0.07559068 -0.075233735 -0.24715944 -0.4013351
1811 -0.053749744 -0.15379862 -0.25638187 -0.49125355 -0.20428208 -0.056270853 0.3121173 -0.43630296 -0.06520276 -0.12146573 0.49523118 -0.20336175 -0.65975696 -0.5603825 0.4630116 -0.18568681 -0.14096953 0.15447372 0.23390338 -0.5844006 0.29332742 -0.055686545 -0.15300335 0.06490715 -0.2694529 0.39660734 0.058376644 -0.08309028 -0.015021429 -0.17543522 0.19468485 0.27213213 -0.0424571 0.33119506 0.31860948 0.29239616 0.5138472 -0.26080132 0.025219386 -0.023081083 0.5116057 0.0791418 -0.5871739 -0.34733286 0.071358725 -0.4075771 0.33442253 0.3369768 -0.19087334 0.11646592 0.22671363 -0.21336748 0.36695257 -0.11297601 0.49471068 0.36180624 -0.033757865 -0.38392985 0.35920876 -0.004818217 -0.11296707 0.23451278 0.03933422 -0.15330759 -0.38519236 -0.23173587 -0.2161467 0.4811427 0.15922818 -0.27868816 0.2504662 -0.3181613 -0.5161909 -0.40974167 -0.2861473 0.18775357 -0.14408804 0.2533095 0.12675652 0.44498876 -0.07268963 -0.32844722 -0.025687946 -0.049706627 -0.10847944 -0.13943739 -0.04328335 -0.06927903 -0.20378101 -0.027896319 0.10239056 -0.34528688 -0.09900543 0.12862267 0.03443402 -0.06281295 -0.37403342 0.13736367 0.35191336 0.73018855 0.33103475 0.21703252 0.33737978 -0.17929137 -0.27369687 -0.11369057 -0.34601802 0.2108965 0.15045139 -0.5433843 -0.010979775 -0.17190272 -0.17088686 0.19299735 -0.07114038 0.26291302 -0.07133783 -0.004599037 -0.34191096 -0.35221666 0.07810888 0.195807 0.09112806 -0.021941911 0.1060174 -0.5793513 -0.5718659 -0.37202993
1624 -0.1148707 -0.5512922 -0.15284625 -0.2268347 0.19566298 -0.051405873 -0.03012354 -0.80657256 -0.18153481 0.45412883 0.4361902 -0.4892972 -0.8496944 0.21677211 -0.13447872 -0.2598674 -0.1395083 0.016854573 -0.08254899 -0.16678211 0.35054523 0.14428128 0.1746061 -0.22028598 -0.15227912 0.19915287 -0.6383535 -0.36641213 -0.33780363 -0.78766227 -0.18616155 0.43278268 -0.12627399 0.5161391 0.4847597 -0.0693493 0.15797605 0.035342842 -0.10470504 0.18849531 0.26117945 -0.20600638 -0.5103535 -0.17983866 -0.3071231 0.13130847 0.31416383 0.08075927 -0.45710915 0.22979774 -0.013304695 0.16102523 0.400486 -0.55389583 0.3162775 0.006434786 0.33069953 -0.07097354 0.22733985 -0.16455927 0.3436346 0.12176595 0.25130117 0.14275654 -0.17819385 -0.04129589 0.24220343 -0.1424072 0.16470432 0.07397903 0.040695723 -0.0487153 -0.20573817 0.07215827 0.36607242 -0.07352914 0.33332402 0.13345358 -0.56910086 -0.04248372 -0.43998313 0.091597155 0.03080433 -0.35628086 0.15239842 0.14781898 0.036793012 0.43636733 -0.30805582 0.4696171 -0.3569908 -0.1750183 -0.17259996 -0.029756268 0.21275489 -0.15857449 0.011196745 0.087459944 0.034519218 0.24743651 0.32649672 -0.26022944 0.05346915 -0.035307985 -0.104252055 -0.03179911 -0.39173186 0.47509825 0.07475325 0.14346819 -0.41346756 0.22208944 0.49453166 -0.2327519 -0.47253165 0.591558 -0.43143636 0.33335516 -0.21961811 0.12715583 -0.2867618 0.083447054 -0.08023858 -0.14582378 0.19701591 0.27790695 0.15112816 0.3843756
2035 0.15578508 -0.45213345 0.0050104395 -0.12377399 -0.102493405 -0.28028938 -0.18943395 -0.2362571 -0.30708373 -0.08015636 0.64992696 -0.18099074 -0.5484409 -0.1920408 -0.1271588 -0.2666332 -0.25087792 -0.031400986 0.17853531 -0.24282935 0.7886288 0.13968928 0.11439887 -0.6378922 -0.27708027 0.286256 0.24106732 -0.214885 0.054432977 -0.057632133 0.50962096 0.038431708 -0.33041894 0.42846078 0.24296688 0.42223936 0.15908507 -0.14456941 0.17795996 -0.8044956 -0.33491638 -0.48637855 -0.18795528 -0.08894094 0.03457784 -0.40322807 0.29367095 0.08847946 -0.15023448 -0.39012092 -0.042525575 -0.00056336285 0.48588216 0.117778264 0.6600927 -0.02092123 0.38326335 -0.41682625 -0.28570372 -0.36306486 0.21097858 -0.023187349 0.42085776 -0.5275486 0.0190958 0.02668794 -0.09155554 0.24026418 0.08309069 0.11167658 -0.12995139 0.02575148 -0.33647254 -0.25900388 -0.1337939 -0.1088745 0.21635614 -0.29815125 -0.041219477 -0.07531918 -0.021358998 -0.096796334 -0.038187128 -0.008273816 -0.113720015 -0.33809885 0.09708568 -0.51144826 -0.12495916 0.015376628 0.18973489 -0.37000862 0.14668544 0.23978844 0.5507405 0.3178971 -0.21249668 -0.1934765 -0.09058456 0.67501855 -0.096107 -0.18061882 -0.006097858 -0.22380103 -0.06755995 0.22966926 0.0321918 -0.020688891 -0.14001541 -0.24839129 -0.41748616 -0.38605928 -0.13692293 -0.46064743 -0.25684658 0.30972946 0.049793806 -0.076714516 -0.4945986 -0.33079988 0.026778542 0.015023343 -0.17208174 -0.443076 0.25352722 -0.09639803 0.3319726 0.0814202
89 -0.14768705 -0.34369045 0.2072392 0.04232543 0.034766633 -0.45479786 -0.3006057 0.27226847 0.18474467 0.031038111 0.28996056 -0.07690482 -0.7898462 0.24632259 0.29178968 -0.03191259 -0.0009281503 -0.18414928 -0.020448387 -0.08230853 0.3730333 -0.49842644 -0.04790215 -0.2678962 -0.31024837 0.24064557 -0.0757828 -0.17158012 0.22350538 0.11352247 0.10944101 0.10669929 -0.052860934 0.33731395 0.7748431 -0.14274055 0.23651634 -0.07666572 -0.4750955 -0.5777292 -0.25788713 -0.29106686 0.008748108 0.17368147 -0.19030719 -0.080444396 0.13389319 0.2172421 -0.30399013 0.17973949 -0.0039064805 0.3094456 0.04235457 -0.027160564 0.0675856 0.01345286 -0.080557235 0.43527815 0.51816404 -0.21495196 -0.6480283 0.1424806 -0.2048115 -0.23741221 -0.33085966 0.022555336 -0.17575805 -0.03553495 -0.049101274 -0.04794294 -0.26737934 -0.20648047 -0.31161073 -0.39938554 0.17145193 -0.025618525 -0.019269172 -0.32282248 -0.124930896 -0.21388598 -0.110462494 -0.46993968 0.28422105 -0.22281381 0.1333512 -0.115431555 -0.13678324 0.057853535 -0.36257976 -0.26749405 -0.06340827 0.039139625 0.0649913 0.22909833 -0.39089173 0.8828493 0.6410335 0.047940664 0.33447137 -0.12970728 0.26841608 0.02228071 0.32833743 -0.7038578 0.3171943 -0.337557 0.1688591 0.17471257 0.016148536 0.16855578 -0.41288754 -0.12240837 -0.18615502 -0.2912599 -0.66283494 0.4596323 -0.09152928 0.10663166 0.08944474 -0.25949028 0.09745171 -0.35174388 0.2702299 -0.42838085 0.14187932 -0.3037772 0.23391373 -0.06980216
1014 -0.29766196 -0.11252385 -0.07694959 0.07503422 -0.316884 -0.16086854 -0.006057853 -0.17278515 -0.021716254 -0.10942018 0.5491266 -0.26527283 -0.3748275 -0.3688958 -0.14187351 0.03813166 -0.055923186 0.3124159 -0.10160298 0.2343049 0.5234599 -0.14575644 -0.047044333 -0.15287793 -0.35977077 0.14489734 -0.07117699 -0.0024553617 0.0891917 -0.26149625 0.13028282 -0.03600242 -0.05799807 0.19774972 0.657776 -0.1560218 -0.056855 -0.30456954 -0.3092076 -0.21007861 -0.26379064 0.04985082 0.04530232 -0.07764259 0.26526567 -0.008609461 -0.05254642 0.10226252 -0.23089796 0.28142756 -0.16274942 0.37241966 0.35166237 -0.7725325 0.085177064 0.35009363 0.19175538 0.6872842 0.049536265 -0.21984868 -0.14584412 0.54344237 0.03169736 0.022464097 -0.19603683 -0.20737705 -0.02187417 -0.21232192 -0.19896565 0.084280565 -0.34225255 -0.21097992 0.14269787 0.05078809 0.3512419 -0.07735283 0.45141864 0.042910457 0.3253485 0.43428847 -0.2032419 0.0066881157 -0.10366236 -0.23783477 0.2586889 0.2329489 0.23520404 -0.040039208 -0.5581201 -0.47057703 -0.036124237 0.109696545 0.19978051 0.32511693 0.05643328 -0.013409804 0.027452065 -0.061791334 0.519636 -0.16313915 -0.15608257 -0.15181793 0.28266945 0.38353172 -0.29855987 -0.4522895 -0.24870498 -0.07740005 -0.087676555 -0.21092445 -0.36910933 0.21831755 -0.10265256 0.17863697 -0.8714823 0.07801471 -0.2912169 0.33188337 0.43261018 0.36088946 0.24946041 0.025298605 0.10103603 -0.41971493 0.49156657 -0.25799173 -0.40207404 0.5944149
599 0.09079522 0.3072223 -0.5514058 0.09615368 -0.23681563 -0.2917642 0.06808993 -0.937349 0.19657545 0.21765089 0.31816265 -0.3039889 -0.2684496 -0.2722741 0.048283294 0.073745936 -0.36118716 0.08696346 0.26583743 -0.29926264 0.7014583 0.026467675 0.07583448 0.15999356 -0.19460802 0.5001365 -0.18764836 0.28003693 -0.22227068 0.50507563 -0.36911222 0.18702017 0.17686558 0.34925783 0.24333155 -0.004570633 0.553588 -0.15954375 0.5124842 -0.59476286 -0.2708151 0.018299809 -0.115077965 -0.15152302 -0.18718582 -0.32674408 0.3000658 -0.17810129 0.07062969 -0.022051975 0.40223908 0.14318985 0.26152572 0.02058228 0.41861087 0.3077711 0.08685859 -0.20269202 -0.06759904 -0.030329196 -0.25954884 -0.26148492 -0.29654348 -0.295001 -0.5068877 -0.08289217 -0.22175835 0.06601155 -0.4468335 0.22873569 0.08070198 -0.005454308 0.0297737 -0.11586798 -0.23614559 -0.07278352 0.22869664 0.24547306 -0.32032403 0.31575426 -0.17644924 0.16557828 -0.2020231 -0.34687248 -0.13440323 -0.19883114 -0.0055924747 0.19490528 -0.66785944 0.63479364 -0.35919198 -0.16224556 -0.21620598 -0.03987356 0.77027094 -0.042905077 -0.13524349 0.40314424 0.6394963 0.30670366 -0.008422561 -0.21880175 0.44567853 -0.27176353 -0.17079437 0.0106283 0.1408993 0.5104657 -0.32221913 -0.24089386 -0.073765635 -0.45452648 -0.043335047 -0.17405242 -0.3801684 0.4125369 0.16738425 0.4449778 -0.22821125 -0.07513254 0.27646714 -0.13820545 0.26542428 -0.05453693 0.08438449 -0.54925317 -0.21499145 -0.21609731
2046 -0.10306497 -0.24227752 -0.47942242 -0.11165149 -0.34444365 0.09682282 0.24013443 -0.4492976 0.03986649 0.06735905 0.14846548 -0.22009596 -0.31939578 -0.032673232 -0.040042415 0.14753757 0.23389736 0.07458005 0.36893654 0.036002614 0.43151563 0.16881424 -0.20895162 -0.25977415 -0.12730367 0.27094764 -0.48703465 -0.44133237 -0.14514247 -0.24066246 0.0042563835 0.14423697 -0.3147906 0.04520985 0.12898897 0.32297644 0.24560094 -0.2549158 0.22664012 -0.10532438 0.22384502 -0.23632036 -0.13402323 0.1504819 0.34151128 -0.10674349 -0.030744648 -0.10165913 -0.41701204 0.47002357 -0.006045775 0.053674348 -0.18829736 -0.47622973 0.4596096 0.3222219 0.15627575 -0.0483102 0.15446669 -0.091351055 -0.05416076 -0.09259771 0.06391772 0.07908494 0.030623047 0.04703213 0.102127686 0.00547424 -0.018963128 -0.01830591 -0.017173043 0.085047126 -0.052046005 0.09767926 0.46203795 0.09634491 0.48336786 0.20890568 -0.49040908 0.46032792 -0.44271734 0.31568986 0.074907824 0.054342873 0.29549152 -0.20153165 -0.15311441 0.35267308 -0.6451746 -0.045127448 -0.04628409 -0.2727112 -0.42782897 -0.08256481 0.62721914 0.19407205 -0.36788705 0.25240296 0.48793855 0.596962 0.6315045 0.08488697 0.37372208 0.0915771 -0.052460674 -0.29350448 -0.33899617 0.46889275 -0.0153228445 -0.27831203 -0.42624182 0.26227456 0.18419841 -0.36889952 -0.52895224 0.049647737 -0.24076495 0.22666778 -0.46627772 0.1256833 0.2058647 0.29682842 0.62230253 -0.15344597 0.27824494 0.020663792 0.010381792 0.29732475
1915 -0.29849714 -0.34952974 0.003560302 -0.3011548 -0.25515798 -0.45881468 0.028435722 0.1644965 0.21080007 0.7604021 0.12555227 -0.111528195 -0.31305835 0.5494301 -0.34542328 -0.41284007 -0.22804575 0.49674857 -0.24832147 0.00869038 0.49186102 -0.02601238 0.18418083 -0.40088746 -0.6079528 0.18488222 -0.09838194 0.17593953 -0.04113142 0.38922426 -0.105828375 -0.017747223 -0.266289 0.5665455 0.48672256 -0.31850454 0.15447134 -0.0596577 -0.74423265 -0.09016337 -0.051887207 -0.109132685 -0.08721856 0.13023058 0.40008435 -0.49492872 -0.05088099 -0.033266388 0.0017771941 0.24031885 -0.08275518 0.4876404 -0.14298347 -0.2862911 -0.17006157 0.49549112 0.0880421 0.617905 0.10307902 -0.30261812 -0.42765132 -0.07936005 0.12023861 -0.22487411 -0.21609282 -0.18667342 -0.29847714 -0.67666584 0.5321469 0.21079445 -0.6392763 -0.34549335 -0.3138265 0.17788401 0.32943317 -0.04533761 0.43974945 0.35829276 -0.008938535 0.12167688 -0.3072898 -0.056394912 0.5081736 0.15812235 0.5291866 0.07478126 -0.3416527 -0.44729358 -0.34773377 -0.012079327 0.058211476 0.34882525 -0.14124961 0.39222723 0.06206679 0.05975053 -0.04786185 -0.13913359 -0.2279707 0.16769975 -0.013512815 -0.03922793 0.13004634 -0.23920055 -0.48796812 0.2781595 -0.5455679 0.17659183 -0.27604234 0.21572293 0.057915542 -0.07406781 -0.08612131 0.31628072 -0.4735156 0.71916234 -0.26593336 0.07053555 0.053888828 0.25694945 0.31612802 -0.33819273 -0.1299344 -0.31317088 0.12743817 0.23996669 -0.13011865 0.2962888
110 -0.08818549 0.18078025 -0.2354908 0.20769854 -0.0070292163 -0.10504602 0.1483507 -0.48387834 -0.06640947 0.12673251 0.30201605 -0.30523238 -0.453818 -0.20090026 -0.21439901 -0.1674804 0.019379668 0.20817973 -0.31860107 0.5140815 0.18480685 0.59313565 -0.10463167 -0.15331693 0.07660311 0.06937663 -0.5595079 -0.5012781 -0.18591872 -0.34719688 -0.2373602 0.4873806 -0.1834042 0.35831097 0.10007384 0.0931396 0.5986317 -0.02419879 -0.14716926 -0.024457643 0.029942349 -0.19050671 0.18976024 0.21903561 0.3154367 -0.04764443 -0.11085251 0.18304037 -0.24654014 0.33976611 -0.28555605 0.11299878 0.26441646 -0.16883866 0.32063165 0.43338755 0.013688639 -0.14565238 0.14340027 0.08766813 0.45699912 0.07824188 0.2993389 -0.12321674 -0.08201137 -0.30683294 0.25073442 0.0039410405 0.37388113 0.47841722 -0.18270954 0.20551772 0.18519114 -0.3824694 0.35239977 -0.200849 0.0777602 0.34924117 -0.3454014 0.21066514 -0.34205818 -0.09516751 -0.25585085 -0.2871502 0.51955587 0.18083495 -0.24762104 -0.061065156 -0.44333097 0.42512512 0.015270881 -0.26434568 -0.53686506 0.2594965 0.059255056 0.09323517 -0.06410365 -0.11599523 0.29334512 0.2990805 0.3032054 -0.06956532 0.19282702 0.04462541 -0.30751145 0.3498729 -0.311736 0.40514597 0.11541803 -0.052219633 -0.3715532 0.08576944 -0.19038877 -0.50250894 -0.39261952 0.2907741 -0.24861845 0.51972723 -0.26223105 0.15369855 0.11417308 -0.18288493 0.29048377 -0.24359149 0.30091706 0.08928964 0.27038333 0.39676774
734 -0.17617299 -0.008392543 -0.21423769 -0.063574165 0.2411084 0.26086372 0.09614349 -0.30997533 -0.3163434 0.4893666 0.91964704 -0.2410953 -0.08226198 -0.37473282 0.09568638 -0.5767041 0.15898971 0.046402786 -0.041917343 -0.53559476 0.14224161 0.059040286 -0.222791 -0.34702617 -0.42022052 0.35253856 0.32461688 0.13323626 0.42414957 0.116665766 -0.25091717 0.5968859 -0.1810561 0.50553703 0.06958757 -0.025006292 -0.16038424 -0.15670764 -0.21352649 -0.5505034 0.0617386 0.16180414 0.008089047 -0.25655124 -0.34915987 -0.5266241 -0.034604866 0.054218557 0.16962743 0.07223538 0.2678189 -0.5506244 0.3811055 -0.26063505 0.6247611 -0.11697438 0.054133695 -0.42060214 0.09913863 -0.33640483 0.08215168 0.48191527 -0.08066016 0.1322906 -0.7116909 0.25304666 -0.38363707 0.4668078 0.419435 -0.049810153 0.09503268 -0.39691022 -0.52968293 -0.547258 -0.21211061 -0.16875145 0.40986475 -0.23623985 -0.1203346 -0.108203225 -0.25546366 -0.018223973 -0.1324406 0.06622076 0.40012598 -0.30604127 -0.23682791 -0.11260111 0.049466178 -0.4494075 0.3633657 0.18133432 -0.14353417 0.5294822 0.1994775 0.07943519 0.4348225 0.04643142 0.18657696 0.016343527 0.3457526 -0.105650276 0.038657993 -0.26189846 -0.08725237 -0.4129008 -0.41820523 -0.0031273088 0.14809667 0.14570041 0.12777898 -0.1271762 -0.29972893 -0.1197052 -0.3040747 0.34416768 -0.32370892 0.25084692 -0.19037968 -0.35590005 0.6980169 -0.108078 0.63035697 -0.09055754 0.44072664 -0.11874474 0.0072301184 -0.36497688
1073 0.23379512 -0.11013874 0.06561908 0.11409385 -0.11737358 -0.2076674 0.09482486 -0.46031147 0.15719931 0.16559337 0.11849893 0.1689013 -0.027901646 0.3241396 -0.2796121 -0.00510844 0.24912038 -0.2419322 -0.102108695 0.20646377 0.39142168 0.18048498 0.12638345 -0.037180386 0.3234916 0.415353 -0.056589942 -0.3454613 0.06735227 -0.34161466 -0.59748614 -0.48350704 -0.05275382 0.6330258 0.2500433 0.035763774 0.6791209 -0.70033693 -0.18388866 -0.09335406 0.3159576 -0.6660067 -0.06982825 -0.11323256 0.16818006 -0.23386511 0.112279184 -0.11486503 0.12162382 -0.004761238 0.025106631 0.5089469 0.027596757 -0.19945718 0.046740957 -0.108896405 -0.06817297 -0.1202659 -0.21248022 -0.14683118 0.049524274 0.06683581 0.41175976 0.10247998 0.09051918 0.27448273 0.23245849 0.17346297 -0.013054281 0.31092095 0.44645628 -0.07938974 -0.55200696 -0.0033837429 0.16379464 0.42337862 0.22635964 0.12273959 -0.23923525 -0.13950562 -0.11970549 0.3138854 0.165816 -0.115244925 0.19055565 0.55340856 -0.28052124 0.25572178 -0.42374703 0.55462724 -0.27200225 -0.06451885 0.3713236 0.44188637 0.0679191 -0.20144956 -0.15876067 0.052279245 0.53658223 0.15049212 0.3624553 0.25895643 0.29640114 0.027661165 0.08425429 0.001940929 -0.71544045 0.40045497 -0.007290919 -0.09714679 -0.26396823 -0.34529328 -0.1473519 -0.26152354 -0.24039581 0.2864786 -0.15550682 0.4757604 -0.16356671 -0.60823965 0.5945039 -0.22594152 0.25823385 0.109855674 0.14323 0.2435389 0.1764159 0.38386714
1543 -0.09473725 0.09964081 0.09901034 0.06397131 -0.39690858 -0.070315525 -0.12963165 -0.5201079 0.3658361 0.31725514 0.6077739 -0.30051085 -0.41823274 -0.3201762 0.15282676 0.42416742 -0.2638956 0.20066863 -0.092398375 -0.7307325 0.50303453 0.54070944 0.3564401 0.16941758 -0.34630176 0.30159464 -0.049419887 -0.20422904 -0.1287727 0.12163828 -0.2697174 0.11091302 -0.07059709 0.89239 0.83883435 0.48193315 0.4487993 -0.11288666 0.15677407 -0.46562296 -0.145532 -0.02215611 -0.013428401 0.03631958 -0.40182108 -0.49275488 -0.08239693 0.28249976 -0.47851577 -0.1719673 0.36441645 -0.17605367 0.14626817 -0.01490014 -0.122100204 0.21589229 -0.07879584 0.020734575 0.08790875 0.05917942 -0.43526465 -0.10962189 0.046754926 0.24364136 -0.003352722 -0.010589987 -0.43319553 0.45070472 -0.4030931 0.35088986 -0.21941969 -0.7410579 -0.10445741 -0.2631135 -0.32486552 -0.39670905 -0.11630637 0.11401238 -0.55904406 0.07710388 -0.18591715 0.25543094 -0.24198483 0.51376635 0.09995617 -0.22756025 -0.16681851 -0.39778093 -0.47540048 -0.018711153 0.0015393556 0.10145023 -0.13404912 -0.21086587 0.3785627 -0.819097 -0.008624886 0.096402064 0.16942453 0.19894822 0.1810926 0.13622925 0.0021162068 -0.018888777 -0.26872665 -0.45809257 -0.11904623 0.7116279 -0.39057025 -0.23215877 -0.067644596 -1.0882034 0.057314962 -0.0005758536 -0.5072883 0.59134275 0.3249915 0.8233926 -0.375484 -0.22109236 0.30485564 -0.3356091 -0.07739929 0.1085462 0.17633072 -0.34314448 -0.3630952 -0.45488304
1225 -0.012183752 -0.11023355 0.064760976 -0.0076491865 -0.3051057 -0.11291038 -0.14015818 0.11077267 -0.100813694 0.4216342 0.13544473 -0.4295086 -0.7521784 0.2094558 0.3874179 -0.29367983 -0.49312478 0.45462763 -0.18988545 0.11567566 0.48410353 -0.07260787 -0.16944641 0.09633735 -0.033302028 0.089296885 0.369998 0.11096934 -0.0078248475 0.05699629 -0.22091417 -0.016147811 -0.17343417 0.39910758 0.1980879 -0.10540907 -0.104215644 -0.46649516 -0.6924551 -0.07423515 0.20384939 -0.097159065 -0.109107606 0.27010217 -0.060212124 -0.1864188 0.042493127 -0.15510917 0.027509635 0.12809756 -0.40920204 -0.020036377 0.08141512 -0.12820481 0.058971114 0.5135628 -0.35991713 0.6075225 -0.38572043 -0.2653519 -0.021776287 0.4254504 0.29014516 -0.14212972 -0.22660224 0.28116348 -0.3073373 -0.37574473 0.25577292 -0.11616333 -0.34891278 0.0101971375 -0.19360025 -0.33250874 0.27920097 -0.2220077 0.18015209 -0.03210749 -0.06049475 -0.006906052 0.054969188 -0.079463914 0.24765824 -0.25624898 0.34801695 -0.12076398 -0.121253036 0.19090058 -0.7691103 -0.41715693 -0.14951195 0.40079528 -0.13705574 0.64190465 0.37297872 0.28820887 0.1922588 -0.19776738 0.035283577 0.20649542 -0.60469055 0.1742613 0.6088297 -0.012730383 -0.23141043 -0.28973073 -0.2627932 -0.24501449 -0.047410287 0.041548565 -0.6144672 -0.1382094 0.010168895 0.026319273 -0.8854785 0.6003439 0.32524124 0.12894619 -0.098122075 0.29558715 -0.13288595 -0.2622325 0.56176 -0.12235972 0.25864127 -0.31634712 0.27417183 0.62087846
1442 -0.23916 0.15237872 0.4496485 0.36794513 -0.18128847 -0.34923017 0.06401127 -0.18849769 -0.049001686 0.6860407 0.09081987 -0.14036214 -0.5263549 0.085643336 0.21515861 -0.6006283 -0.12627426 -0.023538012 -0.601092 0.10164237 0.20002334 0.40093854 0.13911968 -0.38041165 -0.55259997 0.42913687 0.43466425 0.27822778 0.09468131 -0.07568063 -0.0536778 -0.30769986 -0.09149737 0.4784851 0.20440464 0.0008650615 0.32497537 -0.29936904 -0.6888591 -0.06316771 -0.19921383 -0.27112898 0.4556979 -0.04270034 0.2928114 -0.43082255 -0.0892919 0.5449951 0.20034593 0.40357244 -0.25407076 0.45443302 0.45432845 -0.59366673 -0.42645675 0.19991884 -0.00048482878 0.21632949 0.4768684 -0.14154252 0.012489666 0.10195772 0.13690858 -0.31765282 0.08940116 0.21017508 -0.61850494 -0.59102386 -0.30142537 0.05273383 -0.19604091 -0.02034574 -0.16643599 -0.44991615 0.46577102 -0.04265311 0.20112939 0.45262748 -0.1039665 0.3537631 -0.54616815 -0.12177558 0.61098766 -0.39847258 -0.092819534 -0.19473892 -0.07253416 0.30390036 -0.3139201 -0.13548926 -0.38883847 -0.3610074 0.21518493 0.25041243 0.034158595 0.024080865 -0.09895256 -0.42956716 -0.13859448 0.8386085 -0.010064874 0.030073307 0.54060775 0.3056134 -0.80756307 0.40149212 -0.025519885 0.24572387 -0.29782158 -0.073830806 -0.3436289 -0.45680755 0.34079129 0.47615093 0.019637635 0.46553758 -0.37393287 0.17983776 0.2659276 -0.5693199 0.2832224 0.1633074 0.14545633 0.28696075 0.55440575 -0.092054315 0.2895576 -0.51503056
1132 -0.09593281 0.1792116 -0.21042792 -0.056463998 0.08804215 0.0046339966 -0.22150159 -0.10857358 0.016401442 0.17522441 0.20729187 -0.21140788 -0.20209993 -0.2873816 0.41403657 -0.36064643 -0.4267415 0.19257769 0.20793018 -0.44361207 -0.31249064 0.27691734 0.0200009 -0.020836387 -0.3369202 0.041488796 0.21994042 0.023306942 -0.07751557 0.07412644 0.10288603 -0.37344345 0.26576912 0.5454439 -0.0034399503 -0.14336951 0.20824286 -0.5196809 -0.41086376 -0.31821424 -0.18213375 -0.54826206 -0.049762826 0.33470848 -0.39564642 -0.3268818 0.30721182 0.08237371 -0.02347452 0.3958103 -0.12894137 0.31263354 0.027377177 -0.109029144 0.23881198 0.2502005 0.31799573 0.57318455 -0.315282 0.3263171 -0.11550835 0.33954337 0.36391073 -0.45911273 -0.21310106 -0.069621384 -0.16503221 -0.3015728 0.1699824 0.08445627 -0.093282364 -0.262707 -0.63792133 -0.5383717 0.39455336 0.13905041 0.43096495 0.23898461 0.16641217 0.06664232 -0.16535076 -0.20349869 -0.13028856 -0.16071264 0.06342107 -0.12021585 -0.5535372 -0.37929037 -0.35567582 -0.49308503 0.07528003 0.02187406 0.26976413 0.62691617 0.23486894 0.38347057 -0.050889608 -0.38891813 0.26557785 0.14530316 -0.10809469 -0.25849795 0.42149708 0.14491078 -0.5440193 -0.12514843 -0.30424747 0.54830325 -0.115139425 -0.048653264 -0.3466778 -0.010201213 -0.14111756 0.023288269 -0.72803587 0.027388196 -0.3829673 -0.11621458 -0.37886742 0.2732467 -0.2695485 -0.26263103 0.1118242 -0.19509682 0.090073034 -0.6169021 -0.10516232 0.30716375
1170 -0.5829761 -0.1515681 0.06847698 0.214506 -0.091341674 -0.22646761 0.16889596 -0.23797357 -0.20864044 -0.17952195 0.48326758 -0.0625218 -0.28368476 0.045721926 -0.097996764 0.13846605 -0.13975656 -0.17184763 -0.1786826 -0.06307891 0.5789188 0.30145833 0.2239867 0.060882267 -0.31660196 -0.074982285 -0.009825779 0.41825318 -0.22387792 -0.55195904 -0.0636554 -0.011156052 -0.19406016 0.07901933 0.15218194 -0.3452675 0.49585912 -0.018806705 -0.25279242 -0.2494796 0.06670585 -0.033987295 0.05354145 -0.19725747 0.030901127 -0.27634746 0.52190095 0.46895653 0.25719014 0.45479253 -0.5045926 0.6689195 -0.037408296 0.03750122 0.15022591 0.0019848365 -0.35720187 -0.07510849 -0.4053159 -0.27559227 -0.27511287 -0.38737765 -0.052780043 -0.56174445 -0.04282767 0.4447508 -0.2805041 -0.066609904 0.15306501 0.39467365 0.2829293 -0.09065289 -0.37551576 -0.7291887 -0.040523574 0.17203362 0.42645344 -0.11559773 -0.20860174 0.10868913 -0.3961373 -0.04601557 -0.0064803143 -0.49380755 0.26063284 0.11443679 -0.75226754 0.14803956 -0.76289773 0.21804059 -0.17961307 -0.11398176 -0.14412118 -0.30791625 -0.27033487 -0.16458543 0.1929947 0.37011966 0.21057631 0.42178193 0.12377759 0.042243898 0.27195033 0.21623038 0.33051327 -0.29278284 -0.67275524 0.11712267 0.23778811 0.072585605 -0.080697045 -0.086456574 -0.029937359 -0.2537336 0.13418965 0.13692045 0.19674538 -0.22814634 0.2708652 -0.59165573 0.27059188 -0.2919065 0.3187344 -0.068860754 0.36182362 -0.45193857 -0.37145656 0.13884842
1043 -0.22663519 -0.5612124 0.17613761 0.45836025 0.17929156 0.32262105 0.40641075 -0.07362164 -0.20622441 0.30664384 -0.06616047 -0.42206594 -0.5495078 0.17134549 -0.19599362 -0.123948686 -0.061757818 0.4985839 -0.02133951 -0.20028408 0.1822832 0.6084189 0.31950104 -0.41155958 -1.0023053 0.17828798 0.107742555 0.37473324 -0.38178316 0.0642587 -0.22420937 -0.0988116 -0.11084212 0.6834878 -0.09990225 -0.11432029 0.08874913 0.004890276 -0.7450018 -0.08537518 -0.60157305 -0.1569605 0.06604173 0.18020526 -0.21151741 -0.19291125 0.3813519 -0.19663638 -0.31423846 -0.37912902 -0.2072478 0.5825623 0.57624626 -0.20573701 -0.0912163 0.39127183 0.35219225 -0.04961747 -0.0810626 -0.549592 0.30548632 0.0047774846 0.16315813 0.042268082 -0.798089 -0.12734412 -0.41471198 0.27383256 0.17119986 -0.3200702 0.2599059 -0.08986156 -0.09479527 0.0715045 0.44242415 -0.07681234 0.12098145 -0.069639154 -0.36813387 -0.10315334 -0.32123187 -0.017372102 0.08939236 -0.18966997 0.35278463 -0.026892288 -0.07212746 -0.9164333 -0.26607457 -0.42148283 0.049513813 0.35518503 0.013295521 0.24474064 0.30904096 -0.27563328 0.0006798278 -0.31930616 -0.043910973 0.12078584 0.16817465 -0.39906865 0.2853522 0.11052311 -0.4816225 -0.076254785 -0.6200726 0.18388124 0.10018194 0.24136218 -0.1252092 -0.17159495 0.12432963 0.47273606 -0.34523922 0.06813376 0.27775332 0.1959469 0.032266233 -0.21613412 0.12851426 0.5544735 -0.113442935 0.013475803 0.33584812 -0.549253 -0.13065769 0.21342026
1484 -0.32663515 -0.35887852 -0.026445339 0.17736678 -0.0712383 -0.4217164 0.5137104 -0.23590478 0.20592904 0.065389015 0.54757357 0.29524797 -0.42722285 0.8466202 -0.2013713 0.22029915 0.13024591 -0.40726903 0.31258303 -0.54542756 0.14302868 0.683819 0.17874815 -0.4329633 0.06328394 0.27721834 -0.087064415 -0.067490034 -0.20279877 -0.3854437 -0.407385 0.09411985 -0.11799785 0.46293083 0.5331288 -0.17225085 0.18156597 -0.6261026 -0.52093196 0.060480464 0.056177784 -0.2291221 0.069940805 -0.019721705 -0.044891603 -0.2053473 0.014443189 -0.05151286 -0.11552737 0.21780546 -0.067818366 0.13606276 -0.33218274 -0.37694842 0.09713194 -0.17983553 -0.15664178 -0.10868866 -0.38177776 -0.27489078 -0.19117 -0.051095653 0.05255136 -0.21703833 0.6019805 0.25762898 0.07484006 -0.24195704 -0.0887791 0.25612622 0.16675833 0.21493863 -0.58447564 -0.45174116 0.32651836 0.4098359 0.15112548 0.12230539 -0.29224476 0.018809816 -0.09347887 0.12860702 0.089060135 -0.0070127193 0.36756733 0.086903565 -0.23273577 0.2471858 -0.7384297 0.38056952 -0.05503734 -0.58457464 -0.16880679 -0.074368276 0.2005318 0.20307283 -0.04773925 0.07399148 0.23535526 0.37499782 0.20882928 0.15107694 0.14559864 -0.0045630774 0.06627206 0.05464397 -0.30781063 0.1223573 0.3191636 -0.32404256 -0.6497162 -0.15512434 0.059966933 -0.10833281 -0.22523476 0.5493182 -0.118029416 0.3298837 -0.010254898 -0.24461661 0.054961998 0.12118713 -0.30121094 0.12559532 -0.05907921 0.0824236 -0.14993586 0.18063511
416 -0.33215398 -0.498294 -0.22700967 0.100978106 -0.07631743 -0.31335178 0.015724644 0.21575567 0.035553694 -0.028210975 0.26697236 0.003918027 -0.6157719 0.36489388 0.49972612 0.10034176 0.033864945 -0.20005527 0.10390131 -0.13948888 0.2054815 0.03345571 0.15217204 -0.4860971 -0.74668413 0.23940882 -0.08783782 -0.23842368 0.35025993 -0.096104704 -0.089962356 0.14188637 -0.084327646 0.20570241 0.15023191 0.20036983 0.22713321 0.0366169 -0.34417427 -0.45412973 -0.507333 -0.07990761 0.14806548 0.13939108 -7.340807e-05 -0.24337746 -0.13550477 0.63069814 -0.08227118 0.000529606 -0.12548317 0.012116513 0.3644345 -0.1432901 -0.105744526 0.17415963 -0.03957647 0.42462713 0.16493545 -0.43302852 -0.3329877 0.18685476 -0.56164324 -0.40483913 -0.49928284 -0.14072467 -0.15440916 -0.17903997 -0.1198409 0.025209071 -0.026609138 -0.22408628 0.16197215 -0.4020703 0.48870724 0.042160194 -0.07841636 -0.20554224 -0.14414276 -0.07917897 -0.071877256 -0.24364261 0.5099492 0.10580644 -0.058394197 -0.09069497 0.026616232 -0.09462378 -0.18499291 -0.35910043 -0.4560377 0.37515616 0.09248955 0.09775736 -0.2634629 0.2040594 0.5146238 -0.35131398 0.7316789 -0.19478838 -0.027380288 -0.20266537 0.33810383 -0.3237021 -0.04240704 -0.28827515 -0.25987592 0.43392152 0.15865658 0.17381704 -0.58369154 0.038871694 0.0881387 -0.3967374 -0.947305 0.30757186 -0.3901477 0.012414362 0.023657447 -0.12514806 0.24287608 -0.10603202 -0.024856716 -0.14550647 0.30929762 -0.46211255 0.19380878 0.010334887
96 0.22815785 -0.1340473 -0.30937764 0.33037928 0.08802789 -0.14682981 0.19928643 -0.031720467 -0.19811633 0.32035074 0.013758358 -0.28820735 -0.5271933 0.2053488 0.1706384 -0.054321025 -0.081073396 -0.017420752 0.30097494 0.33258715 0.08680499 0.009375985 0.33012742 -0.15012683 -1.2599387 -0.017373228 0.06740179 0.16148247 -0.5437729 -0.7982093 -0.32496434 -0.472538 -0.09833044 0.439797 0.3736421 -0.23418373 0.39769953 -0.24588196 -0.42031977 -0.43863943 -0.15766248 0.1282578 0.02360627 -0.025349546 0.056308556 -0.4941392 0.17425664 0.16662394 0.16129325 -0.2453467 0.29091242 0.4375225 0.41976216 -0.2252312 0.35014388 0.5175666 0.021082086 0.25121447 -0.08200371 -0.24368103 -0.021310572 0.12601374 0.27419263 -0.42236236 -0.7584904 0.27037704 -0.23641784 0.19029544 0.36073813 -0.18742207 0.1449306 -0.087238126 0.28976747 -0.058718193 0.11205938 -0.14825182 0.3528156 0.10763681 -0.17931451 0.0048187454 -0.29234418 -0.26965457 -0.24433413 -0.40444273 0.30440378 -0.15401348 0.14777718 -0.5725227 -0.57510805 -0.3889898 0.10912774 0.31035444 -0.19991529 0.08186245 -0.38742793 -0.2284517 0.017230028 -0.3610804 0.23724361 0.34922746 0.097804986 -0.20914018 0.08288263 0.0845135 -0.39873207 -0.08426639 -0.4711561 0.20533258 0.19916052 0.2660337 -0.3110138 0.38662377 -0.1876182 0.20045264 0.007314908 0.32331553 0.04921482 0.20443366 0.11552523 -0.53096175 -0.033465087 -0.029726293 -0.13819443 0.034301374 0.4971374 -0.45567575 -0.19731899 0.5353594
964 -0.14833336 -0.14080046 0.31006095 -0.030032832 0.43484142 0.2384191 0.27374274 0.018814588 0.052729033 0.44141126 0.21032847 0.20222163 -0.46279642 0.039091945 0.27717832 -0.17018445 -0.36480212 0.15769666 -0.6233067 0.39270365 0.21461949 0.34632754 0.2899223 -0.2561952 -0.2809959 0.05227201 -0.041795354 0.17401516 0.01801217 -0.25458807 0.12359428 0.50814885 -0.21181294 0.30899465 0.15709291 -0.15588202 0.085314594 -0.12715255 -0.4018364 -0.07190286 -0.184344 -0.05358645 -0.100207865 0.23197603 -0.25705802 -0.19479166 -0.33792296 0.30565265 0.018687971 -0.31461236 0.074514605 -0.04800719 0.3434697 -0.032280177 0.30154586 0.9135932 0.4575409 -0.6685115 -0.09451601 -0.12871061 0.17243919 0.26765254 0.07636498 0.11040273 0.031222466 -0.28366467 -0.1352868 0.1587831 0.18058747 -0.05753046 0.45044523 -0.34558353 -0.1612969 -0.31394026 0.65311944 0.13821544 -0.029157292 -0.3177422 -0.15702234 0.37153497 -0.08284483 -0.021702874 0.017099585 0.25627214 0.80302525 0.2129063 -0.28642303 -0.7307658 -0.47730747 0.07150209 -0.22644359 -0.13993713 0.1616951 0.16970089 0.29547697 0.21237604 0.4594271 0.18135676 0.21941352 0.7792961 -0.0063398127 0.4272264 0.28466403 -0.23337206 -0.38600758 -0.024695233 -0.6722888 0.25245023 -0.120740294 -0.3759826 -0.1952059 0.040644314 0.08828268 0.028619478 -0.3712615 0.87264484 -0.081395 0.3519095 -0.6267811 -0.16195121 -0.007222389 0.09245392 -0.10627843 -0.90197927 0.2942044 0.17926045 -0.20478714 -0.58686227
119 -0.15058279 -0.022558725 -0.0027668327 -0.4160977 -0.19602224 -0.11214747 0.029406616 0.0833383 0.100379065 0.28315997 0.3871474 -0.024983507 -0.66608685 0.026667725 -0.115357935 -0.26019555 -0.28599265 0.44066253 -0.25999552 -0.26974273 0.001743832 0.13251 -0.10857941 -0.5114717 -0.15700765 0.7855164 -0.17451659 -0.038382716 -0.040555652 -0.061696462 -0.07923107 0.1317472 -0.13919215 0.5765461 0.544996 0.11401037 0.14008825 -0.33949986 -0.61269367 -0.042245563 0.2905705 -0.60811394 -0.18221612 -0.14974679 0.3170066 -0.22660634 0.17190649 0.23530725 -0.11195438 0.6807479 -0.18838632 0.3269807 -0.04658401 -0.40857625 0.34022427 0.13829175 0.2821037 0.054502018 0.13903 -0.12014063 -0.33784217 0.28059253 0.30512673 -0.027029457 0.009322191 -0.035919745 0.12282743 -0.2819806 0.044047985 -0.048667908 0.06444716 -0.011619028 0.110378556 -0.38498792 0.3927328 0.108204074 0.09806173 0.2707445 -0.14316875 0.09350092 -0.20197707 -0.13164574 0.084277585 0.04547784 0.43417454 -0.10149656 -0.20428798 -0.49302498 -0.56823707 -0.16886958 -0.645037 -0.23118076 0.5732072 -0.051853903 0.0091635 -0.07592723 0.19767621 -0.30858132 0.10746382 -0.3057312 -0.311597 -0.023434343 0.6643163 -0.12853137 -0.546719 0.1887152 -0.36465666 0.33184442 -0.22470649 -0.24387401 -0.5858838 0.20551637 -0.24662144 0.64555573 -0.4978373 0.4860099 -0.60396624 -0.0036164378 0.10686748 -0.069616586 -0.43828657 0.21361814 0.35645115 0.26664326 0.5542928 -0.03075716 0.43653435 0.08793949
2183 -0.098844 -0.28471348 -0.07895601 0.12450591 -0.23894306 -0.44421735 0.20275979 0.30517337 -0.27468 0.3244346 0.3443323 -0.106652185 -0.7407642 0.35183874 0.18181203 0.020082759 0.021595059 -0.08665704 -0.09750931 -0.28458855 0.17099977 0.44055668 0.07589606 -0.631792 -0.64230806 -0.07220563 0.042099006 -0.18650481 -0.24956109 -0.64789 -0.18471813 -0.06541318 -0.41210485 0.40675908 0.15502438 0.15036707 0.21377088 -0.14187601 -0.5295606 -0.39398232 -0.03214417 -0.20498742 0.08497388 0.080094375 -0.22251731 -0.23724043 0.34513855 0.20028104 -0.059383955 -0.27238902 -0.011473482 -0.23812778 0.54073507 -0.7148381 0.0667429 0.122692816 0.47496045 0.13763961 -0.13350418 -0.34053144 -0.14564157 0.78450745 -0.2490918 -0.49212375 -0.44388965 0.1786621 -0.15889853 0.03273672 0.41121414 -0.32809946 -0.13629663 -0.18601121 0.25680983 -0.6138724 -0.014202039 -0.291014 0.13024947 -0.31346777 -0.42916733 -0.034508303 -0.35398293 -0.35145274 0.040351428 -0.23670368 0.26666564 0.10531608 -0.09278485 -0.32284364 -0.26028928 -0.5680962 -0.53924155 0.17218989 0.11289699 0.05042178 -0.10086355 -0.05938668 0.220197 -0.26452798 0.32467514 0.05980174 0.4627952 -0.29103258 0.26453865 0.19400565 -0.13398674 -0.30081636 -0.70157105 0.60149753 0.0809204 0.23487961 -0.1936086 0.18870479 -0.094900385 0.14628766 -0.16048868 0.35145706 -0.3445702 0.06986226 0.55668724 -0.42802292 0.325843 0.32103014 -0.78407496 0.11598651 0.37546128 -0.58788234 -0.11822217 0.42501727
437 -0.38838422 -0.29902422 0.01717921 -0.25671732 0.34323233 -0.18992239 -0.010141382 0.14532568 -0.11330626 0.40519938 0.014422071 -0.23874643 -0.7790597 -0.019193284 0.38127425 -0.12879062 -0.35238698 -0.19065495 0.16172291 -0.20292196 0.3502053 0.344088 -0.28577268 -0.14682071 -0.5677972 -0.05944512 -0.15785953 0.07949245 0.11813873 -0.010612048 0.3187215 0.48717353 0.51197153 0.7389441 -0.10900021 -0.35090908 0.29894844 -0.6357827 -0.22347215 -0.63001937 -0.45198596 -0.33596548 -0.27835554 0.13191904 -0.2835972 -0.72598815 0.30923557 0.27566698 -0.39642978 0.17425458 -0.006040796 0.039172977 0.1920905 -0.11585673 0.027255794 0.19925208 0.28006402 0.71122086 0.13596874 0.08802571 -0.48017728 0.31686664 0.4370456 0.1976498 -0.21419075 0.36954942 -0.53347933 -0.044156734 0.19388011 0.051420778 0.049654856 0.09624251 -0.17814308 -0.24648003 0.38998902 0.21347444 0.027842745 -0.37019366 0.08561012 -0.18747723 -0.3985697 -0.34427404 0.11359343 0.022466786 0.02399137 0.040002786 -0.32167175 -0.15246783 -0.39256144 -0.57674176 -0.23937833 -0.01729767 0.37871405 0.64168394 -0.015256248 0.618918 0.023433186 -0.06253101 0.6038659 0.0056980457 -0.16910677 0.05109522 0.13681266 -0.2670057 -0.7192853 0.17825265 -0.1597754 0.10405429 -0.12267361 0.16652784 -0.37624294 -0.200349 -0.3020369 0.063073345 -0.6847995 -0.060649693 0.014457309 0.12127713 -0.42248806 0.2955045 0.020182567 -0.12141327 0.050724603 -0.17502768 -0.15700231 -0.18642423 0.26860598 0.040037822
1417 -0.19279826 -0.6869823 0.046117183 0.2809842 0.37019178 0.021266295 0.25928965 0.0862546 0.026824715 0.3810398 -0.11556285 -0.5408395 -0.7406718 0.41635263 0.22813633 -0.13928239 0.23273887 0.3750247 -0.32328364 -0.17851621 0.13117369 0.13567622 0.07166251 -0.3801922 -0.49152595 -0.17800908 -0.10335436 -0.15537253 -0.28941295 0.069825225 -0.0015570939 -0.22723663 -0.21636449 0.5621715 0.19204241 -0.33731362 -0.14819665 -0.12620887 -0.47707564 -0.10490439 -0.5813661 -0.38519582 -0.33934712 -0.024529058 -0.17427358 -0.22940093 0.111492045 0.032572445 0.33814952 0.008075197 -0.08190659 0.49450228 0.7409148 0.06798807 0.021369476 0.18292701 0.1888507 -0.23226865 0.38671914 -0.4891434 0.031387765 0.06246471 0.048633166 -0.057548936 -0.40484896 -0.18325159 -0.42935976 0.29231954 0.35918218 -0.07060615 -0.023438368 -0.49008328 -0.11674292 -0.1859885 0.5563341 -0.17664546 0.14571486 -0.12252968 -0.19183975 0.1451101 -0.11355128 -0.09814427 0.08192541 0.250862 -0.32186714 -0.21896379 -0.06646991 -0.34059393 -0.67546153 -0.3872732 0.3819942 0.2847734 0.12699337 0.45299473 0.65228754 -0.22007339 -0.2321617 -0.12534289 0.24667004 -0.11111991 -0.14791167 -0.36740226 0.45586178 -0.17573681 0.015142728 -0.30499783 -0.34823152 0.17706308 0.2438773 0.04213274 -0.2507213 -0.32242465 0.13597453 0.15244313 -0.92632365 0.23514329 0.5859507 -0.49673536 0.3373393 -0.06641517 0.09727504 0.26350257 -0.02602354 0.042936586 0.5761807 -0.5507661 -0.55233556 0.53095716
1693 0.08957055 -0.77381575 -0.021034796 -0.08749204 0.009235269 -0.18842678 -0.02920443 -0.45688564 -0.32623285 0.5194087 0.5486543 -0.37065452 -0.2604472 -0.0029401302 0.0696467 -0.035225235 -0.09447469 0.2937762 0.10639199 -0.24688165 0.34728172 -0.110716894 -0.31037244 0.051637046 -0.9302988 -0.066485815 0.10150282 -0.2728782 0.17094557 -0.5530265 -0.13730143 0.58754116 0.20253187 0.42709008 0.06557718 -0.009977592 0.6385563 -0.16833253 -0.32747713 -0.20358145 -0.2861755 -0.14906934 -0.22998807 0.053780675 -0.27372754 -0.37423834 0.18389182 0.045202233 0.0059215287 -0.24623036 -0.08029697 -0.055374727 0.89301646 -0.14586917 -0.05788408 0.17006035 0.1653632 -0.27025324 -0.012157766 0.3199838 -0.42149732 0.10776498 -0.08630362 0.21538897 -1.0004053 0.60622406 -0.538115 0.6083979 0.3402595 0.53351176 0.12484698 -0.032792103 -0.261352 0.08148275 -0.066568606 -0.14296995 0.09036574 -0.20133641 -0.44768968 0.124422 -0.016174246 -0.04626792 0.021145975 -0.32396907 0.00065848633 0.04115409 -0.77137303 -0.34996122 -0.6862582 -0.8427982 -0.29605696 0.16640106 -0.432726 0.5431002 0.40331957 -0.2829226 0.103643686 -0.018109178 0.48496118 0.31840733 0.06314632 -0.0038446179 -0.09370094 -0.09695891 -0.1082598 -0.008894034 -0.23243146 0.044576272 0.5012618 0.1381386 0.055564832 -0.19932514 -0.2728899 -0.23483206 -0.18142529 -0.12414372 0.19859286 0.3368376 -0.34011683 -0.23950519 0.29016805 0.3357414 0.2962359 0.087682664 0.00054783304 -0.3743151 0.24147405 -0.17870599
1258 -0.74434185 -0.7881202 0.26506895 0.85702276 -0.009743158 -0.23318927 0.28145522 -0.90857995 0.6435568 0.5270048 0.9673228 0.17612949 -0.82110494 -0.26334757 0.40240428 0.24222046 -0.6231859 0.57628703 -0.5997582 -0.490196 0.9786813 0.3522494 0.18765745 -0.6774179 -1.0248358 0.042405386 -0.021545429 0.3338501 -0.5016761 -0.20202595 0.060868103 -0.54090434 -0.40190715 0.3808696 0.4970554 0.06332242 -0.025795816 -0.1720083 0.25104317 -0.47675234 -0.08264129 -0.23797609 0.28467363 -0.3154967 0.06299101 -0.57238376 0.5460645 -0.47789615 -0.11035141 0.13432585 0.028105222 -0.52865154 -0.40003896 0.08054681 -0.00012258581 0.37119684 0.07788777 -0.72930723 0.041702263 -0.1965473 -0.09893797 -0.1321238 -0.058380492 -0.28705642 -0.35211048 0.6732382 0.031012371 -0.3016319 0.004164774 0.11608912 0.4903573 -0.47673938 -0.062488623 0.23143494 0.34039098 -0.23644866 -0.1689494 -0.4752374 -0.23369667 -0.09002719 -0.20934471 0.2869646 0.2693074 0.052754413 0.1090239 -0.20885102 -0.43060178 -0.23868597 0.047409847 0.035736468 -0.22206815 0.2045566 0.16021024 0.2885948 0.3708563 0.4110135 0.059221853 0.5211279 -0.10691579 0.22065783 -0.2561028 -0.013399705 0.20216498 -0.14827713 -0.6538455 0.2489439 -0.13514875 0.3587494 -0.17449808 0.33420607 -0.27434522 -0.22270131 -0.24591647 0.09152956 -0.3191372 0.42188933 0.10459099 -0.033434488 -0.4796646 -0.43158925 -0.08578749 -0.2225888 -0.5781903 -0.11846304 0.31787357 -0.111538604 -0.23277475 -0.07464967
2156 -0.027139783 -0.4162898 0.4243637 0.42227376 0.07411823 0.26771128 0.08529118 0.06493813 -0.12118623 0.64342844 0.23540758 -0.35181302 -0.67476535 -0.1322996 0.33685988 -0.216262 -0.24952894 0.6374196 -0.11440344 -0.21420844 -0.061326712 0.03820191 0.019366708 0.21907122 -0.3696124 0.09727511 0.07025509 0.15406387 -0.016524248 -0.2859405 -0.19556358 -0.15957478 -0.1628812 0.3112525 0.1795315 -0.20685479 0.18820566 0.002170908 -0.70781744 -0.16029522 -0.08937291 -0.24932373 -0.13944635 0.24591886 -0.18162185 -0.22852863 -0.16652958 0.056169093 -0.11797579 -0.5936566 -0.42690402 0.37898374 0.5139636 -0.2087175 0.31754765 0.33568984 0.30035615 0.26309106 -0.27331275 -0.3489737 -0.26328105 0.06681597 0.6062414 -0.45899516 0.03746772 -0.2188466 -0.10513591 -0.17880662 0.46957904 0.18470238 -0.18474205 0.10309482 -0.5547023 0.03471305 0.591935 0.023173166 0.2074687 -0.2002448 -0.22571838 0.16567063 0.15269037 -0.23596787 0.18670544 -0.23757409 0.47853336 -0.1411847 -0.38966694 -0.4617425 -0.15509449 -0.21204071 0.019050157 0.2086938 -0.0670924 0.20651773 0.32249224 0.07706262 0.19561654 -0.3717018 0.01957308 0.2053722 -0.11139407 0.18904041 0.34785917 0.18267068 0.04244713 -0.09411578 -0.5659143 0.015636895 -0.24530932 -0.11292548 -0.41412228 -0.16674404 0.0899069 0.25183117 -0.7521882 0.12744728 0.07640012 -0.14932808 -0.13038035 0.34647563 -0.32692212 -0.37761804 0.03709604 -0.29537642 0.27761045 -0.51734614 -0.07870813 0.40395445
1704 -0.30828092 0.02211484 0.19229543 0.30233824 0.39955518 0.21729448 -0.056915574 0.009670439 0.24598669 0.7331571 0.31659105 0.10390121 -0.47993487 -0.11275093 -0.092661835 -0.11680855 -0.27222085 0.38382745 -0.45333186 -0.0397407 0.15867133 0.14323032 -0.02799114 -0.5112578 -0.48542655 0.07999614 -0.13483462 -0.1377707 0.022710644 -0.22934651 0.47586486 -0.02273161 -0.36214814 0.36100838 0.46232268 0.2636663 0.28184485 -0.16548577 -0.3329709 -0.033473812 -0.30327234 0.01910515 -0.22826354 -0.13325496 -0.20365982 -0.32541057 -0.17134774 -0.02805453 0.07248978 -0.4332434 0.087474726 -0.31926525 0.3712192 0.29756477 0.11452169 0.44885713 0.29758415 -0.6524952 -0.08699161 -0.19122869 0.2444643 0.21483509 -0.2126826 -0.07135353 -0.18151595 -0.43354452 -0.4072572 0.3306819 0.3105041 -0.2154985 0.17104165 -0.83674365 -0.23080122 -0.18634097 0.72315085 -0.04690894 0.002494365 -0.50218254 -0.26500055 0.44727257 -0.11446602 0.077249184 0.038747765 -0.05091629 0.24133664 -0.1046941 -0.13789204 -0.7653814 -0.400358 -0.071244486 0.0018802731 0.21099015 0.18732002 0.24731638 0.3248953 0.28049517 0.43310148 -0.037427578 0.28635886 0.38682902 -0.09755791 0.10230364 0.3230544 -0.5402189 -0.23029713 -0.4499646 -0.25734165 -0.053157624 0.041961577 -0.08301616 0.04525926 0.006654665 0.05902893 0.028352728 -0.25789306 0.52718306 -0.18471088 0.407307 -0.6831885 -0.3415646 0.13057974 0.013756877 0.06688224 -0.86414593 0.12761815 0.12054791 -0.17536904 -0.8127452
311 -0.36168972 -0.23197494 -0.024497883 -0.2833057 -0.106127776 -0.12783103 0.21450818 -0.66029173 0.2758953 0.109293155 0.93560505 -0.14654967 -0.51707613 -0.4617797 0.38641793 -0.22653154 -0.10759294 0.013962818 0.08736784 -0.5978398 0.5448149 0.28943747 -0.14462557 0.08410793 -0.39877123 0.3933974 -0.097382136 -0.05831925 -0.18873313 -0.098829985 -0.25050634 0.24399418 -0.0727206 0.76846 0.34193763 0.58937067 0.49085745 -0.28060883 0.046242062 0.010840543 0.1178597 0.04702376 -0.2663673 -0.087657735 -0.28125393 -0.20684692 0.060765643 0.44022086 -0.74165714 0.29592147 0.36378166 -0.5188335 0.23602742 0.1041786 0.024413392 0.11219571 -0.2139453 -0.36514637 0.19700298 0.3229831 -0.28293788 0.118409395 0.27826312 -0.053939927 -0.32527804 0.19634841 -0.4010471 0.16699953 0.28510883 0.10446139 -0.2177971 -0.6989593 -0.46362936 -0.5668067 -0.56108123 -0.1422376 -0.032411307 0.12024755 -0.674928 0.19491415 -0.3375338 -0.21470653 -0.19531058 0.29488418 0.3785266 -0.6007857 -0.04580797 -0.34616363 -0.028911551 -0.21915425 0.18560407 0.003922084 -0.25001687 -0.018325698 0.4838824 -0.47942492 -0.3355667 0.14731416 0.23169057 0.37452346 0.5827945 -0.16095504 0.20594849 0.17867641 -0.3782264 -0.46417168 -0.3489079 0.86255026 -0.24229807 -0.42756525 -0.04324713 -0.60856205 -0.050386712 0.26993877 -0.28361478 0.26672238 0.06413155 0.31547853 -0.45619634 -0.32220796 0.23364532 -0.52982557 -0.027673906 -0.057249103 -0.07741523 -0.46511203 -0.20038003 -0.48115358
1414 -0.10818036 0.15599678 0.20299673 -0.018847814 -0.2837906 -0.11098726 -0.023541363 -0.60815024 0.26152125 0.55603105 0.3977399 -0.32700798 -0.66118646 -0.08610375 0.45184422 0.4535749 -0.52190846 0.35742852 0.08086864 -0.9046542 0.53330564 0.7030477 0.2857196 0.18243207 -0.28288755 -0.02175496 -0.12456695 -0.22791341 -0.23940362 -0.07818335 -0.10058487 0.08480882 -0.25409395 1.03616 0.7588982 0.60392404 0.5752172 -0.055318072 0.030198112 -0.65848243 0.081797265 0.23533054 0.29923794 -0.008608153 -0.5965591 -0.33644077 -0.10306338 0.16795975 -0.6047664 0.12609643 0.2787153 0.12901291 0.14530104 0.08490212 -0.107184984 0.4351698 0.17173867 -0.1391079 0.14052759 0.05898056 -0.47691554 -0.21310474 -0.12625635 0.0452313 0.26770863 0.38711587 -0.37349513 0.23975138 -0.42744166 0.44564268 -0.27703387 -0.72627056 -0.12915672 -0.49400032 -0.1439829 -0.36376327 -0.055047907 0.16081895 -0.73620343 0.33180684 -0.43026674 0.67227715 -0.18391491 0.41926914 0.18406966 -0.14354269 -0.44341508 -0.46350962 -0.3134147 -0.15544826 -0.07235849 0.06630917 0.21033768 -0.23144254 0.08120296 -0.8042734 -0.23992775 0.011779696 -0.0799407 0.28673527 0.17372754 0.2743833 0.081875145 0.054402854 -0.08448186 -0.1418799 -0.21063334 0.81289244 -0.16613388 -0.25026822 -0.15218274 -1.1438816 -0.016899152 0.063176215 -0.5096121 0.85081595 0.615436 0.8089034 -0.10316429 -0.4094345 0.2607312 -0.29525697 -0.046280157 0.13028526 0.14564322 -0.4106307 -0.25477394 -0.46772164
2002 0.25928864 -0.6037646 -0.13774082 0.2838306 0.23964411 -0.15085998 -0.038300894 -0.9607313 -0.27908507 -0.0053703883 0.37859502 -0.24455254 -0.20280938 -0.3231051 0.06676403 -0.005212228 -0.4874006 0.50812316 -0.07347374 -0.21901953 0.30444247 0.073121235 -0.220518 -0.12186729 -0.0561067 -0.13609543 -0.19555336 0.12536447 -0.16763839 -0.009669393 -0.12356201 0.5509883 0.03219014 0.68338585 0.29522187 -0.2456198 0.5381614 -0.3899704 0.034873404 -0.24546577 -0.23088554 0.034267183 -0.08380479 0.33598226 0.20567484 -0.29781613 0.1091954 0.106823176 -0.2035712 -0.5452788 0.044333726 -0.20939347 0.49814722 0.010862496 0.33125558 0.34120575 0.14112183 -0.31970844 0.17523019 -0.012462924 0.030621842 -0.1090639 -0.006544425 -0.18866263 -0.81815696 -0.1755238 -0.6081814 0.55068535 -0.062715024 0.2990853 0.21327026 -0.09178925 -0.636341 -0.102814585 0.0071465597 -0.060437717 -0.13310237 0.21598221 -0.46063438 -0.34833208 0.099033706 0.074323446 0.2532186 -0.13291697 0.16410756 -0.037740637 -0.121884614 -0.16775264 -0.65610766 -0.34475136 -0.18364389 0.1304017 -0.47889325 0.18172687 0.44270548 -0.3664668 0.60275537 0.05995476 0.71700674 0.0807233 0.11104824 -0.08564015 0.06343507 -0.088719845 -0.16109931 0.03514032 -0.09494868 0.0451438 0.18376021 -0.39955607 -0.086956926 -0.1432759 -0.23234373 -0.30435652 -0.17318942 -0.283043 0.04370523 0.20464614 -0.47713345 -0.6679719 0.27677336 0.25603005 -0.00031943165 -0.11348965 -0.0027566298 -0.053569257 0.13925827 -0.41728193
1104 -0.46290615 -0.00998539 0.0092357565 0.54027283 -0.22702685 -0.6892993 0.26503274 -0.16752155 0.1617464 -0.10409194 0.250253 -0.08539615 -0.68651205 0.12133189 0.06059073 -0.13514648 -0.0652131 -0.48952824 -0.2529908 -0.17723045 0.1467425 0.15101703 0.54487103 -0.18963312 -0.11180146 -0.29278776 -0.16609536 0.0070664776 -0.3107023 -0.3561507 -0.17529729 0.12300998 -0.023008386 0.5588777 0.205825 -0.23625983 0.08719276 -0.6590371 -0.5021189 -0.421473 0.103657134 -0.15628046 0.036065605 -0.31447247 -0.059496105 -0.18643717 0.10793665 0.16612399 -0.08569178 0.6184739 -0.3944718 0.33287144 -0.4410363 -0.0024482922 0.40841576 0.19783077 0.02884015 -0.04016127 -0.40759137 -0.011504214 -0.7336742 -0.13263813 0.23342918 -0.08948993 0.07617608 0.3874229 -0.41416207 -0.15580106 -0.23447163 0.17381074 0.47462115 -0.14088017 -0.5306839 -0.45329803 0.02941494 -0.25860438 0.05858448 -0.2587627 -0.09700501 0.324788 -0.00091514224 0.5807314 0.31425402 -0.6357145 0.41811606 0.1622761 -0.5789213 0.21992622 -0.66228014 0.40815344 0.15795133 0.025717666 -0.041285075 0.17128143 -0.03368881 -0.05485269 0.3730361 -0.0019896098 0.14620109 0.1708202 0.09322 0.07194527 0.08400095 -0.41164863 0.5533072 -0.513836 -0.3696839 0.3282763 0.096015446 -0.18287943 -0.33983472 -0.16241378 0.32215405 -0.24818201 0.019461315 0.1670621 0.39715838 -0.19043171 0.45911843 -0.5380352 0.3080008 -0.16370164 0.3640032 -0.49518564 0.3886955 0.12326284 -0.29937133 0.27170092
974 0.21018383 -0.25055233 0.120788425 -0.41594496 -0.14622107 0.1907649 -0.07727972 -0.1536639 -0.11693805 0.22928712 0.2722303 -0.139443 -0.70539266 0.5755322 0.22254303 -0.245323 0.098233245 0.28006494 -0.29083672 0.05270703 0.32778352 0.3336148 0.3045295 -0.09612976 0.09803124 0.4833701 -0.13247144 0.22630216 0.4458825 0.066699825 -0.3696547 0.15782976 0.042975154 0.2399593 0.09370205 -0.4701661 0.7097225 -0.3368573 -0.14483526 -0.49030814 0.16498326 -0.37390503 -0.0019405365 0.0049081435 0.66439223 -0.43000183 -0.16265382 0.11350435 -0.18990365 0.19187059 -0.14217561 0.38056508 0.48775473 -0.13355093 -0.025197662 0.21830365 0.07534791 0.2634026 0.18078725 -0.13527627 -0.38083628 -0.04832249 0.5309753 0.31306827 0.22350787 -0.14496721 -0.12294395 0.013226926 0.15033099 -0.27659065 -0.30879232 0.17790896 -0.3244166 -0.23127799 0.41080764 0.19084546 0.49641135 0.09541429 -0.09013051 0.0696475 -0.017232494 -0.10685214 -0.085761294 -0.10867819 0.46002352 0.18911889 0.22974415 0.113029905 -0.34813392 0.024969606 -0.27586305 -0.17478353 0.13676208 0.09012283 0.6920138 0.13081498 0.55152375 -0.14150503 0.36025402 0.025727874 0.11030647 0.5253508 0.42310232 -0.17693791 -0.33668777 0.17611797 -0.10616864 0.43872237 -0.018859072 0.016402837 -0.31641904 -0.09907761 0.011124204 0.21502435 -0.5668507 0.7253031 -0.18407324 0.6358943 0.07954598 -0.22814916 0.07873604 0.050856415 0.15930636 0.19950785 0.041987184 -0.027404284 0.08850006 0.410715
430 -0.27024534 -0.6336874 0.024046892 0.4469196 0.0840219 0.17077613 -0.054671466 -0.6719408 -0.2583237 0.38311568 0.54070055 -0.09282888 -0.69354385 -0.71785015 -0.030321114 -0.26582834 -0.42020327 0.28316194 -0.2053289 -0.43034035 0.037764534 0.030285118 0.107093245 -0.3232763 -0.33673167 0.25465992 0.24060486 -0.3117292 -0.28250238 0.00019987681 -0.10051621 0.28111795 -0.5928203 0.8747138 0.32224306 0.1020937 0.41149464 -0.18526189 -0.24496172 -0.5056336 -0.3260399 -0.21928605 0.10740264 0.37309995 0.37413502 -0.24852659 0.20665635 -0.028551988 -0.3635615 -0.78593594 0.10709497 -0.123945445 0.42731228 -0.06190272 0.35941106 0.17856166 0.20672758 -0.48267356 -0.09474498 -0.5458511 0.026056299 0.059151858 0.14154683 -0.5418005 -0.47185707 0.04643961 -0.58506864 0.8903118 -0.11799965 -0.15523286 0.03533032 -0.04722704 -0.51274693 -0.12303915 -0.12697493 0.072885595 0.17235099 0.10445755 -0.16884924 -0.19621366 0.1725973 0.05855719 0.19445546 -0.24189277 0.2534036 -0.019281493 0.27467376 -0.38738042 -0.4700501 -0.08726217 0.18190527 -0.014078471 -0.26605392 0.18225005 0.46313432 0.0356856 0.03046446 -0.17756781 0.115007885 0.46605435 0.42941347 0.10426206 0.10807692 -0.21871378 -0.18696253 0.08333374 -0.22375688 -0.09141776 0.063807584 -0.11455369 0.22939105 -0.11871359 -0.16715764 -0.5169939 -0.11219839 0.039168764 -0.020208668 -0.061037287 -0.40827718 -0.42684618 0.27327773 -0.07659094 -0.12022752 -0.12582384 -0.16547097 -0.24288522 0.31094557 -0.21159889
1766 -0.4922803 0.08990391 -0.12452343 0.4450371 -0.41632438 -0.15738805 0.21815261 -0.19300728 0.17116202 -0.18011038 0.54891604 -0.016580574 -0.5042192 -0.007294879 -0.09687771 0.5751941 0.1369111 -0.4847361 -0.10292858 -0.19834395 0.10938538 0.2521523 0.19559367 -0.14677206 -0.27066904 -0.072578266 -0.3252726 0.3905197 -0.15874818 -0.7327953 -0.3110365 -0.13310397 0.029624216 0.17167506 0.20187922 -0.13417624 0.6431012 -0.34221503 -0.08958818 -0.59115726 -0.008768467 -0.0885232 -0.08274595 -0.16562225 -0.14877613 -0.05626453 0.6087797 -0.018066188 0.13934402 0.6152676 -0.612435 0.12723649 -0.19761714 -0.07121707 0.24655086 0.30071017 0.028113415 -0.087948084 -0.48694238 -0.039590728 -0.4945458 -0.29377088 0.06527583 -0.27755138 -0.17636006 0.71382314 -0.3695313 0.1665626 0.15640025 0.13668615 0.0052569048 -0.15518779 -0.365074 -0.76726276 0.2468536 0.32230765 0.18313193 -0.03850943 -0.19942096 0.109523535 -0.09528192 0.03487803 0.096215986 -0.18396479 -0.1192056 0.10020732 -0.7170987 -0.03230256 -0.5286594 -0.12640125 -0.12587196 -0.33794993 0.016261293 0.12472074 -0.26826945 -0.043269295 0.4751919 0.38161922 0.26051256 0.50023115 0.3460912 0.1320179 0.27310103 -0.16535927 0.24013124 -0.43079206 -0.38825127 -0.05008813 0.22894564 -0.26411682 -0.1369249 -0.25296524 -0.08923562 -0.121492945 -0.014209834 0.53182465 0.33139485 0.1393798 0.53140426 -0.2665584 0.55585843 0.093501315 0.5466396 -0.09147912 -0.14397183 -0.03269718 -0.4406765 0.12616473
508 -0.17217813 0.07448225 0.32687882 -0.03164789 -0.35161582 -0.15189905 -0.20016411 -0.25962967 0.37139758 0.41887295 0.4401693 -0.22144233 -0.7653527 -0.09075818 0.400549 0.37441817 -0.6094547 0.39994732 0.18335967 -0.69744444 0.66532844 0.7223663 0.27778915 0.077045254 -0.5469704 0.01167803 -0.023246923 -0.21820095 -0.40847823 -0.12207885 0.041115414 0.18968889 -0.14968194 1.0413389 0.75520253 0.5100988 0.5093979 -0.20293166 0.0345064 -0.75090146 0.054508813 0.1754152 0.16638122 -0.08499274 -0.61794364 -0.20544735 -0.0042092483 0.22798802 -0.73274136 0.2152872 0.07192972 0.060095023 -0.060844865 0.07781045 -0.108038485 0.2899991 0.16064319 0.056256108 0.023618149 0.074675225 -0.404989 -0.08889643 0.098832004 0.09592945 0.23086917 0.4095472 -0.56074154 0.22387066 -0.34776905 0.53386503 -0.40856758 -0.7962008 -0.107737474 -0.505798 -0.1693922 -0.32161596 -0.13497345 0.083053365 -0.68191826 0.3023524 -0.35111892 0.7439739 -0.36433434 0.47455305 0.17055534 -0.11389801 -0.30005994 -0.41073847 -0.32976937 -0.24453819 0.054484 -0.031353455 0.16376047 -0.2715746 0.01855302 -0.67766666 -0.28203937 -0.0056517953 0.093766 0.3308298 0.20977682 0.30202636 0.09312929 0.020900704 -0.115724586 -0.08506613 -0.34736592 1.0328944 -0.25423494 -0.2659198 -0.29536435 -1.1295142 -0.15925407 -0.0055978894 -0.70014673 0.68882024 0.6822051 0.76785314 -0.19053829 -0.4192335 0.15359968 -0.47708 -0.05852663 0.09370986 0.06386203 -0.19965124 -0.22595936 -0.46034032
1625 0.107984364 -0.36715943 0.0869995 -0.040937383 -0.03757138 -0.04880772 0.30587193 -0.72510505 -0.36055976 -0.07752356 0.44436744 -0.18993358 -0.6078163 -0.21342875 -0.14324722 0.10982879 -0.22573856 0.31191126 -0.5862586 0.114184104 0.43519226 0.6716035 0.09945444 -0.26380497 -0.05593538 0.39828902 -0.61758983 -0.42711332 0.22076495 -0.50175524 -0.5179444 0.36727312 0.26502883 0.5865601 0.08927336 0.2845471 0.19388977 -0.21568015 -0.24524719 -0.017187824 0.041017212 -0.31612495 -0.16732499 -0.029541934 -0.21291392 0.05362508 -0.036600787 0.075320184 -0.17959775 -0.12311845 -0.27078384 0.045318432 0.12665133 -0.29609728 0.5388344 0.4598076 0.59835804 -0.45039058 -0.034166973 -0.12644166 0.54768735 -0.034235355 -0.07777671 0.24894966 -0.4325042 -0.20460849 0.28311175 0.16572674 0.22417063 0.043626916 0.09081546 -0.06758397 -0.11510331 -0.45401672 0.17243044 0.108322196 0.3296786 0.09926761 -0.35653773 0.061131716 -0.31376252 -0.18420948 -0.30147776 -0.22829168 0.4863289 0.5202392 -0.27598515 0.110922605 -0.12418134 0.100549236 -0.28722894 -0.11120056 -0.045118947 0.2488202 0.09494016 -0.016145907 -0.15278614 -0.11374493 0.027047755 0.62997854 0.18982385 -0.062742345 0.017756877 -0.10628878 -0.14603016 -0.02722959 -0.70224667 0.5403381 0.14022578 -0.014055457 -0.22252843 0.48628017 0.20231213 -0.13712586 -0.38972646 0.22122191 -0.3716499 0.4625949 -0.39861983 0.23431078 0.052980382 -0.041535046 -0.27141005 -0.39610726 0.30959514 0.2083468 0.031870384 0.12685561
662 -0.12404507 -0.334955 0.018233102 -0.5446721 0.086923435 -0.2678557 0.11075615 -0.29870224 0.31912392 0.5775473 0.062142935 0.2864303 -0.9338845 0.09269159 0.1309108 -0.12562677 0.42442942 0.4642053 -0.38039768 -0.33277187 0.3172564 0.59984666 0.20368966 0.031073969 -0.26638597 0.13940522 -0.13069507 -0.043325793 0.0476556 0.178998 0.16948493 0.7188557 -0.108586505 0.21724296 -0.00090825965 0.12513927 0.08636041 -0.33528194 -0.3388793 -0.20421402 -0.063297234 -0.27163985 0.0088142585 0.26996154 -0.10483288 -0.2906468 -0.19045047 0.44538245 0.13533102 0.10305904 -0.12342809 0.11913654 -0.2243048 -0.15125199 -0.32198253 0.3046299 0.19004864 0.28347996 0.56713754 -0.23187564 -0.086600624 0.11838517 0.264535 -0.5324134 0.6973669 0.071558364 0.08479625 0.017700596 -0.103659846 0.3068595 0.14794314 0.23523495 -0.17009097 -0.45202607 0.3306723 -0.18572064 -0.20232527 0.78122896 -0.18846883 0.4331981 -0.4721843 -0.08916974 0.23600183 -0.24489632 0.15766709 -0.2597447 0.06386713 0.18729143 -0.43217182 -0.18057267 -0.30698314 -0.3169901 0.12761109 0.35254374 0.06723013 0.45705017 0.20753586 0.13170566 0.22249152 0.6223585 0.2609509 -0.08681044 -0.017407905 -0.19792795 -0.39915544 0.3924762 -0.5227714 0.06942909 -0.42249674 0.13325866 -0.37063307 -0.10281233 0.06475732 0.027729219 -0.47756994 0.39577082 -0.3188672 0.6626558 0.209193 0.04365278 0.3862491 0.27369216 0.011036404 -0.14561848 0.08470013 0.21130335 0.08273174 0.30188605
1629 -0.28005436 -0.576253 0.18781215 0.16916513 0.035010297 -0.08782121 0.04349835 0.24784362 -0.06934554 0.219641 -0.12903035 -0.08888626 -0.7947027 0.40808192 -0.03580002 0.18502837 0.32228106 -0.15976189 0.016064117 0.14372137 0.23480082 0.52477545 0.3343293 -0.40334135 -1.1507745 0.17112091 0.04749999 -0.16414425 -0.12987605 -0.38201421 0.06074007 -0.14958902 -0.035776448 0.7852389 0.25437635 -0.08371086 0.120530315 -0.03923337 -0.53200513 -0.097502224 -0.39987466 -0.48705688 0.31463736 0.05825519 -0.25922215 -0.46356937 0.51777655 0.161912 -0.4209533 -0.56646097 0.20380649 0.090620264 0.4869045 -0.23724788 0.3355136 0.33872026 0.14050537 0.13216528 0.13534927 -0.344362 0.24988696 0.3497291 0.03878766 0.0639416 -0.5966069 0.06638852 -0.2571691 0.19113296 0.15588483 -0.21996507 -0.14063634 -0.2095343 0.13408852 -0.12919746 0.25994006 -0.19838353 -0.09142236 -0.019900922 -0.15119357 0.11060297 -0.64674884 -0.34692258 -0.103014864 -0.32719886 0.12216559 -0.0773734 -0.24299471 -0.40844417 -0.57633406 -0.5549424 -0.077661745 0.43698728 -0.10059392 -0.29959917 0.3577556 -0.3953277 0.13238487 -0.24978465 0.07665335 0.3040006 0.060671803 -0.22292222 0.019167066 0.16472857 -0.05477466 -0.31451157 -0.77554286 0.20762956 0.19588904 0.21727768 -0.1267024 0.38216016 -0.014713781 0.18432267 -0.2783613 0.16924156 -0.05601865 0.18386836 0.3110793 -0.47057134 -0.052978955 0.14052106 -0.44077864 -0.04961217 0.31654337 -0.42788914 -0.002007228 0.30780977
2395 -0.158907 -0.26677194 0.092637025 -0.0610932 -0.47191298 0.035542928 0.043600027 -0.056120202 -0.106816486 0.39082837 0.18997389 -0.43677804 -0.41771176 -0.12331989 0.11223407 -0.04500424 -0.033773217 0.054459948 -0.23315838 -0.08562986 0.9191381 0.14563715 0.2925037 -0.42808008 -0.42734274 0.116668426 0.08835282 -0.07055528 0.17057028 0.43358722 0.2357837 0.061691493 -0.021008123 -0.2891639 0.4487534 -0.19964163 -0.29353806 -0.59636045 -0.53755903 -0.5190775 -0.3406049 -0.11246854 0.32138395 -0.20504123 -0.13715231 -0.581876 -0.013137145 0.259782 -0.37076202 0.101672865 0.44800442 0.31465256 -0.032454535 -0.29600665 -0.085995555 0.04633134 -0.32559678 0.2511631 0.34170857 -0.019831462 -0.46345994 0.10765893 -0.12964922 -0.02767012 -0.5664429 -0.3258921 -0.3572179 -0.1707683 0.041747708 0.44631892 -0.40897152 -0.42835432 0.010054927 -0.22881775 0.4388598 -0.11844637 -0.0030066338 -0.042385813 0.19578072 -0.2544939 -0.035044782 -0.034615275 0.22405605 -0.2899675 0.5305713 -0.52518636 -0.06712403 -0.15992105 -0.49274865 -0.47910035 -0.4918492 0.051971298 0.11946613 0.33938152 -0.10729985 0.907723 0.44820493 -0.33141485 0.36074254 0.19403756 0.12041596 0.17475596 0.41279787 -0.37717673 0.18392286 -0.31766447 -0.3037076 0.496911 -0.42219356 0.1085851 -0.16616444 -0.10712693 0.045878556 -0.03719819 -0.7736691 0.8088718 -0.33114558 0.09938227 -0.30089557 -0.17273445 0.17137687 -0.5837926 0.13548718 0.01713144 0.3081367 -0.31607074 -0.006583542 0.2595112
1726 -0.5054397 0.06463813 -0.25852528 0.4471732 0.19903688 0.20476615 0.21603388 -0.61696064 -0.007982796 -0.2760267 0.10982525 0.077907875 0.08532224 0.04199766 0.001042492 0.26962724 -0.0056385645 -0.2547668 -0.07306752 0.076454625 0.43421653 -0.0035921605 -0.058841977 -0.31145114 0.053525478 0.3239254 -0.29649162 -0.1449827 -0.17070158 -0.52468055 -0.42467132 -0.13195053 -0.20800291 0.30951533 0.21717495 -0.016777059 0.6669271 -0.77272767 -0.30414492 -0.37219575 0.15890402 -0.46604165 -0.14530824 -0.21204549 0.3518204 -0.3224148 0.39368224 -0.00034939367 0.05423858 0.2651806 -0.36687204 0.15314409 -0.12177662 -0.04957978 0.07093309 -0.06322763 0.14050561 -0.08625103 -0.2828618 -0.15222993 -0.61386174 -0.053235654 -0.044776365 -0.09537593 -0.07586579 -0.15310578 -0.38966984 -0.54763395 0.07546102 0.0723269 -0.0366337 0.26700667 -0.40072215 -0.60526335 0.20378825 -0.021276994 0.47802028 -0.000901918 -0.022304423 0.08096368 -0.45911554 0.1846273 0.46153313 -0.20453894 -0.031005308 0.28526652 -0.663249 0.4128392 -0.27155498 0.2080593 -0.14628977 -0.13394845 0.29780108 0.17703936 -0.110142425 -0.10804043 0.008176826 0.33918983 0.04492861 0.46453708 -0.06913798 0.21627843 0.21827824 0.13070291 -0.16919087 -0.18364665 -0.54921794 0.42914835 0.072510734 -0.19551975 -0.62260526 0.2692311 -0.06828334 -0.20769225 -0.06281113 0.07437809 0.094183736 0.19974983 -0.028988313 -0.70666176 0.608231 -0.58253616 0.3020459 0.073682584 -0.06604601 0.15908918 -0.3706123 -0.034402862
2249 -0.77947587 -0.7023401 0.34445482 1.0251309 0.15404487 -0.03971768 0.24691392 -0.75600415 0.49859333 0.6571317 1.0029968 0.16714978 -0.75402594 -0.2975591 0.49057662 0.21521476 -0.60770917 0.58473945 -0.54440707 -0.32868868 0.8109416 0.5406163 0.09487224 -0.6708235 -1.0556204 0.031142792 0.11607488 0.45200315 -0.48554322 -0.6073954 0.050182432 -0.51019627 -0.17600314 0.28497368 0.4795226 0.17287159 0.13920666 -0.40634495 0.20792396 -0.3834535 -0.071403734 -0.2599024 0.044052858 -0.36768058 0.027632665 -0.42767745 0.56692547 -0.41369084 0.00023323939 0.064063884 0.03577181 -0.450764 -0.33286145 -0.14460725 -0.008634006 0.25335917 -0.10984306 -0.5966746 -0.019358404 -0.14650649 0.01526285 0.051884934 -0.15051791 -0.25327364 -0.36635303 0.3123668 0.26809567 -0.3528519 -0.17039837 0.2269782 0.42840654 -0.24730235 -0.12728338 0.2793881 0.22370692 -0.19832721 -0.1926991 -0.6309443 0.005259178 -0.13615207 -0.20194888 0.4163849 0.36205894 -0.14387818 0.08794547 -0.28858224 -0.4311957 -0.04392621 0.0038148914 -0.24594615 -0.16945457 0.18513776 -0.042643644 0.10607324 0.23088767 0.55889297 -0.06284848 0.60938 0.020594427 0.29736868 -0.17847607 -0.24904628 0.02530635 -0.30641738 -0.5792176 0.29071894 -0.10347187 0.35856128 -0.3052682 0.312237 -0.22619462 -0.23954304 -0.33512503 -0.030730508 -0.3239692 0.4977269 0.14497451 -0.16927278 -0.48170394 -0.29827294 -0.16917306 -0.027128596 -0.14145976 -0.10796378 0.40746766 0.06545233 -0.2732 0.09114998
1310 -0.41128582 -0.59842557 -0.29089448 -0.13685316 0.23705243 -0.22411081 -0.39257932 0.05507318 -0.018453214 -0.0638539 0.21301891 -0.002762009 -0.6122674 0.11552757 0.30732697 -0.22435957 0.026923146 -0.15723269 0.2383602 0.26160562 0.12303585 -0.008647518 0.16670954 -0.2389038 -0.5081192 0.03934506 0.032592647 -0.026122665 0.41375062 -0.28837633 0.053443965 0.19775549 -0.17891307 0.15544993 -0.029488746 0.012236628 0.024916762 -0.25822192 -0.33079326 -0.60394764 -0.23409383 -0.4364413 0.06729209 0.03845198 -0.11825822 -0.15744787 -0.012462886 0.2909867 -0.17556329 0.17425872 -0.24735215 0.27644444 -0.08447921 0.16749805 -0.23889709 0.2521954 -0.03647785 0.37430534 0.48595297 -0.18379183 -0.8748228 0.07146336 0.07774828 -0.30884817 -0.22101426 -0.21164843 -0.2312137 -0.15692012 0.2326902 -0.09088711 0.104163505 -0.005968455 0.09482112 -0.36455747 0.27202398 -0.1769798 -0.15740214 -0.20447692 -0.42745322 -0.02617695 -0.85370916 -0.18315113 0.32810938 -0.0433418 0.22603366 -0.5054782 -0.12487307 -0.13799393 -0.41792282 -0.054874092 -0.21175241 -0.17962933 0.19992432 0.7109211 -0.0869589 0.6129501 0.26632762 -0.13297415 0.3565409 0.20873784 0.17130758 -0.29816848 0.42744088 -0.35281616 0.39231 -0.32450387 -0.03316283 0.105982915 0.10284014 0.3024635 -0.5965654 0.12979266 -0.2582734 -0.25802526 -0.6811126 0.41875675 0.03220269 0.023219954 0.18311656 -0.05240762 0.5033019 -0.0840886 -0.14928785 -0.34545124 0.3673226 -0.16995715 0.05662782 0.22815518
688 -0.6591385 -0.095898695 -0.18593736 0.35581604 -0.31025028 0.003754249 0.29954508 -0.76824254 0.0723865 -0.040457483 0.0714704 -0.08777136 -0.1827453 0.47091648 0.11570241 0.19035846 -0.15042032 -0.55065453 -0.0893892 -0.039193373 0.17400905 0.20588635 0.2422511 -0.07369399 -0.20149773 0.16351052 -0.28580338 0.06250962 -0.025172934 -0.30375203 -0.017537938 -0.14839755 -0.08004481 0.07599793 0.13319896 -0.18763502 -0.04630949 -0.42409906 -0.18463911 -0.16899681 -0.17319016 -0.13227277 0.33617648 -0.14932492 0.06913826 -0.12564862 0.94517326 0.118839644 -0.2977747 0.33559078 -0.38399157 0.09453697 0.09795369 0.02651802 0.29308718 0.083632715 0.011468274 0.28498822 -0.4198877 0.24031174 -0.50903094 -0.20877764 0.06787068 -0.09502624 -0.14537601 0.076743886 0.05546071 -0.22009625 -0.34776458 0.659186 -0.23091954 0.15795377 -0.8813748 -0.4626452 -0.005932063 0.15158641 0.3233977 0.15774386 -0.1555257 0.23127992 -0.17618483 0.24199855 0.034003586 -0.28782162 -0.34718606 0.17969082 -0.51665735 0.48485264 -0.53635997 0.13079515 0.15024416 -0.07388486 0.1645567 0.2509709 0.09329677 -0.034285404 0.17968765 0.082990415 0.46949407 0.30629045 0.21893217 -0.122411266 0.29835048 0.07484946 -0.17941988 -0.20932308 -0.39431137 0.7419735 0.10998246 -0.33797884 -0.13340165 -0.055435006 -0.26137933 -0.19000892 -0.2202281 0.38168308 0.44362444 0.18689334 0.03900878 -0.07916544 0.5373625 -0.12900138 0.4831866 -0.24230736 -0.26860356 -0.4040723 -0.22217378 -0.115541495
2672 -0.6756737 -0.9360926 0.3428141 0.82661164 -0.047552872 -0.2948896 0.20182367 -0.8830462 0.49643388 0.40586594 1.0619605 0.18508272 -0.96703297 -0.23599203 0.73304325 0.1769359 -0.8133921 0.54650974 -0.6302318 -0.5878879 1.0527447 0.5333755 0.3120547 -0.7469987 -0.90641946 0.22687724 -0.11558144 0.46879706 -0.54766154 -0.17356496 -0.0072805695 -0.56687236 -0.28242403 0.29298013 0.4458518 0.03711794 0.0834357 -0.24648461 0.17905377 -0.55985296 -0.04982473 -0.36163095 0.22939853 -0.3762486 0.07243011 -0.54580283 0.736444 -0.5424616 -0.067691475 0.18621889 0.08141396 -0.4957123 -0.5000841 -0.014325082 -0.05168479 0.11956096 -0.02504246 -0.50426 0.1638069 -0.2919935 -0.007369328 -0.19711977 0.1184174 -0.30448642 -0.36588427 0.68653417 -0.09178894 -0.20600156 -0.20147043 0.12262567 0.39556968 -0.31327754 -0.09973408 0.27601978 0.29686144 -0.22675882 -0.07429227 -0.32791802 -0.28733525 -0.126537 -0.3296574 0.3452174 0.29523066 -0.1351016 0.1698357 -0.27352676 -0.10110202 -0.14447828 0.18679336 0.057745893 -0.37866512 0.01925627 0.079918414 0.3712195 0.42299443 0.086035036 0.10685415 0.46695885 -0.0775346 0.13212888 -0.14588395 0.22873567 -0.01369761 -0.1536491 -0.51105314 0.17304045 -0.17461568 0.5715224 -0.29943773 0.19863053 -0.19031341 -0.09335776 -0.43496227 -0.08095312 -0.48159626 0.35116357 0.003212167 0.044248965 -0.42910692 -0.47856665 -0.14313686 -0.05323514 -0.34281674 0.09542617 0.25540277 -0.3721759 -0.24598086 0.12357865
1974 0.17653501 -0.46097723 0.028465467 0.016632743 -0.026756441 -0.29104483 -0.12151885 0.04032199 0.018899122 0.22810288 0.22045885 -0.106358394 -0.6189988 -0.07800641 0.19566365 0.09427367 -0.6518249 0.18022661 -0.03210781 -0.032407437 0.54629046 0.530824 0.24713878 0.3204158 -0.37054446 0.11036021 -0.06928978 -0.021471467 -0.002659823 0.17073023 -0.2714188 0.049104422 0.051667664 -0.079185724 0.044794377 -0.02918435 -0.2387688 -0.4572886 -0.81796175 -0.7381988 -0.08964456 -0.087528944 0.32076555 -0.17715573 0.08716222 -0.38902062 0.04775045 0.26547882 0.035826504 -0.025774464 0.025882185 0.21188429 -0.08174209 -0.48544025 -0.10572909 0.11343659 -0.06613611 0.67236835 0.09613009 -0.25835234 -0.49493635 0.079792045 0.0051099854 -0.35062692 -0.15813333 -0.28573102 -0.14729078 -0.24116535 0.26421955 0.24337977 -0.24301192 0.059380986 -0.10997767 -0.30359697 0.5639655 -0.29854402 0.047581825 0.27099586 -0.2935713 0.16393687 -0.19933109 -0.17620164 0.3866682 -0.260993 0.4721161 -0.0006724021 -0.17613278 -0.44084275 -0.57660264 -0.035649676 -0.30525854 -0.09468903 -0.22160795 0.44600898 0.13358225 0.2768654 0.4438198 -0.23615445 -0.048317887 -0.20562942 -0.027019313 -0.05643808 0.90362954 0.09204818 -0.2059423 -0.013253459 -0.69440377 0.26425526 -0.36547175 0.1795115 -0.18460944 -0.3030996 0.098954484 0.16459544 -0.79895407 0.3138974 0.15142469 -0.22581524 0.12549782 -0.0070188614 -0.36238798 -0.24637336 0.20687206 -0.20277904 0.19478688 -0.045686945 -0.26188952 0.7546364
1951 -0.39502764 -0.19047976 0.11944512 -0.25785524 -0.33837017 0.057387948 0.16126017 -0.6157959 0.61430603 0.10285934 0.98752695 -0.19522145 -0.49165878 -0.3292787 0.29139602 -0.13002488 -0.22187056 -0.036515363 0.06011042 -0.49565175 0.5775232 0.3369283 -0.13099875 0.24127561 -0.40788123 0.26887944 -0.053751457 -0.028742956 -0.12646307 -0.21421534 -0.27883017 0.21034433 -0.021213584 0.82524514 0.3690822 0.43991116 0.5658085 -0.13167164 0.19098006 -0.09654435 0.25946286 0.1301432 -0.19557285 -0.21902263 -0.32752898 -0.15549096 0.08231751 0.51019347 -0.5421075 0.27232367 0.3233244 -0.54641175 -0.049581286 0.13148396 0.17378259 0.059072055 -0.12520084 -0.20724243 0.16953579 0.36790752 -0.17299047 0.0878961 0.44997856 -0.24701595 -0.24566509 0.11085547 -0.48891786 0.10673369 0.258453 0.33697313 -0.20902058 -0.7941847 -0.29796776 -0.48666167 -0.48653477 -0.009864212 -0.016361913 0.24117962 -0.52091384 0.2943296 -0.33399886 0.11516797 -0.37707478 0.16250026 0.28323674 -0.5768632 -0.10954589 -0.39634997 -0.097725265 -0.29438096 0.14547917 0.085566506 -0.27974924 0.081706315 0.59388363 -0.6614309 -0.46454972 0.10495765 0.25271365 0.49507013 0.30875143 -0.12822677 0.2579282 0.1975684 -0.5707234 -0.3907724 -0.3794514 0.94674814 -0.5945444 -0.52946657 -0.05885406 -0.77260375 -0.02535299 0.25482407 -0.40282407 0.16673128 0.3151853 0.40146083 -0.40439045 -0.26771247 0.1727249 -0.4554462 0.034891065 0.014158665 -0.08090117 -0.41874295 -0.07278752 -0.43931505
1743 -0.50174975 -0.0063563064 -0.32846493 0.58091336 -0.20460102 -0.04215873 0.11671915 -0.76916873 0.5750585 -0.26162505 0.41534874 0.1572109 -0.23893932 0.23344256 -0.25604057 0.28514636 0.13650201 -0.5323288 -0.1860921 0.0014755717 0.4618247 -0.03829387 0.3520723 -0.50704706 -0.039532647 0.25365785 0.2452232 -0.12064194 -0.40409285 -0.6674591 0.26597178 0.03303294 0.101481974 0.4807779 -0.0156186335 -0.079058975 0.6685376 -0.5767969 -0.42042097 -0.49067575 0.20093262 -0.21197774 -0.18861172 -0.06971431 0.40021038 -0.069592774 0.40944785 0.32054386 -0.10595793 0.5807749 -0.49331623 0.2702462 -0.19950469 0.18390317 0.39935845 -0.26956514 -0.08975779 -0.34410954 -0.2924114 -0.0029301662 -0.41414893 -0.13399382 -0.17595781 -0.16378814 -0.5071007 -0.07910087 -0.48442724 -0.46370423 -0.17332895 0.22844936 0.1783046 -0.01837062 -0.46134478 -0.816934 0.36202204 0.14935032 0.23096386 0.1915285 0.08332819 0.109883115 -0.10081103 0.2959878 0.15742213 -0.322524 0.2638549 -0.040708456 -0.58969307 0.07202734 0.016153753 0.053891312 -0.22366251 0.16985868 -0.10973837 0.059403665 -0.2884974 0.03686655 0.07537192 0.36170018 0.18776876 0.69819415 0.27807447 0.2785567 0.102259144 0.123045556 -0.24406043 -0.18372512 -0.377008 -0.15338752 0.20834395 0.06761434 -0.33218932 -0.23787832 -0.0564169 -0.05038695 -0.100633845 0.1966582 0.3175254 0.06102757 0.23564643 -0.2970134 0.37757915 -0.4298813 0.251139 -0.1790438 0.064160965 -0.30165288 -0.16617455 -0.4062286
526 -0.20245788 -0.575847 -0.17522877 0.22526832 -0.023570755 -0.25516826 0.16838111 0.2398939 -0.31965148 0.263143 0.22300413 -0.08415148 -0.7152218 0.41356426 0.39724046 0.25980935 0.29299453 -0.04565306 0.21880071 -0.035215504 0.26939774 0.20803238 0.30255708 -0.5117204 -1.2519542 0.117191344 -0.022909785 -0.06433175 -0.1227514 -0.49415657 -0.022768112 -0.059400715 -0.20573102 0.45376042 0.19865496 0.18593383 0.3137777 0.027959064 -0.46150976 -0.26919264 -0.49160165 -0.14174546 0.27386102 0.19051708 -0.16833632 -0.3723164 0.23030102 0.44314095 -0.38300052 -0.39716417 0.048876625 0.26015538 0.8158271 -0.1443577 0.06552726 0.30288056 0.12220973 0.21510506 0.37940168 -0.23344927 -0.25776818 0.32566673 -0.20222239 -0.17962907 -0.6802834 0.19944291 -0.20743541 0.10124011 0.077950075 -0.08281318 -0.18000373 -0.30891785 0.28210548 -0.24750568 0.15771784 0.01601284 0.1905307 -0.08454617 -0.21893747 -0.02224247 -0.23478322 -0.19564147 0.097483106 -0.040869843 0.13607839 -0.0068847216 -0.119457796 -0.3734483 -0.5344677 -0.41829154 -0.37646988 0.40092388 -0.13819294 0.022451486 0.10952836 -0.23479955 0.16432725 -0.4204343 0.36127654 0.18396586 0.13454632 -0.048436493 0.05604072 0.18780118 -0.16919766 -0.28077018 -0.5833807 0.46690774 0.30619475 0.17864294 -0.2960904 0.27156126 -0.04946574 -0.19550866 -0.19225065 0.46792454 -0.3535041 0.1673624 0.35346687 -0.4868455 0.051323567 -0.091163374 -0.4435511 0.112792335 0.61103463 -0.53414744 -0.03339328 0.49482262
1230 -0.47816473 -0.42134896 -0.20051643 0.44827655 -0.26268494 -0.039739802 0.5018367 -0.6526164 0.025255086 -0.5643169 0.48270106 -0.253956 -0.12943071 0.35734075 -0.29802865 0.54146695 0.11197213 0.34364644 -0.26586425 -0.2549021 0.011682949 -0.18699315 0.58379376 -0.16285977 0.010174576 -0.25117385 -0.036945887 -0.09017029 -0.21483411 -0.668993 0.006728272 0.10554326 0.16554557 0.44530863 0.11880529 -0.097274 0.39780313 -0.4996867 -0.17263778 -0.36564663 0.2429932 -0.15512104 -0.024135249 -0.25682196 -0.051816136 -0.22939333 0.3967022 -0.15400991 -0.28794944 0.75352937 -0.45538563 0.33603504 -0.1321043 -0.057967216 0.34716126 0.089423895 0.03089971 -0.2696618 0.036861237 -0.23036808 -0.98231536 -0.08317798 -0.19487019 -0.10293634 -0.24209112 0.098801255 -0.10620612 -0.38495103 -0.12068434 0.33159325 0.3482466 -0.21160418 -0.5079191 -0.44842303 0.36205512 0.359916 0.030342337 0.20960997 0.1502343 0.1256164 -0.47329506 0.27899927 -0.065763764 -0.13811848 0.44754207 0.3391336 -0.21823905 0.22594619 -0.4688363 -0.10291991 -0.12086042 0.2810845 0.34139302 0.625072 -0.37379083 -0.045544125 -0.124380924 0.35260653 0.14288269 0.61580616 -0.1801486 0.108401306 0.133759 -0.107840516 -0.035581566 -0.395309 -0.04304986 0.34927312 0.007690763 0.15890887 -0.44711247 0.41790715 -0.07462266 -0.06592287 -0.48404565 0.1963493 0.43155056 0.78655785 0.35006905 -0.3527968 0.1099018 -0.4432995 0.12414707 -0.10122492 -0.044715814 -0.27431905 0.000940505 0.0507519
1895 -0.2466104 -0.10719321 -0.18222155 0.08505408 0.09107412 0.24052158 -0.069644764 0.17302087 0.39954683 0.0666359 0.4021646 0.077007525 -0.16355102 0.0139812315 0.04070302 -0.3256643 0.008582293 0.02587006 0.31497973 -0.2804413 0.3123243 0.011911899 -0.22946244 -0.3207445 -0.3596641 -0.22152305 -0.025400374 0.22775991 0.06786238 -0.2878679 0.4201476 0.12576254 0.148415 0.47784272 0.29203126 0.21175858 0.5226897 -0.31847173 0.16125098 -0.885247 -0.031746387 0.14277124 -0.3157587 -0.46201757 0.13509218 0.09959269 0.10661111 0.106703624 -0.3092265 0.14336216 0.07410534 0.23767522 -0.20576128 0.38736618 0.5610216 0.25852156 0.2169435 0.011094706 -0.4307368 -0.39168745 -0.013733421 0.116585225 0.6264678 -0.7182945 -0.03466653 0.15192474 -0.3149209 0.4453324 0.213533 0.111986585 -0.18699157 -0.51915616 -0.29505384 0.023739416 0.21217495 0.16743448 0.12024207 -0.17345467 -0.5135846 0.37631902 0.02352152 0.43012005 0.15436111 -0.10994709 -0.10298782 -0.10256761 -0.021025592 -0.22716774 -0.43065843 0.012258969 0.47466218 0.02599348 0.06761921 0.25907874 0.19249287 0.103820845 -0.33822405 -0.09197093 0.36947998 0.25792575 0.0028977846 0.29214308 0.48027164 0.060012456 -0.09581727 -0.04464458 -0.03632083 0.5156533 -0.36503777 -0.01958726 -0.19935586 -0.3707073 -0.2606328 -0.26682073 -0.90453506 -0.15082428 0.5106614 0.38327405 -0.14670599 -0.31346077 0.13690268 -0.38296595 0.23781064 -0.22503611 -0.22430843 -0.020796554 0.19210719 -0.046948105
1928 -0.13517153 -0.20847635 -0.10124893 0.2449298 -0.09806441 0.3807861 0.0087545505 0.18938868 0.22143027 0.3097691 0.17740121 -0.17593503 -0.57717764 0.03432648 0.42674008 -0.33362874 -0.037744876 0.21507901 -0.05300578 -0.49535677 -0.19639863 0.09146025 0.36650905 -0.04649801 -0.42225778 0.25551325 0.17929073 0.076651536 -0.086203225 0.18450794 0.45698205 -0.67351127 -0.21699615 0.6162794 0.41325527 -0.37426603 -0.030209176 -0.27976462 -0.43501478 -0.28470185 -0.38787445 -0.80957687 -0.33293438 0.38569823 -0.20649934 -0.6320002 0.14679572 -0.28333673 0.15674171 -0.05927954 0.34625134 0.38734967 0.6086542 0.22565317 0.27001244 0.27986324 0.20044366 0.01655518 -0.008168588 -0.21181037 -0.523561 -0.2382136 0.09795665 0.01213626 -0.27302703 -0.37198842 -0.38777748 0.42944717 0.3555369 0.081749246 -0.3794735 -0.5709214 -0.40356752 -0.15456046 0.7481263 -0.1366407 0.20926785 -0.35656932 -0.088811964 0.10086152 -0.23402058 -0.19990666 -0.12542008 -0.000105444844 -0.017823996 -0.3628406 -0.08001381 -0.36191267 -0.38538182 -0.11037421 0.48464268 -0.046533734 0.24216802 0.29431048 0.25034624 0.33198366 -0.18024798 -0.24814913 -0.13432309 0.04737497 -0.049312167 0.09288525 0.3854165 -0.27553704 -0.096855134 -0.14828081 -0.13247123 -0.109652214 -0.04520595 0.2289261 -0.26265684 -0.37129214 -0.112545185 0.45934787 -0.98225313 0.35821307 0.17856716 -0.010207577 -0.21407245 -0.18186064 -0.04967459 -0.42571315 0.056022123 -0.35506147 0.39324108 -0.37316632 -0.15039514 0.10909784
351 -0.14271261 -0.6267531 0.20262158 -0.0328401 0.024922064 -0.11302468 0.350751 -0.82851815 0.021023532 0.013895193 0.41542035 -0.18143338 -0.6273439 0.09057156 0.06935398 -0.15717648 -0.32972744 -0.011686352 0.2492378 -0.32861406 0.2411517 0.24297877 0.076070964 -0.20934148 -0.050638452 0.3870643 -0.31157756 0.1204954 -0.009323024 -0.46778908 -0.41317418 0.3024189 -0.2574532 0.5077176 0.43973273 -0.054804 0.26264113 -0.5444316 0.08199303 0.041839316 0.24405709 -0.45893 -0.14921544 0.1155204 -0.22955982 -0.20106858 0.13758838 -0.042847622 -0.42354074 0.21172746 -0.0063614203 0.21482001 0.43724236 -0.34659585 0.4629405 0.34641424 -0.06770678 -0.1162707 0.016601393 -0.18304211 0.28141743 0.19261923 0.093988985 0.6606465 -0.0631927 -0.020514809 0.18600887 0.026253147 -0.0023442574 0.2339121 0.26047406 0.16089937 -0.22956319 -0.3119473 -0.062351022 0.14452362 0.0155009935 0.062749065 -0.08751729 0.27821448 -0.3921833 0.21641153 -0.3143961 -0.15178955 0.5574593 0.1712815 -0.2514842 0.34633324 -0.12523597 0.03364974 -0.12882014 -0.4179224 0.114425614 -0.04675051 0.49468076 0.18480001 -0.4510491 -0.10633237 0.16358957 0.24562144 0.61337936 -0.15498169 0.015739879 -0.20495112 -0.3424373 0.05268329 -0.36538038 0.49325684 0.12685104 -0.14658888 -0.79534554 0.45520392 0.15987933 -0.10666515 -0.32410696 0.66001 -0.47597337 0.27333045 -0.30985567 -0.07532385 -0.15275548 0.0173156 -0.1563619 0.17033078 0.04724241 0.2838965 0.4938848 0.3865383
2368 -0.107241824 -0.1617217 -0.39368013 0.058108505 -0.07448274 -0.2641182 0.068368234 -0.29863772 -0.012023403 0.021413159 0.008565944 0.17868243 -0.5631803 0.011341122 -0.4990986 0.5061437 0.009127705 0.58217883 -0.3001533 -0.25087813 0.64815587 0.32832348 -0.44294888 -0.4268403 -0.29447275 0.40111235 0.21011974 0.22219944 -0.427863 -0.398871 -0.3591405 -0.10464326 -0.118894316 0.660059 0.63792866 -0.046147645 -0.31118515 -1.01084 -0.20426777 -0.7328229 -0.07789423 -0.2825572 -0.33450726 -0.17560574 0.039864164 -0.43974614 -0.1499945 0.39274585 -0.6352908 0.43789518 -0.061929706 0.2933229 0.31393167 -0.34153852 0.08004278 0.3548856 0.15077369 0.11281357 0.0050998633 -0.24087606 -0.6284696 0.67411226 -0.4422156 -0.24224919 -0.7320558 0.23476917 -0.33006015 -0.49698582 0.08091789 0.03545642 -0.44437099 -0.30027497 -0.08068533 0.56449723 -0.044800907 -0.26538184 -0.4020588 0.644958 -0.0065852907 0.35056233 -0.28666097 0.8686128 -0.43195412 0.478507 0.65268856 0.10354762 -0.4949881 -0.122943506 -0.23750089 -0.17786874 -0.2814348 -0.060706474 -0.3094177 -0.38304347 0.4226682 -0.34007257 0.3725871 0.14193816 0.42722377 0.0977677 0.41993594 -0.32867384 0.550364 0.53500736 -0.42830223 0.058339313 -0.7991378 0.25755027 -0.5953696 -0.18279843 -0.5547655 0.029603658 0.11231499 0.090533175 -0.4753546 0.5555776 -0.61541736 0.2219238 0.010638722 -0.10467836 0.5191559 -0.35582513 0.15658766 -0.57426566 -0.27280086 -0.30027977 -0.30855227 0.010968314
1741 -0.7099632 0.01073778 0.07182711 0.557155 -0.24616243 0.02840422 0.23545061 -0.6444786 -0.011646063 -0.27691337 0.29380798 -0.44054726 0.086579874 0.1784468 -0.2252376 0.68675077 0.31483278 0.09504797 0.05030944 -0.045512434 0.18444943 0.47080612 0.024308892 -0.018441996 -0.21258454 0.21392184 -0.38848618 -0.021927005 -0.03583653 -0.7272779 -0.28099763 -0.12027315 0.13312007 0.5270378 -0.13832729 -0.06639597 0.4379799 -0.7654593 -0.21086322 -0.12437518 0.3327357 -0.41925383 -0.055013314 -0.3437179 0.43187955 -0.12343635 0.4819608 0.030089978 -0.10094779 0.11015879 -0.2039953 0.3186431 -0.15460575 -0.19424087 0.11717544 -0.18469538 0.35014647 -0.17644513 -0.18608238 -0.35931402 -0.6922241 -0.09446269 0.40432885 0.24693525 0.08097744 0.09708556 -0.13749155 -0.29890054 -0.18038009 0.090589754 0.1277313 -0.037216347 -0.5984451 -0.35874352 -0.07717755 0.133182 0.29770797 0.028406026 -0.11517257 0.277492 -0.43356425 -0.027979331 -0.011132143 -0.5730101 0.4721731 0.38744518 -0.54287946 0.17608634 -0.29571518 0.4851376 -0.48789203 -0.025214229 0.36731672 0.46134463 -0.21492581 0.026688207 -0.08280607 0.22985277 -0.043817025 0.45505005 0.28886464 0.0069389893 0.23402914 0.36374778 0.11791848 -0.27746367 -0.14552297 0.455254 -0.0940639 -0.032928437 -0.56823814 0.11746844 -0.2723271 -0.04658454 -0.28315774 0.1962608 0.17243357 0.57155323 -0.047860887 -0.5633075 0.10315463 -0.3229474 0.12777176 -0.34427604 0.08042 0.27502972 -0.031791482 0.023312245
1120 -0.036950078 -0.8461233 0.081505045 0.30244598 0.17535998 -0.118844815 -0.15467906 -0.09335432 -0.052384082 0.087358005 0.7165316 0.043417603 -0.2394865 0.31980637 0.3949456 -0.086667046 -0.7244359 0.117226146 -0.21002205 -0.4289575 0.35563442 0.65802604 0.032254726 -0.5246116 -0.15367635 0.27764744 0.048455555 0.69337195 -0.30192503 -0.19256671 0.6478879 -0.42039704 -0.06260898 0.66193116 0.7163745 0.22708634 0.37845618 -0.5183608 0.21336828 -0.50548756 0.0028098992 -0.66231483 0.14217778 -0.05675731 -0.27642778 -0.31219915 0.7871563 0.20195201 -0.37303364 -0.15959442 0.24986663 -0.2836826 0.36285567 -0.18003462 0.3107127 0.4893978 0.305337 -0.63277423 0.23429798 -0.420912 0.04323878 0.011706951 0.07174372 -0.46519253 -0.23431005 0.08544884 -0.16859196 0.41310334 -0.58054656 0.9815492 -0.22626926 -0.46451408 -0.64625645 0.24002895 0.029369175 -0.25268155 -0.20819965 -0.076495364 -0.48583966 0.122166954 -0.07691507 0.24035306 0.38808662 0.02330814 0.2934115 -0.36038882 0.23478177 -0.19022733 -0.32626525 -0.2560803 0.111663036 -0.21262012 -0.4750837 0.3696462 0.26878783 -0.20962495 -0.06355298 0.60799146 0.010734831 0.7487477 -0.03250319 0.20318407 0.111651085 -0.6116067 -0.28742433 0.011249386 -0.029729025 0.29493716 -0.67331594 -0.06902416 0.00091278047 0.07184068 -0.2061959 -0.25647104 -0.09603688 0.3295757 -0.12610547 -0.11910535 -0.47861022 -0.23277076 -0.100735255 0.11979464 0.7832833 -0.6355907 0.29804334 0.07218496 -0.2191004 0.30637133
578 0.3581208 -0.64150786 -0.103275426 -0.24946919 0.034083784 0.048180766 -0.23999411 -0.396719 -0.0679427 -0.0920798 0.5862173 -0.26944584 -0.5857486 0.19692959 0.09058526 -0.05276311 -0.53845483 0.23442182 -0.2638646 -0.62369114 0.41348147 0.581647 -0.16582769 -0.48482245 -0.2924038 0.3089265 0.15419322 0.68746173 -0.35217598 -0.29580662 0.3675171 -0.15552239 0.21572523 0.592681 0.01264522 0.33511916 0.6086272 -0.3653328 0.095634505 -0.180503 0.6748534 -0.5476825 -0.03030396 -0.13745432 -0.21629976 -0.30691236 0.9125418 0.3024263 -0.59751165 0.065386556 0.50758743 -0.490193 0.52571005 -0.35870335 0.46935204 0.7200518 0.18851453 -0.5097617 0.6397434 -0.18026337 -0.21809983 0.19650397 -0.52680343 -0.17514482 -0.2809378 -0.12616017 -0.58924896 0.39631632 -0.6639612 0.38080803 0.03113417 -0.6444187 -0.5438829 -0.329683 -0.02872336 -0.2728072 -0.17516488 0.05560626 -0.28691337 0.3108926 -0.069922276 0.41449916 0.22834077 0.03566388 0.008770232 -0.33164492 -0.021701556 -0.49963704 -0.2577789 -0.5711913 -0.08199598 -0.25368118 -0.5222441 0.6113252 -0.1221438 -0.27709258 0.034908228 0.57007927 0.23699977 0.679717 -0.029299721 0.14765736 -0.12316271 -0.37662393 -0.25025395 -0.19142945 -0.017148497 0.5138976 -0.5834453 -0.34540954 0.008893222 -0.07033532 -0.067087315 0.015383006 -0.07938868 0.44251943 -0.19469063 -0.35421652 -0.4127116 -0.24284747 0.016036483 -0.324332 0.67436296 -0.34146273 0.25996673 -0.17423613 -0.5695382 0.0906492
2131 -0.2722013 -0.74540645 0.08604342 0.19533761 0.16349217 -0.21746282 -0.079743214 -0.6671816 -0.065980226 0.2524618 0.84808594 -0.07178005 -0.82133406 -0.24544877 0.24666417 -0.2101694 -0.44937924 0.2203303 -0.13465793 -0.45128065 0.53551024 0.2398201 -0.16402815 -0.7637614 -0.5913388 0.13950817 0.120632306 0.100550845 -0.07321881 -0.28343242 0.60842204 -0.43442833 -0.5991443 0.6714114 0.48718536 0.24864842 0.2267493 0.1400546 0.48383278 -0.6867358 -0.41111866 -0.4442776 0.13984746 -0.10984879 0.10652932 -0.58617955 0.6385094 -0.03978983 -0.15959735 -0.2490814 0.031677134 -0.19794968 0.00568816 -0.076208726 0.42238814 0.22869307 0.23861703 -0.80511546 -0.13654411 -0.32261744 0.064179756 0.13176401 0.52268636 -0.61486125 -0.13634694 0.49818116 -0.16466944 0.28440556 -0.05779877 0.39689344 0.18303104 -0.18901221 -0.5432115 0.27799684 -0.010656719 0.020339817 -0.20567802 -0.35171992 -0.24102846 -0.18072417 -0.32277724 0.07008893 0.13044544 -0.048582666 -0.086540945 -0.22070123 0.21847446 -0.31135508 -0.008550688 0.064718716 -0.03427161 0.020069703 0.02202539 0.19997826 0.20406051 0.2073472 -0.3166363 0.33812675 -0.006104359 0.27594492 0.07717728 -0.15694958 -0.03728873 -0.33281362 -0.29110885 0.47521347 -0.2668595 -0.038611174 -0.49389383 0.1888784 -0.12807459 -0.35564563 -0.01130151 -0.4813386 -0.11495705 0.07646693 0.029935814 -0.25565937 -0.36438015 -0.44260308 -0.28781268 -0.23554869 -0.093452446 -0.36346 0.2648564 -0.10259255 0.21352994 -0.167677
566 -0.85417616 -0.23846495 -0.109692186 0.28813884 -0.3774979 0.15660815 0.21096179 -0.7898681 0.18353055 -0.2702431 0.17296956 -0.16803947 -0.28299135 0.61632746 -0.13331369 0.30112967 0.29424906 -0.40330243 -0.5856106 -0.20414904 0.18934791 0.20960402 0.27959678 -0.3718644 0.06192743 0.51232487 0.23100962 -0.14584471 -0.22730269 -0.4171401 0.04850284 -0.102713324 -0.105736814 0.21408536 0.12107621 -0.05316233 0.23025571 -0.4452709 -0.23185268 -0.61336124 0.02190387 -0.3305224 0.3222143 0.10718495 0.2908747 -0.13303387 0.9656311 -0.11808541 0.028435085 0.4616234 -0.38648742 -0.043988302 -0.09636114 -0.058200587 0.36607382 -0.2175967 0.016349472 0.17375904 -0.38449883 0.14930874 -0.5556967 -0.20059331 -0.09195855 -0.016024578 -0.23147522 -0.056775782 -0.18112133 -0.37347838 -0.6221003 0.72869223 0.14980206 -0.16844454 -0.66283995 -0.14184605 0.18483607 0.41269085 0.068491995 0.10819516 -0.27621108 0.2609488 -0.20949762 0.5061163 0.1623983 -0.0069476757 0.21793088 0.35929754 -0.25194195 0.16352738 -0.59153575 0.20444089 0.10047107 0.045140024 0.27191716 0.44991 0.05321867 -0.08799498 0.08920971 0.27246168 0.23995484 0.05150536 -0.10138114 0.3324979 -0.22461355 0.2582854 -0.0533643 -0.13896117 -0.5660506 0.45594957 -0.057563063 -0.21073033 -0.08345994 -0.27656218 -0.48914555 -0.17374516 -0.2589735 0.58197534 0.23655367 0.4320115 0.19110283 -0.04403176 0.44269672 -0.076453544 0.083083555 -0.2946814 0.17810601 -0.29211625 0.28751367 -0.29853338
2465 -0.3680578 -0.45494515 0.42926168 0.25893793 0.3569522 0.009346501 0.3372153 -0.3379507 0.4620015 0.031473488 0.45658186 0.048477888 0.20239936 0.43334106 0.86786085 0.327473 -0.49246025 0.084669836 -1.0600821 0.06593749 0.5312933 0.5564586 0.30734694 -0.6085523 -0.8168045 0.45838755 -0.07324853 0.171819 0.5233744 -0.8371005 -0.11582426 0.6516718 -0.09862974 0.52502877 0.2881911 -0.10269271 -0.0045402106 -0.5169674 -0.74304545 -0.44858927 -0.13763891 -0.0134757655 0.15325257 0.63457555 -0.68160594 -0.40576234 0.24500489 0.15814121 0.123525694 -0.21152167 0.071917035 -0.023902139 0.6446597 0.16619772 0.14452295 0.4110157 0.08642941 -1.0583386 0.059366766 0.28173614 -0.35966522 0.3723454 -0.3123766 -0.32658672 0.17297305 -0.23134935 -0.3122206 0.31800106 -0.14513299 0.41418388 0.0737484 -0.7844412 -0.05853433 -0.36276206 0.40885955 -0.002665814 -0.31248143 -0.17908986 -0.39771104 0.08928216 -0.39833856 0.3729616 0.19730969 -0.15864272 0.7134678 0.11501238 -0.721053 -0.722745 -0.16488324 0.18386827 0.11942576 -0.49064156 0.118098184 0.083785616 0.23455752 0.43502095 0.35938957 0.33910912 0.53122765 0.65415794 -0.08128804 0.6646628 0.0129153915 0.5018641 -0.60065144 0.0041300487 -0.52068305 0.340389 -0.10961439 -0.31706226 0.1840216 -0.40687126 -0.021774245 0.6153344 -0.21954136 0.58094966 0.18314458 0.52447975 -0.19054231 -0.37695646 0.08943376 -0.2794432 -0.08757533 -0.60601693 -0.28554776 0.083309785 -0.4023451 -0.2593853
280 -0.13313147 -0.19306852 -0.4206447 -0.14264181 -0.10451404 -0.116103135 -0.30256653 0.007990696 0.076686285 -0.04279852 0.5511327 -0.0914954 -0.7630444 -0.49820992 0.20617035 -0.17044443 -0.41613597 0.2742027 -0.0014063877 -0.400636 -0.04229873 0.29646298 0.18545933 -0.0841842 -0.12442451 -0.076204896 -0.24063352 -0.108512565 0.058853503 0.07797753 0.09752009 -0.23018116 0.34527728 0.53385365 -0.11122149 -0.038607758 -0.13899322 -0.34437546 -0.59264135 -0.68205285 -0.011388158 -0.48911968 -0.12535708 -0.030436875 -0.047165506 0.036414865 0.120016284 0.2423039 -0.046827883 0.25450802 0.006809082 0.4119987 -0.22827724 -0.12263826 0.1810231 -0.05191084 -0.034210585 0.59237725 -0.0123766605 -0.29118544 -0.5463829 0.21598984 0.07240016 -0.360953 -0.5465105 0.09792814 -0.005806592 0.01755629 0.0019218349 0.17852058 -0.11491564 -0.13514687 0.18359777 -0.5007104 0.3691296 -0.103330255 0.3269028 0.07416748 0.041365672 0.2138009 -0.074205555 0.018595306 0.2042102 0.121669054 0.12459655 -0.17324771 -0.32820112 -0.37552983 -0.829472 -0.08200225 -0.32036492 -0.10944427 0.01073722 -0.07956312 0.3938486 0.16638754 0.1905061 -0.3436218 0.23376194 -0.18040507 -0.3249896 -0.19430445 0.9702759 0.21974999 -0.8245794 -0.16237363 -0.3393574 0.5361807 -0.37556803 0.042542394 -0.4970526 -0.46895814 -0.1793329 0.4918729 -1.182777 0.16014871 0.13488153 -0.2161671 -0.047352385 -0.050403483 -0.46377155 -0.12242747 0.25011006 -0.08281738 0.36751303 -0.36530402 -0.3361074 -0.04274123
1506 -0.07267696 -0.6558754 -0.07993343 0.35361588 -0.48794097 0.19510433 0.14877367 -0.8490068 -0.001770982 -0.10272539 0.4816349 -0.054399636 -0.057164237 -0.15146968 -0.4531976 0.2916612 -0.26511607 0.3104898 -0.3556121 0.12076026 -0.023063771 0.28824458 -0.06128777 -0.3250544 -0.044806536 0.29612154 -0.20986764 -0.1912617 0.29724878 -0.4967666 -0.5806026 0.32857198 0.34628442 0.50912166 0.24134138 0.021767898 0.4315813 -0.23363125 -0.07475981 -0.13613796 -0.08219174 -0.38660732 -0.06809862 0.023416648 0.136764 -0.35348994 -0.25333908 -0.26802066 -0.26119813 -0.3412795 -0.0939537 0.23133686 0.2520429 -0.36932257 0.28766963 0.3704023 0.20730901 0.016802246 -0.02369313 -0.20428003 -0.14812979 -0.26442748 0.39748156 0.26215854 -0.64676887 0.024096517 -0.036946185 -0.09783202 -0.0033560363 0.030176328 0.46130052 -0.08677923 -0.23912142 0.22925152 0.27951816 0.14909163 0.28344288 0.28194913 0.1802924 0.047557633 -0.15216994 -0.12899585 0.05683491 -0.049066447 0.33099243 0.70862734 -0.37645003 0.102850534 -0.5397349 0.30679172 -0.25074643 -0.30363354 0.08253779 0.36459178 -0.24041423 -0.25893128 -0.026000464 -0.25343308 0.050576437 0.33863917 0.3263603 -0.024158286 -0.050831374 0.085202806 -0.12136542 -0.010640026 -0.51617724 0.35758469 0.12745616 -0.08254002 -0.38493037 0.26404414 0.11062822 -0.28078383 -0.61462754 0.21167047 0.035195902 0.66232485 -0.28858432 -0.061381996 0.43471548 0.0020605742 -0.051987488 0.0962454 -0.0113659315 0.42303482 0.38039413 0.14259236
