1005 128
160 -0.12393752 -0.060588874 0.036434196 0.061202522 -0.089557886 0.11644514 -0.052365333 -0.108197436 -0.1961562 0.004048597 0.03200209 -0.17074075 -0.34025744 0.04240935 0.3480231 0.08366084 0.1485178 0.21497987 0.009010903 -0.23074856 0.054003477 0.3720359 -0.05072844 0.06454401 0.077250525 -0.07896368 -0.17864451 0.15461363 0.082306124 0.0072492366 0.13148244 -0.010780138 -0.14208867 0.07926061 -0.11344304 0.0006305156 0.08009187 -0.0661617 0.11459377 -0.11000165 -0.20181644 0.14378047 -0.009969713 -0.06146992 -0.100786835 -0.09371327 -0.13677597 0.1850392 0.31317985 -0.2035326 -0.08854466 0.0964949 0.060982533 0.23026508 -0.11589414 0.016052883 0.06439806 0.13954468 0.13623437 0.2441646 0.09494069 0.051174656 0.07731661 -0.20605652 0.09801104 -0.04123947 -0.2768393 0.04195521 0.25400665 -0.16204984 -0.049430322 -0.0078880545 -0.025006551 -0.083430655 0.0021783921 0.06664708 -0.06935533 -0.19468266 -0.14632063 -0.07384513 -0.13137418 -0.040758025 -0.07866504 0.11067438 0.05913948 0.28167197 -0.021078812 -0.008377659 0.16795334 0.09118922 0.21493687 -0.103613175 -0.041859437 -0.002732912 0.022880701 0.007060507 -0.21486004 -0.12974769 -0.014772528 -0.061531384 -0.26538542 0.10545629 0.08001241 0.058606554 0.108122386 -0.03653599 0.08001983 -0.0063618557 -0.03831548 -0.21183772 0.008055045 0.18446025 -0.05537293 0.15742466 -0.106802516 0.0061734747 -0.14654997 0.19309431 -0.1327758 0.032823313 -0.21328169 0.17047314 -0.08106041 -0.21727312 0.048986103 0.052243244 -0.30087754 0.13424847
121 -0.03353408 -0.06622977 0.040014934 -0.12662755 0.049970467 0.15275358 -0.019665977 -0.0724024 0.04368507 -0.11292505 0.12042148 0.17400807 -0.011207819 0.016309248 0.16668177 0.16756926 0.007522477 0.15692446 0.089188464 -0.07595166 0.021237481 0.18426415 -0.048508618 0.037843544 0.10187126 0.043153152 -0.23256597 0.1085452 0.18477239 0.031188797 0.016382849 0.20191689 -0.20109403 0.18930638 -0.0034269774 -0.015131474 0.1584501 -0.14866088 0.048377637 -0.124371886 -0.056936167 0.20100048 -0.03420856 -0.11228825 -0.20408505 -0.0223278 -0.019875018 0.15535681 0.058004297 -0.037768904 0.12265016 0.14390096 -0.13554032 0.053803116 -0.035228778 0.08045749 0.22838728 0.26027817 -0.024016973 0.05379241 0.31524894 -0.071916126 0.19582137 0.038891636 0.08990773 -0.038550433 -0.063098334 0.15140921 0.00046354698 -0.19313492 -0.08181167 0.2605174 -0.1309093 0.020960204 -0.042298984 0.09658853 -0.06953904 0.04445313 -0.117316596 0.033275332 -0.13159831 0.016893068 -0.15741538 0.29740983 0.107047275 0.102804385 -0.023411177 0.027619785 0.28221712 0.03877449 0.16044834 -0.009003341 -0.26737183 0.02320658 -0.10139665 -0.045380775 -0.24709883 -0.09533025 0.10418096 -0.07460998 -0.24424548 0.3041238 0.0023361112 0.0072244075 -0.13185303 -0.16221882 -0.020985119 -0.08488801 0.30128908 -0.13907623 0.0763299 0.15080634 0.10522102 0.060627367 -0.30689788 0.30621117 -0.05548155 0.035053704 0.028941112 0.17580007 -0.25727627 0.083350144 -0.019658621 -0.12870298 -0.14315225 0.02995066 -0.2344811 -0.112427354
82 -0.24067529 -0.096828595 0.023057256 -0.10328623 0.0055627236 0.10427353 0.009116415 -0.12106279 0.019903155 -0.059981767 0.15289323 0.23422466 -0.056219127 0.017083744 0.23694834 0.06091178 -0.027608495 0.18105322 0.12379076 -0.103710145 -0.0878546 0.20211229 -0.14887476 0.036514495 0.08137328 -0.0052947416 -0.24414285 0.12306347 0.13877097 -0.13983357 0.13530427 0.0071096336 -0.1766645 0.034367688 -0.04358691 0.010673311 0.10014313 -0.107520595 0.13301866 -0.18773942 -0.017629914 0.23850751 -0.09131045 -0.08677882 -0.14656499 0.032547582 0.0075392434 0.18814915 0.0980799 -0.013079602 0.030145207 0.17452006 0.02112862 0.20648052 -0.18620597 0.091439664 0.14368168 0.16300665 0.028952485 0.11820487 0.28996214 0.04110447 0.025436481 0.038371872 0.096479826 -0.12160299 -0.10154373 0.22350805 0.018744178 -0.090571046 -0.12370301 0.10100939 -0.14683843 -0.012083348 -0.06129836 -0.0027059687 -0.06915149 -0.09139143 -0.24963836 0.06341263 -0.069926664 0.08140586 -0.023857001 0.19990358 0.10993626 0.13012248 0.099564806 -0.032406367 0.31910592 0.059935197 0.062869236 -0.0074330685 -0.3150006 0.0022652298 -0.08390553 -0.08358974 -0.14405178 0.060829926 0.13232563 -0.1329304 -0.26081264 0.23798294 0.059884027 -0.026481796 0.014633259 0.010194584 0.22886802 0.0053512957 0.30581594 -0.17104806 0.030345334 0.022964241 0.11283508 0.06769579 -0.21174799 0.15340053 -0.082879916 -0.034063183 0.07216765 0.15318061 -0.15293884 0.094867826 -0.098905966 -0.12650119 -0.2557444 0.00573468 -0.27871153 -0.1309038
107 -0.007936086 -0.09156956 0.122592896 -0.04792619 -0.043129906 0.03178298 0.039973017 -0.05903796 -0.06749087 0.03445775 0.08647842 -0.015008169 -0.3031003 -0.01139508 0.22203267 -0.056603428 -0.031380966 0.29354626 0.0012935443 -0.09391066 -0.03004465 0.18541212 -0.09626514 -0.01509173 0.17404936 0.027363032 -0.38436317 0.21045797 0.0677195 -0.08756614 0.09569773 0.111552715 -0.009270022 0.3248827 -0.068775125 -0.09169634 0.22534405 -0.28011766 0.051895533 0.0049306094 -0.21325678 0.010222302 0.10207059 -0.008202838 -0.20769003 -0.08689569 -0.116510555 0.06640619 0.019686125 -0.23291789 0.075002216 0.22592866 -0.037324075 0.16023213 -0.14537331 0.21009314 0.17259872 0.06688239 0.07791768 0.11661082 0.16527024 0.2160926 0.23020102 -0.052713275 0.21531674 -0.086374976 -0.06987542 0.18960795 0.2478569 -0.24635819 -0.12308774 -0.12999114 -0.26499695 -0.052855983 0.07499249 0.08825407 -0.00073850085 -0.13789453 -0.23712593 -0.021877574 -0.06682166 -0.016936732 -0.0037201433 0.16141881 0.02038191 0.18044548 -0.10958745 -0.051772896 0.15478724 0.092198685 0.16816327 -0.1089776 -0.08542562 0.06280531 0.0430924 -0.069782324 -0.32432982 -0.09613183 -0.10091567 -0.08578766 -0.22674125 0.2228762 0.021529179 0.024973247 0.102509536 0.025648162 0.25724632 -0.15298302 0.1807514 -0.17635724 -0.112681314 -0.107268505 0.1429018 0.13021186 -0.12451229 0.25050604 -0.25812852 0.1947398 0.06622566 0.01956222 -0.18951328 0.19953609 -0.12912966 -0.14577852 -0.05026958 -0.061392874 -0.2260632 -0.060873616
86 -0.26542127 -0.24542582 -0.22637604 -0.21873757 0.1607761 0.05153188 -0.018284667 -0.12091309 -0.164651 -0.058542766 0.12971243 -0.013323797 0.02300193 0.050140135 0.12313112 0.18373731 0.12977138 0.18009663 0.124311656 0.021626467 -0.17833273 0.038306434 -0.13471623 0.2746431 0.023246607 -0.013692153 -0.14141823 0.10997733 0.15528904 0.0044006854 0.08114181 0.18315876 -0.13014646 0.0734026 0.11203052 0.049634643 0.09321385 -0.11730279 0.042491622 -0.02851454 -0.10871868 0.23657548 -0.3233388 -0.040624958 0.04751472 -0.06416011 -0.0803155 0.019706173 0.009698174 -0.17402272 0.08944362 0.1806312 0.13686928 0.35011065 -0.04088521 -0.08726922 -0.011808393 -0.010776146 0.08561701 0.18234454 0.11554679 0.06873386 -0.04582415 0.024995547 0.029441644 0.033414036 0.03817558 -0.03692906 0.085300565 0.053219724 0.0015499747 -0.18286508 -0.0004979421 -0.10795404 0.22918059 0.14224628 -0.10834468 -0.114903115 -0.18536155 -0.06872373 -0.111226164 -0.05763922 0.04394119 0.07641029 -0.06840599 0.036390163 -0.3023283 -0.16334307 0.24573414 0.10421105 0.06315349 0.05615882 -0.18176311 0.14854454 -0.07922679 -0.13531183 -0.115811124 -0.18607941 0.1975919 -0.1999993 -0.20071694 0.37062174 -0.02427392 -0.1575382 0.26936913 -0.012802121 -0.026401408 0.0109732775 0.18245082 -0.15247145 -0.20143631 0.2448759 0.13880354 0.011744891 -0.29195398 0.15777737 -0.08588785 -0.04880494 -0.023303851 0.029295502 -0.21567233 -0.05544229 -0.06906265 -0.17032808 0.12520456 0.03023049 -0.37710577 -0.09222767
62 -0.03492961 -0.089603156 -0.107903704 -0.01924208 0.032044407 0.1948538 -0.071848765 -0.23102538 -0.12622362 -0.09208211 0.12442492 -0.05008414 -0.20953615 0.041640934 0.3109689 -0.12179702 -0.028149568 0.1121465 0.04516222 -0.1836235 -0.17425632 0.19778457 -0.021871036 0.053190757 0.06299819 -0.017521568 -0.16651322 0.20516862 0.1825044 -0.15295558 0.13173331 0.095643945 -0.063930735 0.2139276 0.00946318 0.0027619193 0.2877776 -0.17112443 0.05626121 0.083176754 -0.1276285 0.16226445 -0.010542934 -0.009814061 -0.15685515 -0.13457566 -0.19920154 -0.012807308 0.011362539 -0.20053284 -0.0001952953 0.18982278 0.082382865 0.10895605 -0.09445055 0.109686375 0.17672913 0.08095891 0.0615914 0.2649357 0.2895346 -0.09448139 0.19309483 0.03172975 0.09211542 0.024995787 0.08935913 0.07687661 0.23808986 -0.115358494 -0.06563872 -0.0086989775 -0.057805307 -0.0790513 0.026806898 0.05547872 -0.10374179 -0.06993186 -0.11696899 0.0407503 -0.012646212 0.13531074 0.04563803 0.128904 -0.044828475 0.16211994 -0.058309294 0.120410636 0.24169388 0.032317396 0.19112648 0.027717616 -0.05814645 0.042888224 -0.029570794 0.007834751 -0.26711145 -0.16832452 0.11800077 -0.024868093 -0.22945479 0.27198035 -0.05997258 -0.13085172 0.16993041 -0.067686535 0.19719587 -0.17277022 0.24675825 -0.14224687 -0.2750443 0.13641036 0.15309969 0.13174358 -0.20283993 0.27487049 -0.18652326 0.060001228 -0.06737103 0.13522245 -0.24109975 0.19465661 0.069468655 -0.14393541 -0.043910023 0.019796798 -0.36025354 -0.007250915
434 0.0086536445 -0.12149171 -0.087263696 0.07432652 0.088281274 -0.17446579 0.019940862 0.16012022 0.04023848 -0.025796637 0.10965292 0.089288354 -0.05532057 0.006666663 0.01907982 0.078287974 0.055095613 0.2018206 0.10372615 0.026521498 -0.0590237 0.20469457 -0.09419054 0.009524235 0.16826195 -0.056791205 -0.0880432 0.24637783 0.23910806 -0.1300285 0.09024077 0.13848516 -0.32179284 0.33993822 0.0035273463 0.29856166 0.25057396 -0.16206478 0.037397016 -0.16519275 -0.30222255 0.041044448 0.19013053 -0.097727515 0.02597785 -0.035797633 -0.19868675 0.19652848 0.14414398 -0.10075051 -0.070861705 0.042044636 0.0060167545 0.18543747 -0.00626443 0.1278577 0.09225194 0.06037997 0.10315614 -0.1487001 0.1145775 -0.033879198 0.23056029 -0.12623592 0.0026472756 -0.09688895 -0.062353604 0.058864154 0.018438905 -0.09118016 0.13454078 -0.07940811 -0.21981499 0.09747935 0.030514888 0.02567373 -0.23687083 -0.16176301 -0.32566792 -0.15503845 -0.14616936 -0.036912326 -0.04673106 0.24915375 0.14727296 0.07984716 -0.2120747 -0.008199503 0.1745743 0.1905778 0.13006516 -0.10757368 -0.18127257 0.12948877 -0.22135846 -0.055631854 -0.19916822 -0.0037811212 0.19545317 0.047590185 -0.2540828 0.2679356 -0.08342125 -0.0025684845 0.21314278 0.01356279 0.105996676 -0.059445743 0.06363511 -0.063013926 -0.039415963 0.25824344 0.071130365 0.20455506 -0.13484123 0.1449565 -0.16063204 0.012490712 0.006541134 0.22115873 -0.07636571 0.044968996 -0.03964378 -0.107990034 -0.13559838 0.036356125 -0.06945614 -0.07157592
13 -0.15743083 -0.087285265 -0.10257647 -0.20662312 -0.030372933 0.15855211 -0.10514489 -0.21010213 -0.2241859 -0.021070063 -0.049782306 -0.029739605 -0.047053132 -0.11830902 0.118580244 0.17602526 0.027937217 0.052483995 -0.060626574 -0.04592259 0.008628453 0.27467608 0.0042122095 -0.062128596 0.17516346 -0.06486745 -0.22280131 -0.01893634 0.15137237 0.051572405 0.016804457 0.30379182 -0.21155643 0.12433998 0.05593693 0.24295169 0.30304164 -0.020166418 -0.064419664 -0.05764601 -0.098509714 0.32248473 0.020247584 0.060341537 -0.20887093 0.01818689 -0.34103677 0.28057727 0.15591708 -0.20298982 0.09916529 0.14773561 -0.116386846 0.13543445 0.0075796144 0.15038884 0.15472975 0.22597665 0.12571502 -0.10042708 0.24942249 -0.11050722 -0.08079914 0.1111562 0.16828163 0.14897008 0.04011139 0.021262502 0.044716574 0.011890878 -0.07024451 -0.18795934 -0.19422974 -0.05478255 -0.10998581 0.25805253 -0.035833914 -0.03450514 -0.26578557 -0.0041793776 -0.13894702 -0.019847091 0.14055496 0.19326498 0.033063013 0.15134583 -0.39168245 0.03051139 0.30839399 0.1987998 0.2815775 0.034593143 -0.024898037 -0.059911944 -0.10149531 0.1744536 -0.19374812 0.13879248 0.18269894 -0.028322816 -0.18296188 0.12837796 0.019935729 -0.016664395 0.09072392 -0.016551843 -0.10557983 0.052826293 -0.05258885 -0.22734575 0.14124408 0.2650079 -0.017305484 0.08508259 0.12263431 0.075560756 -0.11889707 -0.15556544 0.003452897 0.14392118 -0.03158865 0.08746683 -0.038398806 -0.1673373 0.06359357 0.26425666 -0.09705144 0.08371658
166 -0.34974688 -0.09608636 -0.18382628 0.087514855 -0.12592532 -0.12136946 -0.05758195 0.02023108 -0.043440018 0.04138048 0.044788435 -0.10211361 -0.21661158 0.12187575 0.16087247 0.269125 0.0714262 0.13097103 0.077167 0.09401692 -0.124575585 0.20013495 -0.033129353 0.056022756 -0.046819363 0.20198163 -0.27294368 0.09348659 0.14425714 -0.03328476 0.18186751 0.04467618 -0.0835965 0.15856959 0.07170832 0.044010486 0.06416053 -0.029832413 0.064928845 0.048250273 -0.114839524 -0.009777376 0.0974719 -0.12997602 -0.07879106 -0.16818063 -0.2185999 0.23555222 0.22749276 0.050852556 0.009187904 0.06419311 0.022483667 0.15820827 -0.17886628 -0.014482346 0.10142877 0.074290134 0.0049962685 0.079312965 -0.0013096053 0.10405622 0.17023495 0.01101356 0.002546541 -0.06912039 -0.07468544 0.021522883 0.24504007 -0.19846183 -0.07853733 -0.01252251 -0.02745887 -0.05412384 0.011162768 -0.074557535 -0.09249899 -0.15261751 -0.12415494 -0.12017931 0.038631424 0.0037062862 -0.17783007 0.34345657 0.14082189 0.15051408 -0.09688349 -0.067323014 0.17142962 0.0800809 0.14834902 -0.072551094 -0.13612226 0.1237497 -0.24552058 -0.048019353 -0.1912298 -0.17949776 0.04880757 -0.2383273 -0.23848408 0.0917877 -0.2060216 0.17835096 0.12304295 -0.0059374166 0.0015415861 -0.08664165 0.17786741 -0.0390263 -0.01740403 0.21189487 0.04381272 0.22704022 -0.3933955 0.23790422 -0.117966 0.028396718 -0.08234988 0.06628564 -0.3324612 0.137601 -0.013062656 -0.23892008 -0.2377266 0.10806953 -0.361778 0.01691996
5 -0.19920222 -0.10298586 -0.08791768 -0.089587964 -0.004451382 0.1918899 0.05781576 0.018904692 -0.14916135 -0.13888973 0.22599225 -0.3068981 0.0566679 -0.0800223 0.40629786 0.19899005 -0.09426115 0.2310952 -0.11465296 0.03901099 0.024460927 0.1594719 -0.2049092 0.088054426 0.31768945 -0.060228787 -0.25223187 0.10543208 0.3480988 0.15774061 -0.17341956 -0.01637431 -0.33251563 0.14590555 -0.16146526 0.17480499 0.19592912 -0.0026445354 0.11570286 0.040548664 -0.32594526 0.23708782 0.139553 -0.16463855 -0.29755 -0.020251647 -0.054657146 -0.1659267 -0.0014104607 -0.20979704 -0.09870654 0.08258879 -0.25915068 0.20614398 -0.15885925 0.3622008 0.0684367 0.34224355 -0.053975295 0.13161293 0.18606034 0.022156604 -0.15664598 -0.1185462 -0.060159143 0.04720855 -0.103579625 -0.09172062 0.078801274 -0.22128278 0.06172775 -0.03680881 -0.19498694 0.09004619 0.025846578 0.1967187 0.03755943 -0.029624812 -0.17962456 -0.055304755 0.010791523 0.025609374 0.15008119 -0.15064524 -0.10565868 0.16554822 -0.15449835 0.09107301 -0.01836792 0.17472112 -0.046386182 0.22031553 -0.1700623 0.060416184 -0.17735364 0.036241878 -0.33981973 -0.03821401 -0.09995652 -0.37502617 -0.34502798 -0.059986416 0.14614639 -0.28116515 0.002137835 -0.034002837 -0.02888965 -0.0068272245 -0.17312765 -0.18028273 0.17912763 0.28452712 0.19138046 0.14318345 0.23658092 0.03290945 -0.1379918 0.010121796 0.13581684 0.09505235 -0.082024425 0.10961421 -0.20706515 -0.061790522 -0.094547555 0.010490477 -0.12753911 0.0738783
183 -0.17446996 -0.015627243 -0.34978384 0.007874436 0.070347905 0.1298482 0.048902184 -0.085467555 -0.077005774 0.096760154 0.039562345 -0.008235683 0.053049766 -0.18417244 0.3681138 0.15824167 0.18419741 0.22662936 -0.00389032 -0.15394875 -0.08213737 0.26511413 -0.07580113 -0.039005294 0.2403234 -0.002924598 -0.15064296 0.08471388 0.27517894 0.03667299 0.012488452 0.23738089 -0.21018218 -0.029344263 0.009557828 0.21507746 0.1477299 -0.06972507 0.054150667 -0.32636356 -0.12021085 0.21646728 0.19975278 -0.11805662 -0.10208029 -0.052205283 -0.1227014 0.29229254 -0.1785854 -0.18832178 -0.06861364 0.16991717 -0.013342522 0.08821033 0.0042636665 0.1089479 -0.036381215 0.118032426 0.16665813 -0.20929137 0.16797796 0.028401796 -0.019338882 -0.02926061 0.059467014 0.014158289 -0.11282657 0.14755116 0.12879296 -0.15697812 0.15584607 0.07145906 -0.30876088 0.13805327 -0.06132144 0.1529315 -0.15205881 -0.059861105 -0.019264052 0.0046311994 0.08334223 -0.09380883 -0.07784163 0.119455986 0.2989695 0.0412021 -0.085181125 0.09420764 0.37566465 0.21727337 0.17622966 -0.05591288 -0.12933812 0.027431846 0.013049811 -0.048832428 -0.03801656 -0.054474663 -0.08443869 -0.09951222 -0.21040615 0.105795726 0.10253833 -0.031354114 0.09010336 -0.019138966 0.026198838 0.023729665 0.14495187 -0.18665032 0.19520378 0.2583172 0.35717842 0.13488658 -0.15705173 0.091719694 -0.11512734 0.0065426542 0.033585284 0.07234913 -0.097210586 0.087953225 -0.06820547 -0.0063847424 -0.03944109 0.09035747 -0.07799276 0.10463064
64 -0.21966928 -0.21805118 -0.08585683 -0.10155795 -0.011877689 -0.0475467 0.09031592 0.078463815 0.10810566 0.043282494 0.059654307 -0.10917301 0.07137571 -0.011220496 0.14131531 0.10645643 -0.0075655086 0.08697449 0.018134609 0.02498453 -0.084144846 0.2751381 -0.3527914 0.054892577 0.22859176 0.03841493 -0.25388741 -0.039930075 0.20686603 0.13051818 0.043940727 0.033246983 -0.27560478 0.25511616 0.111025184 0.047749713 0.2549802 0.025645567 -0.047934536 -0.010569106 -0.33645752 0.19104706 -0.065533936 0.13248362 -0.012686136 -0.21458352 -0.16519974 -0.021357575 0.10221879 -0.10115458 0.071988955 -0.014909487 -0.22322789 -0.09687702 0.10895331 0.11282006 -0.031909257 0.2528479 0.13056849 0.04152288 -0.038390312 0.15659948 -0.22537497 -0.17223677 0.09003267 -0.043218438 -0.29298127 0.23198274 0.0054390207 -0.093309075 -0.070379 -0.10409061 -0.34959292 0.20711944 0.033933267 0.2514775 -0.048509967 -0.065698154 -0.23240395 0.029858835 -0.0988782 0.036065735 0.08128877 0.08284452 0.25944993 0.17170916 -0.1698233 -0.23152633 0.13268368 0.20974103 -0.026838703 -0.055850565 -0.15975565 0.032060765 -0.015512903 -0.004101731 -0.3563757 -0.067676224 -0.026139738 -0.3257283 -0.20249332 0.20587327 0.196459 0.014629491 -0.0726192 0.14897667 -0.19010313 -0.28544188 -0.18264768 -0.20322208 -0.03772572 0.3335266 0.28867656 0.10128429 -0.11636803 -0.088367954 -0.3207343 -0.09162465 -0.07437464 0.10658312 -0.0974406 -0.028299538 -0.18408528 -0.2690045 -0.112522244 -0.08501203 -0.05291451 0.19441071
249 -0.17336196 -0.1722703 -0.25372326 -0.0700213 0.113723904 0.12774856 0.0006706852 -0.0160061 -0.018568693 -0.036713116 0.12127381 0.09182728 -0.014491603 -0.15072511 0.1562749 0.08989408 0.022454299 0.058296885 0.060208358 -0.08442152 0.0068827565 0.0975523 0.10654918 -0.020774381 0.10721421 0.07944201 -0.19077933 -0.08749018 0.072130434 -0.028116826 0.19395855 -0.052906435 -0.029297397 0.17565662 -0.069194645 0.15807042 0.041385606 -0.147104 0.20368795 -0.029989725 -0.054493137 0.05731608 0.18258703 -0.24553725 -0.056360956 0.014618196 -0.21250562 0.12835656 -0.07813595 -0.055909574 -0.14673643 0.10825861 0.14596947 0.11369046 -0.17897914 0.15752114 0.035219915 -0.05118637 0.03483366 -0.023834946 0.27976325 0.029066166 0.0649137 -0.016833838 0.16963121 -0.08070747 -0.14088045 0.07749353 0.25153795 -0.27211058 -0.11091427 0.024042523 -0.1620314 0.105774745 0.15979102 0.09228906 -0.20373689 -0.1108551 -0.22460748 -0.14535071 0.06315955 0.10141907 -0.22193961 0.3475088 0.18342416 0.20174189 -0.013711613 0.07364236 0.27068835 0.0266621 0.21959646 -0.1261173 -0.24170533 0.081322655 -0.17998081 -0.022888014 -0.12655674 -0.0386162 0.06303413 -0.08469512 -0.3542352 0.18186782 -0.03299889 -0.16094847 0.17538452 0.052426763 -0.0761389 -0.077023335 0.20169248 -0.079671144 0.023691047 0.16298983 0.15277241 0.17285745 -0.16466624 0.124953344 -0.07580936 0.08194017 -0.20039737 0.20983455 -0.14971504 0.13702536 -0.079107806 -0.10465207 -0.22238915 -0.19436044 -0.14597365 -0.14093933
129 -0.21461782 -0.16725622 -0.22996429 -0.045655455 0.14268371 0.19791262 0.12868813 0.013308916 0.03244111 -0.07810701 0.00014316455 0.18784979 0.16107638 -0.11271006 0.2873052 0.23841217 0.03300662 0.1363394 0.13083667 -0.0022648973 -0.3177327 0.2571627 0.11435997 -0.0024496964 0.16292982 0.0708751 -0.004368289 0.14816135 0.17516822 -0.109881386 0.2030573 0.17875162 -0.1312602 0.0944058 -0.07086521 0.11457182 0.21060495 -0.16573064 0.087898165 -0.3639369 -0.014674751 0.04134197 0.13494252 -0.13742055 -0.0056045214 -0.16545442 -0.16014774 0.30360708 0.28061432 0.008650118 -0.031641006 0.010036869 -0.0712902 -0.014567326 -0.1269839 0.0962477 0.002706735 0.09147931 -0.05280408 -0.30127546 0.12522285 -0.25352678 0.07166662 0.06963637 -0.09551152 -0.10741401 -0.23853697 0.12378261 0.045130745 -0.2390952 0.13311839 -0.03499902 -0.16600825 0.008895075 -0.20271774 0.08250665 -0.080068745 -0.31943443 -0.1661221 0.043087754 0.07565967 -0.10139812 -0.13741273 0.09776986 0.25055215 0.20174158 -0.09164372 0.0006241492 0.29616705 0.205673 0.07989835 0.020852312 -0.08396239 0.13127054 -0.05345684 -0.05654692 -0.014446674 0.08214712 0.05076178 -0.1040019 -0.15697134 0.2628978 0.091017514 0.06876656 0.23883933 -0.055925343 0.09924304 -0.09668234 0.023080733 -0.10804755 0.077748016 0.32214373 0.19254933 0.17046033 -0.10248888 0.19745933 -0.07625728 0.026335865 0.113964364 -0.018712321 -0.10604376 -0.09209398 0.0030872119 -0.0076922067 -0.21318343 0.01932044 -0.003640876 0.012488616
211 -0.16539787 -0.17380452 -0.06144946 0.07539026 0.23899695 0.20414439 0.060938373 0.04766506 -0.19955501 -0.057245396 -0.038275506 -0.07612836 0.074508585 0.055750012 0.15831526 0.2726454 -0.0050681275 0.07833587 -0.086453415 -0.19227514 0.13449262 0.098687544 -0.082059495 0.06158023 0.19681562 0.09017085 -0.09149917 0.102292575 0.30312693 0.041336667 -0.03216109 0.12629661 0.06013377 0.19862412 -0.2560819 0.06987994 0.058717027 -0.3376076 0.43506023 -0.012304681 -0.06419975 0.12807924 0.2255801 -0.035625525 -0.26453203 0.04341475 -0.10363337 0.16728371 -0.071852155 -0.04190787 0.05708027 0.09777025 -0.20670919 0.10536066 -0.15806419 0.18454836 -0.0056946343 0.09639854 -0.03461212 -0.11628924 0.00426805 0.10446227 0.022188906 0.29390278 0.15262416 0.0705847 -0.0812553 0.24292006 0.23854129 -0.104517445 -0.012599919 0.014066568 -0.41850975 0.16484497 0.08130391 0.27439776 -0.13017748 -0.2051273 -0.08069057 -0.011703555 0.16936606 0.05034129 0.026636975 0.38081655 0.09473999 0.14791249 -0.21566597 0.034131587 0.03099072 -0.06764161 -0.0019221182 0.05537161 -0.06829455 0.0608639 -0.15822566 0.045713726 -0.22689055 0.040353663 0.090434305 0.011578283 -0.38660035 0.21823291 -0.03992732 -0.14340462 0.03731193 -0.16864307 0.111539096 0.09697865 -0.07587282 -0.08338704 0.09488734 0.0098836515 0.12592673 0.20202138 -0.09916215 -0.041589446 0.17154568 -0.074220635 0.040321235 0.10490193 -0.13569553 0.17324118 -0.092442654 -0.19669007 0.01981672 0.07445653 -0.18177304 -0.08848093
533 -0.07324114 0.16663173 -0.16244535 0.005136168 -0.03635787 0.1230283 -0.075458296 -0.25791836 -0.13613626 -0.06684338 0.024822956 -0.21423918 -0.17606059 -0.22885595 0.11539384 0.008464673 -0.086561725 0.1082883 0.2648787 -0.07007008 0.10429932 0.26463833 -0.014736712 0.05416704 -0.06434064 -0.07191877 -0.1817268 -0.16515903 0.04283222 -0.07294422 0.099281296 -0.15720484 -0.060509294 0.004029736 -0.033071037 0.36120144 0.2184767 0.086754136 0.16299978 0.024178213 -0.034284834 0.060968596 -0.07941987 -0.033952504 -0.068489015 0.15957752 -0.15842088 0.23607117 0.0008122064 -0.05128275 -0.22898799 0.3043695 0.1925518 0.11796494 -0.2012493 0.09155423 -0.08426528 0.049790747 -0.17451987 0.043844637 0.09071427 0.022636509 0.013745743 -0.0719448 0.008255048 -0.055599682 -0.06731866 -0.10449503 0.011076862 -0.14202744 -0.12666297 -0.16993637 -0.130016 -0.07313258 -0.12307216 0.09681534 -0.040511694 -0.17311344 -0.46405292 -0.07620629 -0.19169746 0.19666813 -0.07655506 0.23578829 -0.046503916 0.20191433 -0.25220218 0.09638816 0.29619852 0.35642576 0.061406557 0.0712294 -0.0711874 0.13855356 -0.18864177 -0.014520454 -0.03068057 -0.022095136 0.038407125 -0.28770113 -0.21106152 0.23179281 -0.009612889 -0.1316544 0.18684195 -0.12225186 0.22875944 -0.004233558 0.059883624 -0.038098637 0.060681283 0.33637333 0.28437236 0.18428265 -0.08618379 0.30697098 0.0077187093 -0.031176245 -0.11908748 0.18437424 -0.18610716 -0.012449001 -0.10516696 -0.12363131 0.05089057 0.10595982 -0.3071768 0.15435065
105 -0.085125096 -0.15705071 -0.081016116 -0.15577152 0.038511086 -0.020625347 0.18216701 0.020269616 -0.077421136 -0.02102974 -0.042312637 0.098755956 -0.16128579 -0.030594924 0.25947836 -0.0051004877 -0.031235348 0.18120687 0.17169826 0.09547245 0.07058899 -0.011757158 -0.09053169 -0.018909475 -0.008353197 -0.103526406 -0.030921761 0.17287044 0.13475755 -0.005655575 0.023262423 0.059493467 -0.16724773 0.12790956 0.020571757 0.17042147 0.19059779 -0.12954554 0.03684348 -0.073001586 -0.051998448 -0.10537696 0.07944982 -0.15531948 0.03818984 -0.028796135 -0.087826625 0.16972502 -0.009463712 -0.16009414 -0.1679051 -0.041315235 0.06192027 0.12381672 0.0070082294 0.1401527 -0.05478217 0.21521385 -0.014299384 -0.017463354 0.09416391 0.03232307 -0.08661939 -0.046917215 0.1967675 -0.046196353 -0.2483565 0.15814042 0.22272643 -0.27626133 -0.11361421 0.037021738 -0.20050494 -0.044594564 0.043653674 0.05761857 -0.12098048 -0.08420615 -0.3263412 -0.08204287 -0.083762415 0.08336802 -0.17247412 0.51455176 0.23884892 0.13238357 -0.13318999 -0.089997634 0.2686389 0.07047028 0.079324044 -0.0877178 -0.3011616 0.105548635 -0.18236157 -0.014058227 -0.14565232 -0.063424245 0.07482979 -0.064446755 -0.25961155 0.19546299 0.15399726 -0.059197523 0.11230075 0.034651775 0.00902055 -0.28381327 0.21822165 -0.07933515 0.13212655 0.12381013 0.11577009 0.28537413 -0.18058325 0.23528185 -0.15997007 0.021219702 -0.095066436 0.24126607 -0.04977696 0.10579543 -0.032799114 -0.03879633 -0.23302878 -0.16512401 -0.09491298 -0.15705372
114 -0.08711791 -0.013578069 -0.030750886 0.13169277 0.056749597 0.038465727 0.28057426 -0.08362282 -0.10273751 0.03133905 0.20310912 0.02470535 0.08287714 0.0057588494 0.274564 0.25772074 0.021106841 -0.033715535 0.18736823 -0.05009476 -0.013470803 0.07805487 -0.10560011 -0.15028977 0.26488152 -0.008347678 -0.1392305 0.10241022 0.1561081 -0.02772855 0.13363782 0.09904594 -0.14300191 0.19349144 -0.32589328 -0.01399831 0.04667506 -0.1867549 0.23374 -0.17949036 -0.08656093 0.18859495 -0.08414306 0.19053394 -0.098956786 0.110952355 -0.026372738 0.25041685 0.07047821 -0.13141991 0.053108476 0.047152713 -0.063522585 -0.07248585 -0.27328554 0.24867402 -0.018150626 0.07489925 0.23384637 -0.1681555 0.27608123 0.010781066 0.042418424 0.007302313 0.12400097 -0.00079715776 -0.18672277 -0.108161226 -0.015291803 -0.09390019 0.067246474 -0.029601447 -0.22605664 0.07950606 -0.11902518 0.014458748 -0.10692694 -0.083991215 -0.010875434 -0.05346311 0.00459948 -0.12236946 0.17491326 0.29114562 -0.08680983 0.047193773 -0.06508202 0.06917553 0.30954048 0.32677108 0.19209585 0.048835345 -0.28734174 0.3076763 -0.19488601 0.021972392 -0.18271436 -0.107395396 -0.04111959 0.0984928 -0.24414252 0.11179204 -0.2562142 -0.095842816 -0.2152553 0.050493855 0.09345779 -0.07929405 0.25577357 -0.08406395 0.010037474 0.17657326 0.23832832 0.17039008 -0.1498412 0.1942291 -0.22801077 -0.19897112 -0.02993926 0.101765685 -0.23886706 0.081912965 -0.059524134 -0.18806754 -0.2807564 0.06613283 -0.014802238 -0.1307582
283 -0.32628378 0.061125968 -0.031810913 0.021614797 0.12103589 -0.15655711 0.05503737 -0.05323208 0.013306821 -0.05368204 0.23421985 0.22777829 -0.17870374 -0.06541991 0.19337432 0.1878077 0.09593688 0.13567723 0.15671535 0.061437868 0.026174847 0.21717538 -0.1307385 0.048890688 -0.029911313 0.08080191 -0.041726027 0.01707213 0.02620631 0.06165551 0.14124164 -0.010888406 -0.19926716 0.207995 -0.24893928 0.069935724 -0.012376733 -0.1855922 0.2765972 -0.20159449 -0.26815927 0.27577436 -0.037517156 0.015131244 -0.1717236 -0.14101774 -0.13167638 0.17038584 -0.039803244 -0.13090213 0.028448826 0.2028375 -0.11804597 0.32206672 -0.21462241 0.09296586 -0.09805821 0.05101864 0.0901305 0.20087881 0.37283242 0.15872122 -0.018741164 0.0017310913 -0.01142863 -0.14764509 -0.16503827 0.1046804 0.060867824 -0.14359339 0.031416167 0.09783914 -0.23013633 0.11516003 0.02989961 0.16617554 -0.0984743 -0.14430954 -0.10444246 0.062796295 0.001272236 0.1472115 -0.15247484 0.28175846 0.049134605 0.2230093 0.01734378 0.0043126987 0.13303101 -0.1268672 0.04634091 -0.033043344 -0.29309228 0.07329012 -0.07342181 -0.059795998 -0.20618601 -0.0033752315 0.014413015 -0.13204144 -0.3396023 0.02290089 0.074390076 0.19730307 -0.11792069 -0.020058818 0.24749637 -0.051604893 0.08447315 -0.23364255 -0.008041912 -0.015152295 0.18707189 -0.009995978 -0.22879444 -0.08504875 -0.17611362 -0.20049238 -0.094923496 0.2605228 -0.09844213 0.07786041 -0.22270337 -0.15616733 -0.09899938 -0.13717778 -0.08713315 -0.02362151
128 -0.34514567 -0.006746673 -0.11374379 -0.15824914 0.25154045 0.051820327 0.10226079 -0.19888145 0.14472145 -0.090319745 0.24026302 0.18204707 0.0077250786 -0.21408233 0.27880716 0.0057603987 -0.018040974 0.10873892 0.097640075 0.026030434 -0.22905712 0.055864275 -0.124179274 -0.044274505 0.31774113 -0.012732697 -0.05600815 0.08928078 0.15150872 -0.09225424 0.21766992 -0.008203503 -0.20789875 0.011904869 -0.02820997 0.31892192 0.14478444 -0.103519626 0.0011317178 -0.24210596 -0.009970214 0.15331346 0.059491325 0.04437534 0.012269862 0.06752039 -0.15047066 0.08117253 0.04762698 0.12197672 -0.039095923 0.1887298 0.07794349 0.13411473 -0.15713516 0.012078659 -0.1268287 0.12850498 0.18722092 -0.11828253 0.08019755 -0.05237464 -0.024308968 -0.08572104 0.028204909 -0.09659525 -0.15601 0.03438856 0.1412554 -0.2930727 0.053802785 -0.059594154 -0.09077492 0.1276946 0.10146475 0.29027456 -0.095826425 -0.50496405 -0.2553001 0.20578836 -0.096243545 -0.012151871 0.010800003 0.15604284 0.010603091 0.058869854 0.099441215 0.091113746 0.25108993 0.14339101 -0.011207041 -0.028530061 -0.0735748 -0.0045221956 -0.3530926 0.113721244 -0.07416283 -0.018936167 -0.057205223 0.08497183 -0.2651786 0.1103461 0.037808217 -0.15276632 0.12284781 0.010929712 0.1002991 -0.1412619 0.021516282 -0.29881257 0.06715761 0.16647153 0.06286485 0.06745877 -0.16416636 -0.041158643 -0.105972044 -0.056614902 -0.14912805 0.22478604 0.044379603 0.14113024 -0.08533491 -0.13210413 -0.32535377 -0.041373152 0.102127306 0.021554442
282 -0.29369846 -0.14423709 -0.08861514 0.08184311 0.18216807 0.088918865 0.025034668 -0.20904687 -0.13255672 -0.12648977 0.16183668 0.19893146 -0.20584935 0.10471765 0.2750323 -0.0068388595 -0.0037657244 0.38049784 0.26611018 0.11775639 -0.17688525 0.17860599 -0.1395912 -0.009308676 -0.13672249 0.034936767 -0.43570432 0.28519854 0.09113084 -0.014331091 0.0064047477 0.10481704 -0.043324202 0.15658541 0.029797152 0.040093344 0.030698795 -0.13171372 -0.0044988752 0.14824286 -0.25299034 0.047753748 -0.012343095 -0.03818109 -0.002076705 -0.029710624 -0.05576597 0.073036954 -0.15671924 -0.08341445 -0.05475115 0.3320986 0.02869553 0.31452826 -0.28806376 0.042772543 0.21195835 0.052154902 0.015847567 0.002088333 0.37926552 0.10799204 -0.024704507 -0.08043316 0.062163394 -0.17417215 -0.11622698 0.23221621 -0.021910304 -0.06988411 0.017970512 0.0105580175 -0.18915533 0.110543266 0.19939557 0.11084001 -0.14101547 -0.0005098457 -0.27273354 0.07569155 0.13970071 0.007935913 -0.07593474 0.31666598 0.047165617 -0.10554591 -0.026968285 -0.06518434 0.109188 -0.015554693 0.24396136 -0.009035246 -0.20279658 0.030167574 0.03845482 -0.013453853 -0.25522143 -0.17807737 0.010872942 -0.16949353 -0.107966766 0.11566316 0.03666963 0.083938055 -0.025817577 -0.03455731 0.20231698 -0.03890767 0.30316028 0.03511096 -0.09004809 0.07337527 0.24105103 0.23713984 -0.34970495 0.17691113 -0.031164048 0.0028971224 0.16258891 0.099971496 -0.22361584 0.15620962 -0.23609735 -0.11792812 0.110519305 0.011680556 -0.25199968 0.10103481
142 -0.16925675 0.014326442 -0.021558972 -0.013984055 0.06902611 -0.06595394 -0.1962707 0.043764155 0.09588019 -0.01748804 0.03985247 0.13871722 -0.08952564 0.13850045 0.18184528 0.086129755 0.004120844 0.29829875 0.12812266 -0.13531369 -0.027327115 0.15784274 0.05569465 -0.14346991 -0.063909486 0.0989611 -0.2622881 0.13052817 0.17153847 -0.06833142 0.029069288 0.21231176 -0.17175476 0.26915768 0.058103465 0.05888799 0.21738943 -0.25403184 0.085098 -0.109575056 -0.21902442 0.007865091 0.13118115 -0.03900978 -0.24240959 -0.11674446 -0.14280266 0.1962627 0.065794006 -0.08885851 0.032273065 0.2086848 0.048368596 0.16797352 -0.2579759 -0.073574856 0.14519559 0.04305146 -0.005322795 -0.07740071 0.2112874 0.10207421 0.16320232 0.044562183 0.20330879 0.010718498 -0.09696165 0.32956776 0.14719199 -0.05641779 -0.03810492 -0.081678934 -0.16099891 0.08218293 0.12897664 0.22545144 -0.11876265 -0.16169876 -0.26780143 0.1055667 0.011452592 -0.009797879 -0.12210047 0.41005775 0.13744152 -0.07097369 -0.18323062 -0.14420855 0.14915152 -0.068192296 0.15337081 -0.044706635 -0.061160196 0.13228358 -0.10009611 -0.01894816 -0.11372363 -0.12846224 -0.056723643 -0.22864164 -0.14721513 0.27818117 0.04559273 0.010486218 0.02642266 -0.010355165 0.06781515 -0.09465615 0.2791949 -0.03195105 -0.16911246 0.052377798 0.25406033 0.15156367 -0.38486958 0.2565053 -0.15886764 0.10979135 0.08357805 -0.029153485 -0.23151976 0.13518006 -0.057147875 -0.18974587 0.032782394 0.010033389 -0.1689092 0.030340508
106 -0.117053226 -0.055631623 0.09156035 -0.073648214 0.18456821 0.220408 -0.008771968 0.028173408 -0.16804443 -0.13287579 0.28334424 0.054453246 -0.10646329 -0.016649203 0.3064893 0.074673384 0.12131108 0.04736622 0.2291453 -0.09504444 -0.12559064 0.05970638 -0.20643084 0.054456245 -0.09740558 0.274811 -0.20129731 0.050548475 0.18814051 0.016685551 0.100363806 -0.09702465 -0.086420015 0.14911284 -0.23031011 0.15853411 -0.09166375 -0.09140397 0.26152787 -0.117853045 -0.16716062 0.117611855 0.14572966 -0.11723955 -0.11238916 0.061036296 -0.019885624 0.16590954 -0.15873578 -0.13768803 -0.32503268 0.1042687 -0.015293299 0.14548047 -0.154739 0.08171072 0.25002745 0.12563917 0.12521745 -0.108126186 0.32770246 0.13144056 -0.06531302 -0.0472908 0.20196298 -0.14468266 -0.269325 0.18068974 0.0022264726 -0.18982668 0.033929188 -0.042428598 -0.075691424 -0.029770592 0.15548886 0.09522347 -0.07978834 -0.058216978 -0.03659634 -0.060516097 0.025795318 0.010134172 -0.24931502 0.20586298 -0.08551891 0.20901212 -0.030599663 -0.1305312 0.15695035 0.19173948 0.09582519 -0.023577042 -0.27620855 0.22798508 -0.2370092 0.104950085 -0.056479644 0.029940195 0.25615683 -0.06885447 -0.24253257 0.24051563 0.013599595 -0.17444502 0.057422645 -0.07457559 0.014811574 -0.10764517 0.24643941 -0.03305263 -0.0883167 0.14834934 0.3429263 0.29942843 -0.08298579 0.19676338 -0.09474061 0.04419043 0.057746224 0.17938903 -0.020890353 0.030054003 -0.15732202 -0.019298196 -0.29048958 -0.045036808 -0.06666685 -0.022570912
87 -0.12978625 -0.20826602 0.059814773 -0.10536353 0.10857496 0.06227196 -0.032985996 0.063422434 -0.11050437 -0.038643464 0.045266632 0.07974986 -0.16633151 -0.09694536 0.120702974 0.17439777 -0.011053069 0.18395805 0.091325365 0.08586351 0.03742904 0.18090825 -0.09554866 -0.02230906 -0.034089413 0.3014808 -0.2501328 0.26390177 0.20301864 -0.048900835 0.049284898 0.01848932 -0.08559338 0.2776101 -0.044913962 0.08170506 0.082798205 -0.15780216 0.0654638 -0.0739056 -0.0653461 0.18622296 0.028770339 0.0128425965 0.036980733 0.040396553 -0.28749755 0.20212947 -0.01207222 -0.0019735855 0.024945945 0.112152874 0.02842708 0.02203614 -0.25396544 -0.019010205 0.10126261 0.00829114 0.006577034 -0.29088852 0.13723332 0.08712035 0.10046638 0.19300447 0.15963346 -0.01112115 -0.045699153 0.008175767 -0.10494116 -0.13412517 -0.14751776 -0.19092274 -0.08562798 0.020411046 0.116580166 0.19908446 -0.123969726 -0.05054792 -0.19264932 -0.12709317 -0.05766275 -0.01750537 -0.08212174 0.34752968 0.18213034 0.16544347 0.004374201 0.013330068 0.34064916 0.021082405 0.15318759 -0.21565597 -0.06848937 0.25542912 -0.16380727 -0.0020891917 -0.16354138 -0.015779866 0.21733917 0.07881407 -0.2830774 0.20281154 0.07497541 -0.08536482 0.0384047 -0.0045545464 0.12831634 -0.10097174 0.21398924 -0.00843486 0.025559211 0.34466127 0.22567755 0.21652068 -0.37585175 0.2730885 -0.050944325 0.045677643 0.027748035 0.20958011 -0.20621504 0.15463369 -0.09624275 -0.1375509 -0.17631637 -0.05530432 -0.14408821 -0.11123275
377 -0.21489294 -0.15299849 0.15260133 -0.052072275 0.20542541 0.033735543 0.21238753 -0.25823396 0.06162976 0.01751228 0.09899842 0.1714321 -0.12350206 0.010956797 0.21694885 0.016494336 0.15537398 -0.16469912 0.16331051 0.025715414 -0.009044937 0.25806132 -0.18032068 -0.025311785 -0.104568325 -0.04400175 -0.14799352 0.13777095 -0.040415224 -0.23574536 0.37284896 -0.101779535 -0.26497224 -0.17978987 -0.10373949 0.23826309 0.11349249 -0.26433113 0.10129601 -0.18005334 -0.24205324 0.25678045 -0.13818637 -0.061546613 -0.18539116 -0.41345364 0.005810382 0.21176651 0.33697245 0.15181069 -0.064221606 0.21715347 -0.06429786 0.10110528 -0.31029564 0.0055514504 -0.01920918 0.22580078 -0.01692537 0.2990577 0.20961893 0.26454377 -0.11577798 -0.041800197 -0.051131196 -0.25806198 -0.11810555 0.3201966 0.26968166 -0.37237197 0.030387968 -0.0957271 0.025535539 0.12634657 -0.036919504 0.14411604 0.07669386 -0.30125526 0.20176022 0.19115418 0.22499284 -0.06881697 -0.13479532 -0.026655627 -0.05519801 0.18613642 -0.12721369 0.096577086 0.08980755 0.17982751 -0.026504006 0.002037353 -0.03654806 -0.11401837 -0.13859521 0.18038154 -0.19344047 0.2626093 0.10258965 -0.028419565 -0.1967936 -0.0025785188 0.09045611 0.009003332 0.18628782 -0.06855462 0.43072188 -0.109217346 -0.044163655 -0.38860825 0.078732155 0.20439284 0.13690253 0.25370178 -0.049488246 0.033581268 0.17146158 0.11009454 -0.06074758 0.08266709 0.11141042 0.027613152 -0.24632367 -0.32127696 -0.22943479 0.018902874 -0.021751177 0.06704695
83 -0.115409024 0.022851449 -0.093738906 -0.25290883 0.15878633 0.19281322 -0.16918123 0.15023898 -0.043732766 -0.08554572 0.14758748 0.123677775 -0.13050467 0.035052992 0.28312194 0.26535314 -0.07208514 0.3615898 0.14101133 -0.052034654 -0.26543072 0.2006162 -0.10350199 -0.002571048 -0.004866016 0.14528534 -0.24707481 0.3685243 0.16868675 0.15409857 0.17878169 0.27127004 -0.033965547 0.17997596 0.00078992755 0.033671368 0.16440722 -0.31997314 0.24968548 -0.26709655 -0.12962803 -0.110173084 0.12551525 -0.17712153 0.13030402 -0.09801637 0.030275362 0.036674958 0.14692043 0.13455923 0.07350048 -0.013826102 -0.07513317 0.08743678 -0.13574949 0.082662754 0.12674208 0.03310215 -0.19455653 0.11980554 0.0059250207 0.1174188 0.087637305 0.20050137 -0.019557582 0.043015476 -0.03181421 0.27179718 -0.19157927 -0.044026565 -0.10085795 -0.024856871 -0.16138656 0.0769587 -0.019784864 0.1506683 -0.17417453 -0.1280227 -0.22676499 -0.03573757 -0.035766836 0.027706524 0.0012986033 0.3634174 0.20261404 0.29395398 -0.07086557 -0.101756126 0.19399619 -0.08936898 -0.009453018 -0.08191135 -0.07664054 0.0013738942 -0.039124288 -0.02489058 -0.05723603 -0.014519468 0.13483393 0.0116904685 -0.29334688 0.29685614 0.075809844 0.0009573458 0.010327708 -0.08418305 0.15072866 -0.01242307 0.11089805 -0.30949825 -0.08073116 0.27446926 0.17929581 0.12507914 -0.248137 0.19352378 0.008662743 0.031113127 0.073678136 0.087402694 -0.2558223 0.13553917 -0.05685626 -0.12886627 -0.014996003 -0.19351146 -0.084825434 -0.015570055
21 -0.31603664 0.032271683 0.10062204 -0.2829412 0.18579257 0.26004118 -0.1609861 0.1040943 -0.15810697 -0.11622992 0.11423782 -0.057997413 -0.23851554 0.022082845 0.37218153 0.16279864 0.052617628 0.15272309 0.09937176 -0.056921188 -0.1172037 -0.1411066 -0.03941337 -0.081037186 -0.110614106 0.21932562 -0.0626711 0.004492919 0.058815088 0.020669887 0.21422279 0.067501895 -0.22126323 0.057766974 -0.2780563 0.045244433 0.04510887 -0.25452963 0.11189723 -0.1362108 -0.13842997 -0.07537019 0.08664917 -0.10506765 -0.069001205 0.038762633 0.020396493 0.40469036 -0.04980395 -0.08981177 -0.1540062 0.054396927 0.054910757 0.10058112 -0.16854389 0.1603501 0.23286353 0.11348376 0.19474979 -0.41134924 0.18699254 0.03364379 0.05407884 -0.0034361451 0.14824487 0.0960122 -0.3452344 0.21172024 -0.051193893 -0.2163988 -0.027776897 0.058099817 -0.019484263 -0.07741773 0.00444504 0.0074665695 -0.05044786 -0.23233615 -0.14522238 -0.1457919 -0.029654555 -0.06670359 -0.093297765 0.3722209 0.0046764323 0.017910592 -0.07420557 0.022346323 0.10363858 -0.026467737 -0.028953055 -0.06911357 -0.30546138 0.21228129 -0.10572718 0.13428988 -0.1948648 -0.014203513 0.047861345 -0.08239887 -0.14400826 0.29452732 0.0132909445 -0.11805212 -0.12870744 0.009245846 0.11577611 -0.095091514 0.14479193 -0.29619873 -0.04402396 0.20352076 0.095006175 0.2680244 -0.060978744 0.25625095 -0.024926044 -0.22315653 -0.006165492 0.15197356 -1.5134647e-06 0.052474726 -0.23789808 -0.07813582 -0.14716661 -0.002089236 -0.05055588 0.15107113
84 0.23449528 -0.1462074 -0.00080669415 -0.38825577 0.21690151 0.17949201 0.0053748004 -0.026329326 -0.19547856 0.11038575 -0.111189134 0.016267736 0.03603896 0.026934462 0.27546176 0.12604204 -0.052688308 0.19160508 0.20253952 0.2701696 -0.3069276 0.27287138 -0.022889163 0.20399992 -0.28870675 -0.09652617 -0.20531425 0.10944562 0.15803632 0.25082028 0.049744155 0.20292856 -0.0023522803 0.15086457 -0.013404889 -0.0066800327 0.475755 -0.38707793 0.10282368 0.16616616 -0.072223604 -0.049722794 -0.029201845 -0.13502657 0.09462197 -0.25200087 0.12873074 0.011487598 -0.18718922 0.21761173 0.15233733 0.06655645 -0.26634037 0.1166807 -0.11295361 0.16322464 -0.20423032 0.18778422 -0.2997477 -0.026318807 -0.0568709 -0.12254624 0.13960147 0.1706271 0.25925583 0.12320946 0.004657877 -0.09945555 0.004023152 -0.29858014 0.19746025 0.14777455 -0.21153465 -0.02876899 0.06876902 0.094150454 -0.15734479 -0.118694775 -0.11084982 0.09954433 -0.095081605 -0.04950912 -0.26351875 0.32409775 -0.0016240932 0.19919121 -0.27048036 0.041528866 0.40938514 0.28260964 0.19553445 -0.014388315 0.0868642 0.01885735 0.05311006 -0.24486834 -0.21512967 -0.24995658 0.15705001 0.16424541 -0.10017895 0.3149149 0.030632867 -0.12572487 -0.063480295 -0.45607293 0.22458875 -0.10228129 0.10816336 0.02014342 0.04883594 0.0013644013 0.057813045 -0.019980725 -0.3682152 0.22203219 -0.19530395 0.23082902 0.025474928 0.20293608 -0.056496713 0.05836617 -0.08302532 0.22178958 -0.07366458 0.31972525 -0.22699873 0.023259329
420 -0.2740852 -0.1669232 -0.13013376 -0.3080618 0.12186036 0.47749075 0.018658321 -0.19636253 -0.034931857 0.035327718 -0.07026656 0.10515795 -0.098576054 -0.015946103 0.14463644 0.044662826 0.053410772 0.17027898 -0.012213842 0.011073151 0.04404712 0.30100423 0.06703947 -0.20372394 0.05315524 0.10724828 -0.06976208 0.013295061 0.14822483 0.11182922 0.033631805 -0.012897678 -0.15105249 0.14484297 -0.037163436 0.14804858 0.09480946 -0.116098784 -0.26273036 -0.07386784 0.008753669 0.28573525 -0.13525875 -0.2838812 -0.23039402 -0.118844606 -0.053463597 0.28820425 0.24983872 -0.26029003 0.10422507 0.27573794 0.057955325 0.15553881 -0.15421367 0.2752612 0.05879724 0.24418317 0.13222013 -0.021685505 0.18578935 -0.032550648 0.19372319 0.20313498 0.0051306016 0.04271151 -0.055360362 0.032152317 -0.13283165 -0.12317027 0.11819413 0.21102998 -0.1989292 -0.05537509 0.13224496 0.13067144 -0.0055480357 -0.14715531 -0.40587223 0.03298959 0.00371501 0.08228934 -0.14605154 0.13975848 0.16606393 0.16153423 0.030429173 -0.0032499477 0.24984549 0.117042124 0.20240273 0.09844847 -0.14022689 0.12557416 0.06126519 -0.06814213 -0.29059115 -0.13128214 -0.17821759 -0.061891373 -0.2591984 0.22333431 -0.11176332 -0.07051425 0.08548142 0.055914193 -0.21515216 0.22409354 0.22419326 -0.13486733 0.24122198 0.09493478 -0.099281505 0.031058066 -0.12615179 -0.023402648 -0.03238283 -0.017688546 -0.014153547 0.27318582 -0.18500559 0.018214537 -0.15342718 -0.108268134 -0.38662288 0.17922226 -0.2818071 0.057268746
424 -0.055370666 -0.031005358 -0.317216 0.1459153 0.111542195 0.13069567 -0.112977356 -0.31023672 -0.13458471 -0.056598194 0.26174766 0.251291 -0.11066073 0.12542215 0.37567705 -0.16406222 -0.21348195 0.1481256 0.13645877 -0.23670873 0.06009125 0.22748564 -0.030032935 -0.008562831 0.013496459 0.045009926 -0.18075593 0.14682454 0.1366608 -0.03873303 -0.008611327 0.0296999 -0.09229905 0.17696433 -0.090818524 0.04729558 0.20199415 -0.07469179 0.0151397 -0.06333688 -0.16865432 0.17702466 -0.034686137 0.019218488 -0.2737425 0.19719751 -0.17166358 0.06009745 -0.032806046 -0.053510338 -0.07818752 0.19267909 -0.01824194 0.13234368 -0.12176622 -0.040333305 0.0989788 0.24933675 0.06972753 0.13619883 0.23091103 0.10321527 0.08127918 0.009305462 0.050628975 0.015470788 -0.20067495 0.2681649 0.039704613 -0.2254022 -0.2052265 -0.024261294 -0.3169222 0.10714523 0.10347164 0.15418167 -0.17218061 -0.14695925 -0.1447015 0.005351028 0.057144072 0.038472995 0.2057508 0.32280007 0.08929764 -0.0076486473 -0.005313738 -0.16543254 0.15056667 0.087301254 0.17805366 0.054053858 -0.13659723 0.13401665 -0.060126763 -0.027166521 -0.10940547 0.033056885 0.032621104 0.15283623 -0.3712679 0.19005021 -0.10520536 -0.044585 0.076411285 0.12207452 0.20859034 0.030545382 0.26489222 -0.20710945 0.076472625 0.061828423 0.3932853 0.23720346 -0.15625624 0.25069615 0.021483414 -0.1670385 0.047892027 0.19051644 0.02023867 0.15787926 -0.032239117 -0.17238976 -0.1269819 -0.0756251 -0.10969902 0.058927063
333 0.008725084 -0.19889973 -0.0068194177 -0.15741257 0.07797456 0.07648481 0.1593314 -0.054132182 0.0027526976 0.038832422 0.09585811 -0.16712177 0.0014814389 0.007901289 0.24106893 0.16562967 -0.04194465 0.19911543 0.12334819 0.31511915 0.04129521 0.18513729 -0.08018399 -0.082906306 0.12819968 -0.0625736 -0.19328547 0.20609087 0.09749003 0.014065198 0.1798612 0.035781268 -0.24979705 0.08705626 -0.099584065 -0.05476217 0.0686093 -0.17877355 0.3752839 0.12564157 -0.08664016 0.053142827 0.03120873 -0.077799946 -0.07470398 0.0042948546 -0.024647424 0.19222456 -0.028762128 0.08943906 -0.032778304 0.028462166 -0.059325263 0.12976122 -0.424873 0.34059784 -0.12829863 -0.04143533 -0.08664634 -0.07021371 0.059812803 0.21540414 -0.011876676 0.16252886 0.12770785 -0.044637274 -0.2677607 -0.13073482 -0.1357638 -0.23773418 0.1353342 -0.19242802 -0.2073418 0.12604938 -0.069636114 0.08120331 -0.03953945 -0.05448378 -0.118486255 -0.11717301 0.049727682 0.024510829 0.2141171 0.1825474 -0.011651131 0.13359436 -0.1542035 0.036771208 0.35998943 0.27744934 0.10351834 -0.060891975 -0.1702636 0.41052288 -0.028502192 0.05643562 -0.14110301 -0.21054418 -0.03539327 0.01719709 -0.20661433 0.15790117 -0.24017105 -0.013966516 -0.17064677 -0.038141947 0.26408178 -0.19480598 0.1939055 -0.12604241 -0.15882705 0.09661656 0.27880177 0.1634152 -0.062385317 0.21314204 -0.35174096 -0.1205976 -0.068066455 0.10141071 -0.30897984 0.12870568 -0.009969932 -0.028061047 -0.18069597 0.116181806 -0.09731296 -0.051499367
301 -0.23060453 0.043378033 -0.295528 -0.024796635 -0.21051079 0.19331346 0.09934471 -0.047898754 -0.019725293 0.10400186 -0.08131307 -0.10677614 -0.054595206 -0.082462154 0.15406333 0.05879149 0.01833646 0.11872121 0.09918632 -0.2836551 0.091632254 0.13144565 -0.053976603 0.00988003 0.066436745 -0.17670244 -0.18297626 0.077511385 0.041438255 -0.20588842 0.1118414 0.08709785 -0.3555733 0.05615479 0.023628805 0.044490717 0.05691473 -0.28325728 -0.15090694 0.031687487 -0.16430365 0.15337233 -0.15527725 0.10171431 -0.4560668 -0.14724533 0.087263316 0.11435177 0.1438308 -0.22171791 0.03217063 0.19420895 0.07477987 -0.07882117 0.05796377 -0.14724584 0.38080257 0.12128157 0.2333904 0.17435172 0.14178653 0.10923211 0.032695707 -0.017414218 -0.049970504 0.15603547 -0.08235451 0.08710778 0.05077223 0.09213749 -0.047383778 0.19613412 -0.16647533 -0.031321947 0.06536048 -0.034251463 -0.032538436 0.0036328626 -0.34806755 0.018651135 -0.20358388 0.06101569 -0.060810596 0.38660595 0.029573573 0.11234575 -0.10721538 0.18453977 -0.018981311 0.2704101 0.3065221 -0.13562782 -0.21973386 -0.019293828 -0.08011371 0.1294257 -0.27471718 -0.13946883 -0.090732545 -0.035425518 -0.29963297 0.27334958 -0.18422294 -0.017200865 -0.047237925 -0.16190112 -0.069426976 -0.11351856 0.21442337 -0.30292553 -0.028403632 0.21948162 -0.14351848 0.2176994 -0.21926129 0.39311892 0.13023524 -0.12940003 -0.09777422 0.33133182 -0.22887817 0.060289226 -0.071177915 -0.31830806 0.08386026 0.16563798 -0.34358448 0.22434907
115 -0.2240663 -0.05093297 -0.055304315 -0.02309453 -0.02109025 0.029566247 0.09072486 -0.123003975 0.14384608 -0.098131806 -0.1027101 -0.07839853 0.015035364 0.10131875 -0.04568779 0.01614914 0.067581855 0.11117073 0.014405089 0.13592353 -0.049140967 -0.021913806 0.03619599 -0.11207543 0.05652975 -0.19252397 -0.3099322 0.028615663 0.12019822 0.016532013 0.38184303 0.093968056 -0.13261323 0.105119035 0.08458376 0.13391298 0.05446741 -0.27680945 0.19245042 0.0475884 -0.24615592 0.12059378 -0.0036716755 -0.18595175 -0.0002754496 0.1857643 0.035504077 0.26919898 0.10826155 -0.12595087 0.04453715 0.1273551 -0.04921419 0.3228796 -0.34906742 0.109409936 -0.053509332 0.070470855 -0.027848002 -0.12412529 -0.016572239 0.09416542 -0.21441568 0.14208485 0.3287794 -0.023391396 -0.23730421 0.038704544 -0.0410896 -0.0800254 0.030932285 -0.105781816 -0.30858874 0.12315122 0.144704 0.1700465 -0.07251817 -0.21327777 -0.33236882 -0.16298129 -0.18424036 -0.037392195 0.12953816 0.28350005 0.043796342 0.14386545 -0.21124263 -0.085476406 0.2448965 0.13407198 0.009165137 0.06791475 -0.23719743 -0.0044965297 -0.009042481 -0.038198095 -0.102764405 -0.16137163 0.0019185953 0.14408101 -0.22660682 0.21269722 -0.05323906 -0.12706706 -0.08463266 -0.03897386 0.08322664 0.010811215 0.19532138 -0.24559382 0.15084328 -0.029030971 0.28591412 0.25243613 -0.19221054 0.27352795 -0.24098341 -0.18077564 -0.18582948 -0.06360961 -0.0716767 0.05919959 0.04671034 -0.05286555 -0.34210393 -0.087107114 -0.08635778 0.032575723
820 -0.22473024 -0.04903678 -0.10094824 -0.19551143 0.14106335 -0.106041215 0.23053649 -0.035956345 0.215645 0.039911445 0.2507538 0.029131243 0.017887266 -0.19409199 0.12949614 0.05887113 -0.03855053 0.041416056 0.101313636 0.12981594 -0.24818069 0.18315873 -0.09347707 0.009136107 0.18754132 -0.08727488 -0.19926234 0.10605533 0.032205183 -0.16549936 0.1691076 0.0380396 -0.20703954 -0.01078496 0.067126736 0.23880908 0.21593182 -0.15883325 -0.13547944 -0.04167792 -0.0012479534 0.007365429 0.07208912 0.031592578 -0.018300876 0.0426231 -0.2918535 -0.023337573 0.20472164 0.11308941 -0.15504943 0.17546366 0.068706185 0.26808202 -0.3214339 -0.031851143 0.11458973 0.18820925 0.07603623 -0.13647112 -0.14247453 0.042936932 0.14709276 0.08051481 -0.032010972 -0.07365253 -0.09807032 0.11696678 0.1909798 -0.24398266 0.006310991 -0.07380424 -0.23172498 0.16252048 0.068474256 0.20878853 0.12589265 -0.2644917 -0.40115368 0.067148976 -0.07707122 -0.09729468 0.0983549 0.17355779 0.33008397 -0.024969427 -0.030286252 0.10040446 0.29496667 0.30155355 0.042631764 0.061076853 -0.05662468 0.11183658 -0.09320044 -0.08622546 -0.08043097 -0.06502512 -0.18315452 0.016516704 -0.2608299 0.281456 -0.106429465 -0.25677255 0.089390166 -0.062286787 0.151519 -0.095971934 -0.035460975 -0.20129646 0.20461908 0.14317364 0.07880984 -0.020345269 -0.16319233 0.0063234535 -0.22880553 -0.06463142 -0.21313234 0.21263547 -0.2310947 0.022258481 -0.20665465 -0.2844284 -0.43814394 -0.14572315 0.047881465 0.09131402
256 -0.18234526 -0.19065176 0.04781076 -0.038007777 0.15208063 -0.06283524 0.05545955 0.023825902 -0.10859518 -0.16592506 0.16175693 0.19282362 -0.09275635 0.0704332 0.19474679 0.2770275 -0.023740873 0.085712634 0.20618004 -0.10793075 -0.10446452 0.21096426 0.111155026 -0.02565515 0.1454966 0.018030666 -0.19198103 0.120144464 0.35083365 -0.01412439 0.13483563 0.10525173 0.029838644 0.23514767 -0.11376406 0.0138196405 0.10757564 -0.20850241 0.2229366 -0.13288032 -0.20113702 0.04581102 0.28449193 -0.15186654 -0.23136577 -0.032039225 -0.24969496 0.13703676 -0.012049764 -0.28474337 0.057790317 0.19588861 0.04975617 0.17344823 -0.041737787 0.32451263 0.030532718 0.0122397365 0.08567893 -0.045505386 0.4348353 -0.02487762 0.13038236 0.06431525 -0.0094442945 -0.18445541 -0.17038389 0.06842572 -0.019558294 -0.0087729795 -0.08898103 0.19673935 -0.27119523 0.073955014 0.03492959 0.16116104 -0.077223495 -0.27191225 -0.17257328 -0.060803548 -0.09477892 0.1130546 0.030970367 0.2467652 0.16278414 0.07973922 -0.06460189 -0.085310735 0.21078198 0.093707465 0.21216585 -0.06775347 -0.2122732 0.19782604 -0.20185314 -0.0017550538 -0.10106706 0.13522707 0.074767776 0.034208678 -0.19669671 0.26081342 0.03185625 -0.11376589 0.042899095 0.08916934 0.31981632 -0.045750193 0.17448829 -0.15067075 0.17938776 0.2570879 0.078632586 0.099322386 -0.046813518 0.12817174 -0.0059156423 0.019627118 0.18982513 0.27634016 -0.05491871 0.121820346 -0.041628033 0.06564597 -0.22044024 0.022079522 -0.14341892 -0.103240855
58 -0.17979287 -0.03496379 -0.20301715 0.06687724 0.1556544 0.06389305 0.16850041 0.05549363 -0.24594812 -0.1947607 0.0016929605 -0.009451137 -0.1851481 -0.042501606 0.17789112 0.31219628 0.1782184 0.19383399 -0.08907388 0.1640905 0.0613529 0.078960076 -0.3301666 0.1718743 0.138982 0.02607315 -0.12364552 0.08619654 0.2998415 0.04551289 0.053311348 -0.031101968 -0.11039956 0.32113335 0.043042045 0.11673955 0.146308 -0.04021915 0.3106418 0.09167549 0.011990803 -0.06713361 0.089112476 0.042849373 -0.17057166 0.11281957 -0.07445069 0.13392226 -0.10162692 -0.18487109 0.14714262 0.20607759 -0.11564955 0.16024831 -0.20773402 0.16001433 0.077509895 0.14519858 -0.062087208 -0.20012578 0.021530354 0.35211784 0.09025637 0.236533 0.10271833 0.06396082 -0.18383677 0.07175191 0.071931794 -0.23256327 -0.12423372 0.09802352 -0.40787917 0.029113313 0.027497727 0.08650901 -0.11231901 0.014870584 -0.09066061 -0.14231373 0.16142143 -0.03607821 0.22517231 0.21347873 0.15445033 0.1798925 -0.18519613 0.22251147 0.22316481 0.09720967 0.17990649 -0.024763076 -0.2380347 -0.03590795 -0.09234117 -0.06123606 -0.23522766 -0.20182547 0.07096769 0.044357914 -0.12058493 0.1959242 -0.1400738 -0.019890793 -0.115715206 0.03448589 0.020574175 0.10033725 -0.12960061 -0.016518697 0.19206923 0.083173245 0.10206785 0.091579676 -0.33378604 0.25572354 -0.027326275 0.05802413 0.0029501868 -0.014947448 -0.30786976 -0.014512956 0.049193405 -0.20860209 -0.03280313 -0.13564724 -0.18025987 -0.10264631
63 -0.2752908 -0.020480696 -0.12796302 -0.023908474 0.23103935 0.098559536 0.30510017 -0.065938644 -0.31271276 -0.21896294 0.07849374 0.028991552 -0.20595463 -0.029520081 0.30326596 0.23367338 0.0656634 0.034043428 0.10656617 -0.1705345 -0.10464503 0.057291254 -0.068779215 -0.003714166 0.16058692 0.18050861 -0.11275881 0.021357901 0.37075338 0.024058165 0.07618441 0.021128377 -0.047749158 0.41411316 -0.22508083 0.12965015 0.16615808 -0.17965503 0.3004011 -0.08754152 -0.081959076 -0.036121298 0.18806927 0.032856893 -0.19098078 -0.0536903 -0.024627756 0.16085868 0.013576763 -0.18676063 0.030838272 0.19958246 -0.13551296 0.15704319 -0.43803424 0.32345217 0.041804526 0.21769376 -0.10055299 -0.24216197 0.087251894 0.32784566 0.13159819 0.054391608 0.2723855 0.12127688 -0.23040828 0.18600677 0.104565226 -0.16735926 -0.1540338 0.13825393 -0.45155853 -0.051887665 -0.09432089 0.09292152 -0.027059121 -0.15954034 -0.112604395 -0.21305905 0.18555458 -0.07034752 0.16129056 0.33167496 0.018369937 0.08898807 -0.040411025 0.14694947 0.16445662 -0.085869394 0.09205701 -0.070648365 -0.083118744 -0.15479346 -0.13994987 -0.0277413 -0.12676914 0.09088443 -0.002593952 -0.0044684773 -0.08364896 0.08843607 0.029997943 -0.29764426 -0.030262822 0.07466448 0.016000062 0.14877376 -0.20532699 0.05440716 0.20513697 0.14345422 0.18265139 0.0126618305 -0.1584286 -0.034896314 0.034866925 -0.15519993 0.026031502 -0.0810324 -0.1555345 0.006390209 -0.0059817717 -0.18883057 0.0036532371 -0.15715161 -0.1384227 -0.045951243
252 -0.17735793 0.06548544 0.11393753 -0.06322171 0.1836375 0.1318315 0.090956174 -0.028306125 -0.37826657 -0.055397242 -0.05803431 -0.032760635 -0.058121774 0.067309186 0.24373162 0.34536502 0.19718732 0.18742125 -0.110773355 -0.18181564 0.055963393 0.09793224 -0.24612936 0.11010438 0.12859264 -0.032878872 -0.22224174 0.10075633 0.3899281 0.121612646 0.09200834 0.014761581 -0.14940341 0.21793236 -0.15387172 0.13417421 0.18519513 -0.19442521 0.38020587 -0.042126425 0.0034360748 -0.031259257 0.10058525 0.08240928 -0.08711417 -0.010316637 -0.09184597 0.12757319 -0.030055624 -0.030294105 0.2303732 0.215475 -0.111594796 0.10083097 -0.29087362 0.27693996 -0.025103515 0.1730161 -0.007935901 -0.17105187 -0.01643647 0.22536525 0.050167147 0.22769015 0.2492248 0.12014567 -0.21911848 0.09597033 0.1325195 -0.21959825 -0.198992 -0.032911643 -0.38893133 0.16277824 0.02356707 0.15006687 -0.029422747 -0.035269447 -0.007901441 -0.07049743 0.087998934 0.08509526 0.19576569 0.3437286 0.22198506 0.17449105 -0.0778649 0.10446286 0.1475601 0.0005189087 0.056577504 0.053936504 -0.061553627 -0.04138834 -0.060727734 -0.039822463 -0.20840515 -0.060043123 0.114802614 -0.025747804 -0.17863251 0.105964206 -0.08659598 -0.18200226 -0.04616929 -0.1280323 0.064571954 0.109554544 -0.23773076 -0.0066461726 0.1954937 0.02563423 0.027624669 0.080733046 -0.26066872 0.08548504 0.00089781976 -0.033896033 0.053525895 0.02896395 -0.22866824 0.07542206 -0.10815619 -0.09566971 0.09792145 -0.106507376 -0.19723219 -0.044731483
405 -0.20617549 -0.26034984 -0.0044278167 0.05345609 0.2512012 0.19198613 -0.056949783 -0.045726664 0.046107844 -0.042174257 0.15233 0.17323864 -0.18681839 -0.019542597 0.21886727 0.0934693 0.17898463 0.17643197 -0.071138866 -0.03377106 -0.16615771 0.096291155 -0.023087408 -0.25567305 -0.044132747 0.16680923 0.085059926 0.11002921 0.16557705 0.14303352 0.08599322 0.2919031 -0.13515864 0.23475543 -0.24793968 -0.08560981 0.15381776 -0.0982362 0.12133997 -0.19996133 -0.2533386 0.06661621 0.28637573 0.04967383 0.025953816 -0.05109708 -0.2330119 0.18681602 0.09728864 -0.10776195 -0.049837958 -0.1431159 -0.09872517 -0.14089511 -0.3292637 0.31641385 0.09191016 0.09340188 0.19966127 -0.16792184 0.2634475 0.040125657 0.06721556 -0.18166925 0.13467063 -0.12091557 -0.26095846 0.13630563 0.08435085 -0.16855559 -0.09806781 -0.098374136 -0.45425743 -0.09989298 0.033183146 0.14665712 0.013320157 -0.18068859 -0.1003151 0.0616661 -0.009512792 0.026597414 -0.0035482566 0.54072744 0.119012356 0.19434802 -0.045564592 0.007703344 0.049232215 0.03324576 0.29382256 -0.057296827 -0.2083928 -0.037086997 -0.14366065 0.104165316 -0.07443876 -0.21490708 -0.0017030651 0.17509957 -0.14255881 0.118862785 -0.08067825 0.034136716 -0.0035354062 0.09643615 0.1718081 -0.27485347 0.16489254 0.032338347 -0.033104848 0.25831625 0.21636188 0.14365895 -0.024069807 0.078638665 -0.025840087 -0.016720004 -0.1531141 0.06825117 -0.19050351 0.0985844 -0.18244357 -0.013135321 -0.11037818 0.1548615 0.10817904 -0.097372875
212 -0.20784535 -0.2789411 0.20592134 -0.07143924 0.07931837 -0.042334307 -0.06064487 0.064465776 0.042568002 -0.144103 0.075453654 0.1806597 -0.008607673 0.11917622 0.25803825 0.21771425 0.1489359 0.40928224 0.1411477 0.059718315 -0.17876013 0.042029954 0.028814567 0.022259733 0.03241693 -0.0067506013 -0.2905513 0.17875157 0.24479012 -0.01897215 0.04373259 0.16930464 -0.06413142 0.21448593 0.08454451 0.08878074 0.06493252 -0.220179 0.13325818 0.046068 -0.17186497 -0.14865172 0.10650079 -0.16500255 0.04815816 0.042526677 -0.012363403 0.1470978 0.0231039 -0.0027496614 -0.12526816 0.039774388 -0.0053633125 0.11729058 -0.30089185 0.23025057 -0.031477995 0.0590254 -0.031430002 0.018816464 0.313483 0.013529965 0.00942489 0.07640934 0.03410003 -0.13600576 -0.1596381 0.20031051 0.07847301 -0.17583333 -0.16309905 -0.055548646 -0.23928098 0.039528467 0.12637292 0.058840115 -0.09779427 -0.1112645 -0.29562953 -0.077450566 -0.110038236 0.057588577 -0.06702722 0.3543957 0.18001275 0.02731327 -0.07503331 -0.004747635 0.2865387 0.057333723 0.07466112 -0.046404958 -0.33834538 0.14876018 -0.22898579 -0.015374168 -0.080411695 -0.018563937 0.07765191 0.037249997 -0.18594162 0.23032346 0.051923115 -0.052721955 -0.06142641 0.11130479 0.14504945 -0.12109255 0.21527457 -0.114432774 0.080309875 0.088234834 0.20795745 0.24901973 -0.27042332 0.13561538 -0.17841686 -0.12810473 0.11537907 0.14925404 -0.12060882 0.23697576 -0.12539802 0.06840649 -0.3309149 -0.009402421 -0.22900806 0.030792981
96 -0.07674961 -0.08105104 -0.18507448 -0.06000041 0.19015625 0.12726536 -0.10798897 -0.09397403 -0.22407694 0.19751278 -0.01573127 -0.06662854 -0.014941276 -0.00086179323 0.16509694 0.12713087 0.033898436 0.22886217 -0.0631371 -0.02181486 0.16609171 -0.06630502 -0.049149893 -0.15909682 0.29817045 -0.27927384 -0.31271604 0.17000538 0.25256297 0.23311915 0.1617282 0.044892706 -0.3009896 0.17157641 -0.22892152 -0.048362866 0.28417733 -0.08466457 0.12527983 -0.2215289 -0.15642346 0.099383436 -0.1394711 0.09981408 -0.28289536 0.17241557 0.13398123 0.42553976 0.07265472 -0.066449456 0.24195124 -0.055146817 -0.23928483 0.09193074 -0.03143603 0.30930015 -0.061969977 0.19407438 0.14777415 -0.17268229 0.048931535 0.18203764 -0.23660515 0.0020614238 0.29173708 0.33402163 -0.12898892 -0.022041118 0.0452605 -0.075642556 0.14201087 -0.43925807 -0.21013412 0.07300279 -0.0061002513 0.33046508 0.02517851 -0.115158536 -0.2340549 -0.27738187 -0.087694295 0.045295447 0.3216284 0.12434359 -0.080821596 0.119876035 -0.04519992 0.03906049 0.15650606 0.18752472 0.016729573 0.03795852 -0.061943352 0.14508395 0.005810898 -0.1115309 -0.4451296 -0.09565932 -0.15609102 -0.15493876 -0.19414511 0.12634051 0.06409178 -0.31801015 0.008655749 -0.23034441 0.11181249 -0.1636806 0.033061776 -0.15210259 0.028002426 -0.13044642 0.24790727 0.30327353 -0.11953482 0.36862797 -0.10259738 -0.08281607 -0.09128633 0.034317046 -0.076409526 0.10584077 -0.093878314 -0.05110925 0.06504482 0.18585382 -0.15931405 -0.10068032
280 -0.18660966 -0.087180495 -0.00042457442 -0.12396821 0.0723272 -0.034378786 0.40569025 -0.24209476 0.090076044 0.041665614 0.11281949 0.24893242 0.13052608 -0.114187166 0.23631 0.2134361 -0.117143795 0.04404711 0.20433614 0.14027125 -0.24217862 0.17612909 0.013266318 0.05902188 0.09982882 0.034492504 -0.11357189 0.07232978 0.24208826 -0.033627912 0.34278035 0.1725935 -0.22619995 0.05399367 -0.17124139 0.16110055 0.092602484 -0.2194696 0.04583062 -0.3422446 -0.14106385 0.09885632 -0.029815495 0.0721473 -0.06884634 -0.14950556 -0.0011910878 0.14403187 0.26054648 0.0538399 0.07443236 0.08414994 0.023735348 -0.061440863 -0.08816277 0.012703776 0.072811306 -0.0059212004 0.047317386 -0.09966029 0.184719 -0.01195925 -0.08480502 -0.058872048 -0.11549993 -0.01513581 -0.19449347 0.088377535 -0.013684823 -0.18848608 0.09740564 0.03959205 -0.20511721 0.32976615 -0.1500995 0.09305051 -0.14076349 -0.35083488 -0.25393352 -0.03674344 0.024685377 -0.19106458 -0.10062487 0.021388527 0.075009465 0.14393802 -0.046443816 -0.2511821 0.18718618 0.24091022 -0.0033654955 -0.14980341 0.07000558 -0.01757258 -0.08557301 -0.2193843 -0.22566365 0.04769291 0.11282555 -0.100917436 -0.24343678 0.06835281 0.06716576 -0.1134988 0.21033394 0.013167335 0.036441866 0.026909519 -0.026734216 -0.24030115 0.061691683 0.23677844 0.26014182 0.19515577 -0.17232226 0.21442762 -0.16052635 0.057159517 -0.15510806 -0.030438725 -0.045347214 -0.017484447 -0.052771438 -0.189598 -0.1836615 -0.10933631 0.12009109 -0.034242213
165 -0.25179785 -0.14906098 0.041484017 -0.059769373 0.23848678 0.026408758 0.23384097 -0.32382143 -0.05983333 0.005284868 0.07924094 0.12317315 0.20765507 -0.15682058 0.17953825 0.15121874 -0.014974884 0.032810766 0.20235258 0.11431974 -0.20139764 0.046459116 0.06979369 -0.1246299 0.21565978 -0.2686037 -0.3612793 0.2151041 0.10616552 -0.111504264 0.19801362 0.16545658 -0.14991195 -0.09269525 -0.05645698 0.0596881 0.046305325 -0.3894212 0.064368345 -0.12907253 -0.17410888 0.06977752 -0.046027813 -0.0067610294 -0.072344415 0.15738973 -0.08356217 0.27718648 0.07452763 -0.20481764 0.24688524 -0.014503303 -0.20086479 0.2072108 -0.32773137 0.30522847 -0.026051521 0.030168494 0.4518084 -0.14552988 0.062758446 -0.06286139 -0.113538414 0.14599536 0.22586253 0.10888871 -0.14157696 -0.004365254 0.037405275 -0.051097926 0.14384572 -0.1776114 -0.17066523 0.09352089 0.053940102 0.015930522 -0.14354774 -0.13133472 -0.25762874 -0.07833686 -0.22954985 -0.124148846 0.17272489 0.19516976 -0.16240981 0.21956025 -0.10131612 0.03436446 0.44961575 0.23871553 0.05918624 0.15837589 -0.10822839 -0.017127993 -0.0043371716 0.1548594 -0.07846336 -0.11222146 0.051545385 0.0987734 -0.24083248 -0.02065673 -0.08086407 -0.17824478 -0.119216524 -0.32016104 0.19712515 -0.0844939 0.08611489 -0.32352835 0.13103873 -0.0024308406 0.17985743 0.061324272 -0.088246785 0.13422923 -0.1394181 0.08302347 -0.07361095 0.15174249 -0.14605509 0.13197696 -0.20262854 0.023009043 -0.45114684 0.092972845 -0.05011499 -0.0017372433
6 -0.37779972 -0.15650728 -0.1683265 0.13595739 -0.051239394 0.10295488 0.028613321 -0.14948516 -0.111076154 -0.062452417 -0.103418745 -0.20468026 0.08905992 -0.067026086 0.27967 0.3402961 0.23943616 0.20702429 -0.037637357 -0.103655614 -0.18698803 0.15653527 -0.14872847 0.07136955 0.34191006 -0.11934136 -0.04047317 0.060622055 0.44211596 -0.02880848 -0.08039276 0.047400177 -0.07141868 0.4159889 -0.002444275 0.062727705 0.26766944 -0.013522375 0.0512423 0.09509095 -0.25801593 0.26650348 0.052719224 0.0072203176 -0.21897686 -0.1533407 -0.11400523 -0.07099605 0.2422962 -0.093133934 -0.07341244 0.14090897 -0.0698797 0.035500675 0.012363784 0.3727504 -0.19986916 0.45793834 0.0063671 0.20677707 0.15732014 0.19520237 0.042936787 0.2369042 0.12116263 -0.025946507 -0.34435937 0.06776996 0.37061995 -0.14638063 -0.14531767 0.14479172 -0.35711715 0.11636205 -0.1609916 -0.00536622 -0.014685275 0.012496876 -0.2403298 -0.1582179 -0.10140889 0.051252376 0.059109896 -0.02093381 0.15554573 0.21656959 -0.0835075 0.046458714 0.05591626 -0.009304683 0.117272004 -0.09358838 -0.17854466 -0.101165146 -0.0027803185 -0.0049019735 -0.25671554 0.009230448 0.041089635 -0.29720297 -0.20314349 -0.05651541 0.26137683 -0.08044707 -0.09652919 0.07892594 0.015443191 0.029848719 -0.5360109 -0.30867633 0.19130188 0.4809852 0.019106206 0.038814377 0.11260831 -0.054467116 -0.21816014 0.06458838 -0.037338886 -0.13497578 0.016829375 -0.041419994 0.12087073 -0.34498435 -0.16383061 0.11633609 -0.031757865 0.065674886
169 -0.18036221 -0.052834053 -0.01657307 0.08283467 0.15772064 -0.022677675 0.11707787 -0.09695741 -0.03874088 -0.14419094 0.098232545 0.06784842 0.04146165 -0.059773088 0.22874466 -0.06688432 0.14818633 0.044823218 0.07457237 -0.048527505 -0.11495071 -0.06098204 -0.025210995 -0.072351836 0.12215424 -0.12337009 -0.09131568 0.10402241 0.1481092 -0.06433479 0.10967036 0.10426979 -0.16690591 0.11112209 0.016384192 0.23416299 0.06868706 -0.2582915 0.094039656 -0.21520187 -0.23926458 0.20810634 0.016013434 -0.10659562 0.03707519 0.2355838 -0.16158406 0.39435896 0.10708136 -0.18224399 0.04748908 0.057010353 -0.13976854 0.09621122 -0.30302757 0.23105675 -0.07759356 0.11248072 0.13888927 -0.22659259 0.128675 -0.16489863 -0.18950424 -0.057327345 0.21421558 -0.04217105 -0.30153346 0.14205107 0.2509626 -0.07944931 0.115312144 -0.1195088 -0.16846117 -0.043762524 -0.0047534434 0.062856756 -0.16966797 -0.44569862 -0.16636294 -0.036643714 -0.15615466 -0.077655114 0.09261174 0.1949796 -0.06686709 0.144463 -0.14979714 -0.11978268 0.25609657 0.10282125 -0.01866101 0.09874597 -0.26689714 -0.11596861 -0.11327573 0.07084836 -0.15378046 -0.16172384 -0.11297138 0.12285024 -0.16411074 0.17308508 0.055499524 -0.23490366 -0.08110793 -0.020145027 0.19655603 0.034012843 0.0809071 -0.21412522 0.17961444 -0.022306075 0.2250832 0.21669234 -0.07506825 0.1518679 -0.12451962 -0.08701028 -0.18957101 -0.011258443 -0.17257132 -0.05267709 -0.09983812 0.0664392 -0.2833994 0.069811426 -0.043016635 -0.18318722
494 -0.2362253 -0.10321025 -0.12447055 0.017407926 0.068338916 0.0883747 0.010682892 0.01317973 -0.033841893 -0.005443627 0.27551427 0.17129682 0.076475546 -0.084014736 0.43290034 0.08520877 0.2213405 0.14158247 0.07810805 -0.03937405 -0.15438204 0.0050416193 -0.15092537 0.13404831 0.15072405 -0.07473844 -0.15234786 0.11536315 0.05064882 -0.12713319 -0.25512266 0.18673794 -0.16353332 0.10835934 0.12945166 0.3331592 0.14891517 -0.14865881 -0.04236763 0.07842767 -0.23077 0.15490751 -0.29906726 0.20127639 0.0121054 0.008693099 0.16109774 0.16559945 -0.01234409 -0.2730402 -0.1283703 0.1391393 -0.0092582125 0.06654085 -0.1355355 -0.06033645 -0.062261276 0.07375764 -0.022547532 0.29581407 0.2002547 -0.08307258 -0.010967586 -0.14580025 0.07717652 -0.12433519 -0.23216091 0.20485048 -0.0539387 0.17204076 -0.2948688 -0.2369352 -0.2031924 -0.07824739 0.2742649 0.11057504 -0.20393945 0.157572 -0.27416927 -0.0844273 -0.12124163 -0.046900745 0.05936445 0.24518692 -0.040274434 0.28926063 -0.2785196 -0.16008563 0.32320502 0.21195355 0.36367422 -0.08321835 -0.15896107 -0.1416891 -0.1507564 0.021875773 -0.056208756 -0.07961575 0.0240806 -0.24657105 -0.22130668 -0.019300304 0.057281315 0.08074594 0.12977375 -0.23880629 -0.09304088 0.23526272 0.046814643 -0.40732443 -0.17547075 0.21542507 0.5021243 0.10658264 -0.3429645 0.07353503 -0.4362073 0.062204596 -0.09147325 -0.04335689 -0.17806289 -0.01602205 -0.22747338 -0.08745574 0.060201388 0.11860181 -0.2405454 -0.05567002
81 -0.24062169 0.015221343 0.021386582 0.016150458 0.2097802 0.15977517 0.10337891 -0.07820253 -0.14112388 0.024252076 -0.07490152 0.078999646 -0.022817118 0.06592965 0.47845408 0.11704504 0.18884689 0.13756648 0.25790587 -0.20119795 -0.13907501 0.11968474 -0.028260343 -0.010971033 -0.006807307 0.07489718 0.11596714 0.063515976 0.072838955 -0.12669587 0.017084219 -0.052846745 -0.10821246 0.22624673 -0.11219634 0.20171852 0.1623012 -0.18123202 0.124242574 -0.15758574 -0.02535781 0.11952823 0.17078753 0.039496474 -0.15130621 0.0859958 0.048619565 0.28549471 -0.06716738 -0.27385297 -0.07641888 0.21646917 0.15066987 0.25756 -0.102913044 0.15055704 -0.116989 0.0021774394 0.06682689 -0.24005203 0.3341752 -0.014099393 0.01418493 0.028747147 0.1714728 0.024674032 -0.2859446 0.09720873 0.1562304 -0.014713305 -0.20531961 0.080316804 -0.22955997 0.14723176 -0.0413295 0.12453835 -0.1762654 -0.049115095 -0.2390281 -0.03867009 -0.019821018 0.13191119 -0.26299247 0.21210317 0.13336135 -0.060894623 -0.05669258 0.0376609 0.28107756 0.14292307 0.054227974 -0.06015672 -0.07959499 0.120441854 -0.24791566 0.082541585 -0.17353931 -0.045526545 0.07372997 -0.11848894 -0.04884434 0.2859022 0.10112916 -0.0051472746 -0.027827445 0.19721738 -0.092831984 -0.029930562 0.26076034 -0.05360082 -0.23638552 0.27243477 0.2610904 0.10906202 -0.2429649 0.008030281 -0.30291486 -0.08430126 0.004846903 0.19455174 -0.039491482 0.05034103 -0.12735881 -0.105365336 -0.17716037 0.08069729 -0.1939739 0.13845344
17 -0.020905728 0.048011057 0.26100796 0.0008581137 0.015133449 0.07874452 0.06687532 -0.062532134 -0.18300211 0.2115206 0.112928644 0.14516217 -0.05140637 0.09532496 0.11289191 0.24735886 -0.105886616 0.100018054 0.20580897 0.045637533 -0.0877279 0.033556882 -0.10188349 0.08129538 -0.24165668 0.16860496 -0.2567212 0.07142615 0.21841018 -0.16079277 -0.029899508 0.06933716 -0.30021423 0.12816253 0.089702025 0.08242095 0.0015469355 -0.10981789 0.24850266 0.28113997 -0.080633916 -0.11664081 0.103495546 0.016306132 -0.13174649 0.030943308 -0.038219746 0.10780395 0.0315628 0.10904048 -0.08929211 0.23994814 0.15998685 0.3319425 -0.4009979 0.06350382 0.14702629 -0.0018247323 0.016208285 0.21003209 0.01911139 0.22508925 0.13908617 0.029558651 0.15194333 -0.20723505 -0.23898 0.056662224 0.20835216 -0.18676229 -0.15725997 0.025712842 -0.25803053 0.31167606 -0.0025366554 0.18412925 -0.057639495 0.09461518 -0.23638567 0.051681463 -0.13252316 0.11972033 -0.24873956 0.1709082 0.045051258 -0.0022178595 -0.21121438 -0.047217946 0.13000743 0.19209012 0.19354534 -0.20536049 -0.045035698 0.15244402 -0.16926035 0.07711018 -0.24680558 -0.09097849 0.19568168 -0.058641225 -0.2910926 0.20432939 0.011064597 -0.08898318 0.13005282 0.03833855 0.3357156 -0.14825213 -0.005872403 -0.00777293 0.025986942 0.123614825 0.34018302 0.18302235 -0.1874039 0.35432196 0.033088174 -0.042442754 -0.08355902 0.32274982 -0.0885882 0.11423607 -0.41260448 -0.047935463 -0.18237966 -0.17888029 -0.17530625 -0.15043458
473 -0.0600906 -0.19982558 -0.07757898 -0.01758761 -0.05664895 0.26837045 -0.120479986 -0.23413604 0.08947786 -0.11577439 -0.19794434 -0.042604227 -0.078394346 -0.067074016 0.1493801 0.15221548 0.15964755 0.018987631 0.19387212 -0.2569371 -0.10925676 0.36497012 -0.06607531 0.04612826 -0.11902283 -0.0016379349 -0.15511625 -0.089568526 0.18804882 -0.19441128 0.23222324 -0.29670388 -0.27309144 0.052184664 -0.080812536 0.15050888 0.07748258 -0.15230064 0.015182052 -0.08392501 -0.100583844 0.12721092 0.13350801 -0.048216462 -0.020590803 0.13624442 -0.14843647 0.11810151 0.05412147 0.095871605 -0.39427602 0.124459155 0.14341791 0.06533961 -0.1795334 0.07410173 0.054347504 0.009447752 0.09639243 -0.13972978 0.20123042 0.15845872 0.07261851 0.20350148 0.1929591 -0.001484064 -0.32667843 0.004435211 0.001771878 -0.17505877 -0.21746773 0.016586531 -0.23992755 -0.09204111 0.0063810167 0.14058061 -0.020920606 -0.0046925214 -0.32830447 -0.18517484 -0.2901171 0.041138332 0.12937103 0.12465131 0.18899246 0.24704294 -0.15020697 0.17002697 0.29709178 0.3789345 -0.042082086 -0.16042832 -0.14581151 0.10112383 -0.16855982 0.18436973 -0.10293642 -0.055385843 0.13157365 0.09765281 -0.19967715 0.42211384 -0.030618954 -0.29808453 -0.087274544 0.08924805 -0.024513887 -0.14046864 0.17946275 0.031990312 -0.18045375 0.2841644 0.13236311 0.30928826 0.004246392 -0.050766937 -0.2130416 -0.14177456 -0.027408846 0.16879474 -0.08760202 -0.07350053 0.016148183 -0.12557977 -0.3183578 0.05110653 -0.23366022 0.1194969
28 -0.32117894 -0.01284749 -0.02110192 0.08688067 0.12767583 -0.009269545 0.14976819 -0.106975965 -0.028514951 -0.049411424 0.25208452 0.2251423 0.21847652 0.054430038 0.36559245 0.07819598 0.03581705 -0.028648784 0.13131304 0.013038112 -0.23521774 -0.09975332 -0.0119921295 0.0015412065 0.053352393 -0.01835663 -0.1678362 0.025621606 0.22418995 -0.096175246 0.020925226 0.04795454 -0.24889988 -0.03134053 0.057141233 0.15835536 0.29493198 -0.26238313 0.1398033 -0.1360526 -0.2619914 0.060388036 0.031852357 0.0046227714 -0.23910531 0.095179744 0.043584682 0.31911367 0.047652572 -0.11087093 0.14974408 0.15750708 -0.1203349 0.0659429 -0.20580643 0.06358504 -0.011563976 0.06680235 0.28382176 -0.37700135 0.3409957 -0.26885176 -0.0021185759 0.037108622 0.10671554 0.12895654 -0.23339725 0.14869945 0.033346187 -0.0994605 -0.14179403 -0.08677804 -0.13469227 0.15355167 -0.15986745 0.07401733 -0.1178214 -0.20811099 -0.10868082 0.03778432 -0.15362306 0.0063026063 0.20566675 0.13642673 -0.15147467 -0.06606952 -0.05097865 0.013558582 0.34792972 0.29295072 0.1490524 0.0021309599 -0.105710514 -0.0067919693 -0.12502259 0.078393206 -0.079519175 -0.085352525 -0.09251173 -0.109766915 -0.19684434 0.15334265 -0.032404806 -0.14092441 -0.21996039 -0.053532142 0.044913627 -0.042730965 0.2557316 -0.3245978 -0.09072049 0.19974388 0.09625143 0.07069416 -0.13491558 0.13375111 -0.22074567 0.050896414 -0.0118991 0.047413576 -0.15886863 0.06594971 -0.15005997 0.00102018 -0.20709656 0.11751298 -0.29849774 0.01887726
44 -0.08957506 -0.3117069 -0.41481414 -0.13866903 0.20824444 0.2514568 0.08083711 -0.30784646 -0.3305023 0.083087094 0.016866032 -0.08368827 0.14093702 -0.15159899 0.19412845 0.116365515 -0.105030745 -0.08918631 0.18750423 0.12045879 -0.26383466 0.046555147 -0.052457575 -0.03906927 -0.001200018 0.21580023 0.090940885 -0.090346575 -0.04341901 0.13155909 -0.22615448 0.09023917 -0.07622761 0.18225291 -0.015962768 0.099111706 0.06503096 -0.18187834 0.32282865 -0.081752196 -0.018302208 0.02201372 0.06795435 -0.15009901 -0.1811217 0.03453829 -0.12997913 0.05540067 -0.19544934 0.07902441 -0.04720756 -0.044081528 0.058223926 0.025355948 -0.31802484 0.21031956 -0.26481432 0.045161553 0.07281609 -0.1357505 0.28987294 -0.1348922 -0.107694626 -0.32490715 -0.0153410295 -0.12621906 -0.12271948 0.07290462 0.2705626 -0.24726616 -0.04900402 0.12140046 -0.04318098 -0.007961991 -0.003322746 0.07666793 -0.38681516 -0.31270924 -0.18976547 -0.0776178 -0.092764124 0.13164851 -0.13027833 0.03810938 0.0571364 -0.045858104 -0.026177514 0.08630752 0.12055305 -0.012955552 0.19826858 -0.29833528 -0.08995803 0.029644212 -0.067019045 0.039124817 0.094966896 -0.26395792 0.02108813 -0.015346036 -0.151301 0.39133677 0.18466964 -0.2855189 -0.030365372 -0.026790416 -0.12104877 0.10339105 0.14912479 0.09952209 -0.060600493 0.24535623 0.13830799 0.035188537 -0.31322905 0.08913554 -0.37985373 0.10342421 -0.25970805 0.33797568 -0.42185733 0.0037203773 -0.13112883 -0.13964519 -0.1808726 -0.056019202 -0.31578693 -0.06786051
411 -0.37790224 -0.379383 -0.1121276 -0.04135702 0.11502487 0.43079284 0.07065843 -0.22135434 0.117723726 -0.14055541 -0.12516677 -0.13502483 -0.037627548 0.14362174 0.17278205 0.28172618 0.11726451 0.12194342 -0.20270316 0.00279661 0.27814126 0.35628515 -0.19839178 0.1491432 0.42034733 -0.16320892 -0.2012497 0.06665945 0.22847563 0.06013182 -0.11090266 0.17314789 -0.08256908 0.27853984 -0.23016553 -0.0151275685 0.0011582664 -0.2768618 0.33257836 0.17757735 -0.06790642 0.2149352 0.32418194 -0.017774148 -0.19062999 0.3399357 0.1724873 0.1202688 -0.24281093 -0.12012316 -0.0018961604 0.22990602 -0.23223159 0.14080729 -0.1764796 0.25746453 -0.12584066 0.17909126 -0.08895507 0.04635206 0.10995323 0.25679222 -0.17877258 0.14886205 0.090203926 0.031796236 -0.24948975 0.013074039 0.10433156 -0.09061833 0.071676664 0.013140563 -0.45043665 0.19735356 0.23583741 0.16697712 -0.09768094 -0.12807901 -0.28839058 0.013005241 -0.09828413 -0.005504136 0.29734743 -0.1707917 0.19081764 0.019632455 -0.15560293 0.26094985 -0.040442448 -0.18253359 -0.0625316 0.07950958 -0.40588763 -0.03142142 0.0058202664 -0.05501398 -0.4475947 -0.102476195 -0.013013958 -0.00727831 -0.1811311 0.22596264 -0.04481788 -0.09679003 -0.25207046 -0.117929235 0.2091331 0.020569839 0.021344746 -0.11390913 0.1116289 0.0052061393 0.19047736 0.25976872 -0.13935968 0.04436183 -0.0025537328 -0.15710174 0.08287145 -0.042107645 -0.06942804 0.14486252 -0.17830731 -0.18433239 -0.020425096 0.19617797 0.062322643 -0.010254495
133 -0.34691268 -0.06608969 -0.15816443 -0.11083227 0.15635382 0.027447084 0.17251635 -0.15714502 0.17826244 0.03411051 0.1525668 0.13927513 0.087588504 -0.186429 0.19421493 0.24562794 0.07734249 -0.012977305 -0.040434998 0.22961795 -0.3275681 0.11046718 0.19465111 0.08887169 0.05920227 0.08179845 -0.0573861 0.061160967 0.13660668 -0.050809402 0.10694681 0.022427043 -0.105894946 0.026073683 -0.15807228 0.06504401 0.18118434 0.033645857 -0.2683733 -0.11415436 -0.12579444 0.2444523 -0.032012247 -0.08718558 -0.19017991 -0.1432838 -0.23232308 0.056530673 0.16836864 -0.12712573 0.028042769 -0.021590853 -0.18295147 0.25092262 -0.11224777 0.12580827 0.017280405 0.1267346 0.3527069 0.14803222 0.26287967 0.012009659 -0.06406683 -0.009310073 0.007845561 0.0995533 -0.24799053 -0.030551752 0.194751 -0.2196384 0.242566 0.03567018 -0.11716061 0.06550758 -0.13655737 0.12127642 0.1390809 -0.3434936 -0.20459971 0.24914102 -0.0548282 -0.045790616 0.04612134 -0.0582866 0.05956947 0.14790855 -0.14970481 0.0047344957 0.367116 0.4297462 0.08589766 0.10605187 -0.05995338 -0.041547358 -0.052437045 0.056219023 -0.09015277 -0.034642383 -0.13549154 0.033392966 -0.108222745 0.22021905 -0.07589622 -0.3023337 -0.003053837 -0.109949686 0.046753105 -0.098762274 0.033954773 -0.3330279 0.080573246 0.12948722 0.17746551 0.09638515 -0.19491589 -0.034616165 -0.16513316 0.03984809 -0.13136412 0.10747464 -0.10090415 0.10054314 -0.23529147 0.068077415 -0.57145596 -0.041806147 -0.14467458 0.08026475
366 -0.20124035 -0.13119294 0.00066955324 -0.064323075 -0.061885614 0.01435509 -0.06316729 -0.058664273 -0.08851423 -0.17093612 0.090593524 0.14349782 -0.14901665 -0.030829336 0.36362928 0.01767137 0.05548291 0.07993272 0.10412061 0.05420598 -0.20205046 0.1229472 -0.13566083 -0.06997721 -0.23445064 0.082527645 -0.084752634 0.088042185 0.10974284 0.0019199739 0.08847753 0.17907989 -0.18547279 0.279387 -0.053789247 0.018141204 0.2522944 -0.21780044 -0.039188728 0.15161765 -0.19842948 -0.0095149325 0.01671898 0.05069639 -0.16045822 -0.05503517 -0.0110559 -0.15999846 -0.17481413 -0.06407711 0.033767138 0.10942949 -0.00898475 0.37299237 -0.20589311 0.12922372 -0.001651772 0.05294454 -0.080812514 0.35960644 0.19032075 0.19196814 0.093334295 -0.17023133 0.05992381 -0.014218245 -0.012416836 0.03896907 -0.036659587 -0.16591102 -0.1180656 0.0156065235 -0.26186427 -0.17937122 0.19072263 0.16763948 -0.019762855 0.14221863 -0.20014332 -0.13303816 0.0010613762 -0.028791038 0.06481255 0.49158007 -0.013348752 -0.19923626 -0.19380091 0.10666945 0.26250848 -0.045303892 0.31841084 -0.010431023 -0.18612124 0.10314223 -0.18293469 0.0717297 -0.279386 -0.44851312 -0.12732834 0.042015854 -0.26909587 0.18224992 -0.0032129386 -0.05135554 0.048617154 0.026466463 0.09019553 -0.16756333 0.17788827 -0.33092713 0.08256194 0.22803128 0.33718807 -0.0010742985 -0.3300956 0.244279 -0.11182279 -0.2735277 -0.041241113 0.09426415 -0.14499643 0.10382225 -0.11645583 0.049167577 -0.05252566 -0.053076673 -0.114155695 -0.16248482
340 -0.11444535 -0.12675177 -0.033379033 -0.030584874 0.23007886 0.28994262 0.28873396 -0.25327513 -0.09673241 0.076832496 0.01364219 0.09204981 0.35629857 0.18891186 0.16241045 0.16923891 0.04935221 0.12078717 0.09033036 -0.06369307 -0.3975156 -0.16837788 -0.035638984 -0.06239941 -0.091414556 -0.2107502 -0.035054695 0.10786231 -0.029003303 -0.12307297 0.12137331 0.15286395 0.06548529 0.12108147 -0.0968264 -0.006583573 0.15537377 -0.28897548 0.06247418 -0.017420812 -0.22652496 -0.12984788 -0.0788178 0.12669158 0.08834922 -0.30679023 -0.030285422 0.08805554 0.14996256 -0.113064356 0.19149359 -0.046468496 0.045033302 -0.040798943 -0.05283245 0.13300665 0.04693482 0.18333428 0.18358986 0.13714305 0.1361614 -0.21044171 -0.27383614 -0.043621752 0.09012466 0.060728125 -0.054272033 0.07558831 0.18237868 -0.24925797 -0.12524478 -0.09483111 -0.1880667 -0.019091943 0.03887235 0.27350122 -0.09269466 -0.28482562 -0.16116284 0.047506005 -0.0055990773 -0.111558795 0.074133836 0.4893696 -0.1818198 0.06813664 0.033329662 0.030998021 0.27085412 0.14631619 0.061832123 0.119643584 0.12218727 0.21798794 -0.17284957 0.18336554 -0.3159827 -0.042223636 -0.007403607 0.15511757 -0.047333937 0.15360995 0.06183354 -0.24312593 -0.024368735 -0.07802113 0.1712925 -0.30875683 0.16190837 -0.17314795 -0.10536097 0.2528107 0.12436175 0.06909331 -0.19010761 0.09215359 0.10454344 -0.0688791 -0.059766416 0.10991156 -0.12620965 0.029894074 -0.28647324 -0.10197893 -0.25398394 -0.08461764 -0.09364352 -0.14455457
419 0.0049400064 -0.34623516 0.020437894 -0.030637175 0.14264491 0.3689535 0.008306916 0.06400476 0.026361374 -0.07867525 0.085590996 0.16921784 0.21009986 0.14022644 0.06253072 0.12871595 0.12277134 0.29569322 0.057609703 -0.3043862 -0.24397418 0.17372222 -0.01892356 -0.115389325 0.07897918 -0.04727718 -0.14617687 -0.00979027 0.28032586 -0.020617655 0.14451377 0.08166832 -0.103000104 0.30059212 0.11768073 -0.018451458 0.18772241 -0.19651087 0.14333373 -0.1639954 -0.19665748 0.12173202 0.24359195 -0.05835666 -0.0674408 -0.18555744 -0.25624904 0.123748146 0.1337191 -0.0030728944 0.20996812 -0.08287364 0.107575394 -0.12890975 0.062061805 0.32015976 0.062121496 -0.08899079 0.08013503 0.021111405 0.33840716 -0.08600143 -0.16203871 0.05877771 0.1130727 -0.04113496 -0.1864796 0.10149317 -0.020436412 -0.19435917 0.0046680267 0.031236123 -0.3493831 0.08623108 0.02461762 0.2612378 -0.15625818 -0.23021758 0.089908086 -0.020315034 0.00794428 0.03699218 0.14746395 0.24104923 0.0026274596 0.12281432 -0.03534491 0.042797457 0.34548238 0.14954892 0.18845174 -0.10302495 -0.00031361482 0.16986412 -0.28658184 0.096618615 -0.19513205 -0.035159085 0.19651188 0.0674908 -0.13857703 0.43632767 -0.039184675 -0.09305698 0.16330178 0.071523406 0.06071141 -0.40353787 0.28173992 -0.16814667 -0.13766678 0.27348652 0.35668766 0.21313882 -0.12378027 -0.00092462095 0.015140897 -0.094094105 -0.035521336 0.045661993 -0.1320952 0.13675925 -0.035929546 0.038621366 -0.29041 0.14281292 -0.040606532 -0.112820245
303 -0.092606194 0.22871587 -0.14922653 0.045385182 0.18696573 0.0914093 0.16379058 -0.057093516 -0.30833626 0.024158169 -0.07782341 -0.031239867 -0.043237966 -0.06688414 0.37791452 0.09158218 0.0673279 0.39857814 0.13672747 -0.15464422 0.17754851 0.15248743 -0.054470394 -0.2329785 0.28709507 -0.15111428 0.04554436 0.129734 0.4150589 0.10832579 0.014609264 -0.03690466 -0.097582676 0.24814662 -0.29019368 0.22488128 0.2682034 -0.12878548 0.30359882 -0.16390143 -0.09614872 0.07516135 0.066410616 0.14095372 -0.258895 -0.03967874 -0.054485545 0.32185066 -0.03259927 -0.20776148 0.059339028 0.2708128 0.040051535 0.0405035 -0.26086846 0.2701368 -0.15234543 0.2307736 0.09600021 -0.34761444 0.10692624 -0.04324452 -0.012610281 -0.022810599 0.02375161 0.10449497 -0.18117537 -0.060908187 0.092366226 -0.26527333 -0.1143294 -0.059271548 -0.36421382 0.051601082 0.024030598 0.25316322 -0.017175542 -0.0915001 -0.10314048 -0.12355243 0.17689078 -0.043402333 0.06313513 0.50294924 0.066203065 -0.067686416 0.14577128 0.102678634 0.22932914 0.0023683985 -0.03987129 -0.06989042 -0.0976157 -0.06534335 -0.06475504 -0.040729944 -0.25503883 0.22423926 -0.15840365 0.031642653 -0.22127302 0.10836571 0.08045635 -0.1155299 -0.069713704 -0.15382852 0.09167195 0.0922023 0.046473 0.048495244 0.011243011 0.08333674 0.2920565 0.20879476 -0.25634393 0.1908789 0.048950933 0.027041124 -0.01661372 -0.016427672 -0.19363743 0.13942043 -0.05973924 -0.09988217 0.028622698 0.18811496 0.06883894 0.061709672
971 0.092648596 -0.15821916 -0.14582297 -0.15228128 0.19666484 0.38429627 -0.005638258 -0.3918444 -0.24014331 0.04041813 -0.05728144 -0.16296387 -0.23220897 -0.013672894 0.4359738 -0.07170248 0.17254819 -0.4334118 -0.116125576 -0.30954257 -0.18141176 0.61234796 0.085036635 0.17932178 0.13864382 -0.099169135 0.1301602 0.13938257 -0.01480371 0.23648769 0.3130266 0.06934442 0.13383764 0.34667385 -0.31874025 0.048036475 0.2417377 -0.034579627 -0.1522903 -0.07022659 -0.14687736 0.10096832 -0.243179 -0.084246196 -0.01923155 -0.0016375971 -0.15351582 0.036969844 -0.086297534 -0.3689722 -0.2552584 0.26207432 0.122645624 0.08272537 -0.20260076 0.1811792 0.08911073 0.032799143 0.24487236 -0.04594438 0.021275753 -0.037386373 -0.046983413 -0.1667388 0.30710453 0.12525132 -0.01654352 -0.17710057 0.3447832 0.21955504 0.22076727 -0.024908887 0.064575836 0.17685735 -0.1371623 0.035846386 -0.108023696 0.058260493 -0.19667864 -0.09687783 -0.027579725 0.032931294 0.019427618 -0.15459101 0.3053287 0.029968431 -0.3797341 0.015319526 0.15790862 0.07768262 0.27175775 -0.20549911 0.1748073 -0.35445446 0.26023293 0.18880422 -0.3471532 -0.31813312 0.3111411 0.16812928 0.0008007053 0.21924599 0.1152792 -0.5137935 0.11341725 -0.49956042 -0.1288972 0.052986354 0.024038779 0.04556744 -0.1301299 0.112837516 0.15236719 0.3428939 -0.2529544 0.3639078 -0.2666424 -0.14420554 -0.3697126 0.21029073 -0.51972145 -0.07970524 -0.25864983 0.07724521 -0.016225502 0.1456005 -0.21983695 0.19881366
546 -0.077361815 -0.18287455 -0.13119519 0.07260477 0.18513215 0.14193085 -0.13773601 -0.10104202 -0.038695626 -0.023994263 -0.08228778 0.01713256 -0.063075036 0.2600521 -0.01154789 0.08332442 0.053906158 -0.02645091 0.08685122 -0.0048228274 -0.24464679 0.061332133 0.078688554 -0.024410062 0.09274844 0.1297597 -0.22493564 0.116683856 0.034109224 0.049169727 0.29785672 0.047389027 -0.25221637 0.38643572 -0.12372748 0.16222009 -0.012901621 -0.2147764 0.23972814 0.13874929 -0.1866044 0.1681246 -0.02733005 -0.091922805 0.13175753 -0.10050761 -0.5659118 0.15754612 0.0044797906 0.2211949 -0.13044044 0.24155144 -0.004875811 0.10085939 -0.3566706 -0.005192601 0.19576102 0.048126947 0.035809487 0.059640452 0.08450645 0.31034726 -0.36218935 0.11823689 0.055069566 -0.30790594 -0.017890295 0.13275273 0.04174161 -0.33382422 -0.03068123 0.003179619 -0.22031818 0.14662717 0.070130795 -0.085659385 0.1434182 0.11514716 -0.30719548 0.016321162 0.12602866 -0.011013141 0.015549543 0.30818102 0.16313797 -0.02449497 0.044441886 0.18255915 0.22543749 0.09004066 0.15766887 -0.24453308 -0.28314885 0.030178176 -0.20251217 -0.15301605 -0.10688164 0.064657085 0.29846802 -0.03068771 0.02881183 0.13712424 0.056458343 -0.07997968 0.07595479 -0.04720816 0.23651479 -0.05688863 0.21005283 0.33752993 0.15530868 0.2892569 0.2845663 0.26526898 -0.32036206 0.124943584 -0.21773294 -0.26581278 0.07531295 0.14164828 -0.095821254 0.11884806 0.11836949 -0.30464986 -0.015440687 -0.07687771 -0.32005343 -0.079665795
932 -0.18331346 -0.14172748 0.27627447 0.105420716 0.06322259 0.12245282 -0.13251723 0.11895373 0.030693537 -0.1610134 0.06206821 0.008421305 -0.1858332 0.01613427 0.22323395 -0.17366871 0.033144448 0.2998459 0.10725278 -0.1467867 0.029165844 0.094435476 -0.030834958 -0.047784608 0.07180236 0.00037105466 -0.28091672 0.28055677 0.12264196 -0.2622697 0.13824898 -0.008663933 -0.22775857 0.37886247 -0.009406846 0.104883984 0.25826812 -0.44332197 0.117599696 -0.1008213 -0.11075349 -0.059739523 0.11639564 -0.09365018 -0.21529987 -0.051353298 -0.24865273 0.28232792 0.034554772 0.10667523 0.121977694 0.16135453 0.067324735 0.10530096 -0.43804303 0.26040456 -0.008200449 0.09777785 -0.08750707 -0.10536294 0.19961523 0.22336783 0.22444198 -0.053151418 0.19221881 0.06260393 -0.07053755 0.32837787 0.11079757 -0.24054958 -0.108776 -0.18694209 -0.17436561 -0.17555232 0.16348283 -0.031300813 -0.082587704 -0.14846757 -0.18134296 0.10184851 -0.09941852 0.12774667 0.06857457 0.21429257 0.06640298 0.17608567 -0.17576043 0.007564128 0.23438317 -0.0054208213 0.113583006 -0.102345124 -0.09159835 0.12586038 -0.16295893 -0.09774411 -0.08279569 -0.12428476 -0.09011336 0.020707875 -0.13456056 0.16797888 -0.040479477 -0.10299116 0.028354302 -0.095448025 0.2729427 -0.161478 0.2593229 -0.0763118 -0.13772692 -0.04632687 0.16376458 0.18242688 -0.39958733 0.15839201 -0.2247122 6.6297755e-05 0.09649905 -0.00072724646 -0.2116427 0.13426329 -0.21241896 -0.064068705 -0.12798911 -0.10243286 -0.30520874 -0.12960301
4 -0.19959313 -0.12016924 -0.23357527 0.14242293 0.25201422 -0.016863583 0.09965315 -0.04271562 -0.18108043 -0.17768845 -0.0975497 0.16140354 -0.22444865 0.08881051 0.3316252 0.26814035 0.19760032 0.09806476 -0.035942897 0.086174466 0.015493499 0.17893519 0.023732826 0.18850864 0.087887436 0.10255399 -0.033175442 0.11983431 0.41298595 0.091401495 0.11249016 0.12099867 0.1190698 0.32245925 -0.1693872 0.12121179 0.26171735 0.017807802 0.3003093 0.029484548 -0.12094116 0.0022272896 0.22281374 0.069159776 -0.23546515 0.14341426 0.053034276 0.04100218 -0.008854618 -0.20155556 0.06710193 0.1622113 -0.174355 0.08694983 -0.21221446 0.26559153 -0.024464374 0.13752778 -0.07371107 -0.046342354 0.050248936 0.31930742 0.15709482 -0.035973858 0.21903162 0.13229693 -0.20318526 -0.0059834984 0.38101014 -0.22486593 -0.1152554 0.23726103 -0.49733463 0.14202584 -0.17030406 0.11486926 -0.17991759 -0.06527689 -0.261733 -0.19019681 0.21793187 -0.052162956 0.20094162 0.36281916 0.069184616 -0.01864471 -0.11731294 0.28025606 0.29785037 0.017254317 0.03682234 0.008366424 -0.14693274 -0.23183714 -0.059150584 0.07535096 -0.3111782 -0.088140674 0.04091284 -0.03700923 0.090860255 0.08766112 0.06451662 -0.19400717 -0.2064487 0.019314408 0.069573924 0.20359433 -0.09724749 0.095735095 0.022189623 0.1241559 0.14215714 0.103174195 -0.21180683 0.216579 0.17885566 0.03589285 -0.04815675 -0.053172898 -0.25091976 -0.05949457 0.03392 -0.40662426 0.07856317 -0.03280402 -0.09755664 -0.05577014
329 -0.0021601685 -0.08410503 -0.06904833 -0.016931832 0.1481333 0.15141384 0.075886704 0.053379137 -0.20354843 0.082740396 -0.059863534 0.0016061873 -0.2099289 0.14208756 0.24948375 0.0053298566 0.12785827 0.09387805 0.12327111 -0.20138617 -0.22881903 0.043025773 -0.03983019 -0.23911342 0.1690051 0.21906185 -0.29440218 0.11628035 0.07937999 0.07021161 0.018136092 0.016243968 -0.06842499 0.21675494 -0.26599425 0.07196937 0.12593067 -0.4306204 0.19124877 -0.24831873 -0.13755378 0.1471285 0.13099979 -0.036969237 0.09681688 -0.010449605 -0.2640145 0.3961946 0.011833328 -0.13020423 0.109998986 -0.05477276 -0.18462716 0.21943372 -0.12669119 0.09361824 0.05643346 0.16129553 0.13491313 -0.21139848 0.23904267 -0.043399278 -0.1333049 0.08999432 0.33145386 -0.13942525 -0.18128212 0.23343481 0.20049061 -0.091472164 0.0029642829 0.025571065 -0.18096916 0.047304265 -0.054252516 0.28010118 -0.036922842 -0.034049004 0.0013388416 -0.10149748 0.22763963 -0.10623573 -0.053046897 0.20752746 0.025172869 -0.024698798 -0.018004043 -0.04790232 0.3756574 0.2545735 0.01745564 -0.15774643 -0.112088196 0.1888939 -0.110411316 0.16497584 -0.22028334 -0.2063187 0.01091294 0.0603222 -0.12843388 -0.07570056 0.07756824 -0.15833364 0.18558826 -0.03139979 -0.06881974 -0.13110533 0.24597798 -0.32741114 -0.04074163 0.03430752 0.36123624 0.35460803 -0.13869868 -0.08229538 -0.050028548 -0.39504695 0.07859895 0.22467163 -0.056908183 0.10663354 -0.20308506 -0.05488564 -0.22090738 0.2553666 -0.27695292 0.20397727
2 -0.19010533 -0.11238167 -0.17235759 0.09505039 0.1930347 0.15574974 0.086991265 -0.14438285 -0.27409267 -0.1546004 -0.08832012 -0.013738186 -0.12410688 0.06257244 0.2907996 0.33734196 0.2565933 0.10200421 -0.1904761 0.058943924 -0.013908075 0.15815851 -0.24264926 0.041270822 0.16767848 0.13880365 -0.10360431 0.033492044 0.34666482 -0.019714603 0.12913539 0.15749046 -0.12727933 0.4497318 -0.08188536 0.028330399 0.23728989 -0.084210195 0.407498 0.15258583 -0.16329634 -0.032512657 0.23557633 0.088929474 -0.1499831 0.0773157 -0.08786832 0.077054314 0.016729565 -0.12053122 0.0049580242 0.09474748 -0.23076266 -0.08025567 -0.33793437 0.33762223 0.059461053 0.20397839 -0.0640164 -0.08460143 -0.025546126 0.3122492 0.0990598 0.020762285 0.2404044 0.039784275 -0.06511087 0.10587913 0.25663877 -0.11322366 -0.13527893 0.08452442 -0.41719392 0.043657005 -0.23543671 -0.014735675 -0.03364533 -0.015193132 -0.13183287 -0.11585587 0.18924096 -0.01252988 0.33540383 0.29099533 0.050549928 0.105326965 -0.3344913 0.24106094 0.11778676 -0.0015320514 0.113180846 -0.09898067 -0.1387555 -0.2066938 -0.1516863 0.06796298 -0.34353378 -0.12295417 0.14133662 -0.081277974 0.053281605 0.015858494 -0.16121459 -0.17118046 -0.23293239 0.14990668 0.0034177077 0.089410044 -0.18947838 0.06976566 0.015375872 0.11726946 0.094957754 0.15060674 -0.21304229 0.19139947 0.17862406 -0.15141702 0.059458777 -0.04823468 -0.24029496 0.005451929 0.11022887 -0.30174345 0.13663861 0.10089574 -0.08661646 -0.08336662
170 -0.091813385 -0.1751168 -0.06715056 -0.16614343 0.033244077 -0.04621431 0.14531514 -0.18957339 -0.04948981 -0.07673016 0.09525449 0.22308247 0.026194772 0.026077537 0.15872157 -0.15334868 0.09653864 0.091994286 0.1135715 0.0029347164 -0.07231589 -0.021531103 -0.0342339 -0.0863245 0.038153198 -0.21213439 -0.3224372 -0.03165142 0.2906633 -0.04517408 0.30581 -0.008868112 -0.08832137 -0.00089158764 0.040025707 0.13166185 0.14072387 -0.35692078 0.1925636 -0.1094249 -0.15436895 0.2076672 0.05627748 -0.01405662 -0.071915 0.2813321 -0.09860838 0.31370047 -0.09669042 -0.37047848 0.119315185 0.24948683 0.015519089 0.24005285 -0.2410284 0.10115619 -0.11854678 0.1262924 0.13579223 -0.23146486 0.17744587 0.08307432 -0.3415918 0.119849816 0.3108463 0.028841142 -0.35632467 -0.1479631 -0.060316384 0.0069849384 0.036016118 0.16828226 -0.19234793 -0.14327718 0.14996284 0.33472753 -0.16320494 -0.40646577 -0.13768597 -0.036958747 -0.24378471 0.047389075 0.22678551 0.13221222 0.06992941 0.24486922 -0.054410316 0.010402804 0.1942519 0.12610754 0.053145397 0.08098815 -0.13365439 -0.048317686 -0.081327096 0.19194764 -0.12077075 -0.20162293 0.096282475 0.24815378 -0.10546118 0.16443178 0.039168507 -0.13108793 -0.15930665 -0.12563083 0.22046043 0.023280695 0.24872355 -0.081272125 0.034128048 -0.0088002 0.31682113 0.19325705 -0.108977035 0.28406578 -0.020932531 0.056917217 -0.2271734 0.09291695 0.07112762 0.10145743 -0.025995553 0.0039492473 -0.05652944 0.15181467 -0.04139314 -0.094254024
74 -0.23823258 -0.018672172 -0.0300962 -0.048577115 0.2682914 0.2684827 -0.022609154 -0.08740625 -0.11225521 0.08564709 0.17385668 0.117460996 0.12477803 0.07263319 0.26440558 0.21044262 -0.078836955 -0.12355033 0.24973914 -0.011363452 -0.12677209 0.049138382 -0.28920898 -0.15684314 -0.37741458 0.244656 -0.11020144 -0.0074214423 0.12854487 -0.0028580083 -0.11839086 0.07490411 -0.2922398 0.002098209 0.04335643 0.10049518 -0.061992783 0.07906334 0.111708455 0.24785824 -0.12790418 -0.12535374 0.12307903 0.018577902 -0.18778957 -0.1621461 0.07054719 0.13805339 0.07117196 -0.08855353 -0.012285937 0.117204964 0.098496795 0.2540211 -0.22842534 0.019561078 0.15732382 -0.072623126 0.27022913 0.22278932 0.06657905 0.18173473 -6.1178565e-05 -0.17937799 0.06236129 -0.30542868 -0.28677866 0.19153601 0.14039952 -0.074675485 0.06915583 0.005604885 -0.17546637 0.18575248 0.1924106 0.3118444 0.086431175 -0.049306225 -0.056061286 0.051572558 0.040721 -0.07278384 -0.2802245 0.118923016 -0.040580858 -0.19573136 -0.2734902 0.008765636 0.18330549 0.13445123 0.17309311 0.07129867 -0.20210607 0.20942059 -0.09962695 0.21526484 -0.2575023 0.022461701 -0.10762089 -0.0426658 -0.2002537 0.3079625 -0.105001874 -0.071765035 0.12654528 -0.17228407 0.2105411 -0.21741027 -0.07682861 -0.06711366 0.069229215 0.046156537 0.5663326 0.21014014 -0.19729565 0.3108898 0.056615517 -0.032471027 -0.21095294 0.15783069 -0.038014475 0.07229732 -0.547004 -0.10463136 -0.18402655 0.08213887 -0.10417062 -0.05106534
65 0.13870725 -0.24681266 -0.31276774 -0.31261528 -0.09440389 -0.07518694 0.10688449 -0.22021182 -0.2035198 -0.116999686 0.08902005 0.3838312 -0.3129146 -0.16101442 -0.009341306 0.20038651 -0.02501821 0.12639964 0.30514553 0.2022593 -0.2508161 0.32958257 -0.06815694 -0.007451918 0.13027412 -0.012255484 -0.19048707 -0.07671336 0.18984559 -0.16976993 0.45487726 0.0099522285 -0.022903593 0.07883873 0.009095298 0.21553403 0.17922896 -0.15240449 0.046990167 -0.122889005 0.009184164 0.26758832 -0.013313543 -0.2463515 -0.16196011 -0.11129664 -0.42507866 0.26996133 0.18150648 -0.18333173 0.06073195 0.20615445 -0.17136315 0.41852003 -0.08480031 0.12181701 -0.08012577 0.23858552 0.01040551 -0.13138969 0.015668435 -0.15120348 -0.26418668 -0.2986946 -0.13473938 -0.2422137 0.11199957 0.026632763 0.3456661 -0.24783 0.18669872 0.22324443 0.08582707 -0.2521336 -0.33580545 0.08368145 -0.053097997 -0.056242846 -0.12278314 -0.0531915 0.19739154 -0.32238472 0.14598422 -0.08250414 -0.033117253 0.07119273 -0.41789478 -0.077462755 0.13355306 0.40758556 -0.064256586 0.031067885 -0.028014248 0.036534507 -0.18575418 -0.004216711 -0.03173835 0.06858554 0.15451069 -0.22337918 -0.04656627 -0.08749398 0.10829393 0.0687563 0.23569657 0.029604377 0.25097778 0.24099538 -0.14190997 -0.09204506 0.17562708 0.1640008 0.1579798 0.07538629 -0.14902943 0.121253416 -0.06752022 0.021909058 -0.22159332 0.24070919 -0.15428379 -0.13804139 -0.20339666 -0.09247208 0.21357113 0.10331773 -0.08916785 -0.30158874
